~o
<STREAMINFO> 1 12
<VECSIZE> 12<NULLD><MFCC><DIAGC>
~h "@"
<BEGINHMM>
<NUMSTATES> 5
<STATE> 2
<NUMMIXES> 3
<MIXTURE> 1 2.554752e-01
<MEAN> 12
 -9.597261e-01 -6.113908e+00 8.738434e+00 -7.581402e+00 -5.985423e+00 -5.106790e+00 -1.274630e+01 6.045547e-01 5.073039e-01 2.525054e+00 -1.406440e+00 -2.816526e+00
<VARIANCE> 12
 1.674885e+01 5.441804e+01 7.138290e+01 6.585247e+01 6.368828e+01 8.255991e+01 9.485528e+01 9.444064e+01 9.516472e+01 6.483093e+01 5.363894e+01 6.148280e+01
<GCONST> 7.182130e+01
<MIXTURE> 2 4.006042e-01
<MEAN> 12
 -2.176041e+00 -1.313969e+01 -2.396749e+00 -1.469875e+01 9.064433e-01 -5.319901e+00 -8.528148e+00 3.615239e+00 4.227076e+00 -6.051907e+00 -9.465391e+00 -4.745245e+00
<VARIANCE> 12
 1.385659e+01 5.069796e+01 3.780967e+01 4.030193e+01 4.118475e+01 1.177664e+02 4.549454e+01 9.114694e+01 5.818016e+01 4.792458e+01 3.212867e+01 2.840763e+01
<GCONST> 6.750455e+01
<MIXTURE> 3 3.439204e-01
<MEAN> 12
 2.791768e-01 -9.098899e+00 -1.205157e+00 -1.060711e+01 -1.279131e+00 -8.414203e+00 -5.263912e+00 1.738161e-01 9.123652e+00 -7.946323e+00 -7.505857e+00 -4.317245e+00
<VARIANCE> 12
 6.524962e+00 2.202012e+01 4.142121e+01 2.972791e+01 4.980265e+01 8.689254e+01 3.833130e+01 3.161074e+01 7.514359e+01 8.940268e+01 3.172477e+01 3.227320e+01
<GCONST> 6.535439e+01
<STATE> 3
<NUMMIXES> 3
<MIXTURE> 1 2.468013e-01
<MEAN> 12
 -8.498603e-01 -2.844707e+00 6.049935e+00 -6.311673e+00 -2.073193e+00 -8.156630e+00 -6.895076e+00 6.854196e-01 2.797161e+00 1.594845e-01 -5.483761e+00 -3.153530e-01
<VARIANCE> 12
 1.619217e+01 3.834621e+01 5.402914e+01 7.762564e+01 8.465475e+01 9.140927e+01 7.693856e+01 7.115506e+01 6.384392e+01 8.469436e+01 5.386232e+01 4.046864e+01
<GCONST> 7.067137e+01
<MIXTURE> 2 4.569436e-01
<MEAN> 12
 -1.645128e+00 -4.960454e+00 4.437388e+00 -1.272103e+01 -6.353396e+00 4.800941e+00 -1.823706e+01 -2.157569e+00 3.673435e+00 2.767599e+00 -2.586700e-01 -6.364213e+00
<VARIANCE> 12
 1.015511e+01 3.654109e+01 4.430051e+01 6.204741e+01 3.849749e+01 9.917913e+01 8.489217e+01 9.980679e+01 7.314804e+01 5.778385e+01 6.633949e+01 3.957265e+01
<GCONST> 6.940409e+01
<MIXTURE> 3 2.962564e-01
<MEAN> 12
 2.204456e+00 -1.358241e+01 1.227509e+01 -9.736574e+00 -8.274937e+00 2.821075e+00 -2.000364e+01 7.066687e+00 5.451173e+00 2.752474e+00 -3.871586e+00 -7.962100e+00
<VARIANCE> 12
 1.922737e+01 5.759029e+01 7.883955e+01 9.054036e+01 4.635217e+01 7.686357e+01 9.969363e+01 7.250333e+01 7.804994e+01 6.405940e+01 5.643533e+01 6.294958e+01
<GCONST> 7.169405e+01
<STATE> 4
<NUMMIXES> 3
<MIXTURE> 1 3.038242e-01
<MEAN> 12
 4.718915e-01 -2.298598e+00 1.587932e+00 -1.619496e+00 6.842867e+00 2.298074e-01 1.287283e+00 4.358589e+00 2.439787e+00 7.080458e+00 -1.026726e-01 -3.743826e+00
<VARIANCE> 12
 4.375830e+00 9.382802e+00 1.438176e+01 1.190002e+01 1.463148e+01 3.088219e+01 3.833864e+01 3.406493e+01 4.530624e+01 2.640873e+01 2.209186e+01 1.669433e+01
<GCONST> 5.719750e+01
<MIXTURE> 2 4.733030e-01
<MEAN> 12
 -3.447451e+00 -3.448580e+00 6.040125e+00 -4.630967e+00 -3.380908e+00 -5.883626e+00 -6.064623e+00 -1.394791e+00 2.194776e+00 -2.490731e+00 -1.728211e+00 -2.566530e+00
<VARIANCE> 12
 3.091843e+01 5.358162e+01 7.453548e+01 7.086830e+01 5.440926e+01 8.835904e+01 6.962971e+01 5.727465e+01 4.364413e+01 4.692064e+01 3.154432e+01 4.158642e+01
<GCONST> 6.961187e+01
<MIXTURE> 3 2.228716e-01
<MEAN> 12
 -4.533020e+00 3.439662e-01 1.471775e+00 -2.218821e+00 2.361961e+00 -2.897741e-01 -2.541213e+00 -2.976640e-01 1.691470e+00 6.632290e-01 -8.053966e-01 -1.792845e-01
<VARIANCE> 12
 3.074142e+01 3.660995e+01 4.552982e+01 4.138073e+01 3.420261e+01 6.895988e+01 4.186287e+01 5.208393e+01 4.769096e+01 4.946247e+01 3.279581e+01 3.236067e+01
<GCONST> 6.680792e+01
<TRANSP> 5
 0.000000e+00 1.000000e+00 0.000000e+00 0.000000e+00 0.000000e+00
 0.000000e+00 6.805806e-01 3.194195e-01 0.000000e+00 0.000000e+00
 0.000000e+00 0.000000e+00 6.223553e-01 3.776448e-01 0.000000e+00
 0.000000e+00 0.000000e+00 0.000000e+00 6.218249e-01 3.781751e-01
 0.000000e+00 0.000000e+00 0.000000e+00 0.000000e+00 0.000000e+00
<ENDHMM>
~h "a"
<BEGINHMM>
<NUMSTATES> 5
<STATE> 2
<NUMMIXES> 3
<MIXTURE> 1 2.721474e-01
<MEAN> 12
 -1.095793e+00 -7.809776e+00 -2.802066e+00 -5.851407e+00 1.165556e+01 3.539165e+00 7.805860e+00 -6.969824e+00 6.808412e+00 5.221156e-01 -5.274976e+00 -2.753139e+00
<VARIANCE> 12
 1.282466e+01 3.700795e+01 1.186884e+01 4.970021e+01 3.645769e+01 4.889193e+01 5.575921e+01 9.840522e+01 6.344973e+01 5.610685e+01 5.757887e+01 1.866489e+01
<GCONST> 6.585016e+01
<MIXTURE> 2 4.296821e-01
<MEAN> 12
 3.778763e-01 -1.912882e+01 3.121397e+00 -1.307952e+01 5.140540e+00 9.533484e+00 -6.454623e+00 -2.275338e+00 9.307441e-01 -1.714184e+00 -7.171793e+00 -5.869060e+00
<VARIANCE> 12
 1.717454e+01 8.796555e+01 5.978010e+01 8.618623e+01 4.058269e+01 8.623133e+01 4.878042e+01 6.076869e+01 8.757132e+01 5.722360e+01 4.026293e+01 3.756159e+01
<GCONST> 6.991770e+01
<MIXTURE> 3 2.981690e-01
<MEAN> 12
 1.033263e+00 -1.757024e+01 1.463423e+00 -1.009060e+01 5.304559e+00 7.676763e+00 2.525085e+00 -1.126920e+01 9.400249e+00 -3.904102e+00 -6.023088e+00 -3.221669e+00
<VARIANCE> 12
 1.950838e+01 4.800623e+01 3.410357e+01 1.183763e+02 7.510016e+01 4.993306e+01 4.217489e+01 3.531016e+01 9.710268e+01 6.575517e+01 6.436586e+01 3.633974e+01
<GCONST> 6.925467e+01
<STATE> 3
<NUMMIXES> 3
<MIXTURE> 1 2.384050e-01
<MEAN> 12
 -2.603281e+00 -5.735647e+00 7.480081e-01 -5.763099e+00 2.028025e+00 -1.736518e+00 3.881152e-01 -3.286947e-01 5.155575e+00 -6.332924e+00 -2.308826e+00 -1.508161e+00
<VARIANCE> 12
 2.912239e+01 5.078432e+01 3.230397e+01 5.852698e+01 7.647858e+01 8.315902e+01 4.317042e+01 6.622757e+01 4.184573e+01 6.923303e+01 3.420104e+01 4.710285e+01
<GCONST> 6.897038e+01
<MIXTURE> 2 4.080417e-01
<MEAN> 12
 -5.558913e+00 -9.649699e+00 -6.979157e+00 -3.877631e+00 -1.738816e+00 -7.384957e+00 -7.191991e+00 -1.550994e+00 -5.934661e+00 -1.050420e+01 -5.752067e+00 -4.493412e+00
<VARIANCE> 12
 1.077148e+01 3.450674e+01 2.337012e+01 2.737981e+01 2.155926e+01 3.765916e+01 4.499918e+01 3.183355e+01 2.997378e+01 5.072672e+01 2.585645e+01 4.523246e+01
<GCONST> 6.279154e+01
<MIXTURE> 3 3.535541e-01
<MEAN> 12
 -2.041118e+00 -1.104193e+01 -4.659611e+00 7.343522e-02 5.157635e+00 -6.988884e+00 -4.254697e+00 -2.180338e+00 5.064858e+00 -1.766574e+01 -5.428790e+00 3.259349e+00
<VARIANCE> 12
 1.074051e+01 1.461929e+01 9.325994e+00 1.626259e+01 2.236904e+01 2.211659e+01 1.552502e+01 5.425899e+01 2.201402e+01 2.772641e+01 1.526024e+01 1.040104e+01
<GCONST> 5.655401e+01
<STATE> 4
<NUMMIXES> 3
<MIXTURE> 1 3.679780e-01
<MEAN> 12
 -7.834283e+00 -1.797328e+00 2.125696e+00 1.523191e-01 6.909424e+00 2.647027e+00 1.361599e+00 -3.986082e-01 1.994046e+00 -1.390831e+00 -1.871535e+00 -1.300788e-01
<VARIANCE> 12
 4.336076e+01 4.912378e+01 2.800707e+01 3.788794e+01 4.633155e+01 6.086220e+01 3.243046e+01 5.063128e+01 2.743846e+01 2.774088e+01 3.845600e+01 2.664902e+01
<GCONST> 6.560073e+01
<MIXTURE> 2 3.776873e-01
<MEAN> 12
 -1.264202e+00 -1.638749e+01 7.777707e+00 -1.111939e+01 -2.394743e+00 -3.684761e+00 -4.534715e+00 3.272541e+00 2.190863e+00 -6.605192e+00 -4.741413e+00 -8.535627e+00
<VARIANCE> 12
 2.663916e+01 8.697379e+01 5.177991e+01 4.966988e+01 4.351579e+01 8.796185e+01 8.295811e+01 7.454777e+01 1.129725e+02 5.427911e+01 5.550875e+01 7.021143e+01
<GCONST> 7.162405e+01
<MIXTURE> 3 2.543340e-01
<MEAN> 12
 -4.663534e+00 -9.682345e+00 3.298640e+00 -5.826924e+00 2.390719e+00 -3.323960e+00 -3.493027e-01 -2.257920e+00 2.451151e+00 -6.212821e+00 -3.266867e+00 -1.851477e+00
<VARIANCE> 12
 2.215159e+01 9.129009e+01 4.023773e+01 5.210678e+01 6.225616e+01 3.505564e+01 5.302109e+01 4.609593e+01 7.933839e+01 2.476946e+01 3.768483e+01 2.271012e+01
<GCONST> 6.713960e+01
<TRANSP> 5
 0.000000e+00 1.000000e+00 0.000000e+00 0.000000e+00 0.000000e+00
 0.000000e+00 8.645049e-01 1.354951e-01 0.000000e+00 0.000000e+00
 0.000000e+00 0.000000e+00 8.236846e-01 1.763154e-01 0.000000e+00
 0.000000e+00 0.000000e+00 0.000000e+00 6.329659e-01 3.670340e-01
 0.000000e+00 0.000000e+00 0.000000e+00 0.000000e+00 0.000000e+00
<ENDHMM>
~h "b"
<BEGINHMM>
<NUMSTATES> 5
<STATE> 2
<NUMMIXES> 3
<MIXTURE> 1 2.580484e-01
<MEAN> 12
 -9.631938e+00 1.117500e+00 3.969137e+00 9.996035e+00 4.311760e+00 6.030465e+00 1.663708e+00 1.189064e+00 1.350739e+00 2.305377e+00 1.851980e+00 1.333152e+00
<VARIANCE> 12
 4.564254e+01 1.539551e+01 1.499994e+01 2.152406e+01 1.365665e+01 2.033031e+01 2.158753e+01 2.961070e+01 1.788916e+01 1.793638e+01 2.063841e+01 1.714520e+01
<GCONST> 5.811315e+01
<MIXTURE> 2 4.434988e-01
<MEAN> 12
 -4.588321e+00 -1.348413e+00 2.905287e+00 -1.243447e+00 8.621525e-01 -4.173044e+00 -4.582797e+00 -4.938797e+00 -2.152745e+00 -3.482130e+00 -1.726688e+00 -4.358706e+00
<VARIANCE> 12
 3.742149e+01 2.704024e+01 4.145275e+01 4.280253e+01 2.915999e+01 3.451068e+01 3.390724e+01 3.506286e+01 2.024157e+01 3.202545e+01 2.413050e+01 2.867617e+01
<GCONST> 6.346390e+01
<MIXTURE> 3 2.984522e-01
<MEAN> 12
 -3.388111e+00 5.650253e-01 4.796198e+00 3.215908e+00 2.804475e+00 7.111633e-01 -2.162601e+00 -1.576773e+00 -3.761013e-01 -7.403927e-01 -6.489251e-01 -2.631482e+00
<VARIANCE> 12
 3.738676e+01 1.659646e+01 3.327797e+01 1.452505e+01 2.486106e+01 3.532830e+01 2.886048e+01 4.973169e+01 2.119440e+01 2.506528e+01 2.545818e+01 4.491486e+01
<GCONST> 6.202993e+01
<STATE> 3
<NUMMIXES> 3
<MIXTURE> 1 3.617105e-01
<MEAN> 12
 -5.411183e+00 -2.859027e+00 1.333779e-01 -9.480404e-01 7.298574e-01 -1.965924e+00 -1.779615e-01 7.892037e-02 8.324580e-01 1.223191e+00 1.696290e+00 -3.550999e-02
<VARIANCE> 12
 3.006141e+01 1.606496e+01 4.274252e+01 2.052539e+01 1.951689e+01 2.746123e+01 2.454333e+01 3.621743e+01 2.825971e+01 2.459177e+01 2.008198e+01 2.516527e+01
<GCONST> 6.085443e+01
<MIXTURE> 2 4.226702e-01
<MEAN> 12
 -6.828001e+00 -5.335586e+00 -5.956401e+00 -4.818303e+00 -2.903239e+00 -7.295861e+00 -5.335112e+00 -7.060373e-01 -3.850880e+00 -5.423463e+00 -2.522100e+00 -4.080939e+00
<VARIANCE> 12
 2.095754e+01 1.115713e+01 1.611493e+01 2.243896e+01 2.402011e+01 2.194239e+01 1.574819e+01 2.476750e+01 1.636990e+01 1.664465e+01 2.922626e+01 2.366669e+01
<GCONST> 5.777989e+01
<MIXTURE> 3 2.156189e-01
<MEAN> 12
 -4.814481e+00 -3.982638e+00 5.913991e-01 -4.510379e+00 -2.185315e+00 -3.915260e+00 -4.745090e+00 -1.807870e+00 -1.695417e-01 -7.954836e-02 4.801952e-01 -2.870192e+00
<VARIANCE> 12
 2.207866e+01 1.775919e+01 5.650547e+01 3.360422e+01 2.651771e+01 2.597413e+01 4.058434e+01 2.962210e+01 3.510807e+01 3.698400e+01 2.043269e+01 2.698480e+01
<GCONST> 6.268317e+01
<STATE> 4
<NUMMIXES> 3
<MIXTURE> 1 2.736078e-01
<MEAN> 12
 -9.165640e+00 -4.458523e+00 7.303584e+00 -5.113280e-01 -1.534957e-01 -1.386319e+00 -1.412297e+00 5.779485e-01 3.548288e+00 5.382767e-01 1.599132e-01 -1.113252e+00
<VARIANCE> 12
 7.755993e+01 2.727874e+01 4.937803e+01 2.755668e+01 5.377621e+01 1.108233e+02 6.375705e+01 3.613072e+01 6.223183e+01 4.223789e+01 1.713433e+01 3.234595e+01
<GCONST> 6.755418e+01
<MIXTURE> 2 5.243872e-01
<MEAN> 12
 -3.775928e+00 -3.681479e+00 4.474216e+00 -1.054597e+01 -3.504745e+00 -3.339848e+00 -6.352784e+00 -4.936014e+00 -8.982581e-01 -3.084460e+00 -1.221956e+00 -5.195870e+00
<VARIANCE> 12
 3.447117e+01 5.801537e+01 7.566938e+01 9.644974e+01 6.762980e+01 6.237063e+01 7.373796e+01 3.387156e+01 6.313011e+01 5.635054e+01 4.521616e+01 2.943057e+01
<GCONST> 7.009127e+01
<MIXTURE> 3 2.020054e-01
<MEAN> 12
 9.121559e+00 -1.691190e+01 -7.509775e+00 8.366949e+00 -8.866267e+00 1.989115e+00 -2.719402e+00 -3.174352e-01 2.334582e+01 -5.315004e+00 -6.816012e+00 -1.478687e+00
<VARIANCE> 12
 4.396513e+00 2.061687e+01 2.062129e+01 2.144913e+01 1.961764e+01 7.166129e+01 2.463474e+01 3.250480e+01 4.425603e+01 6.872175e+01 3.664760e+01 2.597085e+01
<GCONST> 6.146576e+01
<TRANSP> 5
 0.000000e+00 1.000000e+00 0.000000e+00 0.000000e+00 0.000000e+00
 0.000000e+00 4.672125e-01 5.327875e-01 0.000000e+00 0.000000e+00
 0.000000e+00 0.000000e+00 6.703993e-01 3.296007e-01 0.000000e+00
 0.000000e+00 0.000000e+00 0.000000e+00 3.806398e-01 6.193601e-01
 0.000000e+00 0.000000e+00 0.000000e+00 0.000000e+00 0.000000e+00
<ENDHMM>
~h "d"
<BEGINHMM>
<NUMSTATES> 5
<STATE> 2
<NUMMIXES> 3
<MIXTURE> 1 2.933077e-01
<MEAN> 12
 -8.369159e+00 -8.081311e-01 -1.449168e-01 -2.122129e+00 2.528604e+00 -2.384950e+00 1.504818e+00 1.222339e+00 2.056882e+00 1.387763e+00 5.695533e-01 1.239666e+00
<VARIANCE> 12
 3.325286e+01 1.347131e+01 2.465295e+01 2.782713e+01 2.068743e+01 2.479409e+01 2.048125e+01 3.017040e+01 1.737262e+01 1.441396e+01 1.908320e+01 1.503195e+01
<GCONST> 5.853872e+01
<MIXTURE> 2 4.589103e-01
<MEAN> 12
 -1.498080e+00 -9.476060e-01 4.006398e+00 -4.227940e+00 -2.419762e+00 -7.586581e+00 -5.238762e+00 -4.601741e+00 -1.030296e+00 -3.557088e+00 -3.955306e+00 -4.675894e+00
<VARIANCE> 12
 1.756161e+01 3.093263e+01 5.969014e+01 4.423243e+01 4.137171e+01 4.434174e+01 4.519560e+01 3.719868e+01 2.994622e+01 3.797197e+01 2.482417e+01 4.620592e+01
<GCONST> 6.525365e+01
<MIXTURE> 3 2.477805e-01
<MEAN> 12
 -8.729700e+00 3.008489e+00 3.913323e+00 -4.630889e-01 2.095322e+00 -3.602495e+00 -2.438430e+00 -4.732306e+00 -5.111059e-01 -1.771781e+00 -3.259216e-01 -1.940582e-01
<VARIANCE> 12
 3.417019e+01 3.965899e+01 4.295830e+01 2.723865e+01 3.400166e+01 4.110054e+01 3.223211e+01 3.667307e+01 3.285390e+01 2.189431e+01 2.624000e+01 2.449630e+01
<GCONST> 6.369260e+01
<STATE> 3
<NUMMIXES> 3
<MIXTURE> 1 3.728334e-01
<MEAN> 12
 -9.082740e+00 -5.160734e-03 2.348382e+00 -6.478130e-01 4.460134e+00 -4.402151e+00 -6.184759e-01 1.377752e-01 2.386250e+00 4.364482e-02 -1.128936e+00 -8.819090e-01
<VARIANCE> 12
 3.500675e+01 1.245719e+01 2.875213e+01 2.768721e+01 2.680093e+01 2.393214e+01 3.388269e+01 5.250470e+01 2.987517e+01 2.537364e+01 3.203404e+01 2.036531e+01
<GCONST> 6.187088e+01
<MIXTURE> 2 4.230488e-01
<MEAN> 12
 -1.869048e+00 -5.402624e+00 4.756032e+00 -9.574742e+00 -4.255212e+00 -1.051696e+01 -9.204768e+00 5.458181e-01 2.026481e+00 -3.297832e+00 -5.810235e+00 -4.034881e+00
<VARIANCE> 12
 1.964711e+01 2.323975e+01 8.615266e+01 2.762740e+01 3.425468e+01 3.576117e+01 5.918895e+01 3.830622e+01 3.719154e+01 5.322940e+01 3.551764e+01 6.022785e+01
<GCONST> 6.604914e+01
<MIXTURE> 3 2.041178e-01
<MEAN> 12
 -5.315115e+00 -1.475970e+00 9.982108e+00 -6.900148e+00 2.905935e-03 -6.462086e+00 -4.619331e+00 -4.751067e+00 -8.653760e-03 -3.583482e+00 -6.096480e-01 -5.486029e+00
<VARIANCE> 12
 4.434830e+01 2.505323e+01 5.007671e+01 5.710443e+01 3.712694e+01 8.562845e+01 6.256582e+01 4.621385e+01 4.696351e+01 3.644373e+01 3.280249e+01 5.110152e+01
<GCONST> 6.792935e+01
<STATE> 4
<NUMMIXES> 3
<MIXTURE> 1 3.547707e-01
<MEAN> 12
 -4.203791e+00 -1.053923e-01 2.522822e+00 -3.391673e+00 2.681834e+00 -5.577067e+00 -4.926018e+00 -1.725961e+00 1.908528e+00 -4.210287e-02 -2.329423e+00 -3.306919e+00
<VARIANCE> 12
 2.831017e+01 2.327649e+01 3.990668e+01 3.754301e+01 2.406711e+01 3.126079e+01 5.410655e+01 6.811321e+01 4.111833e+01 4.264062e+01 2.955168e+01 2.234880e+01
<GCONST> 6.465474e+01
<MIXTURE> 2 3.680834e-01
<MEAN> 12
 -2.609220e+00 -8.506118e+00 5.306051e+00 -1.495221e+01 -3.991470e+00 -1.569938e+01 -4.379356e-01 -2.585907e+00 5.500834e+00 -1.031523e+01 -4.507865e+00 -4.464157e+00
<VARIANCE> 12
 1.495458e+01 4.337883e+01 6.319963e+01 5.939465e+01 4.402734e+01 7.134297e+01 9.162585e+01 3.283094e+01 4.138212e+01 5.918161e+01 5.302561e+01 5.657926e+01
<GCONST> 6.863129e+01
<MIXTURE> 3 2.771450e-01
<MEAN> 12
 7.959239e-01 -1.258051e+01 1.325059e+01 -1.439095e+01 -2.184586e+00 -7.550370e+00 -1.235175e+01 4.318553e+00 6.937040e-01 2.422541e+00 -6.567980e+00 -5.608425e+00
<VARIANCE> 12
 3.236663e+01 5.843085e+01 1.201269e+02 5.595001e+01 4.486834e+01 5.201343e+01 5.964714e+01 7.811143e+01 5.628735e+01 4.896396e+01 6.563486e+01 8.474397e+01
<GCONST> 7.115961e+01
<TRANSP> 5
 0.000000e+00 1.000000e+00 0.000000e+00 0.000000e+00 0.000000e+00
 0.000000e+00 6.529084e-01 3.470916e-01 0.000000e+00 0.000000e+00
 0.000000e+00 0.000000e+00 3.104909e-03 9.968951e-01 0.000000e+00
 0.000000e+00 0.000000e+00 0.000000e+00 2.903031e-01 7.096969e-01
 0.000000e+00 0.000000e+00 0.000000e+00 0.000000e+00 0.000000e+00
<ENDHMM>
~h "f"
<BEGINHMM>
<NUMSTATES> 5
<STATE> 2
<NUMMIXES> 3
<MIXTURE> 1 3.274464e-01
<MEAN> 12
 -1.405224e+01 3.957594e+00 8.118954e+00 6.389112e+00 6.383043e+00 2.288760e+00 6.357031e-01 -1.979458e+00 4.873678e-02 6.536023e-02 -1.427165e+00 -2.417956e+00
<VARIANCE> 12
 2.475236e+01 1.243781e+01 9.431280e+00 1.200030e+01 9.733113e+00 2.365544e+01 2.097499e+01 1.992451e+01 1.725626e+01 6.959024e+00 1.324530e+01 1.491541e+01
<GCONST> 5.406181e+01
<MIXTURE> 2 4.313524e-01
<MEAN> 12
 -1.033077e+01 7.013539e-01 1.228991e+00 4.489594e-01 7.097577e-01 -3.193139e+00 -4.734961e+00 -4.463926e+00 -2.103899e+00 -4.914475e+00 -2.674400e+00 -3.196821e+00
<VARIANCE> 12
 5.282801e+01 1.006277e+01 2.094110e+01 1.554220e+01 1.634834e+01 2.768906e+01 1.424652e+01 2.962443e+01 2.387218e+01 2.245385e+01 1.969852e+01 1.700462e+01
<GCONST> 5.837417e+01
<MIXTURE> 3 2.412012e-01
<MEAN> 12
 -1.128011e+01 4.586893e+00 5.198545e+00 4.005994e+00 5.230135e+00 -1.968340e+00 -5.696258e+00 -2.845089e+00 1.360462e+00 -2.930506e+00 -2.832470e+00 -4.161581e+00
<VARIANCE> 12
 3.224422e+01 1.981133e+01 2.380659e+01 8.840133e+00 2.578675e+01 4.679041e+01 3.267596e+01 2.485592e+01 1.744772e+01 2.611357e+01 1.005258e+01 1.360593e+01
<GCONST> 5.869866e+01
<STATE> 3
<NUMMIXES> 3
<MIXTURE> 1 2.495321e-01
<MEAN> 12
 -2.057821e+01 -1.686317e+00 2.063253e+00 5.006787e+00 3.434742e+00 5.018326e+00 3.045683e+00 2.414280e+00 9.874066e-01 4.228911e+00 1.332136e+00 2.339787e+00
<VARIANCE> 12
 1.244848e+01 1.487665e+01 1.836948e+01 1.425432e+01 1.057057e+01 1.522686e+01 1.736924e+01 1.279384e+01 1.954745e+01 2.069572e+01 1.824462e+01 1.223629e+01
<GCONST> 5.473951e+01
<MIXTURE> 2 4.459889e-01
<MEAN> 12
 -1.682955e+01 -2.318491e+00 -8.106960e-01 -1.958325e+00 -1.309364e+00 -4.736789e+00 -2.928606e+00 -2.970761e+00 1.302359e+00 -1.045478e+00 1.923952e-01 -5.450121e-01
<VARIANCE> 12
 5.118965e+01 1.112184e+01 1.675619e+01 1.281738e+01 2.224422e+01 1.280872e+01 2.167285e+01 2.750909e+01 2.323886e+01 2.834213e+01 1.244424e+01 1.383762e+01
<GCONST> 5.745015e+01
<MIXTURE> 3 3.044789e-01
<MEAN> 12
 -2.118517e+01 -4.352736e+00 1.594064e+00 1.771151e+00 3.421947e+00 -4.969483e-01 -1.766615e+00 8.691913e-01 -1.929918e-01 1.622320e+00 -1.939325e+00 -8.163549e-01
<VARIANCE> 12
 1.638750e+01 9.722278e+00 2.022112e+01 9.008703e+00 1.896999e+01 1.079264e+01 2.033925e+01 1.930612e+01 3.582856e+01 1.665002e+01 1.148257e+01 1.552577e+01
<GCONST> 5.519957e+01
<STATE> 4
<NUMMIXES> 3
<MIXTURE> 1 2.403405e-01
<MEAN> 12
 -8.175825e+00 -2.486797e+00 -1.156605e+00 -6.592129e+00 2.842660e+00 -1.688582e+00 1.532830e+00 -3.112339e+00 1.267163e+00 -8.542964e-01 9.094673e-01 -9.785514e-01
<VARIANCE> 12
 4.389610e+01 2.503339e+01 5.046576e+01 3.357532e+01 3.176592e+01 5.599207e+01 4.533170e+01 4.109261e+01 5.123524e+01 4.110861e+01 3.681265e+01 4.688075e+01
<GCONST> 6.661118e+01
<MIXTURE> 2 4.610386e-01
<MEAN> 12
 1.658769e+00 -5.205715e+00 -8.007660e+00 -1.240871e+01 -9.586484e-01 -3.487194e+00 -6.922742e+00 -3.552339e+00 -1.060550e+00 -7.913376e+00 -8.067149e+00 -1.441134e+00
<VARIANCE> 12
 1.255307e+01 1.818908e+01 1.659198e+01 3.652610e+01 2.337756e+01 6.597240e+01 3.552794e+01 2.954384e+01 3.716417e+01 1.718600e+01 5.404203e+01 1.746774e+01
<GCONST> 6.149902e+01
<MIXTURE> 3 2.986211e-01
<MEAN> 12
 -2.096244e+00 -5.147952e+00 -4.036980e+00 -5.530765e+00 -3.978875e+00 -9.317331e+00 -5.417371e+00 -1.793591e+00 1.980255e+00 -4.726738e+00 -2.822540e+00 -1.572331e+00
<VARIANCE> 12
 1.037682e+01 2.259390e+01 1.225727e+01 2.019434e+01 2.887364e+01 3.049140e+01 2.255293e+01 3.823478e+01 3.291098e+01 3.809023e+01 2.016031e+01 1.439349e+01
<GCONST> 5.936754e+01
<TRANSP> 5
 0.000000e+00 1.000000e+00 0.000000e+00 0.000000e+00 0.000000e+00
 0.000000e+00 5.808774e-01 4.191226e-01 0.000000e+00 0.000000e+00
 0.000000e+00 0.000000e+00 7.813001e-01 2.186999e-01 0.000000e+00
 0.000000e+00 0.000000e+00 0.000000e+00 7.736093e-01 2.263907e-01
 0.000000e+00 0.000000e+00 0.000000e+00 0.000000e+00 0.000000e+00
<ENDHMM>
~h "g"
<BEGINHMM>
<NUMSTATES> 5
<STATE> 2
<NUMMIXES> 3
<MIXTURE> 1 2.913485e-01
<MEAN> 12
 -5.784022e+00 2.941294e-01 -6.534081e-01 -1.833846e-01 8.948687e-01 -1.849760e+00 -6.771407e-01 2.379308e-01 -6.124797e-01 7.588288e-01 7.141393e-01 3.214711e-01
<VARIANCE> 12
 5.165998e+01 2.272780e+01 3.031592e+01 1.288524e+01 2.278608e+01 1.839617e+01 2.404083e+01 2.412033e+01 1.810546e+01 2.733585e+01 1.141208e+01 1.214973e+01
<GCONST> 5.862805e+01
<MIXTURE> 2 4.360365e-01
<MEAN> 12
 -1.618064e+00 -3.445793e+00 4.183652e+00 -5.659943e+00 -2.043009e-03 -4.916425e+00 -4.692828e+00 -2.464029e+00 -4.730343e+00 -9.729086e-01 -7.783561e-01 -4.630997e+00
<VARIANCE> 12
 3.308696e+01 4.043903e+01 1.241909e+02 5.488045e+01 6.344035e+01 5.654076e+01 6.433895e+01 6.065497e+01 3.485211e+01 5.391502e+01 3.455484e+01 4.435176e+01
<GCONST> 6.940809e+01
<MIXTURE> 3 2.726155e-01
<MEAN> 12
 -5.025110e+00 -4.750864e+00 -3.241751e+00 -2.778555e+00 2.786285e-01 -6.337632e+00 -1.377127e+00 -1.575122e+00 -4.138186e-01 -1.547542e+00 -1.731165e-01 6.296947e-01
<VARIANCE> 12
 2.875430e+01 2.474496e+01 3.266737e+01 3.677473e+01 2.295716e+01 3.743742e+01 2.596116e+01 2.608789e+01 1.906591e+01 3.456656e+01 1.879445e+01 2.014261e+01
<GCONST> 6.141469e+01
<STATE> 3
<NUMMIXES> 3
<MIXTURE> 1 2.987970e-01
<MEAN> 12
 -2.939479e+00 -1.871920e+00 -1.236041e+00 -4.485997e+00 2.012936e+00 -6.991332e+00 -1.893095e+00 2.928717e+00 -6.907964e-01 4.162076e+00 -1.107890e+00 1.178758e+00
<VARIANCE> 12
 2.174022e+01 3.891967e+01 5.426745e+01 7.841211e+01 2.527942e+01 2.764106e+01 5.067109e+01 4.461781e+01 4.396380e+01 2.513644e+01 1.533329e+01 3.082774e+01
<GCONST> 6.459000e+01
<MIXTURE> 2 4.751068e-01
<MEAN> 12
 -3.448539e+00 -2.720780e+00 -1.399874e+00 -9.284220e+00 -4.640372e+00 -7.485117e+00 -6.418494e+00 1.758011e+00 -3.577296e+00 -2.990995e+00 -4.158277e+00 -3.693149e+00
<VARIANCE> 12
 1.935556e+01 3.242426e+01 8.057244e+01 7.643137e+01 7.424477e+01 1.066362e+02 6.476651e+01 7.160915e+01 5.887451e+01 4.416204e+01 5.008851e+01 6.596847e+01
<GCONST> 7.060700e+01
<MIXTURE> 3 2.260961e-01
<MEAN> 12
 1.280072e+00 -1.033226e+01 1.322187e+01 -9.952135e+00 -4.444106e+00 -7.135390e+00 -1.147135e+01 2.124825e+00 -3.927491e+00 4.369627e+00 -1.861024e+00 -5.263939e+00
<VARIANCE> 12
 2.742269e+01 7.579346e+01 1.820683e+02 4.778360e+01 6.969827e+01 5.560714e+01 5.874886e+01 5.656680e+01 2.571120e+01 4.289791e+01 2.940054e+01 3.158719e+01
<GCONST> 6.897567e+01
<STATE> 4
<NUMMIXES> 3
<MIXTURE> 1 3.357180e-01
<MEAN> 12
 -2.260286e+00 8.266374e-03 -8.035154e-01 -7.767135e+00 5.966988e-01 -3.493840e+00 -2.192885e+00 4.715118e+00 -3.855238e+00 4.223561e+00 -1.001615e+00 -1.897492e+00
<VARIANCE> 12
 1.615743e+01 2.442697e+01 4.042558e+01 7.881634e+01 2.188959e+01 5.278183e+01 4.927798e+01 6.323971e+01 4.859439e+01 2.337665e+01 1.874696e+01 3.178737e+01
<GCONST> 6.462111e+01
<MIXTURE> 2 4.166460e-01
<MEAN> 12
 -1.563505e+00 -4.609299e+00 -1.168507e+00 -1.200886e+01 -3.753922e+00 -1.336399e+01 -5.887167e+00 -2.668189e+00 -9.279974e-01 -3.968064e-01 -7.603454e+00 -1.351259e+00
<VARIANCE> 12
 1.521621e+01 2.292697e+01 3.612574e+01 6.094443e+01 5.818790e+01 6.655108e+01 3.489417e+01 5.761919e+01 3.766418e+01 6.642645e+01 6.340918e+01 4.492151e+01
<GCONST> 6.725333e+01
<MIXTURE> 3 2.476366e-01
<MEAN> 12
 1.517372e+00 -8.311760e+00 1.197223e+01 -1.182684e+01 -8.851442e+00 -1.280881e+00 -1.388428e+01 5.035514e+00 -5.188309e+00 2.708294e+00 2.571415e-01 -1.027900e+01
<VARIANCE> 12
 1.643884e+01 1.092107e+02 1.431435e+02 4.554074e+01 4.313188e+01 7.842885e+01 3.782662e+01 6.287866e+01 4.437175e+01 6.265288e+01 4.454601e+01 4.489811e+01
<GCONST> 6.976172e+01
<TRANSP> 5
 0.000000e+00 1.000000e+00 0.000000e+00 0.000000e+00 0.000000e+00
 0.000000e+00 6.553507e-01 3.446493e-01 0.000000e+00 0.000000e+00
 0.000000e+00 0.000000e+00 0.000000e+00 1.000000e+00 0.000000e+00
 0.000000e+00 0.000000e+00 0.000000e+00 1.060541e-01 8.939458e-01
 0.000000e+00 0.000000e+00 0.000000e+00 0.000000e+00 0.000000e+00
<ENDHMM>
~h "i"
<BEGINHMM>
<NUMSTATES> 5
<STATE> 2
<NUMMIXES> 3
<MIXTURE> 1 3.327746e-01
<MEAN> 12
 -5.682208e+00 -6.355469e-01 1.174349e+01 -2.489120e+00 -4.458359e+00 -3.175395e+00 -9.571945e+00 -2.062599e+00 -1.089161e+00 -1.777881e+00 6.242872e-01 -1.396190e+00
<VARIANCE> 12
 4.400654e+01 5.539456e+01 9.594171e+01 6.551480e+01 8.245686e+01 5.433294e+01 8.200637e+01 6.656963e+01 9.291908e+01 4.675525e+01 3.078010e+01 3.177893e+01
<GCONST> 7.087414e+01
<MIXTURE> 2 3.856613e-01
<MEAN> 12
 -7.653301e+00 1.141680e+00 1.760945e+01 -1.720136e+01 -5.522872e+00 -1.380127e+01 -5.076744e+00 -1.566974e+01 -3.800415e+00 -5.858129e+00 -4.625014e+00 -5.150328e+00
<VARIANCE> 12
 1.534156e+01 5.070141e+01 7.061974e+01 9.834776e+01 7.781841e+01 8.339950e+01 7.650691e+01 6.942995e+01 6.517561e+01 4.321803e+01 3.231668e+01 2.776185e+01
<GCONST> 6.965517e+01
<MIXTURE> 3 2.815652e-01
<MEAN> 12
 -5.274107e+00 1.611975e+00 1.428744e+01 -1.003077e+01 -7.828280e+00 -4.969842e+00 -1.133235e+01 -1.028789e+01 -1.519868e+00 -3.465702e+00 3.014420e-01 -3.489379e+00
<VARIANCE> 12
 2.045230e+01 3.640533e+01 8.304395e+01 6.797330e+01 4.126762e+01 5.261426e+01 8.418929e+01 5.220033e+01 3.880155e+01 4.201541e+01 2.894453e+01 2.054966e+01
<GCONST> 6.716176e+01
<STATE> 3
<NUMMIXES> 3
<MIXTURE> 1 2.444031e-01
<MEAN> 12
 -3.104813e+00 -4.754769e-01 1.462514e+01 -8.333665e-01 -6.721248e+00 -5.229898e+00 -9.773732e+00 -3.581343e+00 -7.294145e-01 -3.255729e+00 2.413246e-01 1.401920e+00
<VARIANCE> 12
 2.069978e+01 3.706415e+01 9.427158e+01 5.723733e+01 5.558716e+01 5.098593e+01 6.860572e+01 6.839176e+01 1.009430e+02 8.847747e+01 3.408856e+01 4.166352e+01
<GCONST> 7.004971e+01
<MIXTURE> 2 3.701910e-01
<MEAN> 12
 -9.318593e+00 3.297852e+00 2.277837e+01 -6.390810e+00 -1.628578e+01 3.406851e+00 -1.551375e+01 -7.392040e+00 -7.185119e+00 -6.662777e+00 2.604300e+00 -1.162495e+01
<VARIANCE> 12
 1.266344e+01 6.489484e+01 8.035741e+01 4.591774e+01 7.259830e+01 7.451414e+01 6.693699e+01 7.828861e+01 6.070997e+01 6.651508e+01 4.002124e+01 5.041268e+01
<GCONST> 7.005262e+01
<MIXTURE> 3 3.854042e-01
<MEAN> 12
 -5.074312e+00 -4.433482e+00 3.054468e+01 -6.026036e+00 -1.158582e+01 -5.351739e+00 -9.627674e+00 -3.140350e+00 -8.632296e+00 -6.891005e+00 3.720949e+00 -3.028004e+00
<VARIANCE> 12
 1.024178e+01 4.392233e+01 6.065367e+01 5.270160e+01 4.439664e+01 4.286118e+01 3.709744e+01 5.347222e+01 4.307144e+01 6.627100e+01 2.265534e+01 2.390774e+01
<GCONST> 6.562830e+01
<STATE> 4
<NUMMIXES> 3
<MIXTURE> 1 2.888510e-01
<MEAN> 12
 -3.865151e+00 7.012646e+00 1.267036e+01 6.087354e+00 3.918104e-01 -7.099359e-02 -3.784168e+00 -2.112169e+00 -2.976498e+00 1.872591e-01 -1.760401e+00 -4.831959e-01
<VARIANCE> 12
 2.789307e+01 3.107286e+01 2.410126e+01 5.037030e+01 2.984280e+01 3.715379e+01 3.043818e+01 3.071169e+01 5.656581e+01 4.152221e+01 1.744457e+01 2.390165e+01
<GCONST> 6.356686e+01
<MIXTURE> 2 4.324549e-01
<MEAN> 12
 -5.902328e+00 -7.238832e-02 1.333999e+01 1.536455e+00 -1.158788e+01 -8.425855e+00 -6.662766e+00 -9.453363e+00 -3.088835e+00 -8.720795e+00 -7.978009e-01 -2.111550e+00
<VARIANCE> 12
 2.940425e+01 5.117960e+01 8.105226e+01 7.539974e+01 7.151053e+01 5.646950e+01 6.794300e+01 8.330608e+01 4.461980e+01 7.844257e+01 4.678348e+01 3.166424e+01
<GCONST> 7.049490e+01
<MIXTURE> 3 2.786940e-01
<MEAN> 12
 -1.031378e+01 6.236902e+00 1.600461e+01 3.732095e+00 -5.445097e+00 -4.193752e+00 -1.074186e+00 -7.290445e+00 -1.340170e+00 -7.085165e+00 -2.882568e-01 -2.176377e+00
<VARIANCE> 12
 6.073810e+01 3.398815e+01 4.534908e+01 4.264627e+01 5.113173e+01 3.397306e+01 3.432407e+01 3.844743e+01 4.416480e+01 4.488340e+01 2.447502e+01 2.042146e+01
<GCONST> 6.570579e+01
<TRANSP> 5
 0.000000e+00 1.000000e+00 0.000000e+00 0.000000e+00 0.000000e+00
 0.000000e+00 5.274444e-01 4.725555e-01 0.000000e+00 0.000000e+00
 0.000000e+00 0.000000e+00 7.500519e-01 2.499481e-01 0.000000e+00
 0.000000e+00 0.000000e+00 0.000000e+00 6.001513e-01 3.998487e-01
 0.000000e+00 0.000000e+00 0.000000e+00 0.000000e+00 0.000000e+00
<ENDHMM>
~h "k"
<BEGINHMM>
<NUMSTATES> 5
<STATE> 2
<NUMMIXES> 3
<MIXTURE> 1 2.981660e-01
<MEAN> 12
 -6.139557e+00 2.768683e+00 6.971452e+00 2.754241e+00 1.064127e+00 -1.013404e+00 -3.990703e+00 2.914966e-01 -9.726937e-01 1.615759e+00 -2.240445e+00 -2.813041e+00
<VARIANCE> 12
 2.845859e+01 3.484940e+01 4.646540e+01 4.882359e+01 6.101986e+01 2.015708e+01 5.072713e+01 2.334435e+01 2.077341e+01 1.781755e+01 2.171952e+01 4.261648e+01
<GCONST> 6.361681e+01
<MIXTURE> 2 4.054065e-01
<MEAN> 12
 -5.912225e+00 -6.003953e+00 -4.278330e+00 -8.502237e+00 4.194767e+00 -3.607271e+00 -7.021663e+00 -6.926302e-01 -2.577747e+00 2.149308e+00 -3.917094e+00 -3.226642e+00
<VARIANCE> 12
 1.522217e+01 3.333432e+01 3.970108e+01 2.993642e+01 7.985311e+01 9.764714e+01 7.698402e+01 2.525855e+01 8.645924e+01 4.092321e+01 3.475883e+01 4.033585e+01
<GCONST> 6.731567e+01
<MIXTURE> 3 2.964280e-01
<MEAN> 12
 -2.780479e+00 -3.072868e+00 2.985538e+00 -6.043229e+00 -2.208597e+00 -3.452020e+00 -7.318281e+00 3.889831e+00 2.859416e-01 4.008937e+00 -6.138402e+00 1.787828e+00
<VARIANCE> 12
 1.056475e+01 1.762460e+01 9.210838e+01 3.539822e+01 3.514089e+01 4.263456e+01 1.225206e+02 3.326385e+01 4.029441e+01 7.431586e+01 6.834201e+01 4.703129e+01
<GCONST> 6.707562e+01
<STATE> 3
<NUMMIXES> 3
<MIXTURE> 1 2.596915e-01
<MEAN> 12
 -1.552462e+01 -6.008528e+00 -3.759162e+00 2.734717e+00 1.146101e+01 5.535611e-01 -5.288149e+00 2.129441e+00 7.624395e+00 2.120116e+00 -1.248701e+00 -3.290504e+00
<VARIANCE> 12
 2.419946e+01 1.423695e+01 2.572585e+01 2.360947e+01 3.483959e+01 4.138310e+01 4.691085e+01 2.059684e+01 1.663847e+01 5.221040e+01 2.358679e+01 2.883115e+01
<GCONST> 6.174200e+01
<MIXTURE> 2 4.437525e-01
<MEAN> 12
 -8.438488e+00 -7.860701e+00 -5.401731e+00 -6.033251e+00 7.661731e+00 -4.510673e+00 -7.133892e+00 -3.997233e+00 1.240496e+00 5.869065e+00 -2.630150e+00 -4.918093e+00
<VARIANCE> 12
 2.382102e+01 2.833588e+01 5.495562e+01 4.909654e+01 7.004224e+01 5.666765e+01 7.010036e+01 4.525186e+01 5.873176e+01 5.761614e+01 2.938598e+01 3.205024e+01
<GCONST> 6.779262e+01
<MIXTURE> 3 2.965558e-01
<MEAN> 12
 -1.029182e+01 -8.078759e+00 -3.288253e+00 -8.304576e-01 7.324195e+00 -5.397797e+00 -5.161875e+00 -9.208457e-01 4.989861e+00 3.400725e+00 -4.228710e+00 -3.446623e+00
<VARIANCE> 12
 3.028285e+01 2.605620e+01 4.059482e+01 1.977795e+01 4.160385e+01 4.955490e+01 4.612566e+01 2.966250e+01 2.968076e+01 4.756805e+01 2.945117e+01 2.528719e+01
<GCONST> 6.413179e+01
<STATE> 4
<NUMMIXES> 3
<MIXTURE> 1 3.860512e-01
<MEAN> 12
 -2.314311e+00 -1.871970e+00 1.712500e+00 -8.718546e+00 -1.340316e+00 1.415969e+00 -1.222794e+01 -4.009121e+00 6.368819e-01 5.259659e+00 -4.460045e+00 -4.790574e+00
<VARIANCE> 12
 9.035906e+00 2.762311e+01 4.941801e+01 3.449195e+01 5.822161e+01 4.526525e+01 8.085355e+01 8.098738e+01 5.097121e+01 7.328900e+01 4.767438e+01 3.588579e+01
<GCONST> 6.734956e+01
<MIXTURE> 2 3.837510e-01
<MEAN> 12
 -5.139068e+00 -9.393101e+00 7.069458e-01 -1.818004e+01 4.624982e+00 -1.244057e+01 -5.996938e-01 -1.459354e+01 5.283308e+00 -1.173492e+01 -5.397705e+00 -6.917150e+00
<VARIANCE> 12
 2.516079e+01 4.277296e+01 3.148587e+01 7.442979e+01 8.903937e+01 5.813536e+01 6.086564e+01 4.965353e+01 4.629595e+01 4.319622e+01 4.115902e+01 6.221858e+01
<GCONST> 6.880961e+01
<MIXTURE> 3 2.301977e-01
<MEAN> 12
 -9.497505e+00 -1.281687e+01 -2.756261e+00 -7.759838e+00 5.358519e+00 -2.268021e+00 -6.188111e-01 -8.581244e+00 7.370317e+00 -5.738958e+00 1.187675e+00 -5.337140e+00
<VARIANCE> 12
 2.985489e+01 7.260169e+01 3.437242e+01 6.289859e+01 7.070275e+01 6.851591e+01 9.242086e+01 4.292383e+01 5.707438e+01 6.451363e+01 4.422485e+01 4.184748e+01
<GCONST> 6.992052e+01
<TRANSP> 5
 0.000000e+00 1.000000e+00 0.000000e+00 0.000000e+00 0.000000e+00
 0.000000e+00 3.406019e-01 6.593981e-01 0.000000e+00 0.000000e+00
 0.000000e+00 0.000000e+00 7.303826e-01 2.696173e-01 0.000000e+00
 0.000000e+00 0.000000e+00 0.000000e+00 5.731311e-01 4.268688e-01
 0.000000e+00 0.000000e+00 0.000000e+00 0.000000e+00 0.000000e+00
<ENDHMM>
~h "l"
<BEGINHMM>
<NUMSTATES> 5
<STATE> 2
<NUMMIXES> 3
<MIXTURE> 1 1.964637e-01
<MEAN> 12
 5.588435e+00 -1.210037e+00 -4.566741e+00 8.479266e+00 1.028916e+00 -4.485317e+00 -1.052772e+01 -1.215110e+01 5.836936e+00 -3.881918e+00 1.070747e+00 3.007681e-01
<VARIANCE> 12
 1.565634e+01 1.964710e+01 5.695158e+01 9.974389e+01 4.525247e+01 2.242260e+02 8.094056e+01 8.707796e+01 7.308146e+01 6.954628e+01 1.484785e+01 5.134254e+01
<GCONST> 6.968352e+01
<MIXTURE> 2 5.106173e-01
<MEAN> 12
 -2.170877e+00 -6.770204e+00 6.847286e+00 -6.900495e+00 -7.200603e+00 -3.239536e+00 -1.398404e+01 -3.759459e+00 1.808620e+00 -2.802748e+00 -1.824963e+00 -7.568223e+00
<VARIANCE> 12
 1.306157e+01 3.860044e+01 8.404032e+01 8.472136e+01 1.242801e+02 5.740609e+01 1.103570e+02 9.345342e+01 5.940633e+01 4.515549e+01 4.591880e+01 4.721578e+01
<GCONST> 7.083812e+01
<MIXTURE> 3 2.929194e-01
<MEAN> 12
 1.519887e+00 -4.259546e+00 1.303002e+01 -3.878661e+00 6.157547e-01 5.073353e-01 -1.374957e+01 -1.343126e+01 7.613747e+00 -5.104515e+00 4.154168e+00 -1.186902e+01
<VARIANCE> 12
 1.051248e+01 2.984988e+01 2.845581e+01 6.185362e+01 3.509598e+01 6.559691e+01 6.249703e+01 1.228362e+02 9.412901e+01 4.962171e+01 4.022412e+01 5.538965e+01
<GCONST> 6.812193e+01
<STATE> 3
<NUMMIXES> 3
<MIXTURE> 1 2.380635e-01
<MEAN> 12
 2.869912e+00 2.482360e+00 3.013656e+00 3.462989e-01 1.783180e+00 6.477743e-01 -7.339080e+00 -1.233571e+01 -9.306165e-01 1.452606e+00 3.591339e-01 -2.445878e+00
<VARIANCE> 12
 2.201016e+01 2.232089e+01 6.803630e+01 7.082564e+01 5.956151e+01 8.189419e+01 8.505804e+01 8.533205e+01 4.883301e+01 5.012547e+01 2.683818e+01 3.268047e+01
<GCONST> 6.869367e+01
<MIXTURE> 2 4.696278e-01
<MEAN> 12
 -2.274803e+00 -8.657122e+00 6.215683e+00 -8.763392e+00 -5.833083e+00 -3.421205e+00 -1.106747e+01 -2.231370e+00 1.398316e+00 -1.603616e+00 -2.747545e+00 -6.991724e+00
<VARIANCE> 12
 1.261977e+01 3.624364e+01 1.026170e+02 1.097934e+02 6.911065e+01 6.793790e+01 1.032099e+02 7.767696e+01 6.349027e+01 4.987722e+01 5.317226e+01 7.869437e+01
<GCONST> 7.135284e+01
<MIXTURE> 3 2.923086e-01
<MEAN> 12
 -1.176257e+00 -2.381118e+00 1.119383e+01 -1.118936e+00 -3.536999e+00 1.673729e+00 -1.392076e+01 -1.089643e+01 4.779626e+00 -3.761071e+00 2.035245e+00 -9.060949e+00
<VARIANCE> 12
 9.626307e+00 2.503527e+01 3.331179e+01 1.032955e+02 6.113048e+01 7.224456e+01 5.819735e+01 6.134174e+01 8.584976e+01 5.700970e+01 4.515364e+01 5.227662e+01
<GCONST> 6.851862e+01
<STATE> 4
<NUMMIXES> 3
<MIXTURE> 1 3.290941e-01
<MEAN> 12
 -6.047997e-01 3.704742e-01 7.379959e+00 -1.413807e+00 -2.380224e+00 -2.741883e+00 -7.192929e+00 -9.536493e+00 -2.936463e-01 5.839716e-01 1.708236e+00 -1.764652e+00
<VARIANCE> 12
 2.602635e+01 2.267080e+01 9.051915e+01 7.207888e+01 7.167976e+01 6.129186e+01 4.783059e+01 5.439557e+01 5.463726e+01 5.669041e+01 2.990160e+01 2.087190e+01
<GCONST> 6.794448e+01
<MIXTURE> 2 4.179558e-01
<MEAN> 12
 -3.493226e+00 -1.262576e+01 5.023352e+00 -1.450541e+01 -2.782611e+00 -1.718181e-02 -6.381398e+00 -1.655722e+00 3.846027e+00 -3.816067e+00 -2.674795e+00 -8.860295e+00
<VARIANCE> 12
 1.918041e+01 4.009156e+01 6.829175e+01 1.514213e+02 1.042206e+02 1.006040e+02 1.030663e+02 9.082473e+01 8.092983e+01 5.749792e+01 4.364577e+01 4.891729e+01
<GCONST> 7.245701e+01
<MIXTURE> 3 2.529502e-01
<MEAN> 12
 -2.741822e+00 -5.950191e+00 8.556849e+00 -3.585791e+00 -6.565849e+00 -2.910971e+00 -1.012771e+01 -3.953968e+00 3.117045e+00 -3.312665e+00 -3.478313e-01 -7.840044e+00
<VARIANCE> 12
 1.248118e+01 2.485642e+01 7.686604e+01 9.473502e+01 6.043536e+01 8.693644e+01 8.048251e+01 7.271577e+01 6.110052e+01 4.388488e+01 4.072335e+01 4.917390e+01
<GCONST> 6.942261e+01
<TRANSP> 5
 0.000000e+00 1.000000e+00 0.000000e+00 0.000000e+00 0.000000e+00
 0.000000e+00 4.335483e-01 5.664518e-01 0.000000e+00 0.000000e+00
 0.000000e+00 0.000000e+00 8.219410e-02 9.178059e-01 0.000000e+00
 0.000000e+00 0.000000e+00 0.000000e+00 2.805593e-01 7.194407e-01
 0.000000e+00 0.000000e+00 0.000000e+00 0.000000e+00 0.000000e+00
<ENDHMM>
~h "m"
<BEGINHMM>
<NUMSTATES> 5
<STATE> 2
<NUMMIXES> 3
<MIXTURE> 1 2.812051e-01
<MEAN> 12
 1.516628e+00 2.378143e+00 8.000718e+00 1.036127e+01 3.830781e+00 -1.465542e+00 -7.364774e+00 -1.068402e+01 -2.254140e+00 1.396995e+00 1.912488e+00 -6.969910e+00
<VARIANCE> 12
 4.815689e+00 1.586611e+01 1.345003e+01 6.570073e+01 1.304097e+01 4.670369e+01 1.817956e+01 2.236196e+01 3.690335e+01 4.046683e+01 1.479785e+01 1.750876e+01
<GCONST> 5.846023e+01
<MIXTURE> 2 3.536214e-01
<MEAN> 12
 8.273555e-01 -2.998844e+00 7.810869e+00 -4.011707e+00 -2.920022e+00 3.257059e-01 -1.070308e+01 -5.497513e+00 -7.624413e+00 -2.212302e+00 -1.863384e+00 -8.834109e+00
<VARIANCE> 12
 1.881104e+01 2.694156e+01 8.205280e+01 8.029617e+01 6.769072e+01 8.132473e+01 1.361785e+02 7.486365e+01 5.252838e+01 4.678827e+01 5.657098e+01 6.679092e+01
<GCONST> 7.096281e+01
<MIXTURE> 3 3.651742e-01
<MEAN> 12
 2.608182e+00 5.399963e-01 1.357961e+01 8.520469e+00 -5.837143e+00 5.178757e+00 -9.246426e+00 -7.993993e+00 -4.684890e+00 -4.104103e+00 4.644637e-01 -1.259323e+01
<VARIANCE> 12
 5.240485e+00 1.767127e+01 2.161502e+01 3.348032e+01 5.863910e+01 3.637334e+01 3.465531e+01 1.903302e+01 1.892447e+01 2.879254e+01 2.532206e+01 1.643903e+01
<GCONST> 5.965601e+01
<STATE> 3
<NUMMIXES> 3
<MIXTURE> 1 3.267660e-01
<MEAN> 12
 2.447520e+00 3.762811e+00 1.107086e+01 2.193458e+00 6.142985e+00 -4.841066e+00 -9.954559e-01 -9.163946e+00 -8.710180e+00 8.672802e+00 -9.395173e+00 -5.177853e+00
<VARIANCE> 12
 3.056656e+00 4.163743e+00 8.903001e+00 8.573617e+00 3.226535e+01 3.661207e+01 3.637055e+01 1.343694e+01 2.533771e+01 4.609528e+01 6.963339e+01 2.356880e+01
<GCONST> 5.666565e+01
<MIXTURE> 2 3.918217e-01
<MEAN> 12
 5.521088e-01 -4.205981e+00 1.105182e+01 -4.003065e+00 -2.884239e+00 -2.221000e+00 -1.263333e+01 -4.643205e+00 -1.090245e+01 1.385396e+00 -1.892899e+00 -1.317540e+01
<VARIANCE> 12
 1.103036e+01 2.299001e+01 9.625441e+01 7.368549e+01 3.716352e+01 9.979752e+01 1.310907e+02 1.045824e+02 1.213560e+02 6.827463e+01 7.852155e+01 1.037583e+02
<GCONST> 7.222907e+01
<MIXTURE> 3 2.814118e-01
<MEAN> 12
 2.880725e+00 -1.375228e+00 1.571836e+01 -7.266650e-01 -1.474335e+00 1.275701e+00 -6.317680e-01 -1.102235e+01 -9.447058e+00 1.159102e-01 -3.244850e+00 -1.103419e+01
<VARIANCE> 12
 5.291723e+00 1.588626e+01 3.546471e+01 5.565036e+01 1.516213e+01 6.963615e+01 9.367719e+01 4.107823e+01 7.196678e+01 5.987515e+01 7.144987e+01 5.847018e+01
<GCONST> 6.599715e+01
<STATE> 4
<NUMMIXES> 3
<MIXTURE> 1 3.475017e-01
<MEAN> 12
 3.089692e+00 -6.485042e+00 1.327114e+01 -3.177683e+00 -3.534158e+00 -7.948108e-01 -8.815289e+00 -5.060974e-01 -1.887115e+00 9.078586e-01 -3.609629e+00 -9.510228e+00
<VARIANCE> 12
 1.248384e+01 8.847165e+01 4.792551e+01 1.054240e+02 5.006752e+01 8.211729e+01 5.645504e+01 6.613877e+01 8.221533e+01 4.370224e+01 7.650957e+01 6.668877e+01
<GCONST> 7.086019e+01
<MIXTURE> 2 3.595023e-01
<MEAN> 12
 -3.492824e+00 -9.246479e+00 5.978888e+00 -1.637606e+01 -5.783701e-02 -8.730883e+00 -9.946609e+00 -6.330857e+00 -2.584690e+00 -8.834001e+00 -2.084610e+00 -1.021389e+01
<VARIANCE> 12
 1.061275e+01 4.743315e+01 6.477287e+01 1.062520e+02 7.225719e+01 8.726069e+01 2.327788e+02 6.144097e+01 1.074899e+02 3.746595e+01 4.588206e+01 4.756104e+01
<GCONST> 7.141882e+01
<MIXTURE> 3 2.929960e-01
<MEAN> 12
 1.447233e+00 -8.758299e+00 1.823547e+00 -4.293772e+00 -4.338024e+00 -3.971756e+00 -1.931246e+01 -2.090789e+00 9.278612e+00 -4.361110e+00 -6.348509e-01 -8.829517e+00
<VARIANCE> 12
 1.328524e+01 3.339958e+01 5.994661e+01 3.649681e+01 1.520541e+01 1.234646e+02 1.132267e+02 1.674744e+02 6.150372e+01 2.021890e+01 2.538800e+01 3.649621e+01
<GCONST> 6.718543e+01
<TRANSP> 5
 0.000000e+00 1.000000e+00 0.000000e+00 0.000000e+00 0.000000e+00
 0.000000e+00 5.986235e-01 4.013765e-01 0.000000e+00 0.000000e+00
 0.000000e+00 0.000000e+00 6.163964e-01 3.836035e-01 0.000000e+00
 0.000000e+00 0.000000e+00 0.000000e+00 5.971744e-01 4.028256e-01
 0.000000e+00 0.000000e+00 0.000000e+00 0.000000e+00 0.000000e+00
<ENDHMM>
~h "n"
<BEGINHMM>
<NUMSTATES> 5
<STATE> 2
<NUMMIXES> 3
<MIXTURE> 1 2.984862e-01
<MEAN> 12
 -6.355028e-02 -9.344086e-01 1.338025e+01 4.546776e-01 -4.735589e+00 -1.324076e+00 -9.565053e+00 -5.449067e+00 8.834560e-01 -9.562454e-01 -5.221761e+00 -7.927387e+00
<VARIANCE> 12
 1.121038e+01 2.764411e+01 7.592388e+01 5.132555e+01 4.135535e+01 4.025490e+01 6.980312e+01 4.629818e+01 9.444183e+01 3.423730e+01 3.134310e+01 7.176656e+01
<GCONST> 6.735663e+01
<MIXTURE> 2 3.968743e-01
<MEAN> 12
 2.290248e+00 3.191791e+00 1.792299e+00 -1.127430e+01 -9.783395e+00 -4.477623e+00 -1.324103e+01 -9.910349e+00 -5.060006e+00 -5.481734e+00 -5.938615e+00 2.867100e-01
<VARIANCE> 12
 8.940686e+00 8.406498e+00 1.783289e+01 4.669328e+01 1.125907e+01 3.704554e+01 2.313695e+01 2.270082e+01 1.800855e+01 2.456942e+01 2.552831e+01 2.138204e+01
<GCONST> 5.779063e+01
<MIXTURE> 3 3.046396e-01
<MEAN> 12
 2.866901e+00 5.501921e-01 -7.481547e-01 -3.781354e+00 -5.681199e+00 -9.271380e+00 -8.929042e+00 -1.031493e+01 -2.756888e+00 -2.472804e+00 -3.587664e+00 -3.034858e+00
<VARIANCE> 12
 4.534581e+00 6.894645e+00 7.878672e+00 1.835183e+01 1.618357e+01 1.741165e+01 1.311071e+01 4.266275e+01 1.991328e+01 1.561641e+01 3.966076e+01 2.620949e+01
<GCONST> 5.512497e+01
<STATE> 3
<NUMMIXES> 3
<MIXTURE> 1 2.743772e-01
<MEAN> 12
 -1.970476e+00 3.182075e+00 1.173495e+01 1.879904e+00 -3.400905e+00 -1.440759e+00 -7.070982e+00 -6.483853e+00 -4.982777e-01 -1.335018e-01 -3.801575e+00 -5.358440e+00
<VARIANCE> 12
 1.403213e+01 1.976723e+01 9.567854e+01 4.179329e+01 5.732674e+01 9.067418e+01 3.307277e+01 7.768001e+01 9.396823e+01 3.611170e+01 1.907318e+01 2.703158e+01
<GCONST> 6.675584e+01
<MIXTURE> 2 4.010518e-01
<MEAN> 12
 -5.340919e-01 -5.798857e-01 3.765274e+00 -8.434482e+00 -8.742697e+00 -7.714457e+00 -1.385479e+01 -5.032471e+00 -1.252534e+00 -6.599850e+00 -5.231033e+00 -2.982150e+00
<VARIANCE> 12
 1.669511e+01 3.464256e+01 3.789836e+01 4.613693e+01 3.856962e+01 2.584511e+01 7.653775e+01 9.119233e+01 4.937788e+01 5.838702e+01 3.521795e+01 4.305158e+01
<GCONST> 6.692713e+01
<MIXTURE> 3 3.245711e-01
<MEAN> 12
 1.730670e+00 -2.054989e+00 1.501196e+01 -3.604837e+00 -4.507750e+00 -1.123699e+00 -8.156526e+00 -5.099456e+00 -2.523757e+00 1.334565e-01 -5.349920e+00 -1.170610e+01
<VARIANCE> 12
 6.515110e+00 2.971816e+01 6.557345e+01 3.632746e+01 2.011290e+01 1.459968e+01 5.143540e+01 5.293873e+01 7.405544e+01 3.793771e+01 2.482530e+01 5.840715e+01
<GCONST> 6.390804e+01
<STATE> 4
<NUMMIXES> 3
<MIXTURE> 1 3.997372e-01
<MEAN> 12
 -2.928055e+00 3.876806e+00 1.308696e+01 -1.604239e+00 -3.763974e+00 -3.222961e+00 -4.428097e+00 -7.363564e+00 -2.410185e+00 -7.494400e-01 -4.371657e+00 -6.675922e+00
<VARIANCE> 12
 1.935507e+01 2.669027e+01 8.601438e+01 4.269865e+01 6.964375e+01 6.002465e+01 3.738539e+01 5.636340e+01 5.968049e+01 4.403476e+01 1.703110e+01 3.389600e+01
<GCONST> 6.673402e+01
<MIXTURE> 2 2.902060e-01
<MEAN> 12
 -3.995544e+00 -3.774123e-01 3.754378e+00 -1.306765e+01 -6.225335e+00 -1.321857e+01 -1.321913e+01 -1.251842e+01 -7.921239e-01 -1.164867e+01 -2.865990e+00 -4.976545e+00
<VARIANCE> 12
 2.799803e+01 3.341032e+01 2.810722e+01 3.343812e+01 6.516716e+01 6.919884e+01 7.040298e+01 1.037301e+02 3.075870e+01 1.536875e+02 3.847911e+01 4.173778e+01
<GCONST> 6.889384e+01
<MIXTURE> 3 3.100566e-01
<MEAN> 12
 9.309297e-01 -9.550495e+00 1.313975e+01 -7.727245e+00 -4.664655e+00 -4.449382e-01 -1.568890e+01 5.413945e+00 3.599531e-01 -8.461216e-02 -3.431621e+00 -1.187373e+01
<VARIANCE> 12
 2.105251e+01 5.518238e+01 1.240999e+02 2.867956e+01 6.438794e+01 5.909356e+01 8.495464e+01 1.110144e+02 5.934760e+01 4.741658e+01 5.218713e+01 6.538039e+01
<GCONST> 7.076273e+01
<TRANSP> 5
 0.000000e+00 1.000000e+00 0.000000e+00 0.000000e+00 0.000000e+00
 0.000000e+00 6.622968e-01 3.377032e-01 0.000000e+00 0.000000e+00
 0.000000e+00 0.000000e+00 3.242354e-03 9.967576e-01 0.000000e+00
 0.000000e+00 0.000000e+00 0.000000e+00 3.878792e-01 6.121208e-01
 0.000000e+00 0.000000e+00 0.000000e+00 0.000000e+00 0.000000e+00
<ENDHMM>
~h "o"
<BEGINHMM>
<NUMSTATES> 5
<STATE> 2
<NUMMIXES> 3
<MIXTURE> 1 2.356824e-01
<MEAN> 12
 5.292121e+00 7.770334e-01 3.358107e+00 -2.449298e+01 -3.378453e+00 4.678946e+00 1.269562e+01 -9.590009e+00 2.310888e+01 -1.322557e+01 6.717079e+00 1.914707e+00
<VARIANCE> 12
 5.473762e+00 1.293584e+01 7.673831e+00 1.166129e+01 1.017059e+01 6.095728e+01 9.619307e+00 7.806411e+01 1.007324e+01 5.999793e+00 3.066098e+00 2.747717e+01
<GCONST> 5.239493e+01
<MIXTURE> 2 3.970426e-01
<MEAN> 12
 2.686334e-01 7.124100e+00 8.107070e+00 -1.958274e+01 -2.467755e+01 1.879931e+01 -1.825851e+01 -2.505732e+00 6.815239e-01 -1.287497e+01 6.235233e+00 -1.278704e+01
<VARIANCE> 12
 1.946669e+00 1.582539e+01 1.943464e+01 5.276503e+00 1.687385e+01 4.936998e+01 4.820319e+01 2.811334e+01 3.120981e+01 3.152768e+01 2.945292e+01 3.240313e+01
<GCONST> 5.780200e+01
<MIXTURE> 3 3.672751e-01
<MEAN> 12
 1.773847e+00 -1.914154e+00 1.225453e+01 -2.131112e+01 -1.123925e+01 1.018074e+01 -6.797285e+00 2.221513e+00 8.185140e+00 -8.265916e+00 2.723222e+00 -7.265473e+00
<VARIANCE> 12
 1.274310e+01 5.538542e+01 4.994765e+01 4.805047e+01 3.310882e+01 6.247441e+01 2.667020e+01 3.468177e+01 1.981710e+01 1.582245e+01 2.236117e+01 1.580806e+01
<GCONST> 6.247720e+01
<STATE> 3
<NUMMIXES> 3
<MIXTURE> 1 2.710178e-01
<MEAN> 12
 1.332023e+00 -5.185014e+00 2.957083e+00 -1.427373e+01 -1.212671e+01 1.614289e+01 -9.053927e+00 -1.636235e+01 3.209743e+00 3.951796e-01 7.862757e+00 -6.304731e+00
<VARIANCE> 12
 1.547219e+00 3.684618e+01 4.631134e+01 6.466360e+01 2.478057e+01 1.951348e+01 1.903819e+02 2.377657e+01 1.561294e+02 2.157598e+01 1.338452e+01 1.941177e+01
<GCONST> 6.238346e+01
<MIXTURE> 2 4.861199e-01
<MEAN> 12
 -1.563466e+00 -1.498343e+01 -6.234933e+00 -2.322967e+01 7.863330e+00 7.493516e+00 -1.287881e+01 4.838922e+00 -5.894100e+00 -2.450949e+00 -2.387550e+00 -8.505102e+00
<VARIANCE> 12
 1.624192e+00 2.107391e+00 3.777609e+00 4.354954e+00 7.380329e+00 1.055220e+01 1.444621e+01 1.927077e+01 5.215875e+00 1.250253e+01 8.318372e+00 5.078682e+00
<GCONST> 4.399072e+01
<MIXTURE> 3 2.428624e-01
<MEAN> 12
 -3.476704e+00 -1.065629e+01 -7.540116e+00 -1.671266e+01 6.538279e+00 7.226279e+00 -6.386701e+00 3.892852e-01 -8.909612e-01 -4.411299e+00 -2.869914e-01 -6.589065e+00
<VARIANCE> 12
 2.171968e+00 7.142404e+00 1.926099e+00 1.086787e+01 9.237011e-01 1.021732e+00 8.008847e+00 1.080291e+01 2.337456e+00 6.687948e+00 8.299728e+00 2.970435e+00
<GCONST> 3.819431e+01
<STATE> 4
<NUMMIXES> 3
<MIXTURE> 1 3.364146e-01
<MEAN> 12
 8.436506e-01 -1.283481e+01 8.471653e+00 -1.391810e+00 -9.244199e+00 6.887520e+00 -8.950717e+00 -3.251130e+00 1.243311e+01 8.512865e+00 -2.328394e+00 -1.811487e+01
<VARIANCE> 12
 1.527176e+00 5.112088e+01 5.664750e+01 1.017857e+02 5.104666e+00 1.183028e+01 1.206371e+02 6.152223e+01 5.035999e+01 3.881252e+01 8.368421e-01 2.008060e+00
<GCONST> 5.618185e+01
<MIXTURE> 2 4.948146e-01
<MEAN> 12
 -1.285507e-01 -2.550299e-01 -8.176640e-01 4.053795e+00 -2.448881e+00 1.072302e+00 -1.920141e+01 -6.989473e+00 -5.540946e+00 -1.838124e-01 -4.977006e+00 -1.229146e+01
<VARIANCE> 12
 1.460599e+01 2.796074e+01 2.442173e+01 3.903651e+01 7.031985e+01 8.051632e+01 1.041316e+02 1.427617e+02 4.399475e+01 4.757547e+01 5.644300e+01 5.518364e+01
<GCONST> 6.886536e+01
<MIXTURE> 3 1.687708e-01
<MEAN> 12
 2.964790e+00 -1.990464e+01 1.884877e+01 -6.705400e+00 -7.577188e+00 -7.944376e+00 -1.253823e+01 7.566369e+00 3.577885e+00 6.572432e+00 -2.417558e+00 -1.061303e+01
<VARIANCE> 12
 1.116687e+00 1.323572e+01 3.227531e+00 1.902982e+01 4.493308e+00 3.822902e+01 3.871573e+01 1.313672e+01 2.460458e-01 3.547404e+01 2.773605e+00 1.593688e+01
<GCONST> 4.619873e+01
<TRANSP> 5
 0.000000e+00 1.000000e+00 0.000000e+00 0.000000e+00 0.000000e+00
 0.000000e+00 8.526763e-01 1.473237e-01 0.000000e+00 0.000000e+00
 0.000000e+00 0.000000e+00 7.570195e-01 2.429806e-01 0.000000e+00
 0.000000e+00 0.000000e+00 0.000000e+00 5.789657e-01 4.210344e-01
 0.000000e+00 0.000000e+00 0.000000e+00 0.000000e+00 0.000000e+00
<ENDHMM>
~h "p"
<BEGINHMM>
<NUMSTATES> 5
<STATE> 2
<NUMMIXES> 3
<MIXTURE> 1 2.358454e-01
<MEAN> 12
 -1.312763e+01 5.837245e+00 4.494135e+00 1.007181e+01 5.239252e+00 7.972406e+00 5.277912e+00 -4.345358e-01 2.991394e-01 -6.002498e-01 7.002212e-01 1.029916e+00
<VARIANCE> 12
 5.072364e+01 2.989333e+01 5.191011e+00 1.807551e+01 1.693761e+01 6.751880e+00 1.885844e+01 1.610947e+01 2.522716e+01 9.914516e+00 2.665302e+00 8.435795e+00
<GCONST> 5.301048e+01
<MIXTURE> 2 4.058031e-01
<MEAN> 12
 -4.349455e+00 -7.912371e+00 -7.867599e-02 -7.674440e+00 -4.285255e+00 -2.084252e+00 -2.610435e+00 -5.570807e-01 7.667007e+00 4.417572e-02 -6.934239e-01 -7.025524e-01
<VARIANCE> 12
 3.597869e+01 1.021411e+01 1.645743e+01 3.884155e+01 3.827457e+01 4.253256e+01 3.603164e+01 9.289777e+00 3.387840e+01 1.750782e+01 4.530912e+01 8.021581e+00
<GCONST> 5.991093e+01
<MIXTURE> 3 3.583514e-01
<MEAN> 12
 -7.867397e+00 -5.517270e+00 3.795922e+00 -1.920036e+00 2.063323e+00 -1.919686e+00 -2.572885e+00 -1.315758e+00 1.151980e+00 4.928483e+00 2.089143e+00 2.316051e+00
<VARIANCE> 12
 5.112927e+01 1.234839e+01 3.031502e+01 1.177265e+01 1.478270e+01 1.488304e+01 1.637249e+01 1.532455e+01 1.185961e+01 5.213670e+01 1.992880e+01 4.215937e+01
<GCONST> 5.845920e+01
<STATE> 3
<NUMMIXES> 3
<MIXTURE> 1 2.217564e-01
<MEAN> 12
 -2.604564e+00 -8.584753e+00 4.669739e+00 -7.696361e+00 -4.975880e+00 7.169415e-01 2.071914e+00 -2.076788e+00 8.441759e+00 -2.435203e-01 -3.004377e+00 -2.804434e+00
<VARIANCE> 12
 7.928026e+01 3.880035e+01 7.912387e+01 7.459809e+01 4.837732e+01 1.094166e+02 7.677827e+01 3.867969e+01 6.409266e+01 3.529271e+01 2.031601e+01 8.571898e+00
<GCONST> 6.822341e+01
<MIXTURE> 2 4.480766e-01
<MEAN> 12
 -1.071464e+01 -1.000246e+01 -5.086433e+00 -1.219270e+01 8.852909e+00 2.800208e+00 1.596551e+00 -1.005857e+01 1.757645e+00 -1.266165e+01 1.759617e+00 -5.627048e+00
<VARIANCE> 12
 1.883866e+01 2.196479e+01 9.430120e+00 1.600134e+02 5.082976e+01 6.295742e+01 6.868138e+01 1.723068e+01 2.993846e+01 3.941063e+01 3.580555e+01 2.708364e+01
<GCONST> 6.449636e+01
<MIXTURE> 3 3.301667e-01
<MEAN> 12
 -1.205131e+01 -9.913563e+00 3.070476e-01 -1.032306e+01 1.017987e+01 2.941095e+00 -3.983747e-01 -4.539824e+00 6.705629e+00 -5.775214e+00 -2.870677e-01 -3.035781e+00
<VARIANCE> 12
 2.826845e+01 3.885144e+01 1.118971e+01 1.499384e+02 1.770395e+01 4.906656e+01 9.898288e+01 1.657848e+01 7.746352e+01 1.800532e+01 1.070444e+01 1.070241e+01
<GCONST> 6.263285e+01
<STATE> 4
<NUMMIXES> 3
<MIXTURE> 1 3.527038e-01
<MEAN> 12
 5.670937e+00 -1.329188e+01 6.028604e+00 -2.152179e+01 2.430130e+00 1.851435e+01 -2.411769e+00 -8.286861e+00 7.019758e+00 -5.619387e+00 1.405910e+00 -2.242545e+00
<VARIANCE> 12
 2.115380e+01 2.412577e+01 2.711960e+01 4.279697e+01 4.608132e+01 2.285394e+01 6.155406e+01 3.042019e+01 3.172284e+01 2.582354e+01 1.374811e+01 1.332270e+01
<GCONST> 6.175959e+01
<MIXTURE> 2 4.025570e-01
<MEAN> 12
 2.668208e+00 -1.603684e+01 -1.006823e+01 9.285089e+00 -4.785547e+00 -1.853567e+00 6.173234e+00 -5.246094e+00 2.009479e+01 -8.563577e+00 -6.763404e+00 -8.973541e-01
<VARIANCE> 12
 1.484682e+01 4.484152e+01 1.191162e+01 9.000259e+00 3.653548e+01 1.075104e+01 6.572620e+01 6.553503e+01 1.621464e+01 9.014800e+00 1.988439e+01 2.021251e+01
<GCONST> 5.855260e+01
<MIXTURE> 3 2.447390e-01
<MEAN> 12
 -1.849281e+00 -1.141328e+01 9.998435e+00 -5.914030e+00 -6.121841e+00 -9.343702e+00 5.235812e+00 -4.753665e+00 6.254621e+00 -7.454796e+00 2.770096e+00 -4.355987e+00
<VARIANCE> 12
 1.608522e+01 1.783346e+01 1.221574e+02 1.716088e+01 8.178806e+01 7.727985e+01 1.286296e+02 3.274400e+01 3.069752e+01 2.200701e+01 2.739168e+01 2.271412e+01
<GCONST> 6.540744e+01
<TRANSP> 5
 0.000000e+00 1.000000e+00 0.000000e+00 0.000000e+00 0.000000e+00
 0.000000e+00 5.074645e-01 4.925356e-01 0.000000e+00 0.000000e+00
 0.000000e+00 0.000000e+00 6.960772e-01 3.039229e-01 0.000000e+00
 0.000000e+00 0.000000e+00 0.000000e+00 7.303928e-01 2.696073e-01
 0.000000e+00 0.000000e+00 0.000000e+00 0.000000e+00 0.000000e+00
<ENDHMM>
~h "r"
<BEGINHMM>
<NUMSTATES> 5
<STATE> 2
<NUMMIXES> 3
<MIXTURE> 1 2.556201e-01
<MEAN> 12
 2.875208e+00 -7.091289e+00 5.740640e+00 2.082325e+00 -5.883978e+00 -5.245696e+00 -1.017328e+01 -4.240277e+00 3.318087e+00 -3.782947e+00 2.656310e+00 -4.042322e+00
<VARIANCE> 12
 2.086084e+01 5.178294e+01 9.882005e+01 7.303207e+01 8.146317e+01 6.624858e+01 9.462129e+01 1.735575e+02 1.209685e+02 8.598737e+01 9.593812e+01 4.851263e+01
<GCONST> 7.391887e+01
<MIXTURE> 2 4.627952e-01
<MEAN> 12
 -4.954797e+00 -7.560043e+00 1.399673e+01 -1.031750e+01 -1.401796e+01 -2.211225e+01 5.361259e+00 -1.480668e+01 -1.071240e+01 -1.161016e+01 -2.165187e+00 -7.764092e+00
<VARIANCE> 12
 1.791488e+01 2.747076e+01 4.309999e+01 8.686066e+01 6.331157e+01 5.668328e+01 5.829375e+01 7.683250e+01 4.755317e+01 4.352058e+01 2.392616e+01 5.429062e+01
<GCONST> 6.787818e+01
<MIXTURE> 3 2.815842e-01
<MEAN> 12
 -2.538100e+00 -5.109184e+00 6.418768e+00 -3.434919e+00 -9.973356e+00 -1.628008e+01 -9.415364e+00 -5.322054e+00 4.170644e-01 -1.467278e+01 -1.341298e+00 -4.005092e+00
<VARIANCE> 12
 1.467147e+01 1.845814e+01 4.071064e+01 1.321884e+02 1.943302e+02 3.871141e+01 5.208842e+01 8.011945e+01 9.916754e+01 5.715779e+01 4.855313e+01 6.574021e+01
<GCONST> 7.021980e+01
<STATE> 3
<NUMMIXES> 3
<MIXTURE> 1 2.312773e-01
<MEAN> 12
 -1.819857e+00 -5.724022e+00 7.481289e+00 6.529224e+00 -9.892802e-01 -5.837908e+00 -8.893338e+00 2.385667e+00 2.938598e+00 -5.683159e-01 -1.080319e+00 -3.881238e+00
<VARIANCE> 12
 5.686720e+01 3.593957e+01 3.283878e+01 8.084608e+01 6.381762e+01 5.243333e+01 1.023462e+02 3.534392e+01 2.400201e+01 5.515847e+01 2.462422e+01 2.424503e+01
<GCONST> 6.745059e+01
<MIXTURE> 2 4.533586e-01
<MEAN> 12
 -1.515944e+00 -6.604589e+00 9.728325e+00 -1.240737e+00 -8.373347e+00 -1.644906e+01 -5.409554e+00 -1.941705e+00 -2.337653e+00 -8.101818e+00 -1.422129e+00 -1.012349e+00
<VARIANCE> 12
 1.408246e+01 2.634624e+01 4.612101e+01 9.777284e+01 4.352270e+01 1.539528e+01 4.301805e+01 5.058878e+01 3.374331e+01 3.590268e+01 3.472641e+01 3.631066e+01
<GCONST> 6.481660e+01
<MIXTURE> 3 3.153638e-01
<MEAN> 12
 -1.245302e+00 -6.066844e+00 1.091043e+01 9.096342e+00 -1.161204e+01 -1.427012e+01 -8.937325e+00 2.140988e+00 -1.381053e+00 -8.603374e+00 3.008684e+00 -2.459767e-01
<VARIANCE> 12
 2.007468e+01 1.341240e+01 2.393021e+01 5.395248e+01 5.122462e+01 9.969667e+00 2.905262e+01 1.230340e+01 1.994619e+01 3.301330e+01 6.365658e+01 2.238239e+01
<GCONST> 6.067989e+01
<STATE> 4
<NUMMIXES> 3
<MIXTURE> 1 1.998869e-01
<MEAN> 12
 2.361616e+00 -1.228701e+01 1.323910e+01 -1.149438e+00 -1.228307e+01 1.009941e+00 -2.311020e+01 1.858492e+01 -5.634494e+00 6.251962e+00 -5.508267e+00 1.594882e+00
<VARIANCE> 12
 8.803563e+00 2.442092e+01 4.194070e+01 4.028788e+01 3.096057e+01 3.995091e+01 6.092026e+01 5.845397e+01 6.137270e+01 5.878001e+01 6.681123e+01 3.055367e+01
<GCONST> 6.596773e+01
<MIXTURE> 2 4.558422e-01
<MEAN> 12
 -1.859057e-01 -9.022532e+00 1.006096e+01 -5.296518e+00 -7.469121e+00 -1.198618e+01 -6.242474e+00 2.176182e-01 2.866199e+00 -5.017188e+00 -1.617389e+00 -2.186241e+00
<VARIANCE> 12
 1.219110e+01 4.515147e+01 5.801415e+01 5.727821e+01 3.953010e+01 5.675311e+01 8.548293e+01 8.668972e+01 7.700790e+01 6.063991e+01 4.815490e+01 3.319317e+01
<GCONST> 6.892591e+01
<MIXTURE> 3 3.442709e-01
<MEAN> 12
 5.727314e+00 -1.780556e+01 1.955524e+01 -3.848386e-01 -1.539080e+01 -3.002756e+00 -1.214287e+01 5.914525e+00 -3.546410e+00 4.585100e+00 2.967409e+00 -6.018482e+00
<VARIANCE> 12
 1.256215e+01 2.297548e+01 5.115209e+01 9.410524e+01 6.648468e+01 1.211763e+02 1.070493e+02 7.563094e+01 4.053991e+01 6.035830e+01 3.434391e+01 2.268454e+01
<GCONST> 6.865292e+01
<TRANSP> 5
 0.000000e+00 1.000000e+00 0.000000e+00 0.000000e+00 0.000000e+00
 0.000000e+00 6.430533e-01 3.569467e-01 0.000000e+00 0.000000e+00
 0.000000e+00 0.000000e+00 6.721926e-01 3.278074e-01 0.000000e+00
 0.000000e+00 0.000000e+00 0.000000e+00 6.471029e-01 3.528971e-01
 0.000000e+00 0.000000e+00 0.000000e+00 0.000000e+00 0.000000e+00
<ENDHMM>
~h "s"
<BEGINHMM>
<NUMSTATES> 5
<STATE> 2
<NUMMIXES> 3
<MIXTURE> 1 3.050500e-01
<MEAN> 12
 -2.523624e+01 6.864897e+00 3.886054e+00 4.336534e+00 5.231604e+00 3.499742e+00 3.287802e+00 3.473099e+00 3.347872e+00 4.323622e+00 1.542321e+00 -1.228052e+00
<VARIANCE> 12
 1.484725e+01 2.051428e+01 3.711607e+01 4.218363e+01 4.102340e+01 3.129361e+01 1.827615e+01 2.358377e+01 3.254209e+01 8.878954e+00 1.579234e+01 6.639210e+00
<GCONST> 5.867199e+01
<MIXTURE> 2 3.787151e-01
<MEAN> 12
 -2.667137e+01 1.871080e+00 -4.776532e+00 3.995032e+00 2.692130e-01 -2.306531e-01 -1.866135e+00 -4.711088e+00 4.252148e+00 -1.395988e+00 2.517276e+00 -3.910486e+00
<VARIANCE> 12
 5.459760e+01 1.209980e+01 1.244219e+01 3.304394e+01 2.346457e+01 3.579436e+01 3.306085e+01 2.973303e+01 2.551902e+01 3.354314e+01 1.795717e+01 1.928226e+01
<GCONST> 6.078996e+01
<MIXTURE> 3 3.162347e-01
<MEAN> 12
 -1.791819e+01 7.928692e+00 9.560118e-01 4.314652e+00 4.973743e+00 -1.174821e+00 -7.813296e-02 -1.716115e+00 -1.933614e+00 -1.203673e+00 1.178607e+00 -3.222680e+00
<VARIANCE> 12
 6.733152e+01 4.648018e+01 2.324950e+01 9.021980e+01 1.498409e+01 5.361455e+01 2.092209e+01 4.251852e+01 1.577240e+01 1.995117e+01 4.330112e+01 1.809608e+01
<GCONST> 6.364668e+01
<STATE> 3
<NUMMIXES> 3
<MIXTURE> 1 2.858483e-01
<MEAN> 12
 -2.078805e+01 4.929452e+00 -5.344705e+00 -1.716805e-02 6.535834e+00 -7.285292e+00 4.578836e+00 3.522893e+00 2.667624e+00 5.051709e+00 -1.934550e+00 4.296597e+00
<VARIANCE> 12
 1.811248e+01 2.160458e+01 1.283596e+01 2.941046e+01 1.561893e+01 5.627175e+01 1.695221e+01 1.345576e+01 1.516062e+01 1.702573e+01 2.283908e+01 8.866277e+00
<GCONST> 5.703027e+01
<MIXTURE> 2 3.607706e-01
<MEAN> 12
 -2.425128e+01 7.858015e-01 -3.291879e+00 -1.094247e+00 1.110045e+00 -2.746822e+00 -4.207537e+00 -6.674552e-01 6.140517e-01 -3.911745e-01 2.409778e+00 5.831290e-01
<VARIANCE> 12
 3.624027e+01 1.274253e+01 2.600490e+01 2.215760e+01 1.768303e+01 2.425482e+01 3.332174e+01 3.027572e+01 2.007537e+01 1.376700e+01 1.603565e+01 1.471171e+01
<GCONST> 5.860911e+01
<MIXTURE> 3 3.533808e-01
<MEAN> 12
 -1.887385e+01 6.579570e+00 -9.481037e+00 7.552334e-01 4.364080e-01 -1.069484e+01 2.623397e+00 6.857025e-01 1.356341e+00 -2.761145e+00 1.717830e+00 4.999447e+00
<VARIANCE> 12
 8.980947e+00 7.489552e+00 1.123113e+01 2.503438e+01 2.631502e+01 2.920227e+01 1.614573e+01 1.248143e+01 1.945527e+01 8.617497e+00 1.638904e+01 1.537243e+01
<GCONST> 5.450346e+01
<STATE> 4
<NUMMIXES> 3
<MIXTURE> 1 4.232641e-01
<MEAN> 12
 -1.509621e+01 1.290715e+00 7.497034e-01 -8.499247e+00 3.877309e+00 -5.524520e+00 -6.323114e+00 1.230592e+00 3.039294e-01 9.419342e-01 -1.646047e-01 -1.158926e+00
<VARIANCE> 12
 6.370654e+01 1.216133e+01 1.123432e+01 2.770396e+01 1.880676e+01 5.235698e+01 2.910740e+01 9.006073e+01 2.684522e+01 2.094159e+01 2.331412e+01 2.954515e+01
<GCONST> 6.207820e+01
<MIXTURE> 2 3.853918e-01
<MEAN> 12
 -6.214620e-01 -4.248081e+00 9.235686e+00 -5.084223e+00 -4.337190e+00 -1.579039e+01 -8.746590e+00 -7.179393e+00 -1.400979e+00 -6.015074e+00 -5.236950e+00 8.956683e-01
<VARIANCE> 12
 3.402824e+01 1.004810e+02 1.918575e+02 1.256485e+01 2.769247e+01 5.808809e+01 1.600900e+01 5.111307e+01 3.288879e+01 9.618383e+00 4.655278e+01 2.252215e+01
<GCONST> 6.478155e+01
<MIXTURE> 3 1.913441e-01
<MEAN> 12
 -2.366373e+01 -6.032907e+00 8.813087e+00 -5.811720e+00 2.959679e+00 -1.397717e+01 2.123441e+00 -1.947259e+00 -4.486060e-01 -4.663398e+00 8.474763e+00 -9.963547e+00
<VARIANCE> 12
 7.620422e+01 9.454743e+00 4.870995e+01 1.322849e+01 1.072039e+01 2.877441e+01 4.388823e+01 5.687601e+01 6.242672e+01 5.525166e+01 1.190380e+01 9.064201e+00
<GCONST> 6.148395e+01
<TRANSP> 5
 0.000000e+00 1.000000e+00 0.000000e+00 0.000000e+00 0.000000e+00
 0.000000e+00 7.649196e-01 2.350804e-01 0.000000e+00 0.000000e+00
 0.000000e+00 0.000000e+00 7.331489e-01 2.668511e-01 0.000000e+00
 0.000000e+00 0.000000e+00 0.000000e+00 6.498950e-01 3.501050e-01
 0.000000e+00 0.000000e+00 0.000000e+00 0.000000e+00 0.000000e+00
<ENDHMM>
~h "t"
<BEGINHMM>
<NUMSTATES> 5
<STATE> 2
<NUMMIXES> 3
<MIXTURE> 1 2.147944e-01
<MEAN> 12
 -9.865290e+00 3.369569e+00 7.367305e+00 1.819284e+00 3.635922e+00 2.054433e+00 3.697522e-01 9.569579e-01 2.374410e+00 1.213603e+00 -1.600173e-01 6.851758e-01
<VARIANCE> 12
 4.511425e+01 3.047128e+01 3.401458e+01 1.029364e+02 2.033695e+01 1.849578e+01 3.806984e+01 3.030177e+01 2.051991e+01 2.247587e+01 1.421384e+01 2.533444e+01
<GCONST> 6.244224e+01
<MIXTURE> 2 4.719879e-01
<MEAN> 12
 -1.383437e+01 2.479388e-01 6.401053e+00 -2.778881e+00 -1.480861e+00 -3.552271e+00 -1.882576e+00 -5.016494e+00 3.215475e+00 -3.842278e+00 -8.784177e-01 -1.385599e+00
<VARIANCE> 12
 9.238010e+01 3.866961e+01 4.614824e+01 3.958264e+01 4.258050e+01 3.755563e+01 6.755692e+01 4.307925e+01 4.083435e+01 3.135873e+01 4.126463e+01 2.333383e+01
<GCONST> 6.712389e+01
<MIXTURE> 3 3.132171e-01
<MEAN> 12
 -1.635273e+01 4.524940e-01 5.038321e+00 -4.742662e+00 -5.790169e-01 -1.556241e+00 2.027424e+00 -2.251450e+00 3.417330e+00 1.893829e-01 1.700881e-01 9.465263e-01
<VARIANCE> 12
 6.076788e+01 1.567432e+01 3.927684e+01 3.864703e+01 1.870298e+01 2.467162e+01 4.606552e+01 2.813134e+01 2.256631e+01 2.159956e+01 2.258517e+01 2.315638e+01
<GCONST> 6.198870e+01
<STATE> 3
<NUMMIXES> 3
<MIXTURE> 1 2.736577e-01
<MEAN> 12
 -1.058784e+01 -5.369921e+00 3.395734e-01 -2.555094e+00 7.696645e+00 -1.475447e+00 2.684892e+00 7.220606e+00 5.575989e+00 -6.187620e-01 1.655116e+00 4.125704e+00
<VARIANCE> 12
 1.878405e+01 2.815987e+01 2.073872e+01 2.200457e+01 3.539229e+01 4.739663e+01 2.297857e+01 2.873113e+01 2.939323e+01 5.663493e+01 3.582642e+01 2.126205e+01
<GCONST> 6.241927e+01
<MIXTURE> 2 4.140434e-01
<MEAN> 12
 -1.077568e+01 -3.823355e+00 2.876393e+00 -5.814129e+00 1.289840e+00 -2.023703e+00 -4.500174e+00 -1.286618e+00 3.513236e+00 -3.674811e+00 -1.686580e+00 -2.882931e+00
<VARIANCE> 12
 5.268780e+01 6.178082e+01 6.039159e+01 4.179436e+01 5.730764e+01 7.262173e+01 7.889066e+01 5.284228e+01 4.572344e+01 4.710971e+01 5.235708e+01 2.012336e+01
<GCONST> 6.928024e+01
<MIXTURE> 3 3.122989e-01
<MEAN> 12
 -1.383453e+01 -4.284241e+00 -1.702322e+00 -3.143391e+00 8.031770e+00 -9.523809e-02 -3.724183e+00 1.669714e+00 3.000589e+00 -5.255846e-01 1.224236e+00 -2.374896e+00
<VARIANCE> 12
 1.605537e+01 2.790328e+01 4.456440e+01 3.323914e+01 5.772145e+01 3.425103e+01 4.294475e+01 2.302882e+01 3.757984e+01 6.015222e+01 3.147774e+01 1.620564e+01
<GCONST> 6.390397e+01
<STATE> 4
<NUMMIXES> 3
<MIXTURE> 1 3.122289e-01
<MEAN> 12
 -1.121759e+01 -7.318867e+00 6.566323e+00 -1.721504e+00 2.244254e+00 -8.033761e-01 -1.371683e-01 -3.769356e+00 1.518971e+00 -4.505043e+00 -1.929273e+00 -3.323319e+00
<VARIANCE> 12
 3.778825e+01 1.372798e+02 8.636603e+01 3.099503e+01 5.593469e+01 4.437805e+01 6.042913e+01 5.845576e+01 4.407135e+01 3.213199e+01 3.527495e+01 2.581731e+01
<GCONST> 6.855752e+01
<MIXTURE> 2 4.131511e-01
<MEAN> 12
 -6.068844e+00 -4.842197e+00 9.172356e-01 -1.169149e+01 -6.556378e+00 -5.295718e+00 -1.135675e+01 -6.981373e+00 4.052226e-01 -1.131779e+01 3.283076e+00 -5.101070e+00
<VARIANCE> 12
 2.052216e+01 6.444387e+01 4.268055e+01 7.186262e+01 7.930993e+01 7.090305e+01 1.102926e+02 8.899632e+01 7.683691e+01 6.274984e+01 7.347267e+01 6.938809e+01
<GCONST> 7.211420e+01
<MIXTURE> 3 2.746193e-01
<MEAN> 12
 -9.218169e+00 -7.960010e+00 2.717954e+00 -7.230052e+00 6.562173e-03 8.123935e-01 -5.827530e+00 -5.213003e+00 3.460762e+00 -5.005498e+00 -2.652998e+00 -6.482159e+00
<VARIANCE> 12
 2.856748e+01 1.177340e+02 6.014833e+01 5.234111e+01 5.579019e+01 6.310037e+01 1.011436e+02 5.094152e+01 4.898837e+01 5.463499e+01 3.986597e+01 2.690395e+01
<GCONST> 6.981342e+01
<TRANSP> 5
 0.000000e+00 1.000000e+00 0.000000e+00 0.000000e+00 0.000000e+00
 0.000000e+00 6.411085e-01 3.588914e-01 0.000000e+00 0.000000e+00
 0.000000e+00 0.000000e+00 6.544710e-01 3.455290e-01 0.000000e+00
 0.000000e+00 0.000000e+00 0.000000e+00 4.697271e-01 5.302729e-01
 0.000000e+00 0.000000e+00 0.000000e+00 0.000000e+00 0.000000e+00
<ENDHMM>
~h "u"
<BEGINHMM>
<NUMSTATES> 5
<STATE> 2
<NUMMIXES> 3
<MIXTURE> 1 3.169885e-01
<MEAN> 12
 4.897244e+00 1.173363e+01 5.818951e+00 -1.752338e+01 -4.998452e+00 1.356656e+00 -8.141415e+00 -4.826196e-01 2.991132e+00 -6.596768e+00 -1.122623e+00 1.200510e+00
<VARIANCE> 12
 1.315449e+01 1.362561e+01 2.231150e+01 8.632614e+01 3.350463e+01 5.166862e+01 5.537568e+01 5.177409e+01 3.091080e+01 2.678963e+01 2.262481e+01 2.802529e+01
<GCONST> 6.339532e+01
<MIXTURE> 2 4.552785e-01
<MEAN> 12
 2.107664e+00 5.249412e+00 2.816904e+00 -1.389872e+01 -1.598319e+01 8.605779e+00 -8.437279e+00 -1.289498e+01 -3.315032e+00 -1.287891e+01 -4.990888e-01 -7.166148e+00
<VARIANCE> 12
 6.313414e+00 1.534824e+01 2.955384e+01 3.373431e+01 4.196083e+01 5.820822e+01 3.162017e+01 3.673473e+01 5.184539e+01 2.737162e+01 4.086021e+01 3.612711e+01
<GCONST> 6.294618e+01
<MIXTURE> 3 2.277318e-01
<MEAN> 12
 3.041191e+00 2.083282e+00 6.302069e+00 -1.752401e+01 -1.025674e+01 6.709624e+00 -9.402919e+00 -5.427883e+00 -1.843828e-01 -5.037550e+00 -1.912960e+00 -1.676751e+00
<VARIANCE> 12
 1.983515e+01 4.082372e+01 7.284016e+01 1.024920e+02 4.421002e+01 9.534368e+01 4.402126e+01 6.054882e+01 4.899670e+01 5.650933e+01 4.821920e+01 2.884800e+01
<GCONST> 6.906781e+01
<STATE> 3
<NUMMIXES> 3
<MIXTURE> 1 3.415430e-01
<MEAN> 12
 2.821402e+00 4.146950e-01 6.566314e+00 -1.082623e+01 -8.580693e+00 7.632527e+00 -1.290991e+01 -8.914142e+00 -5.420997e+00 -3.923745e+00 4.792053e+00 -3.582112e+00
<VARIANCE> 12
 1.838032e+01 4.938253e+01 5.668585e+01 1.044414e+02 7.750050e+01 1.226645e+02 8.382803e+01 1.266316e+02 8.269898e+01 5.516730e+01 6.617982e+01 4.687396e+01
<GCONST> 7.244675e+01
<MIXTURE> 2 3.482621e-01
<MEAN> 12
 -4.872753e+00 4.511940e+00 -1.275508e+00 -1.875293e+01 -1.315129e+01 5.421611e+00 -2.368956e+01 -5.949479e+00 1.784223e-01 -1.799963e+01 7.453338e+00 -1.368352e+01
<VARIANCE> 12
 2.524611e+01 6.284549e+01 5.082703e+01 6.438767e+01 7.538480e+01 1.008745e+02 4.525530e+01 7.120698e+01 9.846009e+01 1.236202e+02 6.305276e+01 5.893634e+01
<GCONST> 7.215892e+01
<MIXTURE> 3 3.101944e-01
<MEAN> 12
 1.497934e+00 7.953930e+00 8.200823e+00 -1.961028e+01 -1.638505e+01 1.864027e+01 -2.443533e+01 1.896333e+00 -1.854351e+00 -1.358403e+01 4.434503e+00 -1.038122e+01
<VARIANCE> 12
 8.891132e+00 3.566455e+01 2.024002e+01 4.143433e+01 7.077097e+01 6.755038e+01 5.897234e+01 8.737693e+01 7.890973e+01 7.671651e+01 5.925703e+01 5.267218e+01
<GCONST> 6.831953e+01
<STATE> 4
<NUMMIXES> 3
<MIXTURE> 1 2.807199e-01
<MEAN> 12
 -2.629035e+00 2.593749e+00 8.037823e+00 -5.691028e+00 1.226788e+00 1.581368e+00 -7.810534e+00 -7.351598e+00 -1.208329e+00 -7.348955e-01 1.317827e+00 -4.901060e+00
<VARIANCE> 12
 2.600746e+01 7.299194e+01 6.343820e+01 8.161314e+01 4.860454e+01 6.396802e+01 8.265816e+01 6.042994e+01 4.702910e+01 3.576696e+01 4.182193e+01 5.127142e+01
<GCONST> 6.981196e+01
<MIXTURE> 2 5.099372e-01
<MEAN> 12
 2.135805e+00 7.092038e-01 -2.818404e+00 -9.317352e+00 -6.358650e+00 -9.022955e+00 -9.439273e+00 -6.979247e+00 -2.944411e+00 -4.600635e+00 -2.731573e+00 -1.436689e+00
<VARIANCE> 12
 1.911469e+01 1.434401e+01 1.475675e+01 3.664993e+01 1.729481e+01 3.041622e+01 2.700897e+01 4.107884e+01 1.768004e+01 2.794875e+01 2.354285e+01 1.728743e+01
<GCONST> 5.945008e+01
<MIXTURE> 3 2.093429e-01
<MEAN> 12
 8.037726e-01 -4.600625e-01 2.754374e+00 -6.147155e+00 -4.524806e+00 1.765399e+00 -1.275372e+01 -9.439429e+00 -3.626366e+00 -1.415641e+00 3.879760e+00 -5.514107e+00
<VARIANCE> 12
 1.202937e+01 1.753002e+01 5.546474e+01 1.010921e+02 6.078724e+01 8.913546e+01 6.544685e+01 4.731253e+01 2.153333e+01 2.666797e+01 4.411970e+01 4.858269e+01
<GCONST> 6.669636e+01
<TRANSP> 5
 0.000000e+00 1.000000e+00 0.000000e+00 0.000000e+00 0.000000e+00
 0.000000e+00 7.853669e-01 2.146331e-01 0.000000e+00 0.000000e+00
 0.000000e+00 0.000000e+00 7.266668e-01 2.733332e-01 0.000000e+00
 0.000000e+00 0.000000e+00 0.000000e+00 6.573105e-01 3.426895e-01
 0.000000e+00 0.000000e+00 0.000000e+00 0.000000e+00 0.000000e+00
<ENDHMM>
~h "x"
<BEGINHMM>
<NUMSTATES> 5
<STATE> 2
<NUMMIXES> 3
<MIXTURE> 1 3.187000e-01
<MEAN> 12
 -2.173636e+00 1.335964e+00 -2.230878e+00 -4.588646e+00 1.494740e+00 5.926586e+00 4.801020e+00 -6.424139e-01 9.579164e-01 8.620780e-02 -6.270560e-01 2.494368e+00
<VARIANCE> 12
 3.656467e+01 1.599888e+01 3.102970e+01 2.271663e+01 3.152448e+01 3.847737e+01 2.536937e+01 4.656468e+01 3.759619e+01 3.632157e+01 3.961359e+01 2.207441e+01
<GCONST> 6.315229e+01
<MIXTURE> 2 4.208347e-01
<MEAN> 12
 -4.800353e+00 -4.930830e+00 -2.770836e+00 -9.552181e+00 4.099673e+00 2.799844e+00 -8.038165e+00 -2.061934e+00 1.541635e+00 -3.996005e+00 -4.936895e+00 -5.413903e+00
<VARIANCE> 12
 6.483936e+01 6.852050e+01 2.857546e+01 6.198938e+01 7.014782e+01 7.642796e+01 3.215874e+01 4.817432e+01 5.149577e+01 3.643218e+01 5.828548e+01 2.610580e+01
<GCONST> 6.873001e+01
<MIXTURE> 3 2.604640e-01
<MEAN> 12
 -9.738710e+00 -2.433849e+00 -1.536171e+00 -7.342806e+00 7.403420e+00 2.188522e+00 -2.234556e+00 -2.220704e+00 2.616349e+00 -3.243032e+00 4.450666e-01 -3.469290e+00
<VARIANCE> 12
 6.945386e+01 2.853391e+01 3.057394e+01 4.760720e+01 6.071140e+01 4.956855e+01 3.325362e+01 3.353035e+01 4.330861e+01 3.105538e+01 2.790300e+01 1.603116e+01
<GCONST> 6.526292e+01
<STATE> 3
<NUMMIXES> 3
<MIXTURE> 1 2.186838e-01
<MEAN> 12
 -1.468432e+01 5.482959e+00 -2.461438e+00 -6.773376e+00 8.984461e+00 1.716822e+01 -7.475539e+00 4.475721e+00 8.454795e+00 -8.593500e+00 1.016186e+01 -7.313929e+00
<VARIANCE> 12
 2.835344e+01 2.555663e+01 1.906477e+01 3.255907e+01 9.205480e+01 5.997347e+01 3.098656e+01 5.027599e+01 7.696844e+01 6.345354e+01 4.311096e+01 2.829884e+01
<GCONST> 6.663873e+01
<MIXTURE> 2 5.122093e-01
<MEAN> 12
 -1.006818e+01 -1.057825e+00 -8.132878e+00 -1.090079e+01 3.556111e+00 3.408174e+00 -4.160944e+00 -1.479887e+00 2.673810e+00 -5.049301e+00 1.981558e+00 -4.072573e+00
<VARIANCE> 12
 6.674656e+01 4.157398e+01 4.227699e+01 4.821899e+01 7.329535e+01 6.006391e+01 4.764667e+01 7.505922e+01 4.658145e+01 4.453022e+01 6.652351e+01 3.896032e+01
<GCONST> 6.967237e+01
<MIXTURE> 3 2.691075e-01
<MEAN> 12
 -1.163507e+01 3.105141e+00 -6.804835e+00 -1.237402e+01 1.962068e+00 7.508215e+00 -6.115138e+00 3.127239e+00 4.565507e+00 -4.152130e+00 3.836971e+00 -6.053384e+00
<VARIANCE> 12
 4.446824e+01 4.102957e+01 2.148366e+01 4.716375e+01 9.290967e+01 4.469282e+01 4.711445e+01 1.143573e+02 8.616297e+01 5.348865e+01 3.968669e+01 3.780389e+01
<GCONST> 6.915700e+01
<STATE> 4
<NUMMIXES> 3
<MIXTURE> 1 3.386652e-01
<MEAN> 12
 -7.185527e+00 4.676174e+00 -5.088129e-01 -1.686656e+01 -2.010207e-02 1.001970e+01 -1.063992e+00 -2.178534e+00 1.008765e+01 -6.644142e+00 1.429154e+00 -2.258871e+00
<VARIANCE> 12
 4.926296e+01 4.721626e+01 2.236602e+01 1.102167e+02 2.547369e+01 4.860928e+01 3.914749e+01 4.258090e+01 9.161517e+01 4.872013e+01 4.741240e+01 3.777820e+01
<GCONST> 6.805093e+01
<MIXTURE> 2 3.799022e-01
<MEAN> 12
 -1.295635e+00 -1.410016e+00 -2.663753e+00 -1.284749e+01 -4.213804e+00 9.038919e+00 -1.229805e+01 -1.452489e+00 -1.145250e+00 -7.268202e+00 3.849585e+00 -1.032934e+01
<VARIANCE> 12
 2.921917e+01 6.315938e+01 6.466637e+01 1.042408e+02 8.774640e+01 1.150933e+02 1.441227e+02 7.528357e+01 1.274069e+02 6.822079e+01 8.352469e+01 5.055288e+01
<GCONST> 7.432137e+01
<MIXTURE> 3 2.814333e-01
<MEAN> 12
 2.272258e+00 -2.596613e+00 9.941399e-03 -1.851279e+01 -5.615564e+00 9.535574e+00 3.205953e-01 -4.300774e+00 5.368128e+00 -6.975305e+00 2.513871e+00 -4.241254e+00
<VARIANCE> 12
 3.348993e+01 4.893187e+01 1.045473e+02 1.655433e+02 7.708500e+01 8.625490e+01 7.477434e+01 2.944101e+01 2.636124e+01 4.398217e+01 4.920194e+01 3.870576e+01
<GCONST> 7.032175e+01
<TRANSP> 5
 0.000000e+00 1.000000e+00 0.000000e+00 0.000000e+00 0.000000e+00
 0.000000e+00 6.707191e-01 3.292808e-01 0.000000e+00 0.000000e+00
 0.000000e+00 0.000000e+00 7.435033e-01 2.564967e-01 0.000000e+00
 0.000000e+00 0.000000e+00 0.000000e+00 6.246606e-01 3.753394e-01
 0.000000e+00 0.000000e+00 0.000000e+00 0.000000e+00 0.000000e+00
<ENDHMM>
~h "y"
<BEGINHMM>
<NUMSTATES> 5
<STATE> 2
<NUMMIXES> 3
<MIXTURE> 1 3.942582e-01
<MEAN> 12
 -3.537293e+00 -2.898800e+00 1.832139e+01 4.658154e+00 -1.167616e+01 -3.190619e+00 -7.259746e+00 -2.235181e+00 -6.211495e+00 -7.436317e+00 3.008343e+00 -6.675607e+00
<VARIANCE> 12
 2.138507e+01 2.366774e+01 6.984625e+01 7.533516e+01 7.035759e+01 5.895921e+01 5.344148e+01 4.934924e+01 4.125402e+01 5.008456e+01 3.501458e+01 5.754285e+01
<GCONST> 6.829927e+01
<MIXTURE> 2 3.468848e-01
<MEAN> 12
 -6.302801e+00 -6.816887e+00 1.153649e+01 6.345387e+00 -2.310386e+01 -8.850574e+00 -1.549418e+01 -1.176226e+01 -1.799327e+00 -1.923632e+01 5.125710e+00 -1.456023e+01
<VARIANCE> 12
 1.673113e+01 1.373698e+01 2.151391e+01 3.355083e+01 6.265030e+01 1.040690e+02 5.447062e+01 5.192812e+01 6.047754e+01 6.430692e+01 4.647890e+01 2.742543e+01
<GCONST> 6.622020e+01
<MIXTURE> 3 2.588576e-01
<MEAN> 12
 -2.472580e+00 -5.073816e+00 2.262084e+01 9.077089e+00 -2.139462e+01 3.856140e+00 -1.581172e+01 -1.290210e+00 -5.275602e+00 -1.422871e+01 1.046687e+01 -1.213069e+01
<VARIANCE> 12
 1.386514e+01 1.753789e+01 4.377952e+01 5.729601e+01 3.889926e+01 4.183450e+01 6.093731e+01 1.498679e+02 8.018134e+01 6.348819e+01 5.551448e+01 4.036344e+01
<GCONST> 6.813968e+01
<STATE> 3
<NUMMIXES> 3
<MIXTURE> 1 2.772361e-01
<MEAN> 12
 -8.860727e-01 -2.241296e+00 1.990096e+01 9.015233e+00 -9.151966e+00 -6.642875e+00 -4.815228e+00 8.857275e-01 -1.314443e+01 -1.196578e+00 -9.000652e-01 6.685991e-01
<VARIANCE> 12
 5.375743e+00 1.436030e+01 3.665618e+01 1.758727e+01 3.343988e+01 2.662765e+01 3.804694e+01 4.400762e+01 3.111917e+01 4.591671e+01 1.562181e+01 4.887592e+01
<GCONST> 6.098714e+01
<MIXTURE> 2 2.968867e-01
<MEAN> 12
 -3.210344e+00 -6.647042e+00 1.724158e+01 1.470043e+00 -1.437832e+01 -5.864591e+00 -1.217452e+01 -2.374111e+00 -5.620331e+00 -7.792174e+00 2.492463e+00 -5.232341e+00
<VARIANCE> 12
 1.653316e+01 3.750147e+01 9.243466e+01 4.576635e+01 8.516243e+01 6.821287e+01 7.527011e+01 6.679086e+01 4.633081e+01 3.388406e+01 3.671370e+01 4.260913e+01
<GCONST> 6.873814e+01
<MIXTURE> 3 4.258773e-01
<MEAN> 12
 -1.809784e+00 -5.068599e+00 2.241245e+01 9.474466e+00 -1.054857e+01 -1.176190e+01 -2.128334e+00 -5.034119e+00 -7.135462e+00 -9.580300e+00 2.317838e+00 -1.797052e+00
<VARIANCE> 12
 1.354297e+01 1.745603e+01 2.058849e+01 1.583659e+01 2.153780e+01 2.701909e+01 3.057570e+01 2.723834e+01 2.788313e+01 2.693435e+01 2.045506e+01 1.534921e+01
<GCONST> 5.876904e+01
<STATE> 4
<NUMMIXES> 3
<MIXTURE> 1 2.965150e-01
<MEAN> 12
 -8.183320e+00 3.954660e+00 1.878546e+01 3.813787e+00 -6.513220e+00 -6.649661e+00 -7.288160e-01 -5.174406e+00 -3.953027e+00 -4.110672e+00 -3.090604e+00 -1.975065e+00
<VARIANCE> 12
 2.010991e+01 2.763130e+01 5.541647e+01 2.713434e+01 4.484761e+01 5.211864e+01 2.762182e+01 2.359761e+01 2.364652e+01 3.785453e+01 2.352132e+01 3.979271e+01
<GCONST> 6.356547e+01
<MIXTURE> 2 4.583805e-01
<MEAN> 12
 -6.514420e+00 -6.996962e+00 6.542591e+00 -2.730520e+00 -1.088037e+01 -7.327961e+00 -1.402027e+01 -6.219463e-01 -1.948039e+00 -1.360872e+00 1.102215e-01 -4.774546e+00
<VARIANCE> 12
 3.418107e+01 2.484227e+01 4.754283e+01 5.886465e+01 2.576368e+02 6.052260e+01 1.172304e+02 4.520308e+01 4.561993e+01 7.503107e+01 5.322131e+01 5.094890e+01
<GCONST> 7.100902e+01
<MIXTURE> 3 2.451044e-01
<MEAN> 12
 -7.881798e+00 5.374168e+00 1.863984e+01 1.273919e-01 -1.061741e+01 -1.262080e+00 -3.429084e+00 -8.676460e+00 -4.624942e+00 -1.863389e+00 -4.075323e+00 -5.205475e+00
<VARIANCE> 12
 3.944704e+01 2.798159e+01 8.222370e+01 4.917063e+01 4.517496e+01 6.410190e+01 3.386894e+01 3.041414e+01 2.420291e+01 1.015657e+02 3.846982e+01 5.744709e+01
<GCONST> 6.778211e+01
<TRANSP> 5
 0.000000e+00 1.000000e+00 0.000000e+00 0.000000e+00 0.000000e+00
 0.000000e+00 7.172700e-01 2.827300e-01 0.000000e+00 0.000000e+00
 0.000000e+00 0.000000e+00 7.476197e-01 2.523803e-01 0.000000e+00
 0.000000e+00 0.000000e+00 0.000000e+00 5.273972e-01 4.726028e-01
 0.000000e+00 0.000000e+00 0.000000e+00 0.000000e+00 0.000000e+00
<ENDHMM>
~h "#i"
<BEGINHMM>
<NUMSTATES> 5
<STATE> 2
<NUMMIXES> 3
<MIXTURE> 1 3.321512e-01
<MEAN> 12
 -4.984686e+00 -3.531599e+00 1.051765e+01 4.986044e+00 -3.909997e+00 -1.324845e+01 -8.247722e+00 -3.851696e+00 1.191496e+00 -5.908869e+00 -1.614597e+00 7.509335e-01
<VARIANCE> 12
 2.248208e+01 2.886096e+01 4.222102e+01 3.011417e+01 3.285281e+01 3.980853e+01 3.371470e+01 5.127324e+01 3.758701e+01 2.761174e+01 3.071071e+01 5.995709e+01
<GCONST> 6.477201e+01
<MIXTURE> 2 3.539167e-01
<MEAN> 12
 -2.852819e+00 -4.270645e+00 4.497537e+00 -1.070310e+01 -9.279261e+00 -1.783846e+01 -9.610132e+00 1.029814e+00 -3.230672e+00 -6.181244e+00 -4.099396e+00 2.936214e+00
<VARIANCE> 12
 1.629350e+01 2.970220e+01 1.594298e+01 1.868353e+01 2.156294e+01 3.510352e+01 2.594427e+01 3.864022e+01 2.183852e+01 1.757745e+01 2.100693e+01 3.208301e+01
<GCONST> 5.993616e+01
<MIXTURE> 3 3.139326e-01
<MEAN> 12
 -8.042250e-01 -8.184151e-01 8.335910e+00 -1.034042e+01 -1.091040e+01 -1.211848e+01 -9.518394e+00 -6.354627e+00 -4.542074e+00 -1.969001e+00 -2.909134e+00 2.171880e+00
<VARIANCE> 12
 3.914817e+00 9.423353e+00 1.514757e+01 1.574728e+01 1.356470e+01 3.056980e+01 8.566612e+00 3.008222e+01 1.168113e+01 1.374004e+01 1.239448e+01 1.970645e+01
<GCONST> 5.329277e+01
<STATE> 3
<NUMMIXES> 3
<MIXTURE> 1 3.940934e-01
<MEAN> 12
 -2.707032e+00 -3.071244e+00 8.344770e+00 1.535757e+00 -3.834124e+00 -1.258649e+01 -8.963255e+00 -3.155824e+00 3.877649e-01 -5.704516e+00 -3.165215e-01 3.608071e-01
<VARIANCE> 12
 2.222278e+01 3.321145e+01 6.722548e+01 5.243420e+01 3.277192e+01 4.008290e+01 3.158432e+01 3.821739e+01 4.401403e+01 5.507268e+01 3.960839e+01 3.464545e+01
<GCONST> 6.612000e+01
<MIXTURE> 2 3.296290e-01
<MEAN> 12
 -6.114176e-02 -9.876645e+00 1.418910e+01 2.300028e+00 -1.145935e+01 -1.247872e+01 -1.685484e+01 -1.463244e+00 -4.429261e+00 -8.611660e+00 6.695703e-01 -9.524962e+00
<VARIANCE> 12
 1.287154e+01 3.772176e+01 1.193377e+02 4.773653e+01 4.717506e+01 5.792558e+01 1.042514e+02 8.494144e+01 6.452946e+01 3.083745e+01 5.132243e+01 9.444545e+01
<GCONST> 6.997122e+01
<MIXTURE> 3 2.762770e-01
<MEAN> 12
 4.066305e+00 -1.708888e+01 2.383558e+01 -1.402033e+00 -9.464648e+00 -1.322033e+01 -1.655080e+01 5.856552e+00 -6.068003e+00 -4.128481e+00 1.831200e+00 -4.601993e+00
<VARIANCE> 12
 1.017146e+01 3.173222e+01 7.733544e+01 3.901185e+01 5.367225e+01 5.171664e+01 5.115334e+01 6.314338e+01 4.017508e+01 9.369483e+01 2.758610e+01 4.959962e+01
<GCONST> 6.730695e+01
<STATE> 4
<NUMMIXES> 3
<MIXTURE> 1 2.724333e-01
<MEAN> 12
 -5.828471e+00 -3.778939e+00 -6.841438e-01 -1.795556e-01 2.561183e+00 -3.362777e+00 6.939471e-01 3.835411e-01 3.460105e+00 -5.700513e+00 -1.122548e+00 3.223168e+00
<VARIANCE> 12
 4.171476e+01 2.164157e+01 3.242714e+01 1.967967e+01 3.086980e+01 2.120893e+01 1.602477e+01 2.556114e+01 2.783110e+01 6.330443e+01 1.479328e+01 2.332810e+01
<GCONST> 6.113593e+01
<MIXTURE> 2 3.782114e-01
<MEAN> 12
 -2.911517e+00 -2.961144e+00 6.221677e+00 -1.335013e+00 -3.963435e+00 -9.567128e+00 -5.936754e+00 -4.044894e+00 -3.582957e-01 -3.738075e+00 -2.485795e+00 -2.161610e+00
<VARIANCE> 12
 3.856068e+01 4.446517e+01 6.375006e+01 5.606270e+01 4.557478e+01 4.467064e+01 3.734599e+01 6.107531e+01 5.537717e+01 4.213248e+01 3.148505e+01 2.885673e+01
<GCONST> 6.760075e+01
<MIXTURE> 3 3.493538e-01
<MEAN> 12
 -3.342156e+00 -1.147396e+00 1.534137e+00 -5.667030e-01 -1.365752e+00 -5.690232e+00 -2.315043e+00 -3.873055e+00 1.511227e+00 -3.633457e+00 -1.632185e+00 -5.083412e-02
<VARIANCE> 12
 4.540030e+01 1.752113e+01 2.670884e+01 2.517370e+01 1.431217e+01 2.924831e+01 1.576615e+01 2.035366e+01 2.719282e+01 3.437828e+01 1.231074e+01 1.588915e+01
<GCONST> 5.916879e+01
<TRANSP> 5
 0.000000e+00 1.000000e+00 0.000000e+00 0.000000e+00 0.000000e+00
 0.000000e+00 6.900876e-01 3.099124e-01 0.000000e+00 0.000000e+00
 0.000000e+00 0.000000e+00 6.607795e-01 3.392205e-01 0.000000e+00
 0.000000e+00 0.000000e+00 0.000000e+00 7.159535e-01 2.840465e-01
 0.000000e+00 0.000000e+00 0.000000e+00 0.000000e+00 0.000000e+00
<ENDHMM>
~h "#s"
<BEGINHMM>
<NUMSTATES> 5
<STATE> 2
<NUMMIXES> 3
<MIXTURE> 1 3.020764e-01
<MEAN> 12
 -1.843406e+01 1.021334e+01 1.090681e+01 1.277648e+00 2.120940e+00 -5.892743e+00 3.987401e+00 -1.977874e+00 3.676524e-01 -1.421273e+00 1.535724e-01 -1.606915e+00
<VARIANCE> 12
 4.614575e+01 2.979355e+01 4.610544e+01 3.117579e+01 4.590076e+01 4.185976e+01 4.745241e+01 3.467921e+01 4.010664e+01 2.976668e+01 2.353697e+01 2.115571e+01
<GCONST> 6.481328e+01
<MIXTURE> 2 4.588157e-01
<MEAN> 12
 -2.271344e+01 6.844370e+00 -6.026585e-01 -7.153261e+00 4.723177e+00 -6.415845e+00 3.336983e+00 -1.928918e-01 -1.166127e+00 -1.157269e-01 7.125924e-01 1.189739e+00
<VARIANCE> 12
 2.372027e+01 9.181269e+00 2.444396e+01 2.381215e+01 1.916355e+01 2.403343e+01 2.555228e+01 2.237636e+01 2.756182e+01 2.831365e+01 1.395010e+01 2.041395e+01
<GCONST> 5.859727e+01
<MIXTURE> 3 2.391083e-01
<MEAN> 12
 -2.256448e+01 8.283883e+00 7.185947e-01 -4.667753e+00 5.039685e+00 -6.654735e+00 6.115310e+00 -8.622676e-01 1.727799e+00 9.795390e-01 1.015756e+00 1.368220e+00
<VARIANCE> 12
 1.886597e+01 1.257424e+01 5.461774e+01 2.969040e+01 2.094634e+01 2.998228e+01 2.900385e+01 2.466683e+01 3.315306e+01 1.950210e+01 1.341871e+01 2.160069e+01
<GCONST> 6.007122e+01
<STATE> 3
<NUMMIXES> 3
<MIXTURE> 1 2.685569e-01
<MEAN> 12
 -2.319838e+01 -2.496972e-01 6.257496e+00 -2.185820e+00 -5.291953e+00 -2.853657e+00 3.470969e+00 1.353761e+00 6.336201e-01 -5.789388e-01 3.728791e+00 1.278771e+00
<VARIANCE> 12
 5.130588e+01 2.428120e+01 4.848797e+01 5.289442e+01 5.274891e+01 5.507114e+01 3.572419e+01 2.609930e+01 2.455280e+01 3.393330e+01 3.754840e+01 3.348584e+01
<GCONST> 6.570552e+01
<MIXTURE> 2 5.071592e-01
<MEAN> 12
 -3.053328e+01 2.575820e+00 3.594864e+00 -4.149404e+00 4.059408e-01 -5.959173e+00 5.751424e+00 -8.615716e+00 2.676500e+00 -2.141768e+00 -7.237849e-01 -2.898524e+00
<VARIANCE> 12
 5.845599e+00 2.203480e+01 3.103357e+01 2.251586e+01 3.015031e+01 3.639869e+01 2.148775e+01 3.256331e+01 2.741430e+01 2.197134e+01 2.950554e+01 2.099616e+01
<GCONST> 5.984325e+01
<MIXTURE> 3 2.242837e-01
<MEAN> 12
 -2.877071e+01 2.663946e+00 5.404226e+00 -3.888321e+00 -8.718960e-01 -3.611819e+00 4.136896e+00 -5.766005e+00 2.910382e+00 -1.774491e+00 3.001108e-01 -1.546155e+00
<VARIANCE> 12
 1.923036e+01 2.921342e+01 7.666127e+01 2.561523e+01 2.978058e+01 4.367414e+01 3.051466e+01 2.547894e+01 2.859295e+01 2.583906e+01 2.228357e+01 2.721146e+01
<GCONST> 6.280744e+01
<STATE> 4
<NUMMIXES> 3
<MIXTURE> 1 2.607578e-01
<MEAN> 12
 -1.022230e+01 1.391175e+00 4.940289e+00 -7.379460e-01 -9.493835e-02 -8.018382e+00 1.021358e+00 3.409023e+00 -1.032628e+00 -9.262418e-01 8.088323e-01 1.723177e+00
<VARIANCE> 12
 2.406334e+01 1.769035e+01 4.662676e+01 5.076908e+01 2.763350e+01 1.547848e+01 4.284199e+01 2.049941e+01 6.028444e+01 2.749147e+01 1.537788e+01 2.158514e+01
<GCONST> 6.193198e+01
<MIXTURE> 2 4.646248e-01
<MEAN> 12
 -1.515816e+01 3.486614e+00 1.355244e+01 -8.487288e-01 -6.282590e+00 -9.174351e+00 3.205525e-01 -7.932171e+00 -4.575834e+00 -6.539639e+00 -2.899751e+00 -4.721597e+00
<VARIANCE> 12
 4.478825e+01 2.671341e+01 4.895840e+01 5.664575e+01 3.190539e+01 2.937159e+01 4.433175e+01 2.117339e+01 3.279166e+01 1.585787e+01 1.915619e+01 2.164350e+01
<GCONST> 6.303784e+01
<MIXTURE> 3 2.746176e-01
<MEAN> 12
 -1.312281e+01 3.440378e+00 9.092910e+00 -3.537672e+00 -3.538153e+00 -1.194404e+01 9.770155e-01 -6.805250e+00 1.911880e+00 -6.223248e+00 2.622303e-02 -3.214522e+00
<VARIANCE> 12
 5.136477e+01 1.773445e+01 4.878215e+01 2.220675e+01 1.987003e+01 5.536464e+01 3.825661e+01 5.008997e+01 2.846025e+01 3.040331e+01 3.225776e+01 2.895702e+01
<GCONST> 6.402067e+01
<TRANSP> 5
 0.000000e+00 1.000000e+00 0.000000e+00 0.000000e+00 0.000000e+00
 0.000000e+00 7.667788e-01 2.332212e-01 0.000000e+00 0.000000e+00
 0.000000e+00 0.000000e+00 7.627470e-01 2.372529e-01 0.000000e+00
 0.000000e+00 0.000000e+00 0.000000e+00 1.931201e-01 8.068800e-01
 0.000000e+00 0.000000e+00 0.000000e+00 0.000000e+00 0.000000e+00
<ENDHMM>
~h "aN"
<BEGINHMM>
<NUMSTATES> 5
<STATE> 2
<NUMMIXES> 3
<MIXTURE> 1 2.870714e-01
<MEAN> 12
 -3.839096e-01 -1.427795e+01 -8.788800e-01 -6.504683e+00 8.289874e+00 3.695285e+00 6.504512e+00 -1.074544e+01 9.351832e+00 -5.094182e+00 -2.592255e+00 -4.326894e+00
<VARIANCE> 12
 1.316972e+01 2.153926e+01 3.497692e+01 4.088654e+01 4.906098e+01 6.190518e+01 4.470174e+01 3.570904e+01 2.461678e+01 5.204660e+01 3.141586e+01 2.450905e+01
<GCONST> 6.416381e+01
<MIXTURE> 2 3.794789e-01
<MEAN> 12
 -4.735668e+00 -1.336133e+01 -1.277175e+00 -9.925947e+00 2.258228e+00 -6.086061e+00 -3.128629e+00 -2.408983e+00 1.022964e+00 -1.123834e+01 -6.298215e+00 -4.529084e+00
<VARIANCE> 12
 1.292305e+01 3.566508e+01 2.448639e+01 6.169196e+01 8.089752e+01 9.390968e+01 8.331663e+01 6.278161e+01 5.512111e+01 7.615071e+01 2.939766e+01 2.369177e+01
<GCONST> 6.789411e+01
<MIXTURE> 3 3.334488e-01
<MEAN> 12
 8.265666e-01 -1.641004e+01 4.902164e+00 -1.173958e+01 5.721015e+00 3.829460e+00 -1.216234e+00 -6.311392e+00 1.137310e+01 -8.667532e+00 -4.759679e+00 -5.833416e+00
<VARIANCE> 12
 1.003165e+01 2.195860e+01 2.754758e+01 3.447374e+01 5.356499e+01 7.670858e+01 5.261827e+01 6.509767e+01 2.595798e+01 5.119912e+01 7.047645e+01 4.282187e+01
<GCONST> 6.596993e+01
<STATE> 3
<NUMMIXES> 3
<MIXTURE> 1 3.335318e-01
<MEAN> 12
 6.483899e-01 -6.983946e+00 7.322427e+00 -5.571878e+00 -7.343246e-01 -1.290571e+00 -2.631729e+00 -4.054634e+00 2.721865e+00 -2.582759e+00 -2.546096e+00 -6.045668e+00
<VARIANCE> 12
 1.334355e+01 3.877123e+01 7.844693e+01 6.416834e+01 6.974128e+01 8.205470e+01 8.796764e+01 8.629375e+01 9.467269e+01 6.418163e+01 5.056248e+01 3.130923e+01
<GCONST> 7.049335e+01
<MIXTURE> 2 3.259463e-01
<MEAN> 12
 -2.632390e+00 -1.218692e+01 -1.856750e+00 -8.819034e+00 -1.593141e+01 7.289668e+00 -2.594682e+01 8.752766e+00 -9.671685e+00 -7.140615e+00 -7.469707e+00 -1.243008e+01
<VARIANCE> 12
 1.257249e+01 5.163505e+01 5.528627e+01 4.006429e+01 6.238126e+01 5.833989e+01 4.717148e+01 4.832384e+01 6.215487e+01 7.430051e+01 7.468604e+01 3.674187e+01
<GCONST> 6.851947e+01
<MIXTURE> 3 3.405220e-01
<MEAN> 12
 3.315265e-01 -1.452689e+01 8.231091e+00 -1.030907e+01 -5.974155e+00 8.145720e+00 -1.666269e+01 7.774067e+00 1.585409e+00 -2.617337e+00 -4.827901e+00 -8.403384e+00
<VARIANCE> 12
 5.226900e+00 7.586886e+01 2.964748e+01 6.716397e+01 5.016048e+01 5.957385e+01 5.469953e+01 5.706263e+01 4.939807e+01 5.623212e+01 6.076538e+01 4.293567e+01
<GCONST> 6.747843e+01
<STATE> 4
<NUMMIXES> 3
<MIXTURE> 1 2.506245e-01
<MEAN> 12
 1.940181e+00 3.146296e+00 1.207725e+01 4.280232e+00 -9.560320e-01 1.926102e+00 -7.434091e+00 -2.825991e+00 5.836347e+00 -4.516949e+00 -5.734045e+00 6.700061e-01
<VARIANCE> 12
 3.911627e+00 2.375715e+01 6.294879e+01 1.087653e+01 2.473107e+01 4.234849e+01 1.659256e+02 4.142136e+01 1.262038e+01 3.458952e+01 1.492860e+01 4.943919e+01
<GCONST> 6.158751e+01
<MIXTURE> 2 4.925350e-01
<MEAN> 12
 -1.282053e-01 -3.692710e+00 7.456203e+00 -3.617726e-02 -6.742045e+00 -4.460372e+00 -1.006779e+01 -1.889258e+00 -4.209217e-01 -6.575036e+00 -2.821118e+00 -5.745202e+00
<VARIANCE> 12
 1.062717e+01 4.277173e+01 6.641467e+01 4.812952e+01 7.130903e+01 5.596729e+01 8.370409e+01 1.072118e+02 5.911217e+01 3.040825e+01 3.866547e+01 5.545720e+01
<GCONST> 6.880222e+01
<MIXTURE> 3 2.568401e-01
<MEAN> 12
 -2.391984e-01 -8.513255e-01 5.226756e+00 2.698972e+00 1.536214e+00 -1.917210e+00 -1.349781e+00 -2.340179e+00 6.149477e+00 -1.864903e+00 -4.984333e+00 -2.177919e+00
<VARIANCE> 12
 1.105337e+01 2.348216e+01 3.893588e+01 1.793925e+01 5.496992e+01 7.091348e+01 1.687869e+02 6.026273e+01 3.810337e+01 2.321532e+01 2.069540e+01 3.264100e+01
<GCONST> 6.495860e+01
<TRANSP> 5
 0.000000e+00 1.000000e+00 0.000000e+00 0.000000e+00 0.000000e+00
 0.000000e+00 7.968204e-01 2.031796e-01 0.000000e+00 0.000000e+00
 0.000000e+00 0.000000e+00 7.218845e-01 2.781155e-01 0.000000e+00
 0.000000e+00 0.000000e+00 0.000000e+00 6.687530e-01 3.312471e-01
 0.000000e+00 0.000000e+00 0.000000e+00 0.000000e+00 0.000000e+00
<ENDHMM>
~h "ai"
<BEGINHMM>
<NUMSTATES> 5
<STATE> 2
<NUMMIXES> 3
<MIXTURE> 1 2.736096e-01
<MEAN> 12
 1.571980e+00 -1.795755e+01 6.433818e+00 -9.078505e+00 4.630811e+00 -7.824781e+00 7.552299e+00 -6.668898e+00 6.815770e+00 -5.509743e+00 -1.129684e+01 -4.049237e+00
<VARIANCE> 12
 8.170417e+00 2.999698e+01 2.141827e+01 5.833768e+01 4.951735e+01 8.325759e+01 4.082570e+01 9.312143e+01 5.353701e+01 8.135422e+01 3.721377e+01 3.792134e+01
<GCONST> 6.688550e+01
<MIXTURE> 2 4.461973e-01
<MEAN> 12
 -4.345160e+00 -1.463199e+01 -5.518945e-01 -1.028356e+01 -5.218077e+00 -5.947972e+00 1.368967e+00 1.057111e+00 -4.922075e+00 -9.521683e+00 -1.089660e+01 3.713427e-01
<VARIANCE> 12
 1.966542e+01 5.563125e+01 2.663518e+01 3.136943e+01 3.865009e+01 6.855869e+01 5.766102e+01 6.986937e+01 4.585610e+01 2.805452e+01 5.428207e+01 2.950355e+01
<GCONST> 6.650201e+01
<MIXTURE> 3 2.801933e-01
<MEAN> 12
 -1.952557e+00 -1.470560e+01 2.489745e+00 -6.473737e+00 -4.194820e+00 -2.085403e+00 -9.597533e-01 3.505076e+00 4.665125e+00 -7.016316e+00 -1.063996e+01 -3.475379e+00
<VARIANCE> 12
 8.198725e+00 2.605021e+01 3.514460e+01 1.798860e+01 3.641289e+01 3.506116e+01 5.729393e+01 3.317492e+01 4.783714e+01 2.829082e+01 3.208616e+01 4.965276e+01
<GCONST> 6.315356e+01
<STATE> 3
<NUMMIXES> 3
<MIXTURE> 1 2.922697e-01
<MEAN> 12
 4.377043e-01 -1.183081e+01 9.215077e+00 -5.347058e+00 -8.501794e+00 -7.451002e+00 -8.432611e-01 4.574008e+00 4.451853e+00 -3.926999e+00 -5.541008e+00 -4.499151e+00
<VARIANCE> 12
 6.651371e+00 4.486412e+01 4.416548e+01 3.029914e+01 4.883669e+01 3.562592e+01 7.465828e+01 5.494194e+01 7.865947e+01 7.256282e+01 4.357975e+01 4.917094e+01
<GCONST> 6.705228e+01
<MIXTURE> 2 3.844998e-01
<MEAN> 12
 -2.792868e+00 -1.845814e+01 8.351075e+00 -9.488489e+00 -1.108558e+01 6.721714e-02 -7.767969e+00 1.053810e+01 1.038278e+00 -6.119374e+00 -3.993576e+00 -1.022047e+01
<VARIANCE> 12
 1.711487e+01 3.662399e+01 6.332679e+01 3.316748e+01 5.277124e+01 5.664281e+01 4.200191e+01 3.318660e+01 5.247871e+01 5.452428e+01 5.357090e+01 6.512852e+01
<GCONST> 6.750407e+01
<MIXTURE> 3 3.232300e-01
<MEAN> 12
 2.334861e+00 -2.269525e+01 1.858763e+01 -1.183287e+01 -9.300436e+00 -1.884266e-01 -1.027469e+01 1.670780e+01 -4.845700e+00 -5.128127e-02 -7.185141e+00 -1.002885e+01
<VARIANCE> 12
 8.676999e+00 4.961160e+01 5.992527e+01 5.370893e+01 4.841386e+01 6.832061e+01 2.858132e+01 4.023396e+01 5.527997e+01 2.973942e+01 8.031773e+01 3.276341e+01
<GCONST> 6.662775e+01
<STATE> 4
<NUMMIXES> 3
<MIXTURE> 1 2.428798e-01
<MEAN> 12
 -6.258129e+00 -3.568155e+00 7.259358e+00 2.585950e-01 -5.388734e+00 -3.826051e+00 4.848111e-01 5.042834e+00 3.886617e+00 1.037713e-01 8.050964e-01 -5.751641e-01
<VARIANCE> 12
 3.712112e+01 2.894655e+01 4.569476e+01 4.621775e+01 8.248203e+01 3.646560e+01 4.514968e+01 2.663567e+01 3.036429e+01 7.205901e+01 4.894433e+01 3.315759e+01
<GCONST> 6.687341e+01
<MIXTURE> 2 4.213352e-01
<MEAN> 12
 -2.799540e+00 -5.725522e+00 6.439443e+00 -6.352417e+00 -9.795167e+00 -6.528049e+00 -4.752657e+00 4.531562e-01 -3.319677e+00 -2.276712e+00 -5.122712e+00 -3.553162e+00
<VARIANCE> 12
 2.368369e+01 4.616878e+01 6.100206e+01 5.530883e+01 6.568683e+01 5.381774e+01 5.001545e+01 4.460080e+01 3.324426e+01 4.597055e+01 3.957912e+01 3.043092e+01
<GCONST> 6.748168e+01
<MIXTURE> 3 3.357849e-01
<MEAN> 12
 -3.181908e+00 -4.668869e+00 1.028925e+01 2.342650e+00 -9.043581e+00 -9.291370e+00 -1.830509e+00 2.448867e+00 1.533813e+00 -2.887044e+00 4.609282e-01 -1.599506e+00
<VARIANCE> 12
 1.482707e+01 3.035382e+01 4.454490e+01 2.763867e+01 3.624217e+01 3.853438e+01 3.485371e+01 2.399518e+01 2.725875e+01 2.598749e+01 2.467948e+01 2.887681e+01
<GCONST> 6.238240e+01
<TRANSP> 5
 0.000000e+00 1.000000e+00 0.000000e+00 0.000000e+00 0.000000e+00
 0.000000e+00 8.315602e-01 1.684398e-01 0.000000e+00 0.000000e+00
 0.000000e+00 0.000000e+00 7.280448e-01 2.719552e-01 0.000000e+00
 0.000000e+00 0.000000e+00 0.000000e+00 6.384804e-01 3.615196e-01
 0.000000e+00 0.000000e+00 0.000000e+00 0.000000e+00 0.000000e+00
<ENDHMM>
~h "au"
<BEGINHMM>
<NUMSTATES> 5
<STATE> 2
<NUMMIXES> 3
<MIXTURE> 1 2.283768e-01
<MEAN> 12
 -1.648394e+00 -8.674674e+00 -2.162472e+00 -1.639417e+01 3.150877e+00 8.206033e+00 -2.278520e+00 -5.397736e+00 6.645739e+00 -1.117795e+00 -4.855114e+00 -6.735723e+00
<VARIANCE> 12
 2.654710e+01 2.983862e+01 3.456192e+01 5.389332e+01 4.124600e+01 5.761611e+01 5.903479e+01 3.686176e+01 5.814807e+01 3.876101e+01 4.025867e+01 5.847131e+01
<GCONST> 6.720193e+01
<MIXTURE> 2 4.370451e-01
<MEAN> 12
 -3.831407e+00 -1.025112e+01 -1.012437e+01 -1.806817e+01 6.504110e+00 -2.068234e+00 -6.524803e+00 -5.454134e+00 -1.051473e+00 -9.332146e+00 -3.179675e+00 -8.287104e+00
<VARIANCE> 12
 9.187103e+00 1.581758e+01 8.594470e+00 1.082792e+02 4.088718e+01 3.423248e+01 3.085025e+01 3.688208e+01 4.520237e+01 4.500974e+01 2.704404e+01 2.536383e+01
<GCONST> 6.229897e+01
<MIXTURE> 3 3.345778e-01
<MEAN> 12
 -2.315903e-01 -6.836307e+00 -1.073759e+01 -1.835619e+01 8.007116e-01 5.309604e+00 -5.055309e+00 -3.242795e+00 -1.163703e+00 -7.344624e+00 -4.685066e+00 -2.657003e+00
<VARIANCE> 12
 2.889989e+01 1.790907e+01 6.304533e+00 3.820415e+01 2.870634e+01 6.073532e+01 1.842691e+01 2.425503e+01 2.901909e+01 1.399760e+01 5.028627e+01 1.490868e+01
<GCONST> 5.998048e+01
<STATE> 3
<NUMMIXES> 3
<MIXTURE> 1 2.939123e-01
<MEAN> 12
 2.224089e+00 -7.818552e+00 5.075625e+00 -2.946138e+01 5.477974e+00 1.046378e+01 -3.680224e-01 -7.168329e+00 7.511743e+00 -8.266221e+00 4.708876e-01 -1.581866e+00
<VARIANCE> 12
 1.197318e+01 3.091231e+01 1.913606e+01 6.139176e+01 5.806115e+01 5.429272e+01 5.306916e+01 6.734856e+01 3.795505e+01 4.916888e+01 3.439220e+01 3.970604e+01
<GCONST> 6.602556e+01
<MIXTURE> 2 4.378345e-01
<MEAN> 12
 -3.635880e+00 -6.879032e+00 -3.149754e+00 -2.605841e+01 -2.964950e+00 1.287214e+01 -1.127827e+01 3.346035e+00 -2.561373e+00 -8.448996e+00 -1.256109e+00 -4.980157e+00
<VARIANCE> 12
 1.179866e+01 7.507866e+01 2.106326e+01 5.966238e+01 6.884506e+01 8.765901e+01 8.502905e+01 7.638547e+01 9.207092e+01 7.899535e+01 6.355626e+01 3.634409e+01
<GCONST> 7.009828e+01
<MIXTURE> 3 2.682537e-01
<MEAN> 12
 2.583008e+00 -1.685324e+01 9.625402e+00 -2.602931e+01 4.908525e+00 1.106790e+01 -9.143803e+00 -2.054906e+00 3.110776e+00 1.551490e+00 -1.917317e+00 -1.224968e+01
<VARIANCE> 12
 9.761045e+00 3.331234e+01 3.116265e+01 6.263121e+01 4.956360e+01 6.135757e+01 2.979924e+01 4.716621e+01 8.459625e+01 5.077099e+01 4.090277e+01 9.990589e+01
<GCONST> 6.736411e+01
<STATE> 4
<NUMMIXES> 3
<MIXTURE> 1 3.482611e-01
<MEAN> 12
 2.435548e+00 -4.430538e-01 -4.680051e+00 -9.402841e+00 3.967676e+00 5.662195e+00 1.708976e+01 -5.899734e+00 6.037700e+00 7.325895e-01 -1.244228e-01 3.869613e+00
<VARIANCE> 12
 5.632971e+00 7.685869e+00 4.036391e+00 3.178688e+01 5.495691e+01 2.192181e+01 3.049496e+01 2.027448e+01 1.533478e+01 2.332401e+01 1.162383e+01 1.835117e+01
<GCONST> 5.544026e+01
<MIXTURE> 2 4.295564e-01
<MEAN> 12
 -1.133469e+00 -6.524204e+00 1.614338e+00 -9.285948e+00 -3.702931e+00 -2.718480e+00 -8.298378e+00 -4.078293e-02 4.385004e-01 -2.286191e+00 -4.088539e+00 -6.156991e+00
<VARIANCE> 12
 2.259900e+01 7.584843e+01 6.748857e+01 3.476751e+01 5.486022e+01 1.401367e+02 6.437676e+01 7.818940e+01 7.123075e+01 8.250072e+01 4.887129e+01 4.342760e+01
<GCONST> 7.107212e+01
<MIXTURE> 3 2.221829e-01
<MEAN> 12
 -1.978274e+00 3.316916e+00 -3.173046e-01 -1.493876e+01 3.721584e+00 6.589102e+00 -3.055219e-01 -8.047113e+00 5.842311e+00 -1.006241e+00 3.558401e+00 1.099066e-01
<VARIANCE> 12
 1.139400e+01 2.260416e+01 2.545833e+01 1.134342e+02 4.079128e+01 9.493253e+01 8.174902e+01 7.783256e+01 5.427637e+01 5.690339e+01 3.174843e+01 3.417179e+01
<GCONST> 6.761855e+01
<TRANSP> 5
 0.000000e+00 1.000000e+00 0.000000e+00 0.000000e+00 0.000000e+00
 0.000000e+00 7.794321e-01 2.205679e-01 0.000000e+00 0.000000e+00
 0.000000e+00 0.000000e+00 8.458220e-01 1.541779e-01 0.000000e+00
 0.000000e+00 0.000000e+00 0.000000e+00 6.349589e-01 3.650411e-01
 0.000000e+00 0.000000e+00 0.000000e+00 0.000000e+00 0.000000e+00
<ENDHMM>
~h "eN"
<BEGINHMM>
<NUMSTATES> 5
<STATE> 2
<NUMMIXES> 3
<MIXTURE> 1 2.415963e-01
<MEAN> 12
 1.740301e-01 -5.286624e+00 6.445289e+00 -3.766328e+00 -1.710997e+00 -6.173059e+00 -7.841370e+00 -9.642342e-01 5.026889e+00 -1.236175e+00 -3.583814e+00 -4.245592e+00
<VARIANCE> 12
 1.061634e+01 2.750924e+01 7.462364e+01 4.346759e+01 5.335402e+01 6.263008e+01 8.665892e+01 5.732999e+01 1.116496e+02 4.084089e+01 3.845248e+01 4.936068e+01
<GCONST> 6.841454e+01
<MIXTURE> 2 2.923070e-01
<MEAN> 12
 -4.339688e+00 -2.544075e+00 7.771114e+00 -9.094779e+00 -6.674690e-01 -1.372740e+01 -1.041074e+01 -1.535669e+01 1.416444e+00 -1.264224e+01 -6.429535e+00 -1.606752e+00
<VARIANCE> 12
 1.000959e+01 2.655378e+01 4.924339e+01 2.692969e+01 3.681413e+01 2.897407e+01 3.545832e+01 9.249644e+01 3.182922e+01 6.229342e+01 2.126563e+01 1.909896e+01
<GCONST> 6.349402e+01
<MIXTURE> 3 4.660948e-01
<MEAN> 12
 1.056211e+00 -3.204240e+00 -1.130200e+00 -6.699007e+00 -7.683501e+00 -1.060645e+01 -4.485646e+00 2.614186e-01 -1.877817e+00 -9.663013e+00 -4.220531e+00 1.583521e+00
<VARIANCE> 12
 6.855615e+00 1.389782e+01 8.978703e+00 1.813524e+01 1.866864e+01 2.085218e+01 3.921914e+01 5.562522e+01 1.987550e+01 4.934737e+01 5.077248e+01 3.086785e+01
<GCONST> 5.960159e+01
<STATE> 3
<NUMMIXES> 3
<MIXTURE> 1 2.586007e-01
<MEAN> 12
 2.100513e+00 -2.270478e+00 1.297557e+01 -9.424674e-01 -1.517883e+00 -2.329993e+00 -8.524245e+00 -2.002861e-01 -4.083749e+00 3.678107e+00 -6.754607e+00 -5.158619e+00
<VARIANCE> 12
 8.058110e+00 2.995105e+01 5.502702e+01 5.154108e+01 3.704406e+01 8.867836e+01 5.395802e+01 1.074612e+02 6.786013e+01 6.384782e+01 3.727835e+01 4.873416e+01
<GCONST> 6.813218e+01
<MIXTURE> 2 4.068941e-01
<MEAN> 12
 -2.540272e-02 -4.583211e+00 9.223251e+00 -4.333263e+00 -7.638754e+00 -5.430951e-01 -1.604006e+01 -1.834036e+00 -1.759284e+00 -6.651903e+00 9.070313e-01 -1.040460e+01
<VARIANCE> 12
 1.750899e+01 4.052507e+01 9.457955e+01 6.736864e+01 6.734243e+01 7.682921e+01 9.154558e+01 7.991951e+01 8.126431e+01 6.428726e+01 5.040202e+01 8.136288e+01
<GCONST> 7.170802e+01
<MIXTURE> 3 3.345048e-01
<MEAN> 12
 3.295679e+00 -4.865593e+00 2.070127e+01 -6.344476e+00 -4.966590e+00 1.308862e+00 -9.996125e+00 -1.002741e-02 -6.832324e+00 -1.445044e+00 -4.786536e+00 -1.302278e+01
<VARIANCE> 12
 7.823546e+00 5.042390e+01 5.528366e+01 3.681082e+01 3.050012e+01 4.388082e+01 3.995956e+01 4.685603e+01 5.814454e+01 4.675243e+01 4.130582e+01 4.236994e+01
<GCONST> 6.575980e+01
<STATE> 4
<NUMMIXES> 3
<MIXTURE> 1 2.369820e-01
<MEAN> 12
 2.920647e-01 2.131446e+00 8.964193e+00 4.711791e+00 2.465194e+00 -2.856889e+00 2.572384e+00 -5.917611e+00 -3.996294e+00 4.438432e+00 -8.622609e+00 -4.518163e-01
<VARIANCE> 12
 1.025394e+01 1.784911e+01 1.695934e+01 2.265759e+01 1.903131e+01 1.838882e+01 3.368866e+01 5.885232e+01 8.003443e+01 3.817352e+01 2.453659e+01 3.617269e+01
<GCONST> 6.147855e+01
<MIXTURE> 2 3.969960e-01
<MEAN> 12
 -5.121365e+00 1.009044e+00 5.970612e+00 -4.941058e-01 -8.722696e-01 -6.357356e+00 -5.080184e+00 -4.521510e+00 -1.835917e+00 -7.278843e+00 -3.765483e+00 -3.031592e+00
<VARIANCE> 12
 4.751402e+01 4.470071e+01 5.749747e+01 4.428988e+01 5.078619e+01 3.719182e+01 5.105597e+01 5.202857e+01 4.804032e+01 3.339854e+01 2.568668e+01 3.495596e+01
<GCONST> 6.716708e+01
<MIXTURE> 3 3.660222e-01
<MEAN> 12
 -2.207793e-01 3.944057e+00 1.223841e+01 8.326837e+00 -1.538329e+00 -1.626345e+00 -9.906407e+00 -8.329813e+00 1.650828e+00 -7.323012e+00 -2.076557e+00 -7.011589e+00
<VARIANCE> 12
 1.296056e+01 1.838029e+01 1.982514e+01 3.621411e+01 3.737954e+01 2.997939e+01 4.470377e+01 3.232367e+01 4.450036e+01 6.224493e+01 2.251658e+01 2.492181e+01
<GCONST> 6.265817e+01
<TRANSP> 5
 0.000000e+00 1.000000e+00 0.000000e+00 0.000000e+00 0.000000e+00
 0.000000e+00 7.944033e-01 2.055966e-01 0.000000e+00 0.000000e+00
 0.000000e+00 0.000000e+00 6.533021e-01 3.466979e-01 0.000000e+00
 0.000000e+00 0.000000e+00 0.000000e+00 6.723127e-01 3.276874e-01
 0.000000e+00 0.000000e+00 0.000000e+00 0.000000e+00 0.000000e+00
<ENDHMM>
~h "dz"
<BEGINHMM>
<NUMSTATES> 5
<STATE> 2
<NUMMIXES> 3
<MIXTURE> 1 2.734358e-01
<MEAN> 12
