~o
<STREAMINFO> 1 12
<VECSIZE> 12<NULLD><MFCC><DIAGC>
~h "#dz"
<BEGINHMM>
<NUMSTATES> 5
<STATE> 2
<MEAN> 12
 -1.029494e+01 2.894243e+00 3.798938e+00 -1.392905e+00 1.094986e+00 -3.588681e+00 -2.977458e+00 -2.185639e+00 -7.150805e-02 -4.458894e+00 -2.541632e+00 -2.612649e+00
<VARIANCE> 12
 8.705412e+01 8.265140e+01 9.056927e+01 6.677926e+01 3.487033e+01 4.337635e+01 3.514571e+01 3.956890e+01 5.147769e+01 4.494037e+01 2.866847e+01 3.470502e+01
<GCONST> 6.885146e+01
<STATE> 3
<MEAN> 12
 -2.286728e+01 4.358252e+00 4.581131e+00 -3.117027e+00 -8.272553e-01 -3.673219e+00 7.461345e-01 -3.420860e+00 5.366808e-01 -1.201506e+00 -5.825605e-02 -3.849871e-01
<VARIANCE> 12
 6.126327e+01 3.145583e+01 5.349697e+01 3.650217e+01 3.786442e+01 4.292939e+01 4.329032e+01 4.132605e+01 3.537433e+01 2.949924e+01 2.239039e+01 1.972093e+01
<GCONST> 6.511893e+01
<STATE> 4
<MEAN> 12
 -7.368849e+00 3.199093e-01 1.365772e+01 -2.869122e+00 -9.222610e+00 -5.464388e+00 -7.801912e+00 -4.005867e+00 -3.913104e+00 -3.462328e+00 5.734659e-01 -3.376532e+00
<VARIANCE> 12
 4.514501e+01 4.510438e+01 7.351209e+01 5.383049e+01 5.135094e+01 1.014338e+02 7.235427e+01 7.227556e+01 1.063896e+02 6.346321e+01 3.267061e+01 5.276251e+01
<GCONST> 7.134666e+01
<TRANSP> 5
 0.000000e+00 1.000000e+00 0.000000e+00 0.000000e+00 0.000000e+00
 0.000000e+00 5.217391e-01 4.782609e-01 0.000000e+00 0.000000e+00
 0.000000e+00 0.000000e+00 7.221397e-01 2.778603e-01 0.000000e+00
 0.000000e+00 0.000000e+00 0.000000e+00 4.918478e-01 5.081522e-01
 0.000000e+00 0.000000e+00 0.000000e+00 0.000000e+00 0.000000e+00
<ENDHMM>
