~o
<STREAMINFO> 1 12
<VECSIZE> 12<NULLD><MFCC><DIAGC>
~h "#i"
<BEGINHMM>
<NUMSTATES> 5
<STATE> 2
<MEAN> 12
 -5.750451e+00 -9.798884e-01 8.232352e+00 -2.850775e+00 -7.229665e+00 -1.222381e+01 -1.283385e+01 -3.074119e+00 1.276018e+00 -4.294677e+00 -2.268904e+00 1.803012e+00
<VARIANCE> 12
 3.370184e+01 2.680768e+01 3.204742e+01 4.754880e+01 3.219563e+01 4.252684e+01 4.985492e+01 3.118369e+01 4.107272e+01 2.400590e+01 2.254321e+01 3.280504e+01
<GCONST> 6.426038e+01
<STATE> 3
<MEAN> 12
 -1.296089e+00 -9.211918e+00 1.097111e+01 -3.151023e+00 -7.694385e+00 -1.113736e+01 -1.154396e+01 -1.425910e+00 -2.609947e+00 -6.100367e+00 -4.480421e-01 -5.411862e+00
<VARIANCE> 12
 3.386649e+01 6.207676e+01 1.561679e+02 7.443993e+01 5.838383e+01 9.700208e+01 1.109334e+02 9.220570e+01 7.758095e+01 5.668775e+01 4.614220e+01 6.370285e+01
<GCONST> 7.331581e+01
<STATE> 4
<MEAN> 12
 -6.952459e+00 -4.609692e-01 4.019758e+00 -6.345598e-01 3.043710e-02 -5.309497e+00 -4.394326e+00 -2.366163e+00 9.387543e-01 -3.672650e+00 -1.606555e+00 -3.655975e-01
<VARIANCE> 12
 6.496503e+01 4.227018e+01 6.786188e+01 5.477861e+01 4.284320e+01 5.004164e+01 4.719952e+01 3.763175e+01 4.606378e+01 4.537559e+01 2.748066e+01 2.820316e+01
<GCONST> 6.764378e+01
<TRANSP> 5
 0.000000e+00 1.000000e+00 0.000000e+00 0.000000e+00 0.000000e+00
 0.000000e+00 7.635009e-01 2.364991e-01 0.000000e+00 0.000000e+00
 0.000000e+00 0.000000e+00 7.315010e-01 2.684990e-01 0.000000e+00
 0.000000e+00 0.000000e+00 0.000000e+00 6.666667e-01 3.333333e-01
 0.000000e+00 0.000000e+00 0.000000e+00 0.000000e+00 0.000000e+00
<ENDHMM>
