~o
<STREAMINFO> 1 12
<VECSIZE> 12<NULLD><MFCC><DIAGC>
~h "#s"
<BEGINHMM>
<NUMSTATES> 5
<STATE> 2
<MEAN> 12
 -2.409414e+01 4.528024e+00 6.862419e+00 -2.162172e+00 -1.785375e+00 -1.568029e+00 2.186974e-01 -8.940345e-01 9.821530e-02 -2.452066e+00 -3.921378e-01 -2.190869e+00
<VARIANCE> 12
 5.526466e+01 4.824205e+01 7.282706e+01 4.122983e+01 5.784079e+01 4.585266e+01 5.336861e+01 3.401832e+01 3.718415e+01 3.178640e+01 3.385596e+01 2.624699e+01
<GCONST> 6.720197e+01
<STATE> 3
<MEAN> 12
 -2.616012e+01 4.158574e+00 2.000925e+00 -5.894374e+00 2.058912e+00 -6.839331e+00 4.658504e+00 -3.030497e+00 9.732707e-01 -4.616720e-01 7.906594e-01 7.865230e-03
<VARIANCE> 12
 3.573431e+01 1.823091e+01 3.785963e+01 2.454525e+01 2.708173e+01 2.557306e+01 2.617022e+01 5.052207e+01 3.029655e+01 2.324180e+01 2.220390e+01 2.634743e+01
<GCONST> 6.202421e+01
<STATE> 4
<MEAN> 12
 -7.781245e+00 -6.497416e-01 9.968135e+00 -3.284754e+00 -6.919898e+00 -1.005305e+01 -4.104777e+00 -2.781560e+00 -2.930033e+00 -5.817891e+00 -1.056414e+00 -3.279082e+00
<VARIANCE> 12
 4.591423e+01 4.262774e+01 1.037620e+02 5.581432e+01 4.369700e+01 3.428596e+01 5.741333e+01 6.303304e+01 5.440501e+01 4.137804e+01 3.453484e+01 2.761762e+01
<GCONST> 6.838351e+01
<TRANSP> 5
 0.000000e+00 1.000000e+00 0.000000e+00 0.000000e+00 0.000000e+00
 0.000000e+00 7.135922e-01 2.864078e-01 0.000000e+00 0.000000e+00
 0.000000e+00 0.000000e+00 8.078176e-01 1.921824e-01 0.000000e+00
 0.000000e+00 0.000000e+00 0.000000e+00 5.408560e-01 4.591440e-01
 0.000000e+00 0.000000e+00 0.000000e+00 0.000000e+00 0.000000e+00
<ENDHMM>
