~o
<STREAMINFO> 1 12
<VECSIZE> 12<NULLD><MFCC><DIAGC>
~h "#ts"
<BEGINHMM>
<NUMSTATES> 5
<STATE> 2
<MEAN> 12
 -2.242514e+01 6.960774e+00 1.038799e+00 -2.662049e+00 1.590107e+00 -4.624064e+00 1.887033e+00 -2.395468e+00 -6.396647e-01 -1.106734e+00 -6.592046e-01 -1.384412e+00
<VARIANCE> 12
 5.613691e+01 3.029220e+01 5.630870e+01 4.127380e+01 3.313789e+01 3.180050e+01 3.461471e+01 3.277370e+01 2.847094e+01 2.085956e+01 1.903701e+01 2.235410e+01
<GCONST> 6.367844e+01
<STATE> 3
<MEAN> 12
 -2.853529e+01 -1.591826e+00 6.262486e+00 -3.925556e+00 -5.647995e+00 -2.221360e+00 8.505169e-01 -3.533537e+00 8.312668e-01 -3.789311e-01 1.001074e+00 -2.225683e-01
<VARIANCE> 12
 2.530007e+01 2.162210e+01 2.415552e+01 2.837337e+01 4.100035e+01 4.700605e+01 3.134545e+01 3.686783e+01 3.139231e+01 2.957287e+01 2.708485e+01 2.652864e+01
<GCONST> 6.291589e+01
<STATE> 4
<MEAN> 12
 -1.008392e+01 -2.103958e+00 8.364562e+00 -6.693043e-01 -6.040048e+00 -7.972578e+00 -2.344040e+00 -3.329328e+00 -1.794554e+00 -5.908336e+00 -1.113896e+00 -1.892602e+00
<VARIANCE> 12
 4.285925e+01 3.556141e+01 9.865608e+01 4.592989e+01 6.573230e+01 3.578635e+01 5.435171e+01 6.415352e+01 5.901519e+01 4.782232e+01 2.137676e+01 3.538823e+01
<GCONST> 6.829633e+01
<TRANSP> 5
 0.000000e+00 1.000000e+00 0.000000e+00 0.000000e+00 0.000000e+00
 0.000000e+00 7.335907e-01 2.664093e-01 0.000000e+00 0.000000e+00
 0.000000e+00 0.000000e+00 7.988338e-01 2.011662e-01 0.000000e+00
 0.000000e+00 0.000000e+00 0.000000e+00 6.270270e-01 3.729730e-01
 0.000000e+00 0.000000e+00 0.000000e+00 0.000000e+00 0.000000e+00
<ENDHMM>
