~o
<STREAMINFO> 1 12
<VECSIZE> 12<NULLD><MFCC><DIAGC>
~h "@"
<BEGINHMM>
<NUMSTATES> 5
<STATE> 2
<MEAN> 12
 -7.942660e-01 -5.004774e+00 5.524153e+00 -7.369116e+00 -6.229371e+00 -8.331459e+00 -1.282602e+01 2.656462e+00 5.337299e-01 1.154802e+00 -3.892407e+00 -1.792046e+00
<VARIANCE> 12
 1.291160e+01 2.584629e+01 8.057526e+01 3.696998e+01 5.639633e+01 6.088199e+01 6.347091e+01 6.774531e+01 5.759700e+01 9.826591e+01 5.705047e+01 3.759866e+01
<GCONST> 6.868385e+01
<STATE> 3
<MEAN> 12
 -6.484883e-01 -8.336604e+00 6.455794e+00 -1.229394e+01 -2.861554e+00 -5.982572e-01 -1.246490e+01 -1.030108e+00 4.411008e+00 -5.167505e-01 -2.332741e+00 -7.324751e+00
<VARIANCE> 12
 1.874763e+01 7.202304e+01 8.132771e+01 8.213911e+01 6.978920e+01 1.371287e+02 1.081267e+02 9.392355e+01 9.685551e+01 6.382874e+01 6.598685e+01 5.594833e+01
<GCONST> 7.340497e+01
<STATE> 4
<MEAN> 12
 -4.416629e+00 -2.922586e-02 4.108337e+00 -1.069706e+00 3.623291e-01 -3.818051e+00 -3.158995e+00 -1.217687e-01 7.858738e-01 7.358419e-01 -1.108057e+00 -1.611543e+00
<VARIANCE> 12
 4.187582e+01 3.527955e+01 6.218312e+01 4.287230e+01 4.615100e+01 5.891979e+01 5.651522e+01 5.156906e+01 4.753959e+01 4.864414e+01 3.068749e+01 3.344069e+01
<GCONST> 6.780610e+01
<TRANSP> 5
 0.000000e+00 1.000000e+00 0.000000e+00 0.000000e+00 0.000000e+00
 0.000000e+00 7.394068e-01 2.605932e-01 0.000000e+00 0.000000e+00
 0.000000e+00 0.000000e+00 7.101336e-01 2.898664e-01 0.000000e+00
 0.000000e+00 0.000000e+00 0.000000e+00 7.290749e-01 2.709251e-01
 0.000000e+00 0.000000e+00 0.000000e+00 0.000000e+00 0.000000e+00
<ENDHMM>
