~o
<STREAMINFO> 1 12
<VECSIZE> 12<NULLD><MFCC><DIAGC>
~h "a"
<BEGINHMM>
<NUMSTATES> 5
<STATE> 2
<MEAN> 12
 2.590711e-01 -1.757522e+01 2.144177e+00 -1.152874e+01 4.465460e+00 6.081621e+00 -5.468670e+00 -1.262125e+00 1.569704e+00 -1.272188e+00 -7.279944e+00 -5.085650e+00
<VARIANCE> 12
 2.014720e+01 8.085003e+01 5.885958e+01 7.143499e+01 5.556764e+01 6.880156e+01 7.073318e+01 1.030504e+02 5.931870e+01 6.490865e+01 4.497377e+01 4.920633e+01
<GCONST> 7.089510e+01
<STATE> 3
<MEAN> 12
 -2.125404e+00 -1.209049e+01 -3.084349e+00 -4.869656e+00 2.773038e+00 -1.474801e+00 -2.769310e+00 -4.159823e+00 3.580944e+00 -9.442629e+00 -6.818589e+00 -2.294313e+00
<VARIANCE> 12
 1.479494e+01 3.683523e+01 3.645003e+01 4.307841e+01 6.048107e+01 9.695146e+01 7.055889e+01 8.029996e+01 1.213369e+02 7.171148e+01 3.875067e+01 4.865055e+01
<GCONST> 6.964603e+01
<STATE> 4
<MEAN> 12
 -5.098015e+00 -3.729439e+00 1.732024e+00 -2.224049e+00 2.470303e+00 -1.341603e+00 -6.980969e-01 1.024724e+00 3.332368e-01 -1.363139e+00 -2.516438e+00 -1.955498e+00
<VARIANCE> 12
 4.619838e+01 5.599083e+01 6.850147e+01 5.511062e+01 7.986989e+01 6.174793e+01 8.445481e+01 5.461529e+01 4.938691e+01 3.729274e+01 3.403100e+01 2.960328e+01
<GCONST> 6.952249e+01
<TRANSP> 5
 0.000000e+00 1.000000e+00 0.000000e+00 0.000000e+00 0.000000e+00
 0.000000e+00 8.126065e-01 1.873935e-01 0.000000e+00 0.000000e+00
 0.000000e+00 0.000000e+00 7.838900e-01 2.161100e-01 0.000000e+00
 0.000000e+00 0.000000e+00 0.000000e+00 7.795591e-01 2.204409e-01
 0.000000e+00 0.000000e+00 0.000000e+00 0.000000e+00 0.000000e+00
<ENDHMM>
