~o
<STREAMINFO> 1 12
<VECSIZE> 12<NULLD><MFCC><DIAGC>
~h "ai"
<BEGINHMM>
<NUMSTATES> 5
<STATE> 2
<MEAN> 12
 -3.236730e+00 -1.426018e+01 5.755718e-01 -7.260418e+00 -1.624804e+00 -5.742598e+00 2.770066e+00 -3.120801e-02 1.013837e+00 -7.516224e+00 -9.317590e+00 -2.856451e+00
<VARIANCE> 12
 2.609232e+01 4.796010e+01 5.300198e+01 4.184994e+01 6.185830e+01 5.853766e+01 7.294630e+01 7.496546e+01 7.948415e+01 4.836903e+01 4.922003e+01 4.646025e+01
<GCONST> 6.968154e+01
<STATE> 3
<MEAN> 12
 -6.044356e-01 -1.581929e+01 8.410748e+00 -8.728902e+00 -9.833994e+00 -2.256111e+00 -7.595638e+00 1.116282e+01 -6.229214e-01 -2.106186e+00 -7.539840e+00 -5.703774e+00
<VARIANCE> 12
 1.229591e+01 5.883074e+01 7.517743e+01 3.879242e+01 4.586348e+01 6.387305e+01 5.917438e+01 6.186106e+01 7.471073e+01 6.679652e+01 6.201664e+01 5.748409e+01
<GCONST> 6.949866e+01
<STATE> 4
<MEAN> 12
 -4.091292e+00 -3.389380e+00 4.724810e+00 -1.154964e+00 -6.489854e+00 -7.208519e+00 -1.912632e+00 2.620253e+00 -4.307679e-01 -2.876351e+00 -2.070972e+00 -1.777573e+00
<VARIANCE> 12
 2.899871e+01 3.437804e+01 5.396884e+01 3.712094e+01 5.691359e+01 4.832367e+01 4.345400e+01 6.125267e+01 3.830962e+01 3.611771e+01 3.133914e+01 2.543766e+01
<GCONST> 6.628153e+01
<TRANSP> 5
 0.000000e+00 1.000000e+00 0.000000e+00 0.000000e+00 0.000000e+00
 0.000000e+00 8.213115e-01 1.786885e-01 0.000000e+00 0.000000e+00
 0.000000e+00 0.000000e+00 7.841584e-01 2.158416e-01 0.000000e+00
 0.000000e+00 0.000000e+00 0.000000e+00 7.811245e-01 2.188755e-01
 0.000000e+00 0.000000e+00 0.000000e+00 0.000000e+00 0.000000e+00
<ENDHMM>
