~o
<STREAMINFO> 1 12
<VECSIZE> 12<NULLD><MFCC><DIAGC>
~h "aN"
<BEGINHMM>
<NUMSTATES> 5
<STATE> 2
<MEAN> 12
 -2.525833e+00 -1.346489e+01 5.720636e-01 -6.952944e+00 4.224349e+00 6.115392e-01 -1.622762e+00 -3.452245e+00 6.124741e+00 -7.313692e+00 -5.679981e+00 -4.216616e+00
<VARIANCE> 12
 3.418917e+01 3.815734e+01 3.295692e+01 6.077639e+01 6.545536e+01 8.558064e+01 9.127688e+01 8.458952e+01 5.677801e+01 7.454183e+01 4.585630e+01 3.173541e+01
<GCONST> 7.004655e+01
<STATE> 3
<MEAN> 12
 -6.479806e-01 -1.070630e+01 4.615348e+00 -6.405384e+00 -8.724436e+00 3.299902e+00 -1.425294e+01 5.088506e+00 -2.805385e+00 -5.916854e+00 -5.444178e+00 -8.065339e+00
<VARIANCE> 12
 1.430975e+01 6.692207e+01 8.080788e+01 4.879597e+01 8.796655e+01 1.021834e+02 1.470667e+02 8.267430e+01 9.556616e+01 6.511103e+01 7.343414e+01 6.249257e+01
<GCONST> 7.287559e+01
<STATE> 4
<MEAN> 12
 -1.742850e+00 -3.084967e-02 7.041261e+00 6.268800e-01 -2.490147e+00 -3.741348e+00 -4.532356e+00 -3.454272e+00 -4.192217e-01 -3.883335e+00 -3.477978e+00 -1.898673e+00
<VARIANCE> 12
 3.290926e+01 4.298741e+01 6.098806e+01 5.876022e+01 5.437845e+01 7.636552e+01 6.771600e+01 5.964431e+01 4.769446e+01 4.099430e+01 4.015980e+01 4.927415e+01
<GCONST> 6.929707e+01
<TRANSP> 5
 0.000000e+00 1.000000e+00 0.000000e+00 0.000000e+00 0.000000e+00
 0.000000e+00 8.267223e-01 1.732777e-01 0.000000e+00 0.000000e+00
 0.000000e+00 0.000000e+00 7.365080e-01 2.634921e-01 0.000000e+00
 0.000000e+00 0.000000e+00 0.000000e+00 7.904040e-01 2.095960e-01
 0.000000e+00 0.000000e+00 0.000000e+00 0.000000e+00 0.000000e+00
<ENDHMM>
