~o
<STREAMINFO> 1 12
<VECSIZE> 12<NULLD><MFCC><DIAGC>
~h "aNN"
<BEGINHMM>
<NUMSTATES> 5
<STATE> 2
<MEAN> 12
 1.848049e+00 -1.475418e+01 3.612530e+00 -1.627023e+01 5.643932e+00 6.370411e+00 -5.927404e+00 -3.347624e+00 1.194423e+00 -2.386534e+00 -5.311897e+00 -7.704090e+00
<VARIANCE> 12
 2.215071e+01 3.672590e+01 4.918277e+01 8.004459e+01 6.742494e+01 1.152224e+02 1.123655e+02 8.504766e+01 8.052173e+01 6.468677e+01 5.285250e+01 6.277904e+01
<GCONST> 7.182205e+01
<STATE> 3
<MEAN> 12
 2.612766e+00 -8.220875e+00 -1.458279e+00 -8.132884e+00 -5.891559e-02 7.417278e+00 -9.002655e+00 -2.445461e+00 -4.928814e+00 -2.234936e+00 -5.343013e+00 -7.274338e+00
<VARIANCE> 12
 1.136336e+01 1.521006e+01 8.796121e+01 2.943188e+01 2.921145e+01 6.433813e+01 5.840421e+01 4.620659e+01 6.671591e+01 4.800620e+01 4.583471e+01 3.582365e+01
<GCONST> 6.598050e+01
<STATE> 4
<MEAN> 12
 -1.239351e-01 4.020354e-01 3.815541e+00 -5.197506e-02 -5.998290e-01 1.250676e+00 -4.848479e+00 -7.471098e+00 -4.087657e+00 -1.923073e+00 -3.142104e+00 -5.706700e+00
<VARIANCE> 12
 2.385399e+01 3.176132e+01 5.533297e+01 4.667873e+01 3.938018e+01 6.535181e+01 5.179947e+01 5.748365e+01 6.790330e+01 4.964334e+01 5.387931e+01 4.779719e+01
<GCONST> 6.836998e+01
<TRANSP> 5
 0.000000e+00 1.000000e+00 0.000000e+00 0.000000e+00 0.000000e+00
 0.000000e+00 7.955975e-01 2.044025e-01 0.000000e+00 0.000000e+00
 0.000000e+00 0.000000e+00 7.840531e-01 2.159468e-01 0.000000e+00
 0.000000e+00 0.000000e+00 0.000000e+00 8.189415e-01 1.810585e-01
 0.000000e+00 0.000000e+00 0.000000e+00 0.000000e+00 0.000000e+00
<ENDHMM>
