~o
<STREAMINFO> 1 12
<VECSIZE> 12<NULLD><MFCC><DIAGC>
~h "au"
<BEGINHMM>
<NUMSTATES> 5
<STATE> 2
<MEAN> 12
 -2.376662e+00 -7.850910e+00 -8.427888e+00 -1.833033e+01 3.817932e+00 4.618558e+00 -5.578142e+00 -4.492267e+00 4.468053e-01 -6.411112e+00 -3.128238e+00 -5.374778e+00
<VARIANCE> 12
 3.380730e+01 2.727071e+01 2.781903e+01 7.549802e+01 4.494866e+01 7.505452e+01 4.526966e+01 3.937351e+01 5.056143e+01 5.087811e+01 5.202438e+01 3.427377e+01
<GCONST> 6.747903e+01
<STATE> 3
<MEAN> 12
 4.858401e-01 -8.592788e+00 2.002097e+00 -2.563954e+01 -4.234856e-01 1.188170e+01 -7.508737e+00 3.064148e-01 1.646545e+00 -5.453204e+00 -5.276162e-01 -5.213666e+00
<VARIANCE> 12
 2.089000e+01 7.705660e+01 5.588897e+01 7.843104e+01 9.211827e+01 8.564370e+01 9.626189e+01 8.380624e+01 9.329433e+01 9.115426e+01 5.405347e+01 6.095128e+01
<GCONST> 7.294113e+01
<STATE> 4
<MEAN> 12
 -1.560812e+00 -1.471164e+00 -1.280859e+00 -6.190408e+00 7.993486e-01 -3.752788e-01 -9.520745e-01 -3.484524e+00 2.226965e+00 1.534938e-01 -8.706566e-01 -1.748341e+00
<VARIANCE> 12
 3.288023e+01 3.114406e+01 5.384652e+01 4.215324e+01 4.664686e+01 7.718765e+01 1.345307e+02 3.808909e+01 4.202844e+01 5.531319e+01 2.780474e+01 4.692163e+01
<GCONST> 6.836908e+01
<TRANSP> 5
 0.000000e+00 1.000000e+00 0.000000e+00 0.000000e+00 0.000000e+00
 0.000000e+00 7.730061e-01 2.269939e-01 0.000000e+00 0.000000e+00
 0.000000e+00 0.000000e+00 8.337079e-01 1.662921e-01 0.000000e+00
 0.000000e+00 0.000000e+00 0.000000e+00 7.500000e-01 2.500000e-01
 0.000000e+00 0.000000e+00 0.000000e+00 0.000000e+00 0.000000e+00
<ENDHMM>
