~o
<STREAMINFO> 1 12
<VECSIZE> 12<NULLD><MFCC><DIAGC>
~h "b"
<BEGINHMM>
<NUMSTATES> 5
<STATE> 2
<MEAN> 12
 -6.211995e+00 -3.299653e+00 2.013683e+00 -1.874653e+00 2.023240e-01 -2.445634e+00 -3.586429e+00 -1.913311e+00 -1.816984e-01 -1.205141e+00 -7.326466e-01 -2.640916e+00
<VARIANCE> 12
 4.060815e+01 2.685124e+01 6.396688e+01 4.476299e+01 3.159488e+01 5.984293e+01 4.474710e+01 3.327620e+01 3.814086e+01 3.374796e+01 2.288265e+01 3.429621e+01
<GCONST> 6.568476e+01
<STATE> 3
<MEAN> 12
 -3.365546e+00 -3.420737e+00 4.508663e+00 -5.676077e+00 -2.403855e+00 -3.102836e+00 -5.838856e+00 -2.894040e+00 2.625804e-02 -2.547163e+00 -1.866451e-01 -3.462937e+00
<VARIANCE> 12
 2.925600e+01 4.310543e+01 1.077896e+02 7.638423e+01 5.029897e+01 7.532607e+01 5.601562e+01 4.437461e+01 3.866875e+01 3.921449e+01 3.362930e+01 3.637790e+01
<GCONST> 6.870177e+01
<STATE> 4
<MEAN> 12
 -1.241717e+00 -8.148308e+00 5.148208e+00 -1.083098e+01 -4.507899e+00 -6.104885e-01 -8.283429e+00 -2.236176e+00 2.588939e-01 -4.108259e+00 -1.315976e+00 -4.951182e+00
<VARIANCE> 12
 3.165729e+01 1.064816e+02 1.310101e+02 1.057382e+02 9.919147e+01 1.362529e+02 8.719065e+01 9.988634e+01 7.291666e+01 6.913334e+01 6.755787e+01 3.766756e+01
<GCONST> 7.466454e+01
<TRANSP> 5
 0.000000e+00 1.000000e+00 0.000000e+00 0.000000e+00 0.000000e+00
 0.000000e+00 6.737805e-01 3.262195e-01 0.000000e+00 0.000000e+00
 0.000000e+00 0.000000e+00 0.000000e+00 1.000000e+00 0.000000e+00
 0.000000e+00 0.000000e+00 0.000000e+00 3.630952e-01 6.369048e-01
 0.000000e+00 0.000000e+00 0.000000e+00 0.000000e+00 0.000000e+00
<ENDHMM>
