~o
<STREAMINFO> 1 12
<VECSIZE> 12<NULLD><MFCC><DIAGC>
~h "d"
<BEGINHMM>
<NUMSTATES> 5
<STATE> 2
<MEAN> 12
 -6.254292e+00 -1.290810e+00 2.673914e+00 -1.753998e+00 -7.126670e-01 -4.311409e+00 -3.053764e+00 -1.856589e+00 7.083086e-02 -9.429740e-01 -9.708654e-01 -2.064568e+00
<VARIANCE> 12
 4.112836e+01 2.638020e+01 5.964307e+01 3.875475e+01 3.825550e+01 4.560620e+01 4.883996e+01 4.795348e+01 3.491054e+01 3.415419e+01 3.222264e+01 3.480622e+01
<GCONST> 6.611871e+01
<STATE> 3
<MEAN> 12
 -4.337726e+00 -2.342405e+00 5.356899e+00 -4.848513e+00 -2.194376e+00 -7.697449e+00 -6.833933e+00 -9.682188e-01 5.869768e-01 -1.802386e+00 -2.883102e+00 -3.567858e+00
<VARIANCE> 12
 3.457024e+01 3.525839e+01 8.002560e+01 4.630217e+01 5.129413e+01 4.331280e+01 6.422890e+01 5.608202e+01 4.425779e+01 4.399218e+01 4.008944e+01 5.229165e+01
<GCONST> 6.849504e+01
<STATE> 4
<MEAN> 12
 -1.334866e+00 -6.252574e+00 7.164185e+00 -8.382839e+00 -3.707121e+00 -6.640389e+00 -8.948777e+00 -1.284319e-01 4.361687e-01 -2.239792e+00 -3.387774e+00 -5.466701e+00
<VARIANCE> 12
 2.483859e+01 5.875767e+01 1.055504e+02 6.540544e+01 6.821898e+01 8.412169e+01 9.322186e+01 7.905550e+01 7.046224e+01 6.795887e+01 6.238185e+01 6.584063e+01
<GCONST> 7.253476e+01
<TRANSP> 5
 0.000000e+00 1.000000e+00 0.000000e+00 0.000000e+00 0.000000e+00
 0.000000e+00 6.080402e-01 3.919598e-01 0.000000e+00 0.000000e+00
 0.000000e+00 0.000000e+00 0.000000e+00 1.000000e+00 0.000000e+00
 0.000000e+00 0.000000e+00 0.000000e+00 3.606557e-01 6.393443e-01
 0.000000e+00 0.000000e+00 0.000000e+00 0.000000e+00 0.000000e+00
<ENDHMM>
