~o
<STREAMINFO> 1 12
<VECSIZE> 12<NULLD><MFCC><DIAGC>
~h "dz"
<BEGINHMM>
<NUMSTATES> 5
<STATE> 2
<MEAN> 12
 -1.306655e+01 6.181110e+00 1.208399e+00 1.846145e+00 5.806619e-02 -1.207458e-01 -5.840847e+00 -3.021951e+00 -1.995519e+00 -1.521002e+00 -2.056307e+00 -2.212640e+00
<VARIANCE> 12
 6.111484e+01 5.677784e+01 4.444481e+01 7.060516e+01 4.773048e+01 4.459243e+01 6.478989e+01 7.723280e+01 4.404476e+01 4.882559e+01 3.975481e+01 3.202883e+01
<GCONST> 6.926172e+01
<STATE> 3
<MEAN> 12
 -1.946617e+01 3.504556e+00 -2.899490e+00 1.353821e+00 -1.402782e+00 -1.819453e+00 -2.814988e+00 5.017567e-01 1.185894e+00 3.240064e-01 -9.483963e-02 -1.575051e-01
<VARIANCE> 12
 6.284125e+01 2.287172e+01 3.412669e+01 4.197363e+01 3.587440e+01 4.481694e+01 4.012756e+01 3.892014e+01 2.783087e+01 2.739740e+01 2.043428e+01 2.912778e+01
<GCONST> 6.435384e+01
<STATE> 4
<MEAN> 12
 -5.165103e+00 -5.005637e-01 1.555920e+00 -5.478062e+00 -2.810451e+00 -3.129065e+00 -1.079065e+01 -2.893876e+00 1.158767e+00 -1.849174e+00 -3.121639e+00 -3.620968e+00
<VARIANCE> 12
 3.276198e+01 6.639532e+01 3.940624e+01 7.258595e+01 4.444036e+01 8.513648e+01 9.463371e+01 7.199373e+01 6.214556e+01 4.824103e+01 4.699645e+01 5.764131e+01
<GCONST> 7.067311e+01
<TRANSP> 5
 0.000000e+00 1.000000e+00 0.000000e+00 0.000000e+00 0.000000e+00
 0.000000e+00 4.105263e-01 5.894737e-01 0.000000e+00 0.000000e+00
 0.000000e+00 0.000000e+00 7.281553e-01 2.718447e-01 0.000000e+00
 0.000000e+00 0.000000e+00 0.000000e+00 5.897436e-01 4.102564e-01
 0.000000e+00 0.000000e+00 0.000000e+00 0.000000e+00 0.000000e+00
<ENDHMM>
