~o
<STREAMINFO> 1 12
<VECSIZE> 12<NULLD><MFCC><DIAGC>
~h "dz#"
<BEGINHMM>
<NUMSTATES> 5
<STATE> 2
<MEAN> 12
 -7.981304e+00 -9.291683e-01 7.560253e+00 9.562136e-01 -1.754632e+00 -4.097965e+00 -5.507548e+00 -2.971751e+00 -1.705564e-01 -5.201446e+00 -1.777381e+00 -2.846583e+00
<VARIANCE> 12
 8.353355e+01 4.332142e+01 9.704013e+01 7.222155e+01 5.517762e+01 6.356369e+01 5.334829e+01 5.569561e+01 3.627937e+01 4.296473e+01 3.926143e+01 3.686354e+01
<GCONST> 6.989173e+01
<STATE> 3
<MEAN> 12
 -1.761915e+01 -1.722154e+00 4.831831e+00 -2.372521e+00 -6.101464e-01 -3.609792e+00 -4.507640e+00 -1.129467e+00 1.681390e+00 -2.240166e+00 6.163895e-01 -1.207466e-01
<VARIANCE> 12
 7.802141e+01 2.689096e+01 6.381607e+01 4.470704e+01 3.782319e+01 4.630541e+01 5.884230e+01 5.627605e+01 3.450631e+01 3.377302e+01 2.800217e+01 3.204858e+01
<GCONST> 6.709308e+01
<STATE> 4
<MEAN> 12
 -2.400589e+00 -2.700927e+00 8.658031e+00 -5.575223e+00 -9.346646e+00 -4.848153e+00 -9.530231e+00 -3.671449e+00 -2.119638e+00 -3.544739e+00 -3.002692e-02 -3.293417e+00
<VARIANCE> 12
 4.985811e+01 6.048936e+01 9.669366e+01 5.132561e+01 7.714550e+01 1.166116e+02 8.272988e+01 1.066706e+02 5.400967e+01 5.792070e+01 4.481458e+01 5.287364e+01
<GCONST> 7.258446e+01
<TRANSP> 5
 0.000000e+00 1.000000e+00 0.000000e+00 0.000000e+00 0.000000e+00
 0.000000e+00 4.434524e-01 5.565476e-01 0.000000e+00 0.000000e+00
 0.000000e+00 0.000000e+00 6.696113e-01 3.303887e-01 0.000000e+00
 0.000000e+00 0.000000e+00 0.000000e+00 4.672365e-01 5.327635e-01
 0.000000e+00 0.000000e+00 0.000000e+00 0.000000e+00 0.000000e+00
<ENDHMM>
