~o
<STREAMINFO> 1 12
<VECSIZE> 12<NULLD><MFCC><DIAGC>
~h "ei"
<BEGINHMM>
<NUMSTATES> 5
<STATE> 2
<MEAN> 12
 -1.230536e+00 -9.152184e+00 1.695060e+01 -5.927440e+00 -1.313022e+01 -9.434643e+00 -7.997522e+00 3.586828e+00 -5.533217e+00 -2.258181e+00 1.975343e+00 -1.674000e+00
<VARIANCE> 12
 1.329002e+01 3.794740e+01 1.090110e+02 3.898120e+01 5.430337e+01 4.186637e+01 7.705010e+01 5.980954e+01 8.354166e+01 6.514248e+01 5.549207e+01 2.887630e+01
<GCONST> 6.877814e+01
<STATE> 3
<MEAN> 12
 -6.537522e+00 -5.756558e+00 1.553292e+01 -9.022808e+00 -1.604370e+01 -5.423417e+00 -6.151694e+00 -5.825216e+00 -3.534765e+00 -5.719923e+00 1.720338e+00 -6.553326e+00
<VARIANCE> 12
 2.126094e+01 6.195753e+01 6.626331e+01 1.238868e+02 1.229704e+02 5.770575e+01 1.093505e+02 1.202472e+02 8.533834e+01 7.134839e+01 4.380117e+01 5.692913e+01
<GCONST> 7.313794e+01
<STATE> 4
<MEAN> 12
 -4.266151e+00 -1.082411e-01 7.357371e+00 -4.173869e+00 -9.639858e+00 -8.325916e+00 -4.273136e+00 -2.835546e+00 -4.293727e+00 -2.097452e+00 -3.398087e+00 -1.240328e+00
<VARIANCE> 12
 4.172801e+01 2.942855e+01 6.227013e+01 7.419630e+01 6.522066e+01 3.747387e+01 2.996280e+01 4.359290e+01 3.356770e+01 2.906605e+01 4.415335e+01 2.454890e+01
<GCONST> 6.645361e+01
<TRANSP> 5
 0.000000e+00 1.000000e+00 0.000000e+00 0.000000e+00 0.000000e+00
 0.000000e+00 7.500000e-01 2.500000e-01 0.000000e+00 0.000000e+00
 0.000000e+00 0.000000e+00 6.792453e-01 3.207547e-01 0.000000e+00
 0.000000e+00 0.000000e+00 0.000000e+00 7.079038e-01 2.920962e-01
 0.000000e+00 0.000000e+00 0.000000e+00 0.000000e+00 0.000000e+00
<ENDHMM>
