~o
<STREAMINFO> 1 12
<VECSIZE> 12<NULLD><MFCC><DIAGC>
~h "eN"
<BEGINHMM>
<NUMSTATES> 5
<STATE> 2
<MEAN> 12
 -8.823553e-01 -9.160100e+00 7.779635e+00 -8.012811e+00 -4.805275e+00 -6.939290e+00 -1.060847e+01 -1.507200e-03 1.617823e+00 -6.358672e+00 -2.187242e+00 -5.441979e+00
<VARIANCE> 12
 2.556523e+01 3.655735e+01 1.018932e+02 7.383646e+01 8.387554e+01 1.076453e+02 1.238236e+02 1.309211e+02 9.515926e+01 9.532545e+01 6.922000e+01 5.528445e+01
<GCONST> 7.398467e+01
<STATE> 3
<MEAN> 12
 1.188132e+00 -8.257414e-01 7.924001e+00 -9.762889e-01 -4.812134e+00 -5.147713e+00 -9.494183e+00 -3.534679e+00 -3.300837e+00 -4.162922e+00 -4.060668e+00 -4.382589e+00
<VARIANCE> 12
 6.648728e+00 1.846013e+01 7.459212e+01 4.880824e+01 3.311719e+01 6.438471e+01 4.677797e+01 7.353334e+01 4.793621e+01 7.156760e+01 4.503131e+01 5.764050e+01
<GCONST> 6.687468e+01
<STATE> 4
<MEAN> 12
 -5.408540e+00 2.192492e+00 6.877299e+00 1.513473e+00 2.005422e+00 -4.223220e+00 -3.107438e+00 -2.910156e+00 -1.112744e-01 -3.445898e+00 -3.385806e+00 -1.803754e+00
<VARIANCE> 12
 5.133742e+01 3.515901e+01 4.993999e+01 5.095068e+01 3.218784e+01 4.685945e+01 5.965516e+01 5.805038e+01 5.062825e+01 4.733051e+01 3.941562e+01 3.408834e+01
<GCONST> 6.784792e+01
<TRANSP> 5
 0.000000e+00 1.000000e+00 0.000000e+00 0.000000e+00 0.000000e+00
 0.000000e+00 8.063540e-01 1.936460e-01 0.000000e+00 0.000000e+00
 0.000000e+00 0.000000e+00 8.103704e-01 1.896296e-01 0.000000e+00
 0.000000e+00 0.000000e+00 0.000000e+00 7.434870e-01 2.565130e-01
 0.000000e+00 0.000000e+00 0.000000e+00 0.000000e+00 0.000000e+00
<ENDHMM>
