~o
<STREAMINFO> 1 12
<VECSIZE> 12<NULLD><MFCC><DIAGC>
~h "eNN"
<BEGINHMM>
<NUMSTATES> 5
<STATE> 2
<MEAN> 12
 6.796705e-01 -7.057486e+00 2.217989e+00 -1.582212e+01 3.512715e+00 -4.799900e+00 -3.875201e+00 -4.405609e+00 2.572342e+00 -2.678284e+00 -5.046651e+00 -6.668875e+00
<VARIANCE> 12
 2.212217e+01 3.835637e+01 6.288800e+01 9.315092e+01 4.083047e+01 1.448937e+02 7.096663e+01 5.283107e+01 7.676900e+01 8.401788e+01 4.375873e+01 6.552179e+01
<GCONST> 7.112125e+01
<STATE> 3
<MEAN> 12
 3.342420e+00 -4.588197e+00 1.163135e+01 -8.951521e+00 -5.002974e+00 1.968880e+00 -8.715054e+00 -3.344054e+00 -8.606505e+00 2.165077e+00 -4.374405e+00 -1.355013e+01
<VARIANCE> 12
 1.094308e+01 3.870971e+01 4.436182e+01 6.789964e+01 2.829400e+01 6.348346e+01 8.401972e+01 7.046716e+01 9.854591e+01 7.379842e+01 1.115890e+02 7.447413e+01
<GCONST> 7.021050e+01
<STATE> 4
<MEAN> 12
 -1.642592e+00 1.349401e+00 4.557734e+00 -5.158097e-01 -1.914782e+00 -4.401972e+00 -5.417631e+00 -2.983387e+00 -2.731662e+00 -1.332854e+00 -6.429140e+00 -1.890967e+00
<VARIANCE> 12
 4.243467e+01 2.227309e+01 3.364847e+01 3.205034e+01 3.041218e+01 5.715058e+01 6.682485e+01 5.162429e+01 5.178436e+01 5.667697e+01 4.398309e+01 3.944819e+01
<GCONST> 6.693900e+01
<TRANSP> 5
 0.000000e+00 1.000000e+00 0.000000e+00 0.000000e+00 0.000000e+00
 0.000000e+00 7.156863e-01 2.843137e-01 0.000000e+00 0.000000e+00
 0.000000e+00 0.000000e+00 7.943262e-01 2.056738e-01 0.000000e+00
 0.000000e+00 0.000000e+00 0.000000e+00 8.370786e-01 1.629214e-01
 0.000000e+00 0.000000e+00 0.000000e+00 0.000000e+00 0.000000e+00
<ENDHMM>
