~o
<STREAMINFO> 1 12
<VECSIZE> 12<NULLD><MFCC><DIAGC>
~h "er"
<BEGINHMM>
<NUMSTATES> 5
<STATE> 2
<MEAN> 12
 -5.318682e-01 -1.839604e+01 -8.198783e-01 -1.168618e+01 -3.272061e+00 6.753770e-02 -4.027440e+00 -1.874757e+00 -3.977463e+00 -5.828915e+00 -5.372641e+00 -3.759762e+00
<VARIANCE> 12
 2.548033e+01 2.742709e+01 2.288177e+01 6.195176e+01 3.722575e+01 3.170816e+02 8.106907e+01 1.172771e+02 6.297386e+01 3.661320e+01 4.967139e+01 3.769278e+01
<GCONST> 6.967469e+01
<STATE> 3
<MEAN> 12
 3.590777e+00 -1.160930e+01 -4.003870e+00 -2.460318e+00 -8.930247e+00 -3.976761e+00 -5.158342e+00 2.903624e+00 -9.560387e-02 -9.652034e+00 -1.321162e+01 6.219646e-01
<VARIANCE> 12
 1.402592e+01 1.007453e+01 2.946425e+01 1.286371e+01 5.579144e+01 4.044296e+01 2.378626e+01 2.177998e+01 8.308890e+01 3.310136e+01 5.508128e+01 4.987825e+00
<GCONST> 6.044994e+01
<STATE> 4
<MEAN> 12
 5.354450e-01 -4.208638e+00 -4.229880e+00 6.537453e+00 -2.298418e+00 -6.559111e+00 -9.006326e+00 -4.656553e+00 5.741329e+00 -2.087929e+00 -4.720314e+00 1.615142e+00
<VARIANCE> 12
 4.319637e+01 2.142388e+01 9.041010e+01 6.919615e+01 3.044577e+01 2.911013e+01 8.282263e+01 2.964691e+01 1.121148e+02 4.928170e+01 5.781861e+01 5.354058e+01
<GCONST> 6.887401e+01
<TRANSP> 5
 0.000000e+00 1.000000e+00 0.000000e+00 0.000000e+00 0.000000e+00
 0.000000e+00 8.200000e-01 1.800000e-01 0.000000e+00 0.000000e+00
 0.000000e+00 0.000000e+00 7.428572e-01 2.571429e-01 0.000000e+00
 0.000000e+00 0.000000e+00 0.000000e+00 8.043478e-01 1.956522e-01
 0.000000e+00 0.000000e+00 0.000000e+00 0.000000e+00 0.000000e+00
<ENDHMM>
