~o
<STREAMINFO> 1 12
<VECSIZE> 12<NULLD><MFCC><DIAGC>
~h "f"
<BEGINHMM>
<NUMSTATES> 5
<STATE> 2
<MEAN> 12
 -1.377065e+01 2.797559e-01 4.044919e+00 2.169774e+00 1.992685e+00 -1.664606e+00 -2.966143e+00 -3.450009e+00 -1.365485e+00 -1.918664e+00 -2.345844e+00 -3.974951e+00
<VARIANCE> 12
 4.692000e+01 1.969743e+01 3.355991e+01 3.377175e+01 2.880274e+01 4.866238e+01 2.762609e+01 2.916757e+01 2.145968e+01 2.808228e+01 2.032303e+01 2.058793e+01
<GCONST> 6.229138e+01
<STATE> 3
<MEAN> 12
 -1.705466e+01 -3.677325e+00 -6.194078e-01 2.784267e-01 -2.762841e-01 -2.948078e+00 -2.944065e+00 -1.083828e-02 5.647905e-01 6.194081e-02 -8.461636e-01 -5.486559e-01
<VARIANCE> 12
 3.705445e+01 1.247076e+01 1.639316e+01 1.642531e+01 2.542457e+01 2.895045e+01 2.412668e+01 2.771297e+01 2.733487e+01 2.533866e+01 1.589080e+01 2.152109e+01
<GCONST> 5.926778e+01
<STATE> 4
<MEAN> 12
 -2.094934e+00 -3.793991e+00 -4.507126e-01 -9.546773e+00 -3.102816e+00 -2.610888e+00 -6.787219e+00 -2.820944e+00 6.904764e-01 -3.728451e+00 -1.991753e+00 -4.514200e+00
<VARIANCE> 12
 2.526297e+01 4.075277e+01 5.778017e+01 7.385368e+01 5.553292e+01 1.070800e+02 5.301130e+01 5.016127e+01 4.254919e+01 5.232475e+01 3.383365e+01 2.792671e+01
<GCONST> 6.848559e+01
<TRANSP> 5
 0.000000e+00 1.000000e+00 0.000000e+00 0.000000e+00 0.000000e+00
 0.000000e+00 5.230770e-01 4.769231e-01 0.000000e+00 0.000000e+00
 0.000000e+00 0.000000e+00 7.737226e-01 2.262774e-01 0.000000e+00
 0.000000e+00 0.000000e+00 0.000000e+00 6.125000e-01 3.875000e-01
 0.000000e+00 0.000000e+00 0.000000e+00 0.000000e+00 0.000000e+00
<ENDHMM>
