~o
<STREAMINFO> 1 12
<VECSIZE> 12<NULLD><MFCC><DIAGC>
~h "g"
<BEGINHMM>
<NUMSTATES> 5
<STATE> 2
<MEAN> 12
 -4.473893e+00 -4.041957e+00 -1.762676e+00 -3.911201e+00 -1.194026e-01 -6.071380e+00 -4.559782e+00 1.543488e+00 -2.554143e+00 4.951637e-01 -2.369543e+00 -1.145545e+00
<VARIANCE> 12
 2.161961e+01 4.338259e+01 7.487121e+01 5.897462e+01 5.032840e+01 6.615039e+01 6.209943e+01 4.180391e+01 4.145029e+01 4.270305e+01 3.168775e+01 3.946767e+01
<GCONST> 6.787347e+01
<STATE> 3
<MEAN> 12
 -8.039166e-01 -1.903573e+00 2.188144e+00 -6.989141e+00 -3.228196e+00 -7.434469e+00 -7.925544e+00 2.346482e-01 -3.857964e+00 8.869773e-01 -3.044945e+00 -2.989145e+00
<VARIANCE> 12
 1.423710e+01 3.899609e+01 8.807811e+01 6.197301e+01 5.455918e+01 8.433481e+01 5.993925e+01 4.339198e+01 5.045192e+01 5.533469e+01 4.968769e+01 5.028111e+01
<GCONST> 6.903426e+01
<STATE> 4
<MEAN> 12
 2.078044e+00 -3.425833e+00 7.055611e+00 -1.281740e+01 -7.210918e+00 -3.698806e+00 -9.883710e+00 4.727703e-02 -3.946114e+00 1.637684e+00 -1.873285e+00 -5.117042e+00
<VARIANCE> 12
 1.425102e+01 7.548078e+01 9.121883e+01 6.519331e+01 5.415163e+01 1.297966e+02 7.892328e+01 6.992523e+01 6.349453e+01 6.718320e+01 5.853441e+01 5.684961e+01
<GCONST> 7.166792e+01
<TRANSP> 5
 0.000000e+00 1.000000e+00 0.000000e+00 0.000000e+00 0.000000e+00
 0.000000e+00 6.201299e-01 3.798701e-01 0.000000e+00 0.000000e+00
 0.000000e+00 0.000000e+00 0.000000e+00 1.000000e+00 0.000000e+00
 0.000000e+00 0.000000e+00 0.000000e+00 4.179105e-01 5.820895e-01
 0.000000e+00 0.000000e+00 0.000000e+00 0.000000e+00 0.000000e+00
<ENDHMM>
