~o
<STREAMINFO> 1 12
<VECSIZE> 12<NULLD><MFCC><DIAGC>
~h "i"
<BEGINHMM>
<NUMSTATES> 5
<STATE> 2
<MEAN> 12
 -8.315156e+00 2.745850e+00 1.467600e+01 -7.169759e+00 -7.671237e+00 -6.048160e+00 -8.881379e+00 -9.350736e+00 -3.905465e+00 -3.654354e+00 -1.052255e+00 -3.313937e+00
<VARIANCE> 12
 6.140559e+01 5.094712e+01 9.956995e+01 9.602501e+01 4.861548e+01 5.967582e+01 7.411788e+01 6.988605e+01 4.378093e+01 4.295422e+01 3.737128e+01 2.590365e+01
<GCONST> 7.020830e+01
<STATE> 3
<MEAN> 12
 -4.541605e+00 -3.202004e+00 1.804706e+01 -2.833559e+00 -1.241600e+01 -3.372950e+00 -1.456888e+01 -3.333429e+00 -4.294514e+00 -6.302479e+00 2.257721e+00 -4.797034e+00
<VARIANCE> 12
 2.881081e+01 6.181837e+01 1.786516e+02 8.851536e+01 6.680022e+01 8.670849e+01 9.221514e+01 8.511554e+01 9.952917e+01 8.653235e+01 4.459432e+01 6.423787e+01
<GCONST> 7.386165e+01
<STATE> 4
<MEAN> 12
 -6.228214e+00 1.869694e+00 7.919242e+00 8.910406e-01 -1.612070e+00 -4.037805e+00 -6.011171e+00 -3.866836e+00 -2.263213e-01 -1.349451e+00 -1.438516e+00 -1.144303e+00
<VARIANCE> 12
 5.234714e+01 4.877472e+01 7.140678e+01 6.609564e+01 5.285991e+01 5.830999e+01 6.758084e+01 5.524894e+01 7.667381e+01 4.016017e+01 2.572143e+01 2.903473e+01
<GCONST> 6.926598e+01
<TRANSP> 5
 0.000000e+00 1.000000e+00 0.000000e+00 0.000000e+00 0.000000e+00
 0.000000e+00 7.300724e-01 2.699275e-01 0.000000e+00 0.000000e+00
 0.000000e+00 0.000000e+00 7.673693e-01 2.326307e-01 0.000000e+00
 0.000000e+00 0.000000e+00 0.000000e+00 7.227907e-01 2.772093e-01
 0.000000e+00 0.000000e+00 0.000000e+00 0.000000e+00 0.000000e+00
<ENDHMM>
