~o
<STREAMINFO> 1 12
<VECSIZE> 12<NULLD><MFCC><DIAGC>
~h "ia"
<BEGINHMM>
<NUMSTATES> 5
<STATE> 2
<MEAN> 12
 -4.136056e+00 -9.829050e+00 2.775646e+00 -6.755050e+00 -5.069478e+00 -8.056449e+00 -1.837749e+00 3.559106e+00 1.534169e+00 -8.807909e+00 -2.761032e+00 -2.969160e+00
<VARIANCE> 12
 1.195381e+01 4.984510e+01 5.456785e+01 4.251799e+01 4.980483e+01 3.583188e+01 9.071781e+01 5.269849e+01 4.102879e+01 4.914580e+01 3.589425e+01 4.912645e+01
<GCONST> 6.723720e+01
<STATE> 3
<MEAN> 12
 1.112491e+00 -1.223639e+01 4.589617e-01 -8.534908e+00 8.260294e+00 1.225641e+00 1.240729e+00 -7.200126e+00 2.976822e+00 -1.869947e+00 -9.241477e+00 -3.833356e+00
<VARIANCE> 12
 6.667662e+00 3.713246e+01 1.770214e+01 3.376775e+01 6.066829e+01 3.089606e+01 3.934271e+01 7.703834e+01 7.743423e+01 3.985920e+01 2.177365e+01 6.190033e+01
<GCONST> 6.475314e+01
<STATE> 4
<MEAN> 12
 -7.130322e+00 -5.980548e+00 5.545692e-01 -4.077249e+00 2.444886e+00 -3.665853e-01 -3.341371e+00 -3.423799e+00 1.285587e+00 -1.779443e+00 -2.138573e+00 -2.294471e+00
<VARIANCE> 12
 3.356617e+01 1.984972e+02 2.287472e+01 1.251912e+02 3.886577e+01 4.775021e+01 4.940885e+01 6.449741e+01 6.278490e+01 4.070953e+01 3.008926e+01 3.527957e+01
<GCONST> 6.922520e+01
<TRANSP> 5
 0.000000e+00 1.000000e+00 0.000000e+00 0.000000e+00 0.000000e+00
 0.000000e+00 7.500000e-01 2.500000e-01 0.000000e+00 0.000000e+00
 0.000000e+00 0.000000e+00 8.503401e-01 1.496599e-01 0.000000e+00
 0.000000e+00 0.000000e+00 0.000000e+00 7.105263e-01 2.894737e-01
 0.000000e+00 0.000000e+00 0.000000e+00 0.000000e+00 0.000000e+00
<ENDHMM>
