~o
<STREAMINFO> 1 12
<VECSIZE> 12<NULLD><MFCC><DIAGC>
~h "iaN"
<BEGINHMM>
<NUMSTATES> 5
<STATE> 2
<MEAN> 12
 -4.291737e+00 -5.646749e+00 1.519029e+01 -8.526361e+00 -1.379301e+01 -6.589962e+00 -7.477555e+00 9.588173e-01 -4.992311e+00 -1.914715e+00 4.391604e-01 -4.326152e+00
<VARIANCE> 12
 1.163898e+01 3.435487e+01 5.938424e+01 8.356139e+01 4.234073e+01 5.717147e+01 6.805424e+01 9.835313e+01 6.199635e+01 4.587489e+01 3.880851e+01 3.941048e+01
<GCONST> 6.844158e+01
<STATE> 3
<MEAN> 12
 6.575524e-01 -1.233038e+01 9.936738e+00 -7.260100e+00 -8.468293e+00 -2.141875e-01 -7.973989e+00 4.143536e+00 -4.208883e-01 -4.036610e+00 -2.261704e+00 -8.169479e+00
<VARIANCE> 12
 1.999731e+01 4.786810e+01 1.399243e+02 8.522090e+01 1.084489e+02 1.377967e+02 1.941818e+02 1.162531e+02 1.618715e+02 6.437514e+01 6.202839e+01 7.167680e+01
<GCONST> 7.559283e+01
<STATE> 4
<MEAN> 12
 -1.867532e+00 -5.591392e-01 8.301485e+00 8.723148e-01 -3.039735e+00 -3.481429e+00 -5.129047e+00 -1.159210e+00 -3.666488e+00 -2.563039e+00 -3.514693e+00 -3.843162e+00
<VARIANCE> 12
 3.576382e+01 3.898497e+01 6.686914e+01 6.137982e+01 4.408203e+01 5.502908e+01 7.416238e+01 8.015356e+01 6.930013e+01 5.152789e+01 4.382536e+01 3.660575e+01
<GCONST> 6.965956e+01
<TRANSP> 5
 0.000000e+00 1.000000e+00 0.000000e+00 0.000000e+00 0.000000e+00
 0.000000e+00 8.116148e-01 1.883853e-01 0.000000e+00 0.000000e+00
 0.000000e+00 0.000000e+00 7.753378e-01 2.246622e-01 0.000000e+00
 0.000000e+00 0.000000e+00 0.000000e+00 8.219545e-01 1.780455e-01
 0.000000e+00 0.000000e+00 0.000000e+00 0.000000e+00 0.000000e+00
<ENDHMM>
