~o
<STREAMINFO> 1 12
<VECSIZE> 12<NULLD><MFCC><DIAGC>
~h "iaNN"
<BEGINHMM>
<NUMSTATES> 5
<STATE> 2
<MEAN> 12
 -4.420856e+00 -9.185298e+00 -1.392513e+00 -8.422174e+00 -3.967282e+00 -8.283131e+00 -3.221566e+00 3.500323e+00 -2.320135e+00 -8.561701e+00 -7.576553e+00 -2.167125e+00
<VARIANCE> 12
 2.309979e+01 4.877319e+01 8.432351e+01 3.831583e+01 6.174176e+01 3.349213e+01 5.703615e+01 5.412207e+01 2.855430e+01 5.372083e+01 6.733142e+01 2.918716e+01
<GCONST> 6.775021e+01
<STATE> 3
<MEAN> 12
 1.101452e+00 -1.323922e+01 3.075699e+00 -9.037392e+00 5.566631e+00 -1.752576e+00 -4.997913e+00 2.933751e-01 1.024172e+00 -1.282078e+00 -7.226524e+00 -7.949759e+00
<VARIANCE> 12
 1.348685e+01 5.543240e+01 1.012780e+02 3.375561e+01 6.345327e+01 5.474482e+01 6.427823e+01 1.020798e+02 7.385988e+01 7.781364e+01 3.558082e+01 5.442990e+01
<GCONST> 6.997559e+01
<STATE> 4
<MEAN> 12
 -7.203888e-01 -2.311037e+00 -2.396711e+00 -2.932078e+00 1.179564e+00 -1.318981e+00 -5.900033e+00 -4.726663e+00 -2.980570e+00 -3.734448e+00 -8.567397e+00 -1.594329e+00
<VARIANCE> 12
 3.035434e+01 2.191186e+01 4.859547e+01 2.872422e+01 4.487692e+01 3.371766e+01 3.370017e+01 3.992982e+01 2.544648e+01 5.130347e+01 4.112343e+01 3.679942e+01
<GCONST> 6.481873e+01
<TRANSP> 5
 0.000000e+00 1.000000e+00 0.000000e+00 0.000000e+00 0.000000e+00
 0.000000e+00 7.612903e-01 2.387097e-01 0.000000e+00 0.000000e+00
 0.000000e+00 0.000000e+00 8.000000e-01 2.000000e-01 0.000000e+00
 0.000000e+00 0.000000e+00 0.000000e+00 8.810290e-01 1.189711e-01
 0.000000e+00 0.000000e+00 0.000000e+00 0.000000e+00 0.000000e+00
<ENDHMM>
