~o
<STREAMINFO> 1 12
<VECSIZE> 12<NULLD><MFCC><DIAGC>
~h "iau"
<BEGINHMM>
<NUMSTATES> 5
<STATE> 2
<MEAN> 12
 -3.513489e+00 -8.400073e+00 3.718737e+00 -1.116513e+01 -4.451464e+00 -3.214321e+00 -6.591565e+00 1.577129e+00 -1.321433e-01 -1.343489e+00 -4.989237e+00 -5.380054e+00
<VARIANCE> 12
 3.046813e+01 3.835486e+01 8.824164e+01 6.265100e+01 6.077070e+01 8.674580e+01 1.129340e+02 6.067490e+01 9.326110e+01 1.038422e+02 6.059682e+01 4.297434e+01
<GCONST> 7.218130e+01
<STATE> 3
<MEAN> 12
 8.129833e-01 -7.675837e+00 -3.679621e+00 -1.831636e+01 1.200874e+00 8.184729e+00 -5.814513e+00 -5.355905e+00 8.336740e-01 -5.268191e+00 -2.064910e+00 -3.814456e+00
<VARIANCE> 12
 1.602048e+01 3.957217e+01 3.481868e+01 8.634827e+01 7.716158e+01 7.805547e+01 1.396801e+02 7.473437e+01 5.610588e+01 7.747188e+01 4.736729e+01 5.196935e+01
<GCONST> 7.065742e+01
<STATE> 4
<MEAN> 12
 -3.150253e+00 7.777779e-01 -1.547985e+00 -7.211293e+00 1.619722e-01 -7.515541e-01 -2.786652e+00 -2.034534e+00 -1.570558e-01 -2.106219e+00 -1.671178e+00 -3.445506e+00
<VARIANCE> 12
 3.922683e+01 4.245133e+01 4.529902e+01 4.484944e+01 4.978441e+01 6.066903e+01 3.736299e+01 4.796563e+01 4.004500e+01 5.459937e+01 4.586395e+01 3.050914e+01
<GCONST> 6.752688e+01
<TRANSP> 5
 0.000000e+00 1.000000e+00 0.000000e+00 0.000000e+00 0.000000e+00
 0.000000e+00 7.788019e-01 2.211982e-01 0.000000e+00 0.000000e+00
 0.000000e+00 0.000000e+00 8.666667e-01 1.333333e-01 0.000000e+00
 0.000000e+00 0.000000e+00 0.000000e+00 7.957447e-01 2.042553e-01
 0.000000e+00 0.000000e+00 0.000000e+00 0.000000e+00 0.000000e+00
<ENDHMM>
