~o
<STREAMINFO> 1 12
<VECSIZE> 12<NULLD><MFCC><DIAGC>
~h "iE"
<BEGINHMM>
<NUMSTATES> 5
<STATE> 2
<MEAN> 12
 -7.029045e+00 -1.694839e+00 1.703702e+01 -5.115694e+00 -1.306469e+01 -9.376055e+00 -7.457139e+00 -8.166144e+00 -3.283772e+00 -6.842052e+00 2.764084e+00 -1.992558e+00
<VARIANCE> 12
 1.555399e+01 4.605882e+01 4.682729e+01 8.062428e+01 6.152183e+01 5.213136e+01 5.454553e+01 5.225237e+01 4.157951e+01 8.924649e+01 3.424046e+01 3.633910e+01
<GCONST> 6.823862e+01
<STATE> 3
<MEAN> 12
 -1.007207e+00 -1.037352e+01 2.129748e+01 -7.953721e+00 -1.304446e+01 -9.962307e+00 -1.093027e+01 6.278025e+00 -7.557695e+00 1.046742e+00 2.006366e+00 -8.021849e-01
<VARIANCE> 12
 1.822911e+01 6.378545e+01 8.271577e+01 5.488832e+01 4.141809e+01 3.317157e+01 6.908839e+01 5.164577e+01 7.363550e+01 4.368141e+01 2.497108e+01 2.210549e+01
<GCONST> 6.732858e+01
<STATE> 4
<MEAN> 12
 -4.159856e+00 -2.402150e+00 6.512675e+00 -4.591806e+00 -4.421958e+00 -6.265782e+00 -1.555581e+00 -1.089388e+00 6.399685e-01 -1.255189e+00 -2.197611e+00 -1.004393e+00
<VARIANCE> 12
 4.561437e+01 4.505279e+01 7.454731e+01 7.534996e+01 4.155344e+01 7.422707e+01 6.560310e+01 5.531224e+01 5.942612e+01 3.765352e+01 4.080325e+01 2.871191e+01
<GCONST> 6.932613e+01
<TRANSP> 5
 0.000000e+00 1.000000e+00 0.000000e+00 0.000000e+00 0.000000e+00
 0.000000e+00 7.871622e-01 2.128379e-01 0.000000e+00 0.000000e+00
 0.000000e+00 0.000000e+00 7.906977e-01 2.093023e-01 0.000000e+00
 0.000000e+00 0.000000e+00 0.000000e+00 8.000000e-01 2.000000e-01
 0.000000e+00 0.000000e+00 0.000000e+00 0.000000e+00 0.000000e+00
<ENDHMM>
