~o
<STREAMINFO> 1 12
<VECSIZE> 12<NULLD><MFCC><DIAGC>
~h "iN"
<BEGINHMM>
<NUMSTATES> 5
<STATE> 2
<MEAN> 12
 -8.161351e+00 3.626973e+00 1.560531e+01 -7.257422e+00 -9.960182e+00 -3.258382e+00 -8.727611e+00 -7.058825e+00 -5.662761e+00 -5.117180e+00 8.250754e-02 -6.363803e+00
<VARIANCE> 12
 3.441856e+01 3.367566e+01 1.316176e+02 5.012015e+01 3.474641e+01 6.716535e+01 5.405452e+01 3.893253e+01 2.495450e+01 6.672783e+01 4.271877e+01 2.816728e+01
<GCONST> 6.782175e+01
<STATE> 3
<MEAN> 12
 -1.740792e+00 -1.356152e+00 1.542518e+01 -2.549504e+00 -1.236527e+01 -2.357950e+00 -1.019858e+01 -5.671254e+00 -8.617927e+00 -6.702256e+00 8.001400e-01 -1.017655e+01
<VARIANCE> 12
 2.228742e+01 5.676376e+01 5.168674e+01 7.227440e+01 6.201826e+01 1.007898e+02 1.223089e+02 1.344336e+02 9.079865e+01 8.443857e+01 9.219567e+01 6.119104e+01
<GCONST> 7.345378e+01
<STATE> 4
<MEAN> 12
 -3.936468e+00 2.569168e+00 6.408406e+00 -1.074548e+00 -5.165617e+00 -6.262018e+00 -5.115980e+00 -7.412013e+00 -3.845828e+00 -4.935649e+00 -3.315629e+00 -1.652178e+00
<VARIANCE> 12
 4.367833e+01 4.016761e+01 6.517724e+01 6.165541e+01 4.941616e+01 4.828558e+01 3.987442e+01 5.477900e+01 3.415681e+01 2.427143e+01 2.697441e+01 2.514291e+01
<GCONST> 6.652929e+01
<TRANSP> 5
 0.000000e+00 1.000000e+00 0.000000e+00 0.000000e+00 0.000000e+00
 0.000000e+00 7.125748e-01 2.874252e-01 0.000000e+00 0.000000e+00
 0.000000e+00 0.000000e+00 7.303371e-01 2.696629e-01 0.000000e+00
 0.000000e+00 0.000000e+00 0.000000e+00 8.350515e-01 1.649485e-01
 0.000000e+00 0.000000e+00 0.000000e+00 0.000000e+00 0.000000e+00
<ENDHMM>
