~o
<STREAMINFO> 1 12
<VECSIZE> 12<NULLD><MFCC><DIAGC>
~h "iNN"
<BEGINHMM>
<NUMSTATES> 5
<STATE> 2
<MEAN> 12
 -3.752389e+00 -2.816242e+00 1.860701e+01 -6.883120e+00 -1.242517e+01 1.541388e+00 -1.246880e+01 -4.595396e-01 -1.082432e+01 1.067566e+00 -5.041508e-01 -8.433606e+00
<VARIANCE> 12
 3.822592e+01 4.936108e+01 4.681000e+01 4.834076e+01 6.368070e+01 9.438387e+01 1.118475e+02 7.581700e+01 7.810795e+01 6.118008e+01 3.909740e+01 5.038995e+01
<GCONST> 7.112605e+01
<STATE> 3
<MEAN> 12
 -1.195842e+00 -3.469477e-01 1.237786e+01 -5.071016e-01 -9.811974e+00 -2.357776e+00 -7.493584e+00 -6.726967e+00 -6.120755e+00 -2.572185e+00 -1.900865e+00 -7.032725e+00
<VARIANCE> 12
 8.358924e+00 2.418244e+01 5.851221e+01 5.664064e+01 4.175464e+01 5.895029e+01 7.959097e+01 5.188053e+01 4.061230e+01 7.261782e+01 4.917146e+01 3.934994e+01
<GCONST> 6.716088e+01
<STATE> 4
<MEAN> 12
 -4.935797e+00 2.842850e+00 7.989515e+00 1.291937e+00 -2.532896e+00 -3.471299e+00 -4.074817e+00 -5.087162e+00 -3.171832e+00 -1.456124e+00 -2.988850e+00 -3.502432e+00
<VARIANCE> 12
 5.456250e+01 4.667475e+01 4.090038e+01 4.781033e+01 3.886317e+01 3.573043e+01 5.163700e+01 5.395216e+01 4.689366e+01 2.660540e+01 2.649129e+01 2.682512e+01
<GCONST> 6.633899e+01
<TRANSP> 5
 0.000000e+00 1.000000e+00 0.000000e+00 0.000000e+00 0.000000e+00
 0.000000e+00 7.976190e-01 2.023810e-01 0.000000e+00 0.000000e+00
 0.000000e+00 0.000000e+00 7.971360e-01 2.028640e-01 0.000000e+00
 0.000000e+00 0.000000e+00 0.000000e+00 7.651933e-01 2.348066e-01
 0.000000e+00 0.000000e+00 0.000000e+00 0.000000e+00 0.000000e+00
<ENDHMM>
