~o
<STREAMINFO> 1 12
<VECSIZE> 12<NULLD><MFCC><DIAGC>
~h "ioNN"
<BEGINHMM>
<NUMSTATES> 5
<STATE> 2
<MEAN> 12
 3.624415e-01 -5.465937e+00 4.171945e+00 -9.827547e+00 -7.295907e+00 -8.141697e+00 -1.358935e+01 -2.289285e+00 -3.815381e+00 2.242408e+00 -3.803258e+00 -2.669411e+00
<VARIANCE> 12
 8.567598e+00 2.553200e+01 6.644939e+01 2.615335e+01 5.680481e+01 7.096478e+01 1.737730e+01 4.840525e+01 6.369356e+01 2.682064e+01 1.920920e+01 3.245359e+01
<GCONST> 6.381790e+01
<STATE> 3
<MEAN> 12
 3.090557e+00 -9.828052e+00 1.289147e+01 -1.226239e+01 -1.679060e+00 7.093255e+00 -1.431112e+01 2.753031e+00 -1.247987e+01 -1.307618e+00 4.575570e+00 -1.720835e+01
<VARIANCE> 12
 7.561526e+00 9.531159e+01 1.498663e+02 5.241389e+01 4.670709e+01 1.011138e+02 2.284035e+01 6.064576e+01 8.353081e+01 4.147332e+01 3.759538e+01 8.433884e+01
<GCONST> 6.950938e+01
<STATE> 4
<MEAN> 12
 -4.284188e+00 -1.713140e+00 3.118982e+00 -5.155921e+00 -4.298434e+00 -1.583261e+00 -3.282300e+00 -8.280961e-01 -9.483868e+00 -8.525993e-01 -3.834710e+00 -2.025393e+00
<VARIANCE> 12
 5.158274e+01 4.208935e+01 1.896141e+02 2.178719e+02 1.862124e+01 1.322985e+01 2.725171e+01 7.719136e+01 5.122097e+01 5.395763e+01 3.598130e+01 7.437337e+01
<GCONST> 6.934103e+01
<TRANSP> 5
 0.000000e+00 1.000000e+00 0.000000e+00 0.000000e+00 0.000000e+00
 0.000000e+00 8.076923e-01 1.923077e-01 0.000000e+00 0.000000e+00
 0.000000e+00 0.000000e+00 7.500000e-01 2.500000e-01 0.000000e+00
 0.000000e+00 0.000000e+00 0.000000e+00 7.619048e-01 2.380952e-01
 0.000000e+00 0.000000e+00 0.000000e+00 0.000000e+00 0.000000e+00
<ENDHMM>
