~o
<STREAMINFO> 1 12
<VECSIZE> 12<NULLD><MFCC><DIAGC>
~h "iou"
<BEGINHMM>
<NUMSTATES> 5
<STATE> 2
<MEAN> 12
 -1.594419e+00 -4.521321e+00 1.631381e+01 -3.708062e+00 -7.586415e+00 -6.521073e+00 -1.174471e+01 2.037054e-01 -5.990787e+00 8.292145e-01 1.304160e+00 -3.731227e+00
<VARIANCE> 12
 2.471297e+01 5.689499e+01 8.582878e+01 6.480152e+01 4.673713e+01 6.280164e+01 8.794691e+01 8.901992e+01 8.190948e+01 6.161621e+01 3.347623e+01 3.769459e+01
<GCONST> 7.054375e+01
<STATE> 3
<MEAN> 12
 2.753040e+00 -1.341305e+00 3.450101e+00 -1.500494e+01 -6.987681e+00 3.312056e+00 -1.158701e+01 -4.714074e+00 1.179836e+00 -1.445812e+00 1.597496e+00 -3.703293e+00
<VARIANCE> 12
 1.629190e+01 6.539658e+01 4.776380e+01 1.254926e+02 8.930455e+01 1.029941e+02 6.642342e+01 5.737946e+01 1.254770e+02 8.381682e+01 8.131045e+01 5.441583e+01
<GCONST> 7.275233e+01
<STATE> 4
<MEAN> 12
 -4.375154e+00 1.296698e-01 2.042228e+00 -3.619350e+00 1.215279e+00 -3.071584e+00 -4.343106e+00 -1.924702e+00 1.146540e+00 1.072658e-01 4.983653e-01 7.732408e-01
<VARIANCE> 12
 5.080304e+01 3.210474e+01 6.175742e+01 5.597784e+01 3.688409e+01 4.137103e+01 4.739989e+01 6.487186e+01 5.131577e+01 6.103469e+01 3.135768e+01 3.022827e+01
<GCONST> 6.786472e+01
<TRANSP> 5
 0.000000e+00 1.000000e+00 0.000000e+00 0.000000e+00 0.000000e+00
 0.000000e+00 7.833935e-01 2.166065e-01 0.000000e+00 0.000000e+00
 0.000000e+00 0.000000e+00 8.514851e-01 1.485149e-01 0.000000e+00
 0.000000e+00 0.000000e+00 0.000000e+00 8.245614e-01 1.754386e-01
 0.000000e+00 0.000000e+00 0.000000e+00 0.000000e+00 0.000000e+00
<ENDHMM>
