~o
<STREAMINFO> 1 12
<VECSIZE> 12<NULLD><MFCC><DIAGC>
~h "iu"
<BEGINHMM>
<NUMSTATES> 5
<STATE> 2
<MEAN> 12
 -2.434146e+00 -5.468948e+00 8.768099e+00 -5.384344e+00 -9.387146e+00 -1.142283e+01 -1.218126e+01 -3.437258e+00 -1.442580e+00 -2.449606e+00 -1.886746e+00 -3.412380e+00
<VARIANCE> 12
 1.818255e+01 3.293075e+01 6.569099e+01 5.027667e+01 3.915993e+01 4.317150e+01 5.200511e+01 6.363952e+01 3.584780e+01 4.955785e+01 6.053405e+01 4.316327e+01
<GCONST> 6.743993e+01
<STATE> 3
<MEAN> 12
 1.868110e+00 -2.091847e-02 2.977091e+00 -1.569447e+01 -6.590786e+00 3.798423e+00 -7.389152e+00 -7.850498e+00 -1.230940e+00 -4.556054e-01 1.369378e+00 -1.479428e+00
<VARIANCE> 12
 1.938868e+01 4.559686e+01 5.214307e+01 5.276508e+01 5.674574e+01 6.819772e+01 5.793350e+01 7.547433e+01 7.611099e+01 5.953035e+01 6.053787e+01 2.716741e+01
<GCONST> 6.922694e+01
<STATE> 4
<MEAN> 12
 -5.717351e+00 -5.068564e-01 5.837690e+00 -3.506996e+00 -3.045826e+00 -2.501587e+00 -1.254202e+01 -5.277390e+00 6.507848e-01 -1.377323e+00 -1.162961e+00 -2.786400e+00
<VARIANCE> 12
 6.570018e+01 3.034384e+01 4.723615e+01 4.610548e+01 2.268824e+01 5.554322e+01 5.440386e+01 3.700041e+01 1.702094e+01 3.314974e+01 2.740148e+01 5.406882e+01
<GCONST> 6.572102e+01
<TRANSP> 5
 0.000000e+00 1.000000e+00 0.000000e+00 0.000000e+00 0.000000e+00
 0.000000e+00 7.142857e-01 2.857143e-01 0.000000e+00 0.000000e+00
 0.000000e+00 0.000000e+00 8.157895e-01 1.842105e-01 0.000000e+00
 0.000000e+00 0.000000e+00 0.000000e+00 6.410257e-01 3.589744e-01
 0.000000e+00 0.000000e+00 0.000000e+00 0.000000e+00 0.000000e+00
<ENDHMM>
