~o
<STREAMINFO> 1 12
<VECSIZE> 12<NULLD><MFCC><DIAGC>
~h "k"
<BEGINHMM>
<NUMSTATES> 5
<STATE> 2
<MEAN> 12
 -4.519486e+00 -3.479961e+00 -1.989887e+00 -5.874382e+00 1.038846e+00 -1.582507e+00 -5.906891e+00 4.905117e-01 -2.595747e+00 3.013288e+00 -3.040609e+00 -7.464231e-01
<VARIANCE> 12
 2.173905e+01 4.530526e+01 9.123586e+01 4.990516e+01 7.375742e+01 5.810529e+01 8.218665e+01 5.178106e+01 5.611847e+01 5.306432e+01 4.309332e+01 4.532171e+01
<GCONST> 6.966582e+01
<STATE> 3
<MEAN> 12
 -1.010471e+01 -8.172287e+00 -4.231180e+00 -2.800354e+00 6.685909e+00 -4.560285e+00 -5.601382e+00 -1.518883e+00 3.777400e+00 3.809559e+00 -2.852097e+00 -3.646277e+00
<VARIANCE> 12
 3.146040e+01 3.699144e+01 4.333422e+01 4.265108e+01 6.160788e+01 6.514597e+01 7.259502e+01 5.749007e+01 5.426812e+01 6.273976e+01 3.216919e+01 3.667566e+01
<GCONST> 6.847592e+01
<STATE> 4
<MEAN> 12
 -2.113955e+00 -4.545926e+00 2.365655e+00 -1.337115e+01 -2.912040e+00 -1.272220e+00 -8.962953e+00 -3.427239e+00 2.012228e+00 -2.459095e+00 -3.443783e+00 -6.252553e+00
<VARIANCE> 12
 2.081136e+01 6.815526e+01 4.793679e+01 9.441915e+01 1.327388e+02 1.283737e+02 1.144509e+02 1.087158e+02 6.498005e+01 1.051856e+02 5.662243e+01 5.893016e+01
<GCONST> 7.384422e+01
<TRANSP> 5
 0.000000e+00 1.000000e+00 0.000000e+00 0.000000e+00 0.000000e+00
 0.000000e+00 3.806452e-01 6.193548e-01 0.000000e+00 0.000000e+00
 0.000000e+00 0.000000e+00 7.391304e-01 2.608696e-01 0.000000e+00
 0.000000e+00 0.000000e+00 0.000000e+00 5.492958e-01 4.507042e-01
 0.000000e+00 0.000000e+00 0.000000e+00 0.000000e+00 0.000000e+00
<ENDHMM>
