~o
<STREAMINFO> 1 12
<VECSIZE> 12<NULLD><MFCC><DIAGC>
~h "l"
<BEGINHMM>
<NUMSTATES> 5
<STATE> 2
<MEAN> 12
 -3.582407e-02 -1.807095e+00 6.229308e+00 -8.356769e-01 -3.132605e-01 -2.007452e+00 -9.241598e+00 -9.258462e+00 2.734130e+00 -2.020332e+00 -2.635767e-01 -5.395074e+00
<VARIANCE> 12
 2.554811e+01 3.663829e+01 6.466779e+01 7.694263e+01 6.469353e+01 7.210111e+01 7.561389e+01 9.764079e+01 7.306929e+01 5.204967e+01 5.048338e+01 5.551574e+01
<GCONST> 7.094508e+01
<STATE> 3
<MEAN> 12
 -2.165447e+00 -4.567451e+00 1.147019e+01 -4.540250e+00 -7.864880e+00 -5.076816e+00 -1.035343e+01 -4.840628e+00 -1.519253e+00 -2.574312e+00 -1.670167e+00 -3.340574e+00
<VARIANCE> 12
 1.894351e+01 2.616856e+01 8.670389e+01 6.783239e+01 6.801425e+01 7.205521e+01 7.700071e+01 7.181856e+01 6.947570e+01 7.125980e+01 5.417747e+01 4.584195e+01
<GCONST> 7.037997e+01
<STATE> 4
<MEAN> 12
 -2.170798e+00 -9.247921e+00 6.653010e+00 -1.016474e+01 -5.279790e+00 -1.828897e+00 -1.051965e+01 -2.992281e-01 2.498064e+00 -3.063957e+00 -2.348108e+00 -7.005203e+00
<VARIANCE> 12
 1.523870e+01 5.987425e+01 1.125044e+02 7.608579e+01 8.749715e+01 9.422802e+01 1.028126e+02 9.610716e+01 8.058836e+01 5.218414e+01 5.888216e+01 5.584292e+01
<GCONST> 7.258337e+01
<TRANSP> 5
 0.000000e+00 1.000000e+00 0.000000e+00 0.000000e+00 0.000000e+00
 0.000000e+00 5.690789e-01 4.309210e-01 0.000000e+00 0.000000e+00
 0.000000e+00 0.000000e+00 4.045455e-01 5.954546e-01 0.000000e+00
 0.000000e+00 0.000000e+00 0.000000e+00 4.401709e-01 5.598291e-01
 0.000000e+00 0.000000e+00 0.000000e+00 0.000000e+00 0.000000e+00
<ENDHMM>
