~o
<STREAMINFO> 1 12
<VECSIZE> 12<NULLD><MFCC><DIAGC>
~h "m"
<BEGINHMM>
<NUMSTATES> 5
<STATE> 2
<MEAN> 12
 1.639701e+00 6.070161e-01 8.562156e+00 3.414041e+00 -1.290352e+00 -5.229559e-01 -9.027955e+00 -7.988278e+00 -5.989268e+00 -2.098812e+00 -7.175120e-01 -8.109284e+00
<VARIANCE> 12
 9.610525e+00 2.813266e+01 4.133790e+01 9.378139e+01 4.439883e+01 6.067350e+01 6.061956e+01 3.498213e+01 4.159401e+01 3.689226e+01 2.949774e+01 3.474146e+01
<GCONST> 6.574344e+01
<STATE> 3
<MEAN> 12
 9.688504e-01 -2.580961e+00 1.309922e+01 -1.985456e+00 -3.194230e+00 -8.852632e-01 -9.633004e+00 -4.941962e+00 -9.495026e+00 -4.314168e-01 -3.904060e+00 -1.171767e+01
<VARIANCE> 12
 1.237741e+01 2.642849e+01 5.922527e+01 6.059293e+01 5.459641e+01 7.645389e+01 1.589047e+02 8.471872e+01 8.971677e+01 8.540617e+01 9.544718e+01 7.562593e+01
<GCONST> 7.170312e+01
<STATE> 4
<MEAN> 12
 -1.233737e+00 -4.563535e+00 7.700610e+00 -8.072664e+00 -5.530922e+00 -1.357112e+00 -8.858834e+00 -4.011421e+00 -1.176284e+00 -3.221411e+00 -9.442185e-01 -6.476598e+00
<VARIANCE> 12
 2.898927e+01 7.134476e+01 1.214412e+02 8.617942e+01 1.140654e+02 9.105523e+01 1.040674e+02 8.809347e+01 9.002185e+01 4.980242e+01 3.851005e+01 4.697036e+01
<GCONST> 7.322507e+01
<TRANSP> 5
 0.000000e+00 1.000000e+00 0.000000e+00 0.000000e+00 0.000000e+00
 0.000000e+00 6.739927e-01 3.260073e-01 0.000000e+00 0.000000e+00
 0.000000e+00 0.000000e+00 5.055556e-01 4.944444e-01 0.000000e+00
 0.000000e+00 0.000000e+00 0.000000e+00 5.265958e-01 4.734043e-01
 0.000000e+00 0.000000e+00 0.000000e+00 0.000000e+00 0.000000e+00
<ENDHMM>
