~o
<STREAMINFO> 1 12
<VECSIZE> 12<NULLD><MFCC><DIAGC>
~h "n"
<BEGINHMM>
<NUMSTATES> 5
<STATE> 2
<MEAN> 12
 5.767170e-01 1.043779e+00 8.888498e+00 2.055550e-02 -4.874773e+00 -4.538063e+00 -7.551967e+00 -7.126460e+00 -2.217328e+00 -2.712728e+00 -6.215265e+00 -4.514751e+00
<VARIANCE> 12
 1.361065e+01 2.896977e+01 8.060645e+01 6.156793e+01 5.013429e+01 4.228385e+01 6.176373e+01 4.657380e+01 6.136246e+01 4.833649e+01 3.168339e+01 5.929929e+01
<GCONST> 6.769819e+01
<STATE> 3
<MEAN> 12
 -3.184912e+00 -1.110307e+00 7.037082e+00 -6.531557e+00 -4.904561e+00 -7.738815e+00 -1.126090e+01 -6.219988e+00 -1.826122e+00 -6.676718e+00 -2.677212e+00 -6.038233e+00
<VARIANCE> 12
 2.671034e+01 4.050399e+01 9.599306e+01 5.513235e+01 5.789563e+01 8.408824e+01 8.132990e+01 7.811407e+01 6.239539e+01 1.290549e+02 4.319111e+01 5.540196e+01
<GCONST> 7.163616e+01
<STATE> 4
<MEAN> 12
 -7.362387e-01 -5.045267e+00 1.088401e+01 -9.675889e+00 -5.960974e+00 5.893463e-01 -1.220684e+01 1.341838e+00 1.619018e+00 -1.810901e+00 -1.957818e+00 -9.079601e+00
<VARIANCE> 12
 2.389274e+01 9.198969e+01 1.157253e+02 6.040236e+01 8.062578e+01 8.118576e+01 8.123914e+01 9.402195e+01 7.435509e+01 7.583685e+01 5.415907e+01 7.754182e+01
<GCONST> 7.330969e+01
<TRANSP> 5
 0.000000e+00 1.000000e+00 0.000000e+00 0.000000e+00 0.000000e+00
 0.000000e+00 6.769760e-01 3.230241e-01 0.000000e+00 0.000000e+00
 0.000000e+00 0.000000e+00 2.656250e-01 7.343750e-01 0.000000e+00
 0.000000e+00 0.000000e+00 0.000000e+00 5.052631e-01 4.947369e-01
 0.000000e+00 0.000000e+00 0.000000e+00 0.000000e+00 0.000000e+00
<ENDHMM>
