~o
<STREAMINFO> 1 12
<VECSIZE> 12<NULLD><MFCC><DIAGC>
~h "o"
<BEGINHMM>
<NUMSTATES> 5
<STATE> 2
<MEAN> 12
 1.699208e+00 5.705392e-01 9.213093e+00 -2.182974e+01 -1.586601e+01 1.573715e+01 -9.968272e+00 -2.993299e+00 6.111089e+00 -1.076736e+01 5.502188e+00 -8.198956e+00
<VARIANCE> 12
 1.091319e+01 6.389754e+01 4.630811e+01 2.154079e+01 1.018630e+02 5.315799e+01 1.256462e+02 9.147298e+01 9.524898e+01 3.530568e+01 2.452887e+01 6.643383e+01
<GCONST> 6.897005e+01
<STATE> 3
<MEAN> 12
 -9.844542e-01 -1.186108e+01 -4.330232e+00 -1.993971e+01 2.881022e+00 9.345002e+00 -1.118241e+01 -1.401806e+00 -2.525313e+00 -2.031302e+00 5.190575e-01 -8.184408e+00
<VARIANCE> 12
 3.156483e+00 2.361185e+01 2.854530e+01 3.847067e+01 8.620912e+01 2.261566e+01 7.491265e+01 9.998631e+01 6.784151e+01 1.815414e+01 2.975407e+01 7.204584e+00
<GCONST> 6.234765e+01
<STATE> 4
<MEAN> 12
 -2.607227e+00 -5.834579e+00 5.235971e+00 2.672265e+00 -2.804755e+00 -1.674429e+00 -1.098948e+01 -3.843493e+00 1.849365e+00 1.596483e+00 -2.463671e+00 -1.135031e+01
<VARIANCE> 12
 3.741434e+01 1.050894e+02 8.211311e+01 6.686322e+01 6.627430e+01 8.021948e+01 1.193073e+02 9.116895e+01 9.697514e+01 6.560259e+01 2.860848e+01 4.517974e+01
<GCONST> 7.273754e+01
<TRANSP> 5
 0.000000e+00 1.000000e+00 0.000000e+00 0.000000e+00 0.000000e+00
 0.000000e+00 8.214286e-01 1.785714e-01 0.000000e+00 0.000000e+00
 0.000000e+00 0.000000e+00 7.058824e-01 2.941177e-01 0.000000e+00
 0.000000e+00 0.000000e+00 0.000000e+00 7.058824e-01 2.941177e-01
 0.000000e+00 0.000000e+00 0.000000e+00 0.000000e+00 0.000000e+00
<ENDHMM>
