~o
<STREAMINFO> 1 12
<VECSIZE> 12<NULLD><MFCC><DIAGC>
~h "oNN"
<BEGINHMM>
<NUMSTATES> 5
<STATE> 2
<MEAN> 12
 -7.014121e-01 -1.750733e+00 3.372780e+00 -1.426939e+01 -9.297527e+00 9.253358e-01 -1.413746e+01 -1.909622e+00 -1.575934e+00 -9.245206e+00 2.879198e+00 -1.189397e+01
<VARIANCE> 12
 2.167581e+01 3.507325e+01 7.369745e+01 8.409080e+01 1.272683e+02 9.608295e+01 1.424599e+02 1.181704e+02 5.959822e+01 7.934064e+01 5.702419e+01 9.308015e+01
<GCONST> 7.360104e+01
<STATE> 3
<MEAN> 12
 3.141241e+00 -3.019719e-01 1.054559e+01 -9.795329e+00 -8.346601e+00 3.949873e+00 -6.263222e+00 -1.995121e+00 -5.080217e+00 -2.055456e+00 -3.743818e+00 -7.827113e+00
<VARIANCE> 12
 1.054187e+01 2.379287e+01 1.037595e+02 7.061324e+01 3.884024e+01 4.517098e+01 5.891961e+01 7.236411e+01 8.365335e+01 5.261414e+01 5.472658e+01 5.451474e+01
<GCONST> 6.869685e+01
<STATE> 4
<MEAN> 12
 -1.767816e+00 1.801085e+00 2.800131e+00 -4.397267e+00 -2.688151e+00 -3.160206e+00 -7.551814e+00 -3.787835e+00 -3.820679e+00 -4.618275e+00 -2.826928e+00 -4.205976e+00
<VARIANCE> 12
 2.537280e+01 2.682776e+01 3.834814e+01 5.125379e+01 3.951482e+01 3.481595e+01 6.102954e+01 3.216962e+01 3.043427e+01 4.006771e+01 2.738161e+01 2.368102e+01
<GCONST> 6.455096e+01
<TRANSP> 5
 0.000000e+00 1.000000e+00 0.000000e+00 0.000000e+00 0.000000e+00
 0.000000e+00 7.909091e-01 2.090909e-01 0.000000e+00 0.000000e+00
 0.000000e+00 0.000000e+00 8.156313e-01 1.843687e-01 0.000000e+00
 0.000000e+00 0.000000e+00 0.000000e+00 8.416523e-01 1.583477e-01
 0.000000e+00 0.000000e+00 0.000000e+00 0.000000e+00 0.000000e+00
<ENDHMM>
