~o
<STREAMINFO> 1 12
<VECSIZE> 12<NULLD><MFCC><DIAGC>
~h "ou"
<BEGINHMM>
<NUMSTATES> 5
<STATE> 2
<MEAN> 12
 -9.416562e-01 -2.928292e+00 -5.258167e+00 -1.618376e+01 9.304504e-01 -2.303534e+00 -9.084239e+00 -4.510448e+00 -6.833550e-01 -5.164071e+00 -1.212636e+00 -6.301206e+00
<VARIANCE> 12
 2.157709e+01 4.603208e+01 5.290363e+01 9.624572e+01 6.108554e+01 7.302941e+01 5.612200e+01 5.922530e+01 4.353928e+01 9.615505e+01 5.998913e+01 5.209038e+01
<GCONST> 7.038966e+01
<STATE> 3
<MEAN> 12
 2.528147e+00 1.333530e+00 1.254746e+00 -1.919061e+01 -9.379825e+00 9.911601e+00 -1.120987e+01 -4.399128e+00 1.228454e-01 -2.167330e+00 2.920954e+00 -7.112094e-01
<VARIANCE> 12
 1.077557e+01 3.422751e+01 3.162444e+01 8.325331e+01 7.506640e+01 7.279789e+01 8.976424e+01 9.443563e+01 8.119992e+01 9.067677e+01 5.801588e+01 4.659990e+01
<GCONST> 7.029836e+01
<STATE> 4
<MEAN> 12
 -9.361734e-01 6.971205e-01 8.178952e-01 -4.915945e+00 4.094462e-01 -5.590843e-01 -3.598059e+00 2.709749e-01 4.901999e-01 -1.216873e-01 2.552647e+00 1.270318e+00
<VARIANCE> 12
 3.439585e+01 2.167296e+01 1.838706e+01 3.706762e+01 3.022918e+01 5.096568e+01 9.136483e+01 7.064377e+01 3.457936e+01 2.917015e+01 3.281066e+01 3.385685e+01
<GCONST> 6.523469e+01
<TRANSP> 5
 0.000000e+00 1.000000e+00 0.000000e+00 0.000000e+00 0.000000e+00
 0.000000e+00 6.711410e-01 3.288591e-01 0.000000e+00 0.000000e+00
 0.000000e+00 0.000000e+00 8.129771e-01 1.870229e-01 0.000000e+00
 0.000000e+00 0.000000e+00 0.000000e+00 8.250000e-01 1.750000e-01
 0.000000e+00 0.000000e+00 0.000000e+00 0.000000e+00 0.000000e+00
<ENDHMM>
