~o
<STREAMINFO> 1 12
<VECSIZE> 12<NULLD><MFCC><DIAGC>
~h "p"
<BEGINHMM>
<NUMSTATES> 5
<STATE> 2
<MEAN> 12
 -1.428078e+01 -5.187864e+00 4.319166e+00 -3.249893e+00 -5.525542e+00 -1.995464e+00 -2.896467e+00 -1.187615e+00 -4.977279e-01 -3.745079e-01 -1.210412e+00 -5.135750e-01
<VARIANCE> 12
 8.262408e+01 3.472211e+01 4.133243e+01 2.555414e+01 2.931441e+01 3.686680e+01 2.124192e+01 3.975687e+01 3.642137e+01 2.734857e+01 2.123013e+01 2.094962e+01
<GCONST> 6.370415e+01
<STATE> 3
<MEAN> 12
 -9.705734e+00 -5.352233e+00 2.753611e+00 -9.463820e+00 1.161735e+00 4.725829e-01 -1.196897e+00 -3.485776e+00 4.070401e+00 -4.787777e+00 -3.330675e-01 -1.528042e+00
<VARIANCE> 12
 4.755015e+01 6.080724e+01 5.772114e+01 1.089077e+02 7.756566e+01 6.603536e+01 6.521786e+01 1.577129e+01 5.571161e+01 4.694176e+01 3.632747e+01 2.257498e+01
<GCONST> 6.882589e+01
<STATE> 4
<MEAN> 12
 -3.334254e+00 -8.380832e+00 4.684276e+00 -6.777946e+00 5.992241e-01 1.985605e+00 2.717201e-01 -6.472432e+00 3.410767e+00 -5.692324e+00 -1.070745e-01 -3.812216e+00
<VARIANCE> 12
 5.231939e+01 5.758833e+01 1.002664e+02 1.068136e+02 1.389440e+02 1.106555e+02 9.044693e+01 4.907155e+01 9.859909e+01 4.237477e+01 2.120419e+01 1.851519e+01
<GCONST> 7.169307e+01
<TRANSP> 5
 0.000000e+00 1.000000e+00 0.000000e+00 0.000000e+00 0.000000e+00
 0.000000e+00 7.176471e-01 2.823530e-01 0.000000e+00 0.000000e+00
 0.000000e+00 0.000000e+00 5.471698e-01 4.528302e-01 0.000000e+00
 0.000000e+00 0.000000e+00 0.000000e+00 5.102041e-01 4.897959e-01
 0.000000e+00 0.000000e+00 0.000000e+00 0.000000e+00 0.000000e+00
<ENDHMM>
