~o
<STREAMINFO> 1 12
<VECSIZE> 12<NULLD><MFCC><DIAGC>
~h "r"
<BEGINHMM>
<NUMSTATES> 5
<STATE> 2
<MEAN> 12
 -1.622434e+00 -6.901021e+00 8.774490e+00 -1.347700e+00 -9.003108e+00 -9.378073e+00 -3.030057e+00 -7.621105e+00 -2.690147e+00 -4.784883e+00 -3.286908e-02 -6.291597e+00
<VARIANCE> 12
 5.165983e+01 3.510624e+01 1.049284e+02 7.791490e+01 1.175749e+02 9.785030e+01 1.011092e+02 1.651061e+02 1.293812e+02 6.106222e+01 5.795454e+01 4.990043e+01
<GCONST> 7.458412e+01
<STATE> 3
<MEAN> 12
 -2.801072e+00 -4.459732e+00 8.940950e+00 1.993558e+00 -4.916691e+00 -1.020198e+01 -7.254320e+00 -6.108259e-01 -6.482322e-01 -4.456154e+00 -1.646053e-01 -1.704660e+00
<VARIANCE> 12
 3.245711e+01 3.228366e+01 3.701149e+01 8.744793e+01 7.050452e+01 5.780472e+01 6.751885e+01 5.741035e+01 3.970507e+01 4.514416e+01 2.749806e+01 3.266808e+01
<GCONST> 6.795851e+01
<STATE> 4
<MEAN> 12
 1.740746e+00 -1.177206e+01 8.506783e+00 -3.496862e+00 -9.346148e+00 -6.847894e+00 -9.021591e+00 1.389223e+00 6.400971e-01 -2.184264e+00 -2.635179e+00 -5.274026e+00
<VARIANCE> 12
 1.943306e+01 4.742865e+01 5.688997e+01 9.294980e+01 5.813396e+01 1.302672e+02 1.485477e+02 1.118746e+02 7.370932e+01 7.893832e+01 6.417629e+01 4.530639e+01
<GCONST> 7.274840e+01
<TRANSP> 5
 0.000000e+00 1.000000e+00 0.000000e+00 0.000000e+00 0.000000e+00
 0.000000e+00 4.080000e-01 5.920000e-01 0.000000e+00 0.000000e+00
 0.000000e+00 0.000000e+00 6.696429e-01 3.303571e-01 0.000000e+00
 0.000000e+00 0.000000e+00 0.000000e+00 5.487805e-01 4.512195e-01
 0.000000e+00 0.000000e+00 0.000000e+00 0.000000e+00 0.000000e+00
<ENDHMM>
