~o
<STREAMINFO> 1 12
<VECSIZE> 12<NULLD><MFCC><DIAGC>
~h "s"
<BEGINHMM>
<NUMSTATES> 5
<STATE> 2
<MEAN> 12
 -1.819316e+01 8.275322e+00 -2.796803e+00 3.899724e+00 3.096896e+00 -3.025175e+00 7.739079e-01 -4.292260e-01 2.388461e+00 -1.184838e+00 1.888540e+00 3.813754e-01
<VARIANCE> 12
 4.406732e+01 2.393385e+01 5.826360e+01 4.498703e+01 3.721078e+01 6.024460e+01 4.988318e+01 3.161195e+01 2.981597e+01 2.638722e+01 2.663903e+01 2.512251e+01
<GCONST> 6.513918e+01
<STATE> 3
<MEAN> 12
 -2.664557e+01 5.397019e-01 -2.578143e+00 -9.683105e-01 1.039032e+00 -1.665237e+00 -3.357514e+00 -8.771913e-02 4.019051e+00 8.240289e-01 1.808555e+00 -7.322604e-01
<VARIANCE> 12
 2.300327e+01 1.621480e+01 2.155438e+01 5.583978e+01 2.399343e+01 4.491282e+01 5.087560e+01 3.223000e+01 4.650432e+01 3.308917e+01 2.729168e+01 3.024014e+01
<GCONST> 6.350844e+01
<STATE> 4
<MEAN> 12
 -7.533521e+00 1.634969e+00 -2.772762e-01 -5.527971e+00 -8.669180e-01 -4.947268e+00 -7.427619e+00 -5.554909e+00 1.154376e+00 -2.248758e+00 -1.068247e+00 -2.185579e+00
<VARIANCE> 12
 5.847886e+01 1.729875e+01 3.701083e+01 4.726468e+01 3.411638e+01 5.871108e+01 6.890128e+01 7.054195e+01 3.198531e+01 4.548939e+01 5.000476e+01 4.380313e+01
<GCONST> 6.750666e+01
<TRANSP> 5
 0.000000e+00 1.000000e+00 0.000000e+00 0.000000e+00 0.000000e+00
 0.000000e+00 7.058824e-01 2.941177e-01 0.000000e+00 0.000000e+00
 0.000000e+00 0.000000e+00 7.807018e-01 2.192982e-01 0.000000e+00
 0.000000e+00 0.000000e+00 0.000000e+00 4.897959e-01 5.102041e-01
 0.000000e+00 0.000000e+00 0.000000e+00 0.000000e+00 0.000000e+00
<ENDHMM>
