~o
<STREAMINFO> 1 12
<VECSIZE> 12<NULLD><MFCC><DIAGC>
~h "s#"
<BEGINHMM>
<NUMSTATES> 5
<STATE> 2
<MEAN> 12
 -1.420244e+01 -1.121400e+00 6.404230e+00 3.565672e+00 -1.415578e+00 -6.427367e+00 -3.383877e+00 -9.278424e-01 1.382891e+00 -3.873961e+00 -9.122182e-01 -3.297102e+00
<VARIANCE> 12
 5.225215e+01 2.758590e+01 9.224157e+01 9.302916e+01 5.850159e+01 5.114456e+01 5.527396e+01 5.922774e+01 4.955285e+01 4.098842e+01 2.970309e+01 3.258251e+01
<GCONST> 6.897400e+01
<STATE> 3
<MEAN> 12
 -2.627034e+01 -4.969358e+00 7.797906e+00 -7.610754e-01 -9.310158e-01 -3.916098e+00 -1.543744e+00 4.952307e-01 4.203954e+00 -3.252113e+00 1.035019e-01 -4.753568e-01
<VARIANCE> 12
 3.476583e+01 4.712186e+01 2.521645e+01 7.464121e+01 3.324625e+01 5.434851e+01 5.753257e+01 3.711788e+01 4.076636e+01 2.935032e+01 2.254775e+01 2.780737e+01
<GCONST> 6.568999e+01
<STATE> 4
<MEAN> 12
 -8.201474e+00 -3.605011e+00 5.903883e+00 -1.244896e+00 -3.411902e+00 -9.011972e+00 -6.226235e+00 -5.327033e+00 2.055285e+00 -3.906029e+00 -4.137127e-01 -2.636162e+00
<VARIANCE> 12
 7.930620e+01 5.194760e+01 5.048481e+01 6.912042e+01 6.747638e+01 9.316506e+01 5.369133e+01 5.518436e+01 4.836589e+01 4.547339e+01 4.127377e+01 4.015479e+01
<GCONST> 7.038457e+01
<TRANSP> 5
 0.000000e+00 1.000000e+00 0.000000e+00 0.000000e+00 0.000000e+00
 0.000000e+00 4.570552e-01 5.429448e-01 0.000000e+00 0.000000e+00
 0.000000e+00 0.000000e+00 8.336466e-01 1.663534e-01 0.000000e+00
 0.000000e+00 0.000000e+00 0.000000e+00 5.618812e-01 4.381188e-01
 0.000000e+00 0.000000e+00 0.000000e+00 0.000000e+00 0.000000e+00
<ENDHMM>
