~o
<STREAMINFO> 1 12
<VECSIZE> 12<NULLD><MFCC><DIAGC>
~h "silence"
<BEGINHMM>
<NUMSTATES> 5
<STATE> 2
<MEAN> 12
 -8.731393e+00 -5.486875e-01 1.119973e+00 1.173109e+00 1.146152e+00 1.075911e+00 -7.084417e-01 -1.088602e-01 8.737123e-01 -1.239832e+00 5.888381e-01 1.364724e-01
<VARIANCE> 12
 3.435938e+01 2.801822e+01 3.917767e+01 5.372204e+01 3.614823e+01 5.163050e+01 3.811071e+01 4.708752e+01 3.315827e+01 3.297396e+01 2.750288e+01 2.523491e+01
<GCONST> 6.513995e+01
<STATE> 3
<MEAN> 12
 -1.016117e+01 -8.292546e+00 -1.598382e+00 -1.470988e+00 1.167625e+00 -5.666203e+00 -1.798227e+00 7.901070e-01 1.997297e+00 -2.395471e+00 -1.409194e-01 7.614386e-01
<VARIANCE> 12
 2.892690e+01 1.679702e+01 2.022758e+01 1.632835e+01 2.163301e+01 2.976352e+01 2.685592e+01 3.206974e+01 3.061307e+01 3.311551e+01 2.396507e+01 2.666383e+01
<GCONST> 6.064768e+01
<STATE> 4
<MEAN> 12
 -8.329444e+00 -2.522578e+00 3.818954e+00 -2.282467e+00 -2.003134e+00 -3.210782e+00 -6.958617e+00 -8.614971e-01 -1.322590e+00 -6.742997e-01 -3.908327e-01 -1.492709e+00
<VARIANCE> 12
 6.787903e+01 5.167318e+01 5.510170e+01 5.363176e+01 5.845877e+01 5.882713e+01 7.135613e+01 7.031100e+01 5.773586e+01 5.192373e+01 4.779138e+01 3.685263e+01
<GCONST> 7.035148e+01
<TRANSP> 5
 0.000000e+00 1.000000e+00 0.000000e+00 0.000000e+00 0.000000e+00
 0.000000e+00 8.185595e-01 1.814405e-01 0.000000e+00 0.000000e+00
 0.000000e+00 0.000000e+00 9.104580e-01 8.954204e-02 0.000000e+00
 0.000000e+00 0.000000e+00 0.000000e+00 8.234501e-01 1.765499e-01
 0.000000e+00 0.000000e+00 0.000000e+00 0.000000e+00 0.000000e+00
<ENDHMM>
