~o
<STREAMINFO> 1 12
<VECSIZE> 12<NULLD><MFCC><DIAGC>
~h "t"
<BEGINHMM>
<NUMSTATES> 5
<STATE> 2
<MEAN> 12
 -1.331824e+01 -4.245159e-01 4.805093e+00 -3.432560e+00 -1.964014e+00 -3.107626e+00 -2.816536e+00 -2.498655e+00 2.799095e+00 -2.334445e+00 -4.682544e-01 -7.273951e-01
<VARIANCE> 12
 7.794261e+01 2.241074e+01 6.791033e+01 4.207037e+01 4.111383e+01 5.106632e+01 7.541328e+01 3.900698e+01 3.638254e+01 4.121481e+01 3.762588e+01 2.716430e+01
<GCONST> 6.735624e+01
<STATE> 3
<MEAN> 12
 -1.066998e+01 -6.639057e+00 2.297094e-02 -4.084121e+00 4.613907e+00 5.905791e-02 -3.467589e+00 -4.818944e-02 4.031305e+00 -1.499518e+00 -9.191585e-01 -1.477484e+00
<VARIANCE> 12
 2.887461e+01 6.579807e+01 5.533869e+01 4.542850e+01 7.437811e+01 6.800764e+01 7.102255e+01 5.111130e+01 3.846141e+01 5.542486e+01 3.877338e+01 3.600351e+01
<GCONST> 6.906551e+01
<STATE> 4
<MEAN> 12
 -3.602703e+00 -5.083571e+00 7.302904e+00 -1.099271e+01 -4.869800e+00 8.349441e-01 -1.110492e+01 -2.280011e+00 1.904348e+00 -3.416723e+00 -2.290714e+00 -5.440443e+00
<VARIANCE> 12
 2.762493e+01 8.319100e+01 1.012274e+02 8.173914e+01 8.865776e+01 9.772076e+01 1.238343e+02 9.587569e+01 6.517519e+01 7.128532e+01 5.471722e+01 5.788062e+01
<GCONST> 7.376851e+01
<TRANSP> 5
 0.000000e+00 1.000000e+00 0.000000e+00 0.000000e+00 0.000000e+00
 0.000000e+00 6.300268e-01 3.699732e-01 0.000000e+00 0.000000e+00
 0.000000e+00 0.000000e+00 6.558604e-01 3.441397e-01 0.000000e+00
 0.000000e+00 0.000000e+00 0.000000e+00 4.501992e-01 5.498008e-01
 0.000000e+00 0.000000e+00 0.000000e+00 0.000000e+00 0.000000e+00
<ENDHMM>
