~o
<STREAMINFO> 1 12
<VECSIZE> 12<NULLD><MFCC><DIAGC>
~h "ts"
<BEGINHMM>
<NUMSTATES> 5
<STATE> 2
<MEAN> 12
 -1.933493e+01 6.665773e+00 -1.857641e+00 2.298878e+00 1.686010e-02 -3.862934e+00 -4.821557e+00 -3.632618e+00 -6.661153e-01 -1.629905e+00 -2.092883e+00 -2.742978e+00
<VARIANCE> 12
 4.214606e+01 2.626534e+01 5.129738e+01 3.154753e+01 4.557996e+01 6.446551e+01 3.530146e+01 4.034187e+01 4.376926e+01 3.813107e+01 2.697655e+01 2.311661e+01
<GCONST> 6.555544e+01
<STATE> 3
<MEAN> 12
 -1.959062e+01 -2.350580e+00 -2.918591e+00 -3.890134e+00 3.092094e+00 -3.210146e+00 -4.019031e+00 1.752209e+00 3.180527e+00 -8.377588e-01 -2.767901e-01 8.700152e-02
<VARIANCE> 12
 4.119066e+01 2.593964e+01 1.508771e+01 2.659620e+01 3.904385e+01 5.818153e+01 4.596060e+01 4.856600e+01 5.233398e+01 2.917353e+01 2.679114e+01 2.553630e+01
<GCONST> 6.432120e+01
<STATE> 4
<MEAN> 12
 -6.540914e+00 -3.459898e+00 -1.857741e-01 -1.031857e+01 5.012189e+00 2.166413e+00 -6.292263e+00 -3.799888e+00 3.439184e-01 -4.226165e+00 -7.967153e-01 -3.423847e+00
<VARIANCE> 12
 4.765089e+01 5.625265e+01 5.502638e+01 7.763296e+01 8.166187e+01 9.594266e+01 1.140589e+02 9.401177e+01 1.146167e+02 4.161671e+01 7.266753e+01 2.874669e+01
<GCONST> 7.266907e+01
<TRANSP> 5
 0.000000e+00 1.000000e+00 0.000000e+00 0.000000e+00 0.000000e+00
 0.000000e+00 7.187500e-01 2.812500e-01 0.000000e+00 0.000000e+00
 0.000000e+00 0.000000e+00 7.804878e-01 2.195122e-01 0.000000e+00
 0.000000e+00 0.000000e+00 0.000000e+00 6.400000e-01 3.600000e-01
 0.000000e+00 0.000000e+00 0.000000e+00 0.000000e+00 0.000000e+00
<ENDHMM>
