~o
<STREAMINFO> 1 12
<VECSIZE> 12<NULLD><MFCC><DIAGC>
~h "ts#"
<BEGINHMM>
<NUMSTATES> 5
<STATE> 2
<MEAN> 12
 -1.417906e+01 -3.130754e-01 4.668213e+00 1.407456e+00 -2.008543e+00 -5.391282e+00 -1.632611e+00 -1.515550e+00 -4.244211e-01 -2.795360e+00 -1.368197e+00 -1.579467e+00
<VARIANCE> 12
 6.611791e+01 3.322993e+01 7.363003e+01 3.599482e+01 4.333119e+01 3.969908e+01 4.063872e+01 4.912774e+01 3.429649e+01 2.850028e+01 2.336219e+01 2.944093e+01
<GCONST> 6.609965e+01
<STATE> 3
<MEAN> 12
 -2.020088e+01 -6.219152e+00 4.430608e-01 -4.492795e-01 1.553836e+00 -5.585123e+00 -2.893661e+00 1.431182e+00 4.211838e+00 -1.379349e-01 1.430921e+00 -2.904282e-01
<VARIANCE> 12
 4.650753e+01 2.134452e+01 2.340703e+01 3.133955e+01 2.791794e+01 3.596658e+01 3.740991e+01 7.140765e+01 3.424359e+01 2.532864e+01 2.482894e+01 2.860650e+01
<GCONST> 6.368614e+01
<STATE> 4
<MEAN> 12
 -6.210290e+00 -5.239391e+00 -9.160805e-01 -7.963944e+00 4.210298e+00 1.149063e+00 -5.849484e+00 -5.433491e+00 2.322628e+00 -6.656364e+00 -5.294215e-01 -4.399788e+00
<VARIANCE> 12
 4.669472e+01 4.493949e+01 3.879746e+01 6.748140e+01 1.062062e+02 6.807461e+01 1.044517e+02 6.149337e+01 5.022827e+01 4.280847e+01 7.260162e+01 3.904101e+01
<GCONST> 7.085023e+01
<TRANSP> 5
 0.000000e+00 1.000000e+00 0.000000e+00 0.000000e+00 0.000000e+00
 0.000000e+00 6.134970e-01 3.865031e-01 0.000000e+00 0.000000e+00
 0.000000e+00 0.000000e+00 7.804878e-01 2.195122e-01 0.000000e+00
 0.000000e+00 0.000000e+00 0.000000e+00 6.111111e-01 3.888889e-01
 0.000000e+00 0.000000e+00 0.000000e+00 0.000000e+00 0.000000e+00
<ENDHMM>
