~o
<STREAMINFO> 1 12
<VECSIZE> 12<NULLD><MFCC><DIAGC>
~h "u"
<BEGINHMM>
<NUMSTATES> 5
<STATE> 2
<MEAN> 12
 1.998558e+00 3.290030e+00 1.290335e+00 -1.058158e+01 -5.363992e+00 -2.973298e+00 -7.048616e+00 -5.059943e+00 -1.006940e+00 -4.104309e+00 -7.996392e-01 -1.038435e+00
<VARIANCE> 12
 2.966859e+01 4.092920e+01 3.623219e+01 7.329568e+01 3.780536e+01 8.080660e+01 6.699913e+01 4.738949e+01 3.728825e+01 3.954984e+01 3.243953e+01 3.618426e+01
<GCONST> 6.749274e+01
<STATE> 3
<MEAN> 12
 1.320813e+00 5.064851e+00 5.279549e+00 -1.576336e+01 -1.381962e+01 1.016399e+01 -1.563486e+01 -6.737874e+00 -1.625674e+00 -1.091023e+01 2.508449e+00 -7.128929e+00
<VARIANCE> 12
 1.657947e+01 4.529636e+01 4.260812e+01 8.429454e+01 6.638155e+01 9.043147e+01 8.872089e+01 1.013458e+02 6.779059e+01 9.174236e+01 6.187413e+01 6.318128e+01
<GCONST> 7.167285e+01
<STATE> 4
<MEAN> 12
 -5.558421e+00 1.149741e+00 5.809885e+00 -3.130545e+00 -1.156816e+00 -2.575208e+00 -9.556960e+00 -6.454048e+00 -2.661128e+00 -2.559912e+00 2.662233e-01 -3.901556e+00
<VARIANCE> 12
 5.784807e+01 4.567986e+01 7.372046e+01 9.003799e+01 4.969652e+01 7.113977e+01 8.093928e+01 7.000718e+01 4.805770e+01 4.956240e+01 3.617870e+01 4.358772e+01
<GCONST> 7.068627e+01
<TRANSP> 5
 0.000000e+00 1.000000e+00 0.000000e+00 0.000000e+00 0.000000e+00
 0.000000e+00 7.542087e-01 2.457912e-01 0.000000e+00 0.000000e+00
 0.000000e+00 0.000000e+00 8.021680e-01 1.978320e-01 0.000000e+00
 0.000000e+00 0.000000e+00 0.000000e+00 6.490384e-01 3.509615e-01
 0.000000e+00 0.000000e+00 0.000000e+00 0.000000e+00 0.000000e+00
<ENDHMM>
