~o
<STREAMINFO> 1 12
<VECSIZE> 12<NULLD><MFCC><DIAGC>
~h "ua"
<BEGINHMM>
<NUMSTATES> 5
<STATE> 2
<MEAN> 12
 2.696429e-01 -1.158148e+01 -2.892655e+00 -1.922853e+01 6.802940e+00 1.138972e+01 1.090446e+00 -9.588061e+00 8.599287e-01 -5.719024e+00 -1.996891e+00 -5.554846e+00
<VARIANCE> 12
 1.478841e+01 4.053440e+01 3.272025e+01 6.206868e+01 7.503056e+01 5.266911e+01 3.776702e+01 3.770587e+01 4.375014e+01 4.441698e+01 1.716796e+01 3.412367e+01
<GCONST> 6.555508e+01
<STATE> 3
<MEAN> 12
 -5.872988e-01 -1.690462e+01 -1.521045e+00 -9.768746e+00 6.453980e-01 1.162868e+01 -1.249168e+01 6.588159e-01 -4.036767e-01 -2.010582e+00 -4.151120e+00 -1.132092e+01
<VARIANCE> 12
 3.086300e+01 4.751926e+01 7.195637e+01 5.016787e+01 7.562971e+01 5.079379e+01 9.681224e+01 8.191044e+01 4.303946e+01 3.677208e+01 4.766092e+01 3.177008e+01
<GCONST> 6.945816e+01
<STATE> 4
<MEAN> 12
 -2.037313e+00 -6.321324e+00 2.473815e+00 -4.371142e+00 3.369366e+00 -1.556334e+00 8.523387e-01 -3.483531e+00 2.722509e+00 -2.270786e+00 -4.744391e+00 -2.950651e+00
<VARIANCE> 12
 2.735429e+01 5.804167e+01 5.202248e+01 5.394999e+01 7.162717e+01 7.519229e+01 5.724805e+01 7.827399e+01 5.812371e+01 6.491213e+01 3.213522e+01 3.179917e+01
<GCONST> 6.952843e+01
<TRANSP> 5
 0.000000e+00 1.000000e+00 0.000000e+00 0.000000e+00 0.000000e+00
 0.000000e+00 8.053097e-01 1.946903e-01 0.000000e+00 0.000000e+00
 0.000000e+00 0.000000e+00 8.267717e-01 1.732284e-01 0.000000e+00
 0.000000e+00 0.000000e+00 0.000000e+00 7.283950e-01 2.716049e-01
 0.000000e+00 0.000000e+00 0.000000e+00 0.000000e+00 0.000000e+00
<ENDHMM>
