~o
<STREAMINFO> 1 12
<VECSIZE> 12<NULLD><MFCC><DIAGC>
~h "uai"
<BEGINHMM>
<NUMSTATES> 5
<STATE> 2
<MEAN> 12
 3.452908e+00 -7.356223e+00 -3.159781e-01 -1.324603e+01 -4.915875e+00 3.905318e+00 -1.219283e+01 -1.324787e+00 -9.646189e+00 -3.125222e+00 -3.660788e+00 -6.724551e+00
<VARIANCE> 12
 2.090342e+01 5.449931e+01 7.268674e+01 8.185274e+01 9.443907e+01 1.029087e+02 1.634519e+02 1.098988e+02 8.419688e+01 9.629144e+01 4.232814e+01 9.635697e+01
<GCONST> 7.407564e+01
<STATE> 3
<MEAN> 12
 1.464086e+00 -1.828282e+01 -5.562302e-01 -1.126300e+01 -6.918393e+00 -1.735646e+00 -1.018274e+01 8.129328e+00 -4.434677e+00 -4.491621e+00 -7.893402e+00 -9.360391e+00
<VARIANCE> 12
 9.665773e+00 2.294329e+01 7.964587e+01 4.889880e+01 5.236816e+01 1.060456e+02 1.205580e+02 1.296168e+02 1.163899e+02 1.379072e+02 8.294650e+01 2.960564e+01
<GCONST> 7.149205e+01
<STATE> 4
<MEAN> 12
 -1.915677e+00 -3.433144e+00 5.220163e+00 -2.603267e+00 -2.422477e+00 -6.334107e+00 7.962046e-01 3.232836e+00 -2.992303e+00 -1.959159e+00 -4.871468e+00 -3.949819e+00
<VARIANCE> 12
 4.116719e+01 5.307562e+01 7.943573e+01 3.350161e+01 6.341144e+01 2.741074e+01 6.696960e+01 5.806788e+01 3.729815e+01 4.499079e+01 4.906994e+01 1.916899e+01
<GCONST> 6.762880e+01
<TRANSP> 5
 0.000000e+00 1.000000e+00 0.000000e+00 0.000000e+00 0.000000e+00
 0.000000e+00 8.035714e-01 1.964286e-01 0.000000e+00 0.000000e+00
 0.000000e+00 0.000000e+00 8.070176e-01 1.929825e-01 0.000000e+00
 0.000000e+00 0.000000e+00 0.000000e+00 8.571429e-01 1.428571e-01
 0.000000e+00 0.000000e+00 0.000000e+00 0.000000e+00 0.000000e+00
<ENDHMM>
