~o
<STREAMINFO> 1 12
<VECSIZE> 12<NULLD><MFCC><DIAGC>
~h "uaN"
<BEGINHMM>
<NUMSTATES> 5
<STATE> 2
<MEAN> 12
 -1.383621e+00 -8.342083e+00 4.353191e+00 -1.045621e+01 -1.145561e+01 6.166373e+00 -1.420494e+01 -8.251923e-01 1.125359e+00 -4.085389e+00 9.182473e-02 -6.265885e+00
<VARIANCE> 12
 1.784230e+01 3.740208e+01 6.355623e+01 1.339873e+02 1.220825e+02 1.393684e+02 8.191674e+01 8.473689e+01 8.086461e+01 7.202785e+01 3.737717e+01 5.450432e+01
<GCONST> 7.248375e+01
<STATE> 3
<MEAN> 12
 1.361593e+00 -1.565213e+01 5.980011e+00 -8.804477e+00 -4.791121e+00 1.888803e+00 -8.962899e+00 4.305355e+00 4.891492e+00 -2.420710e+00 -8.455119e+00 -6.861265e+00
<VARIANCE> 12
 1.260648e+01 3.888811e+01 5.821824e+01 5.368365e+01 6.960337e+01 6.945856e+01 1.127450e+02 1.173188e+02 7.794389e+01 7.568868e+01 4.533722e+01 4.540175e+01
<GCONST> 7.058260e+01
<STATE> 4
<MEAN> 12
 -1.617415e+00 -6.886563e-01 5.260845e+00 5.676360e-01 -2.228457e+00 -3.883507e+00 -6.920466e+00 -3.193820e+00 -4.016244e+00 -5.059544e+00 -4.927807e+00 -4.640589e+00
<VARIANCE> 12
 2.893447e+01 6.573843e+01 9.377723e+01 6.315233e+01 4.252839e+01 5.383283e+01 5.587668e+01 5.371707e+01 4.158467e+01 3.437218e+01 3.578889e+01 4.646273e+01
<GCONST> 6.871591e+01
<TRANSP> 5
 0.000000e+00 1.000000e+00 0.000000e+00 0.000000e+00 0.000000e+00
 0.000000e+00 7.476636e-01 2.523364e-01 0.000000e+00 0.000000e+00
 0.000000e+00 0.000000e+00 8.338462e-01 1.661538e-01 0.000000e+00
 0.000000e+00 0.000000e+00 0.000000e+00 8.064516e-01 1.935484e-01
 0.000000e+00 0.000000e+00 0.000000e+00 0.000000e+00 0.000000e+00
<ENDHMM>
