~o
<STREAMINFO> 1 12
<VECSIZE> 12<NULLD><MFCC><DIAGC>
~h "uaNN"
<BEGINHMM>
<NUMSTATES> 5
<STATE> 2
<MEAN> 12
 3.088580e+00 -8.110887e+00 3.632675e+00 -1.717688e+01 -6.592257e+00 9.851894e+00 -5.342973e+00 7.092450e-01 -1.490390e-01 -1.888351e+00 -2.058822e+00 -7.251649e+00
<VARIANCE> 12
 5.101880e+00 5.123462e+01 5.157965e+01 9.336221e+01 3.907024e+01 9.522159e+01 1.441749e+02 4.251065e+01 4.410501e+01 3.998333e+01 7.072235e+01 1.160297e+02
<GCONST> 6.953015e+01
<STATE> 3
<MEAN> 12
 1.962982e+00 -3.970626e+00 -2.866405e+00 -9.478013e+00 1.930655e+00 7.690084e+00 -6.719066e+00 -1.303561e+00 -8.908227e+00 -7.825368e-01 -6.102669e+00 1.211286e+00
<VARIANCE> 12
 2.110094e+00 4.450970e+01 7.456878e+01 1.986533e+01 2.081013e+01 2.500435e+01 1.703716e+02 9.793113e+01 2.461798e+01 5.884964e+01 3.648657e+01 3.631632e+01
<GCONST> 6.434207e+01
<STATE> 4
<MEAN> 12
 -6.056828e-01 1.390986e+00 6.723649e+00 -1.672205e+00 -7.521571e-01 1.901163e+00 -9.050885e+00 -5.206540e+00 -7.660675e+00 -1.700991e+00 -1.649975e+00 -4.667572e+00
<VARIANCE> 12
 1.605536e+01 4.122315e+01 6.499023e+01 3.047624e+01 4.379406e+01 5.102008e+01 2.285172e+01 1.106016e+02 6.519645e+01 6.612134e+01 2.172081e+01 1.018642e+02
<GCONST> 6.775823e+01
<TRANSP> 5
 0.000000e+00 1.000000e+00 0.000000e+00 0.000000e+00 0.000000e+00
 0.000000e+00 8.181818e-01 1.818182e-01 0.000000e+00 0.000000e+00
 0.000000e+00 0.000000e+00 8.367347e-01 1.632653e-01 0.000000e+00
 0.000000e+00 0.000000e+00 0.000000e+00 7.837838e-01 2.162162e-01
 0.000000e+00 0.000000e+00 0.000000e+00 0.000000e+00 0.000000e+00
<ENDHMM>
