~o
<STREAMINFO> 1 12
<VECSIZE> 12<NULLD><MFCC><DIAGC>
~h "uei"
<BEGINHMM>
<NUMSTATES> 5
<STATE> 2
<MEAN> 12
 1.046688e-01 -1.608194e+00 5.186145e+00 -5.380924e+00 -6.971240e+00 -3.325602e+00 -1.172479e+01 -7.356804e+00 -3.393537e+00 -2.629791e+00 -1.017393e+00 -2.266464e+00
<VARIANCE> 12
 1.586208e+01 2.871338e+01 5.136481e+01 6.030293e+01 4.649804e+01 1.019494e+02 7.340380e+01 8.748152e+01 5.761410e+01 5.185051e+01 3.777906e+01 5.678834e+01
<GCONST> 6.911866e+01
<STATE> 3
<MEAN> 12
 -2.271213e+00 -1.191506e+01 1.901941e+01 -5.765818e+00 -1.789583e+01 -7.861035e+00 -1.710586e+01 4.566998e+00 -9.246989e+00 -2.329400e+00 4.825883e+00 -8.644806e+00
<VARIANCE> 12
 1.453379e+01 3.574909e+01 5.902271e+01 4.309377e+01 4.996907e+01 4.973409e+01 8.654990e+01 9.099288e+01 6.309971e+01 3.650320e+01 3.520170e+01 5.845259e+01
<GCONST> 6.830984e+01
<STATE> 4
<MEAN> 12
 -5.178418e+00 -1.538285e+00 1.489692e+01 1.141356e+00 -8.874145e+00 -9.116493e+00 -6.204618e+00 -3.895526e+00 -4.976813e+00 -5.595670e+00 2.949537e+00 -1.931314e+00
<VARIANCE> 12
 2.706848e+01 3.141193e+01 4.050988e+01 4.079145e+01 4.047052e+01 5.493058e+01 4.427972e+01 5.380980e+01 4.449198e+01 4.588043e+01 3.858533e+01 2.719955e+01
<GCONST> 6.627015e+01
<TRANSP> 5
 0.000000e+00 1.000000e+00 0.000000e+00 0.000000e+00 0.000000e+00
 0.000000e+00 7.747748e-01 2.252252e-01 0.000000e+00 0.000000e+00
 0.000000e+00 0.000000e+00 8.091603e-01 1.908397e-01 0.000000e+00
 0.000000e+00 0.000000e+00 0.000000e+00 8.091603e-01 1.908397e-01
 0.000000e+00 0.000000e+00 0.000000e+00 0.000000e+00 0.000000e+00
<ENDHMM>
