~o
<STREAMINFO> 1 12
<VECSIZE> 12<NULLD><MFCC><DIAGC>
~h "ueN"
<BEGINHMM>
<NUMSTATES> 5
<STATE> 2
<MEAN> 12
 2.095906e+00 4.679939e-01 5.752451e-01 -5.103447e+00 2.751598e-01 4.312858e+00 -9.442143e+00 -1.548077e+00 -4.599488e+00 -2.050480e+00 1.188904e+00 -6.687268e-01
<VARIANCE> 12
 1.848312e+01 3.178154e+01 3.708367e+01 6.176914e+01 5.640625e+01 8.864481e+01 1.081488e+02 7.749990e+01 4.498316e+01 4.878759e+01 3.930634e+01 3.102973e+01
<GCONST> 6.851795e+01
<STATE> 3
<MEAN> 12
 -1.696138e+00 -3.379651e+00 8.006475e+00 -7.304642e+00 1.925431e+00 -9.658149e+00 -5.821554e+00 -5.047495e+00 1.858595e+00 -2.046174e+00 -3.159021e+00 -2.427123e+00
<VARIANCE> 12
 1.686131e+01 4.227708e+01 5.477744e+01 5.797482e+01 3.766567e+01 1.313534e+02 9.845549e+01 8.058314e+01 1.405802e+02 1.251857e+02 3.219244e+01 3.832109e+01
<GCONST> 7.106593e+01
<STATE> 4
<MEAN> 12
 -5.332882e-01 3.876478e+00 6.986260e+00 2.729314e+00 5.646989e-01 -8.510042e-01 -3.967895e+00 -3.365983e+00 -3.664646e+00 2.669653e+00 -4.602983e+00 -6.364683e-02
<VARIANCE> 12
 2.335120e+01 1.794703e+01 2.723950e+01 2.942083e+01 2.636515e+01 1.758597e+01 4.386146e+01 6.244407e+01 4.046754e+01 5.848474e+01 4.631573e+01 3.785133e+01
<GCONST> 6.407183e+01
<TRANSP> 5
 0.000000e+00 1.000000e+00 0.000000e+00 0.000000e+00 0.000000e+00
 0.000000e+00 8.192771e-01 1.807229e-01 0.000000e+00 0.000000e+00
 0.000000e+00 0.000000e+00 8.255814e-01 1.744186e-01 0.000000e+00
 0.000000e+00 0.000000e+00 0.000000e+00 8.828125e-01 1.171875e-01
 0.000000e+00 0.000000e+00 0.000000e+00 0.000000e+00 0.000000e+00
<ENDHMM>
