~o
<STREAMINFO> 1 12
<VECSIZE> 12<NULLD><MFCC><DIAGC>
~h "ui"
<BEGINHMM>
<NUMSTATES> 5
<STATE> 2
<MEAN> 12
 1.281437e+00 -4.204102e+00 3.952878e+00 -7.877507e+00 -1.016854e+01 -6.110336e+00 -1.086865e+01 -3.020715e+00 -9.998272e-01 -8.270674e-02 -5.167652e+00 -1.434522e+00
<VARIANCE> 12
 1.303095e+01 3.094819e+01 4.456110e+01 3.780855e+01 6.297388e+01 1.140786e+02 5.578698e+01 5.506981e+01 5.479934e+01 6.168017e+01 6.086171e+01 4.862154e+01
<GCONST> 6.851162e+01
<STATE> 3
<MEAN> 12
 -2.697494e+00 -9.598258e+00 1.813852e+01 -4.606040e+00 -1.350297e+01 -4.484048e+00 -1.147019e+01 3.708870e+00 -4.078385e+00 -6.071277e+00 3.374774e+00 -8.519178e+00
<VARIANCE> 12
 2.588526e+01 5.211181e+01 1.024113e+02 7.382343e+01 4.597170e+01 1.034004e+02 1.271250e+02 5.556561e+01 1.276114e+02 9.743755e+01 5.552839e+01 4.799057e+01
<GCONST> 7.283772e+01
<STATE> 4
<MEAN> 12
 -4.195658e+00 -4.418992e-01 1.021690e+01 -2.457602e-01 -1.107526e+00 -4.435229e+00 -7.871720e-01 2.297322e+00 -2.648221e+00 3.546227e-02 8.156154e-01 3.899937e-02
<VARIANCE> 12
 4.220053e+01 4.897899e+01 5.152761e+01 3.093369e+01 4.471749e+01 5.438945e+01 4.690691e+01 4.842377e+01 5.353857e+01 5.110046e+01 4.085818e+01 3.470791e+01
<GCONST> 6.775828e+01
<TRANSP> 5
 0.000000e+00 1.000000e+00 0.000000e+00 0.000000e+00 0.000000e+00
 0.000000e+00 7.410714e-01 2.589286e-01 0.000000e+00 0.000000e+00
 0.000000e+00 0.000000e+00 8.187500e-01 1.812500e-01 0.000000e+00
 0.000000e+00 0.000000e+00 0.000000e+00 7.563025e-01 2.436975e-01
 0.000000e+00 0.000000e+00 0.000000e+00 0.000000e+00 0.000000e+00
<ENDHMM>
