~o
<STREAMINFO> 1 12
<VECSIZE> 12<NULLD><MFCC><DIAGC>
~h "uo"
<BEGINHMM>
<NUMSTATES> 5
<STATE> 2
<MEAN> 12
 2.241900e+00 2.141530e+00 3.191978e-01 -1.495148e+01 -6.594717e+00 3.160768e+00 -5.401390e+00 -5.032240e+00 -2.870752e-01 -3.131875e+00 2.153097e+00 8.685831e-01
<VARIANCE> 12
 1.710330e+01 3.564182e+01 3.283384e+01 6.797519e+01 6.629314e+01 6.175427e+01 8.086134e+01 6.807667e+01 5.645688e+01 4.313775e+01 4.729274e+01 3.874230e+01
<GCONST> 6.841970e+01
<STATE> 3
<MEAN> 12
 1.437434e+00 -4.532535e+00 5.632743e+00 -1.931696e+01 -8.393392e+00 1.016218e+01 -1.739124e+01 -4.830623e-01 -3.475454e+00 1.874865e+00 2.180182e+00 -5.767122e+00
<VARIANCE> 12
 2.060697e+01 5.627426e+01 6.974919e+01 8.779801e+01 8.675907e+01 1.253563e+02 8.986444e+01 1.055637e+02 9.486057e+01 9.868758e+01 4.649528e+01 5.404921e+01
<GCONST> 7.325586e+01
<STATE> 4
<MEAN> 12
 -3.136232e+00 -3.180013e-01 2.399910e+00 -5.594457e+00 -1.428269e+00 -6.127925e+00 -7.518853e+00 -1.189017e+00 -1.069223e+00 -8.234632e-01 -2.726791e+00 -2.936314e+00
<VARIANCE> 12
 4.813329e+01 4.156466e+01 7.126524e+01 5.985688e+01 6.212022e+01 5.551508e+01 7.418491e+01 5.803246e+01 5.724955e+01 5.887591e+01 4.793334e+01 3.183212e+01
<GCONST> 6.998055e+01
<TRANSP> 5
 0.000000e+00 1.000000e+00 0.000000e+00 0.000000e+00 0.000000e+00
 0.000000e+00 7.750000e-01 2.250000e-01 0.000000e+00 0.000000e+00
 0.000000e+00 0.000000e+00 7.687747e-01 2.312253e-01 0.000000e+00
 0.000000e+00 0.000000e+00 0.000000e+00 7.285383e-01 2.714617e-01
 0.000000e+00 0.000000e+00 0.000000e+00 0.000000e+00 0.000000e+00
<ENDHMM>
