~o
<STREAMINFO> 1 12
<VECSIZE> 12<NULLD><MFCC><DIAGC>
~h "x"
<BEGINHMM>
<NUMSTATES> 5
<STATE> 2
<MEAN> 12
 -6.763706e+00 -1.473140e+00 -4.182840e+00 -8.433006e+00 2.832148e+00 3.180988e+00 -1.818994e+00 -3.965381e-01 1.434842e+00 -4.147328e+00 1.468025e+00 -1.822671e+00
<VARIANCE> 12
 2.853520e+01 3.628521e+01 4.074556e+01 5.606385e+01 5.362590e+01 6.688583e+01 4.859123e+01 5.104912e+01 4.151651e+01 3.585693e+01 3.791181e+01 3.430871e+01
<GCONST> 6.720845e+01
<STATE> 3
<MEAN> 12
 -1.339091e+01 -1.385541e+00 -5.261672e+00 -8.129169e+00 4.711662e+00 6.476195e+00 -7.160230e+00 7.611594e-01 5.199706e+00 -4.295785e+00 3.550742e+00 -5.669125e+00
<VARIANCE> 12
 5.386874e+01 8.023533e+01 4.531569e+01 5.032823e+01 8.659872e+01 7.775455e+01 4.796616e+01 8.401747e+01 7.457738e+01 5.411170e+01 6.828529e+01 3.837377e+01
<GCONST> 7.144858e+01
<STATE> 4
<MEAN> 12
 -8.923002e-01 -2.537296e+00 -3.379254e-01 -1.418577e+01 -8.739221e-01 5.878147e+00 -5.215312e+00 -4.560095e+00 1.327156e+00 -5.601972e+00 -1.074412e+00 -5.483090e+00
<VARIANCE> 12
 4.067067e+01 6.242434e+01 4.792327e+01 1.008620e+02 8.305109e+01 9.939040e+01 1.032410e+02 6.046873e+01 8.980365e+01 8.133344e+01 5.968753e+01 6.105723e+01
<GCONST> 7.323217e+01
<TRANSP> 5
 0.000000e+00 1.000000e+00 0.000000e+00 0.000000e+00 0.000000e+00
 0.000000e+00 6.491228e-01 3.508772e-01 0.000000e+00 0.000000e+00
 0.000000e+00 0.000000e+00 7.297298e-01 2.702703e-01 0.000000e+00
 0.000000e+00 0.000000e+00 0.000000e+00 5.102041e-01 4.897959e-01
 0.000000e+00 0.000000e+00 0.000000e+00 0.000000e+00 0.000000e+00
<ENDHMM>
