~o
<STREAMINFO> 1 12
<VECSIZE> 12<NULLD><MFCC><DIAGC>
~h "y"
<BEGINHMM>
<NUMSTATES> 5
<STATE> 2
<MEAN> 12
 -4.974721e+00 -4.397744e+00 1.361946e+01 4.444872e+00 -1.861197e+01 -3.515156e+00 -1.269490e+01 -6.330950e+00 -4.291401e+00 -1.119951e+01 5.762249e+00 -1.011541e+01
<VARIANCE> 12
 3.628059e+01 2.803945e+01 7.432237e+01 8.362787e+01 8.408431e+01 1.311662e+02 8.861227e+01 7.076742e+01 5.620377e+01 1.167411e+02 5.796849e+01 7.130289e+01
<GCONST> 7.288194e+01
<STATE> 3
<MEAN> 12
 -2.514219e+00 -4.133675e+00 2.059582e+01 6.885421e+00 -1.271302e+01 -7.046413e+00 -7.961876e+00 -1.586755e+00 -9.713241e+00 -7.182595e+00 2.116055e+00 -3.164803e+00
<VARIANCE> 12
 1.665701e+01 3.474416e+01 6.134162e+01 4.010523e+01 4.279820e+01 5.371735e+01 7.051209e+01 6.897233e+01 4.492849e+01 5.024913e+01 3.175426e+01 3.795163e+01
<GCONST> 6.726945e+01
<STATE> 4
<MEAN> 12
 -6.101027e+00 -1.571550e+00 7.410425e+00 -2.565510e+00 -5.516737e+00 -3.724726e+00 -5.595646e+00 -1.944750e+00 -1.939204e+00 -4.022110e+00 -2.618695e+00 -2.698821e+00
<VARIANCE> 12
 5.226365e+01 6.729787e+01 8.070229e+01 7.088238e+01 9.648281e+01 6.572739e+01 6.828929e+01 5.736282e+01 4.704760e+01 4.956660e+01 3.867238e+01 3.908661e+01
<GCONST> 7.097516e+01
<TRANSP> 5
 0.000000e+00 1.000000e+00 0.000000e+00 0.000000e+00 0.000000e+00
 0.000000e+00 6.574074e-01 3.425926e-01 0.000000e+00 0.000000e+00
 0.000000e+00 0.000000e+00 7.842566e-01 2.157434e-01 0.000000e+00
 0.000000e+00 0.000000e+00 0.000000e+00 7.175573e-01 2.824427e-01
 0.000000e+00 0.000000e+00 0.000000e+00 0.000000e+00 0.000000e+00
<ENDHMM>
