~o
<STREAMINFO> 1 12
<VECSIZE> 12<NULLD><MFCC><DIAGC>
~h "yE"
<BEGINHMM>
<NUMSTATES> 5
<STATE> 2
<MEAN> 12
 -2.889037e+00 -3.952307e+00 1.667004e+01 4.010637e+00 -1.145980e+01 -1.069270e+01 -7.794677e+00 -1.533813e-01 -3.890015e+00 -7.304096e+00 4.663444e+00 3.316647e+00
<VARIANCE> 12
 7.522229e+00 2.039678e+01 5.442464e+01 2.666433e+01 3.249129e+01 3.049541e+01 6.810923e+01 3.463250e+01 5.420537e+01 3.897176e+01 2.548309e+01 4.009761e+01
<GCONST> 6.361731e+01
<STATE> 3
<MEAN> 12
 -8.973115e-02 -1.276746e+01 2.163100e+01 -6.081699e+00 -1.295418e+01 -5.831873e+00 -2.009334e+01 9.228063e+00 -6.433547e+00 2.500125e-01 1.733621e+00 -4.481634e+00
<VARIANCE> 12
 1.930173e+01 2.508111e+01 5.161616e+01 3.478152e+01 6.495353e+01 4.441052e+01 6.002246e+01 4.855178e+01 5.942825e+01 7.657905e+01 6.750171e+01 4.185334e+01
<GCONST> 6.804367e+01
<STATE> 4
<MEAN> 12
 -2.774335e+00 -1.346686e+00 6.146870e+00 -2.507116e+00 -2.260822e+00 -5.532812e+00 -3.326201e+00 4.358303e+00 6.104165e-01 7.070832e-01 -2.207876e-01 8.614333e-01
<VARIANCE> 12
 3.101719e+01 2.906961e+01 3.386279e+01 4.390757e+01 4.869840e+01 4.233553e+01 1.352835e+02 7.332766e+01 2.472933e+01 2.620865e+01 1.331286e+01 4.595343e+01
<GCONST> 6.588718e+01
<TRANSP> 5
 0.000000e+00 1.000000e+00 0.000000e+00 0.000000e+00 0.000000e+00
 0.000000e+00 7.142857e-01 2.857143e-01 0.000000e+00 0.000000e+00
 0.000000e+00 0.000000e+00 8.250000e-01 1.750000e-01 0.000000e+00
 0.000000e+00 0.000000e+00 0.000000e+00 7.777778e-01 2.222222e-01
 0.000000e+00 0.000000e+00 0.000000e+00 0.000000e+00 0.000000e+00
<ENDHMM>
