~o
<STREAMINFO> 1 12
<VECSIZE> 12<NULLD><MFCC><DIAGC>
~h "yn"
<BEGINHMM>
<NUMSTATES> 5
<STATE> 2
<MEAN> 12
 -3.719992e-01 -7.470908e+00 2.075089e+01 4.213797e+00 -1.385656e+01 -3.773475e+00 -1.050806e+01 4.351747e+00 -6.606178e+00 -4.564003e+00 -1.049932e+00 -5.103060e+00
<VARIANCE> 12
 9.573948e+00 3.404820e+01 7.478859e+01 5.407372e+01 2.843842e+01 3.636732e+01 3.971787e+01 9.644444e+01 7.216668e+01 4.713337e+01 2.605121e+01 5.370115e+01
<GCONST> 6.671400e+01
<STATE> 3
<MEAN> 12
 3.891111e+00 -1.338393e+00 2.051934e+01 -6.169822e+00 -4.031879e+00 2.533444e+00 -4.620488e+00 -1.323203e+00 -1.200240e+01 -2.556249e-01 -7.483297e+00 -1.001240e+01
<VARIANCE> 12
 7.775460e+00 3.182458e+01 2.970004e+01 4.717189e+01 9.194241e+00 4.295753e+01 1.169409e+02 7.198169e+01 6.016095e+01 5.958216e+01 3.246950e+01 3.700825e+01
<GCONST> 6.510338e+01
<STATE> 4
<MEAN> 12
 -5.320491e+00 4.936394e+00 1.157541e+01 1.058177e+00 -2.150922e-01 1.142127e+00 -1.191692e+00 -6.440239e+00 -3.266494e+00 -4.145198e+00 -4.371999e-01 -2.680717e+00
<VARIANCE> 12
 4.044796e+01 4.000796e+01 4.113032e+01 3.195577e+01 3.064554e+01 7.404118e+01 2.777596e+01 6.417957e+01 4.220844e+01 3.539931e+01 1.497217e+01 2.128139e+01
<GCONST> 6.491102e+01
<TRANSP> 5
 0.000000e+00 1.000000e+00 0.000000e+00 0.000000e+00 0.000000e+00
 0.000000e+00 8.852459e-01 1.147541e-01 0.000000e+00 0.000000e+00
 0.000000e+00 0.000000e+00 8.372093e-01 1.627907e-01 0.000000e+00
 0.000000e+00 0.000000e+00 0.000000e+00 6.666667e-01 3.333333e-01
 0.000000e+00 0.000000e+00 0.000000e+00 0.000000e+00 0.000000e+00
<ENDHMM>
