~o
<STREAMINFO> 1 12
<VECSIZE> 12<NULLD><MFCC><DIAGC>
~h "#dz"
<BEGINHMM>
<NUMSTATES> 5
<STATE> 2
<MEAN> 12
 -9.152264e+00 2.307770e+00 1.392247e+00 -1.919060e+00 1.506151e+00 -3.899536e+00 -1.938172e+00 -1.320597e+00 -1.018796e-01 -4.356285e+00 -1.971488e+00 -2.556399e+00
<VARIANCE> 12
 8.174664e+01 9.343757e+01 7.458374e+01 5.955296e+01 3.052647e+01 3.745172e+01 3.128973e+01 3.883403e+01 5.070465e+01 4.928398e+01 2.434832e+01 3.324491e+01
<GCONST> 6.805844e+01
<STATE> 3
<MEAN> 12
 -2.124990e+01 6.370893e+00 3.953300e+00 -2.323431e+00 -4.874178e-01 -4.846075e+00 1.849492e+00 -5.302526e+00 4.849192e-01 -2.479090e+00 -7.180420e-01 -5.438670e-01
<VARIANCE> 12
 5.620970e+01 2.755330e+01 6.298302e+01 3.692500e+01 3.219999e+01 4.204366e+01 3.559360e+01 4.039143e+01 3.968234e+01 2.972663e+01 2.497845e+01 2.173541e+01
<GCONST> 6.500286e+01
<STATE> 4
<MEAN> 12
 -6.398678e+00 -2.939435e-01 1.416197e+01 -3.338165e+00 -9.402876e+00 -4.723843e+00 -6.426779e+00 -3.092550e+00 -6.254002e+00 -3.685088e+00 7.280476e-02 -4.364697e+00
<VARIANCE> 12
 3.346217e+01 3.960472e+01 8.293948e+01 5.493094e+01 5.154150e+01 1.294280e+02 6.998975e+01 6.324337e+01 1.182147e+02 7.034282e+01 3.717612e+01 6.908969e+01
<GCONST> 7.174588e+01
<TRANSP> 5
 0.000000e+00 1.000000e+00 0.000000e+00 0.000000e+00 0.000000e+00
 0.000000e+00 5.676102e-01 4.323898e-01 0.000000e+00 0.000000e+00
 0.000000e+00 0.000000e+00 7.298540e-01 2.701460e-01 0.000000e+00
 0.000000e+00 0.000000e+00 0.000000e+00 4.701566e-01 5.298434e-01
 0.000000e+00 0.000000e+00 0.000000e+00 0.000000e+00 0.000000e+00
<ENDHMM>
