~o
<STREAMINFO> 1 12
<VECSIZE> 12<NULLD><MFCC><DIAGC>
~h "#i"
<BEGINHMM>
<NUMSTATES> 5
<STATE> 2
<MEAN> 12
 -4.611475e+00 -3.087173e+00 6.193815e+00 -5.251714e+00 -7.646632e+00 -1.323265e+01 -8.401510e+00 -2.439763e+00 -1.616126e+00 -5.063271e+00 -2.840985e+00 9.267770e-01
<VARIANCE> 12
 4.275965e+01 3.732204e+01 4.138086e+01 6.558289e+01 4.078364e+01 4.967418e+01 4.069372e+01 4.887704e+01 3.766889e+01 2.458404e+01 2.458568e+01 4.493880e+01
<GCONST> 6.638339e+01
<STATE> 3
<MEAN> 12
 -3.009096e-01 -9.742713e+00 1.165485e+01 -2.544565e+00 -7.717537e+00 -1.106192e+01 -1.209443e+01 -1.923958e+00 -2.342108e+00 -6.156294e+00 -6.496762e-01 -5.925125e+00
<VARIANCE> 12
 2.754875e+01 6.154133e+01 1.642954e+02 7.635674e+01 6.176534e+01 9.925613e+01 1.219266e+02 9.521505e+01 8.007201e+01 6.131915e+01 4.865934e+01 6.662454e+01
<GCONST> 7.359081e+01
<STATE> 4
<MEAN> 12
 -6.008977e+00 -9.503358e-02 4.429988e+00 -2.176861e-01 7.577368e-02 -6.541512e+00 -4.055823e+00 -2.762100e+00 7.155612e-01 -3.732386e+00 -1.755409e+00 -4.665551e-01
<VARIANCE> 12
 6.278572e+01 4.608799e+01 7.726056e+01 6.151903e+01 4.498649e+01 4.950814e+01 4.581855e+01 3.893248e+01 5.166235e+01 4.745213e+01 2.775264e+01 3.147432e+01
<GCONST> 6.826331e+01
<TRANSP> 5
 0.000000e+00 1.000000e+00 0.000000e+00 0.000000e+00 0.000000e+00
 0.000000e+00 6.801359e-01 3.198641e-01 0.000000e+00 0.000000e+00
 0.000000e+00 0.000000e+00 7.480673e-01 2.519328e-01 0.000000e+00
 0.000000e+00 0.000000e+00 0.000000e+00 6.846461e-01 3.153540e-01
 0.000000e+00 0.000000e+00 0.000000e+00 0.000000e+00 0.000000e+00
<ENDHMM>
