~o
<STREAMINFO> 1 12
<VECSIZE> 12<NULLD><MFCC><DIAGC>
~h "#s"
<BEGINHMM>
<NUMSTATES> 5
<STATE> 2
<MEAN> 12
 -2.277825e+01 7.951862e+00 1.627986e+00 -5.137104e+00 3.362535e+00 -6.160797e+00 3.978511e+00 -1.392976e+00 4.814380e-01 -1.890252e-01 6.957918e-01 1.464856e-01
<VARIANCE> 12
 3.505434e+01 1.777535e+01 6.366495e+01 3.196088e+01 3.017263e+01 2.972153e+01 3.444782e+01 2.792198e+01 3.685825e+01 2.604922e+01 1.945152e+01 2.595315e+01
<GCONST> 6.286634e+01
<STATE> 3
<MEAN> 12
 -2.692867e+01 1.529254e+00 6.170831e+00 -4.064396e+00 -1.780742e+00 -5.284034e+00 4.685298e+00 -6.623730e+00 1.964725e+00 -2.520536e+00 -8.881545e-02 -1.450548e+00
<VARIANCE> 12
 4.856131e+01 2.089176e+01 4.461669e+01 2.133461e+01 3.656977e+01 5.031165e+01 3.017052e+01 4.705357e+01 3.118016e+01 2.610700e+01 2.961031e+01 3.003988e+01
<GCONST> 6.410339e+01
<STATE> 4
<MEAN> 12
 -7.088451e+00 -1.199836e+00 1.070086e+01 -3.602607e+00 -6.603950e+00 -9.084878e+00 -3.271827e+00 -3.474736e+00 -3.625885e+00 -5.815623e+00 -6.137350e-01 -3.522034e+00
<VARIANCE> 12
 4.734418e+01 4.439529e+01 1.287725e+02 5.181894e+01 4.686354e+01 4.387243e+01 5.575091e+01 5.479848e+01 5.447318e+01 3.681789e+01 3.300518e+01 2.742749e+01
<GCONST> 6.857588e+01
<TRANSP> 5
 0.000000e+00 1.000000e+00 0.000000e+00 0.000000e+00 0.000000e+00
 0.000000e+00 7.850435e-01 2.149565e-01 0.000000e+00 0.000000e+00
 0.000000e+00 0.000000e+00 7.386575e-01 2.613425e-01 0.000000e+00
 0.000000e+00 0.000000e+00 0.000000e+00 5.648354e-01 4.351646e-01
 0.000000e+00 0.000000e+00 0.000000e+00 0.000000e+00 0.000000e+00
<ENDHMM>
