~o
<STREAMINFO> 1 12
<VECSIZE> 12<NULLD><MFCC><DIAGC>
~h "#ts"
<BEGINHMM>
<NUMSTATES> 5
<STATE> 2
<MEAN> 12
 -2.332362e+01 6.334834e+00 1.215919e+00 -4.547040e+00 1.345425e+00 -4.982481e+00 2.273309e+00 -2.729364e+00 -1.107837e+00 -5.233724e-01 -2.725036e-01 -8.084654e-01
<VARIANCE> 12
 5.453986e+01 2.729323e+01 4.491248e+01 3.061227e+01 2.730971e+01 2.911956e+01 2.567440e+01 3.100695e+01 2.427047e+01 2.038333e+01 1.945421e+01 2.176847e+01
<GCONST> 6.219708e+01
<STATE> 3
<MEAN> 12
 -2.721783e+01 -2.234414e+00 7.615299e+00 -2.482189e+00 -6.434402e+00 -2.333723e+00 1.119227e+00 -5.302721e+00 9.634938e-01 -1.926944e+00 -4.168870e-01 -1.687716e+00
<VARIANCE> 12
 3.392565e+01 2.431301e+01 2.468179e+01 2.710987e+01 3.812835e+01 5.107692e+01 3.616599e+01 3.920567e+01 2.990242e+01 2.774286e+01 2.309946e+01 2.920700e+01
<GCONST> 6.334204e+01
<STATE> 4
<MEAN> 12
 -8.193449e+00 -2.242352e+00 8.873873e+00 -4.385842e-01 -6.390838e+00 -8.512440e+00 -2.591595e+00 -3.973755e+00 -1.977881e+00 -6.730396e+00 -1.787812e+00 -2.199963e+00
<VARIANCE> 12
 3.305595e+01 3.046881e+01 1.199316e+02 4.560397e+01 6.263235e+01 3.622722e+01 5.715372e+01 5.486258e+01 6.290660e+01 5.111186e+01 2.063101e+01 4.241859e+01
<GCONST> 6.820407e+01
<TRANSP> 5
 0.000000e+00 1.000000e+00 0.000000e+00 0.000000e+00 0.000000e+00
 0.000000e+00 7.866455e-01 2.133545e-01 0.000000e+00 0.000000e+00
 0.000000e+00 0.000000e+00 7.672198e-01 2.327802e-01 0.000000e+00
 0.000000e+00 0.000000e+00 0.000000e+00 6.119595e-01 3.880405e-01
 0.000000e+00 0.000000e+00 0.000000e+00 0.000000e+00 0.000000e+00
<ENDHMM>
