~o
<STREAMINFO> 1 12
<VECSIZE> 12<NULLD><MFCC><DIAGC>
~h "@"
<BEGINHMM>
<NUMSTATES> 5
<STATE> 2
<MEAN> 12
 -7.654204e-01 -8.427160e+00 4.944205e-01 -1.149174e+01 -1.937628e+00 -8.694408e+00 -7.240895e+00 1.126340e+00 2.932621e+00 -4.830142e+00 -6.880842e+00 -3.074902e+00
<VARIANCE> 12
 1.809552e+01 5.335040e+01 6.729750e+01 5.735053e+01 6.254514e+01 1.016251e+02 6.256821e+01 8.001273e+01 5.525724e+01 7.456928e+01 5.436074e+01 4.262167e+01
<GCONST> 7.053273e+01
<STATE> 3
<MEAN> 12
 4.849690e-01 -7.632338e+00 9.806035e+00 -1.028834e+01 -5.249458e+00 -1.938580e+00 -1.287607e+01 -3.297997e+00 1.707732e+00 1.430166e+00 6.186375e-01 -8.577020e+00
<VARIANCE> 12
 1.841861e+01 6.824541e+01 8.494404e+01 7.751711e+01 4.989585e+01 1.055413e+02 7.797237e+01 9.275607e+01 8.776191e+01 5.545075e+01 4.401487e+01 6.008306e+01
<GCONST> 7.180923e+01
<STATE> 4
<MEAN> 12
 -2.400243e+00 -3.800195e-01 3.873024e+00 -1.753205e+00 1.788364e+00 -3.749803e+00 -1.721151e+00 2.333495e-03 3.243743e-01 1.404113e+00 -7.552140e-01 -2.030702e+00
<VARIANCE> 12
 3.419831e+01 2.990625e+01 5.547998e+01 4.224622e+01 4.664362e+01 5.269418e+01 4.515164e+01 5.665752e+01 4.926604e+01 5.782627e+01 3.094585e+01 3.535563e+01
<GCONST> 6.735078e+01
<TRANSP> 5
 0.000000e+00 1.000000e+00 0.000000e+00 0.000000e+00 0.000000e+00
 0.000000e+00 7.127057e-01 2.872942e-01 0.000000e+00 0.000000e+00
 0.000000e+00 0.000000e+00 7.055054e-01 2.944946e-01 0.000000e+00
 0.000000e+00 0.000000e+00 0.000000e+00 7.534177e-01 2.465823e-01
 0.000000e+00 0.000000e+00 0.000000e+00 0.000000e+00 0.000000e+00
<ENDHMM>
