~o
<STREAMINFO> 1 12
<VECSIZE> 12<NULLD><MFCC><DIAGC>
~h "a"
<BEGINHMM>
<NUMSTATES> 5
<STATE> 2
<MEAN> 12
 6.392660e-01 -1.536210e+01 2.780645e+00 -1.020229e+01 7.066821e+00 4.912110e+00 -1.502620e+00 -1.954935e+00 1.028530e+00 5.410042e-01 -7.423763e+00 -4.781728e+00
<VARIANCE> 12
 1.543542e+01 1.099373e+02 6.345622e+01 7.081296e+01 5.325788e+01 7.048038e+01 8.801571e+01 8.145719e+01 6.687929e+01 5.515388e+01 4.752909e+01 5.441541e+01
<GCONST> 7.108057e+01
<STATE> 3
<MEAN> 12
 -1.994280e+00 -1.067559e+01 -4.231999e+00 -3.416708e+00 1.392635e+00 -5.024419e+00 -5.037346e+00 -1.461668e+00 7.331504e-01 -1.184848e+01 -7.762741e+00 4.264913e-02
<VARIANCE> 12
 1.364176e+01 3.886821e+01 3.250230e+01 3.846297e+01 3.845116e+01 5.715656e+01 3.640364e+01 3.779163e+01 6.277013e+01 5.988338e+01 3.278107e+01 4.317965e+01
<GCONST> 6.586789e+01
<STATE> 4
<MEAN> 12
 -6.835222e+00 -5.738981e+00 1.623134e+00 -4.693091e+00 -3.479124e-01 -3.166541e+00 -2.831302e+00 2.014488e+00 -7.743081e-02 -3.436222e+00 -1.402604e+00 -2.396686e+00
<VARIANCE> 12
 5.091669e+01 9.603593e+01 7.103267e+01 4.487094e+01 4.613990e+01 5.388382e+01 4.784571e+01 4.648306e+01 4.715094e+01 3.017277e+01 3.153742e+01 3.802763e+01
<GCONST> 6.849173e+01
<TRANSP> 5
 0.000000e+00 1.000000e+00 0.000000e+00 0.000000e+00 0.000000e+00
 0.000000e+00 8.496367e-01 1.503633e-01 0.000000e+00 0.000000e+00
 0.000000e+00 0.000000e+00 7.720683e-01 2.279317e-01 0.000000e+00
 0.000000e+00 0.000000e+00 0.000000e+00 7.380323e-01 2.619677e-01
 0.000000e+00 0.000000e+00 0.000000e+00 0.000000e+00 0.000000e+00
<ENDHMM>
