~o
<STREAMINFO> 1 12
<VECSIZE> 12<NULLD><MFCC><DIAGC>
~h "ai"
<BEGINHMM>
<NUMSTATES> 5
<STATE> 2
<MEAN> 12
 -2.118448e+00 -1.518579e+01 1.186537e+00 -8.321191e+00 -1.619772e+00 -6.364770e+00 2.835972e+00 1.334765e+00 7.173151e-01 -7.197783e+00 -9.253808e+00 -2.924577e+00
<VARIANCE> 12
 2.571850e+01 5.145591e+01 4.449630e+01 3.364054e+01 6.871429e+01 5.810312e+01 6.257635e+01 4.866753e+01 6.640886e+01 4.906788e+01 5.705700e+01 5.575360e+01
<GCONST> 6.902120e+01
<STATE> 3
<MEAN> 12
 -2.689346e-01 -1.789548e+01 1.247583e+01 -9.714085e+00 -9.023356e+00 -3.190071e+00 -7.116714e+00 1.106352e+01 -2.315909e+00 -1.760443e+00 -5.651901e+00 -9.420731e+00
<VARIANCE> 12
 1.675968e+01 6.190502e+01 8.763810e+01 5.556046e+01 4.753569e+01 6.982800e+01 4.981682e+01 7.659542e+01 5.900624e+01 4.084277e+01 6.412349e+01 5.385209e+01
<GCONST> 6.977862e+01
<STATE> 4
<MEAN> 12
 -4.298106e+00 -3.095628e+00 5.208250e+00 -8.623744e-01 -5.932905e+00 -6.943557e+00 -1.558435e+00 2.208409e-02 -9.288734e-01 -3.159854e+00 -1.122427e+00 -2.211744e+00
<VARIANCE> 12
 3.553656e+01 3.901531e+01 5.208099e+01 4.153048e+01 5.683490e+01 4.615279e+01 4.038520e+01 4.616048e+01 3.433285e+01 3.614577e+01 3.245200e+01 2.717183e+01
<GCONST> 6.627657e+01
<TRANSP> 5
 0.000000e+00 1.000000e+00 0.000000e+00 0.000000e+00 0.000000e+00
 0.000000e+00 8.370388e-01 1.629612e-01 0.000000e+00 0.000000e+00
 0.000000e+00 0.000000e+00 7.163340e-01 2.836659e-01 0.000000e+00
 0.000000e+00 0.000000e+00 0.000000e+00 7.614071e-01 2.385929e-01
 0.000000e+00 0.000000e+00 0.000000e+00 0.000000e+00 0.000000e+00
<ENDHMM>
