~o
<STREAMINFO> 1 12
<VECSIZE> 12<NULLD><MFCC><DIAGC>
~h "aN"
<BEGINHMM>
<NUMSTATES> 5
<STATE> 2
<MEAN> 12
 -1.382367e+00 -1.471642e+01 5.735344e-01 -9.148929e+00 3.981771e+00 -4.807140e+00 -3.745325e-01 -5.230445e+00 4.881864e+00 -1.029587e+01 -6.057686e+00 -3.762982e+00
<VARIANCE> 12
 1.982493e+01 3.523627e+01 4.934478e+01 5.430619e+01 5.916204e+01 5.188655e+01 5.301935e+01 8.576427e+01 6.402622e+01 7.408772e+01 3.565258e+01 3.751536e+01
<GCONST> 6.861172e+01
<STATE> 3
<MEAN> 12
 4.335835e-01 -1.072287e+01 7.429691e+00 -5.568518e+00 -5.984444e+00 -1.205863e+00 -6.631054e+00 1.347073e+00 -1.287591e+00 -3.788967e+00 -8.311427e+00 -7.464809e+00
<VARIANCE> 12
 1.009707e+01 8.389949e+01 8.480093e+01 3.982054e+01 7.186664e+01 6.667818e+01 5.920916e+01 1.146201e+02 1.078390e+02 5.497589e+01 3.360638e+01 6.200622e+01
<GCONST> 7.054796e+01
<STATE> 4
<MEAN> 12
 -1.507812e+00 1.817206e-01 4.682436e+00 -1.872007e+00 -1.350435e+00 -4.016548e+00 5.113588e-01 -3.615278e+00 -1.506277e-01 -1.715773e+00 -3.055737e+00 -3.712734e-01
<VARIANCE> 12
 3.166798e+01 3.469148e+01 5.339280e+01 5.791516e+01 5.409189e+01 1.032777e+02 7.633802e+01 4.558747e+01 4.239308e+01 3.739169e+01 3.565593e+01 4.265411e+01
<GCONST> 6.857136e+01
<TRANSP> 5
 0.000000e+00 1.000000e+00 0.000000e+00 0.000000e+00 0.000000e+00
 0.000000e+00 7.712254e-01 2.287747e-01 0.000000e+00 0.000000e+00
 0.000000e+00 0.000000e+00 7.120197e-01 2.879803e-01 0.000000e+00
 0.000000e+00 0.000000e+00 0.000000e+00 8.090701e-01 1.909299e-01
 0.000000e+00 0.000000e+00 0.000000e+00 0.000000e+00 0.000000e+00
<ENDHMM>
