~o
<STREAMINFO> 1 12
<VECSIZE> 12<NULLD><MFCC><DIAGC>
~h "aNN"
<BEGINHMM>
<NUMSTATES> 5
<STATE> 2
<MEAN> 12
 -1.485346e-01 -1.373342e+01 1.363086e+00 -1.519823e+01 7.271873e+00 8.504628e-01 -1.523295e+00 -7.236287e+00 4.239348e+00 -3.938586e+00 -6.562606e+00 -7.161772e+00
<VARIANCE> 12
 2.001120e+01 3.430238e+01 4.615743e+01 6.092302e+01 6.667017e+01 7.434518e+01 4.013490e+01 6.570675e+01 6.963558e+01 5.685513e+01 4.871255e+01 5.934762e+01
<GCONST> 6.916676e+01
<STATE> 3
<MEAN> 12
 4.078839e+00 -1.089690e+01 4.628173e+00 -1.578151e+01 2.798571e+00 1.227377e+01 -6.527261e+00 -3.170385e+00 -5.515453e+00 6.460705e-01 -4.911054e+00 -7.017116e+00
<VARIANCE> 12
 8.971795e+00 4.496968e+01 9.224615e+01 7.472364e+01 4.839242e+01 6.770819e+01 7.161050e+01 3.797094e+01 7.502835e+01 6.606441e+01 5.361100e+01 5.909991e+01
<GCONST> 6.946496e+01
<STATE> 4
<MEAN> 12
 1.442173e+00 1.629273e+00 6.634499e+00 -8.243207e-01 -9.855013e-01 3.532096e+00 -5.158246e+00 -9.436402e+00 -4.331011e+00 -5.451321e-01 -1.432145e+00 -6.640719e+00
<VARIANCE> 12
 1.862550e+01 3.158885e+01 4.933334e+01 6.245813e+01 4.266727e+01 6.550495e+01 6.197249e+01 5.378841e+01 8.811590e+01 5.345863e+01 5.978822e+01 6.123666e+01
<GCONST> 6.917538e+01
<TRANSP> 5
 0.000000e+00 1.000000e+00 0.000000e+00 0.000000e+00 0.000000e+00
 0.000000e+00 7.423768e-01 2.576232e-01 0.000000e+00 0.000000e+00
 0.000000e+00 0.000000e+00 7.893507e-01 2.106493e-01 0.000000e+00
 0.000000e+00 0.000000e+00 0.000000e+00 8.166644e-01 1.833356e-01
 0.000000e+00 0.000000e+00 0.000000e+00 0.000000e+00 0.000000e+00
<ENDHMM>
