~o
<STREAMINFO> 1 12
<VECSIZE> 12<NULLD><MFCC><DIAGC>
~h "au"
<BEGINHMM>
<NUMSTATES> 5
<STATE> 2
<MEAN> 12
 -1.023075e+00 -8.619168e+00 -8.922246e+00 -1.908595e+01 3.094710e+00 3.574964e+00 -5.117017e+00 -4.307024e+00 -4.349940e-01 -7.355303e+00 -5.102970e+00 -4.639215e+00
<VARIANCE> 12
 1.944838e+01 3.590020e+01 3.022735e+01 8.844764e+01 4.959772e+01 6.302887e+01 4.276340e+01 4.403967e+01 4.306702e+01 4.306205e+01 4.999633e+01 3.398022e+01
<GCONST> 6.704563e+01
<STATE> 3
<MEAN> 12
 1.594765e+00 -1.133246e+01 4.588547e+00 -2.601512e+01 3.590231e+00 1.009274e+01 -5.939303e+00 -8.765725e-01 5.333982e-01 -3.608480e+00 -2.093241e+00 -5.199549e+00
<VARIANCE> 12
 1.591905e+01 6.567811e+01 5.841977e+01 8.754842e+01 6.528043e+01 8.654549e+01 6.921370e+01 8.084196e+01 1.002791e+02 6.483092e+01 5.069298e+01 7.435015e+01
<GCONST> 7.183002e+01
<STATE> 4
<MEAN> 12
 -1.787333e+00 -9.690279e-01 -1.640295e+00 -7.199668e+00 1.888433e+00 6.683396e-01 2.372812e+00 -4.752508e+00 2.087657e+00 -1.170853e+00 3.729860e-01 1.195363e-01
<VARIANCE> 12
 4.248743e+01 2.623444e+01 6.013330e+01 4.986888e+01 5.011975e+01 7.307884e+01 1.292656e+02 3.464622e+01 4.026613e+01 5.452069e+01 3.590488e+01 4.559327e+01
<GCONST> 6.878451e+01
<TRANSP> 5
 0.000000e+00 1.000000e+00 0.000000e+00 0.000000e+00 0.000000e+00
 0.000000e+00 7.818963e-01 2.181037e-01 0.000000e+00 0.000000e+00
 0.000000e+00 0.000000e+00 8.176842e-01 1.823157e-01 0.000000e+00
 0.000000e+00 0.000000e+00 0.000000e+00 7.530891e-01 2.469109e-01
 0.000000e+00 0.000000e+00 0.000000e+00 0.000000e+00 0.000000e+00
<ENDHMM>
