~o
<STREAMINFO> 1 12
<VECSIZE> 12<NULLD><MFCC><DIAGC>
~h "b"
<BEGINHMM>
<NUMSTATES> 5
<STATE> 2
<MEAN> 12
 -4.994475e+00 -3.278110e+00 7.157615e-01 -2.204012e+00 9.871637e-01 -1.915118e+00 -1.465480e+00 -5.571227e-01 -5.145077e-01 -3.246851e-01 -3.963995e-01 -1.719221e+00
<VARIANCE> 12
 3.296847e+01 1.778107e+01 4.822516e+01 2.919372e+01 2.706683e+01 4.959238e+01 3.475686e+01 3.297769e+01 3.171785e+01 2.739133e+01 2.189728e+01 3.459502e+01
<GCONST> 6.332158e+01
<STATE> 3
<MEAN> 12
 -5.917994e+00 -3.313949e+00 3.715237e+00 -3.037211e+00 -1.598498e+00 -5.843288e+00 -5.092236e+00 -3.371709e+00 -1.879391e+00 -2.825083e+00 -1.506970e+00 -3.447585e+00
<VARIANCE> 12
 2.817647e+01 2.485640e+01 1.046553e+02 4.676104e+01 3.497655e+01 4.079432e+01 3.950003e+01 3.895408e+01 3.256390e+01 3.114256e+01 2.004329e+01 3.335614e+01
<GCONST> 6.513068e+01
<STATE> 4
<MEAN> 12
 -1.347258e+00 -6.530516e+00 8.486539e+00 -1.099623e+01 -5.265429e+00 -2.746924e+00 -6.918786e+00 -6.708621e-01 -2.372394e+00 -2.674406e+00 -1.675820e+00 -4.711624e+00
<VARIANCE> 12
 2.973360e+01 9.932312e+01 1.610383e+02 8.849984e+01 8.360811e+01 1.053048e+02 6.449875e+01 9.281609e+01 5.023009e+01 5.584264e+01 4.644799e+01 4.644199e+01
<GCONST> 7.300578e+01
<TRANSP> 5
 0.000000e+00 1.000000e+00 0.000000e+00 0.000000e+00 0.000000e+00
 0.000000e+00 5.721985e-01 4.278015e-01 0.000000e+00 0.000000e+00
 0.000000e+00 0.000000e+00 5.445700e-01 4.554300e-01 0.000000e+00
 0.000000e+00 0.000000e+00 0.000000e+00 2.905738e-01 7.094262e-01
 0.000000e+00 0.000000e+00 0.000000e+00 0.000000e+00 0.000000e+00
<ENDHMM>
