~o
<STREAMINFO> 1 12
<VECSIZE> 12<NULLD><MFCC><DIAGC>
~h "d"
<BEGINHMM>
<NUMSTATES> 5
<STATE> 2
<MEAN> 12
 -5.210042e+00 -4.356933e-01 4.186557e+00 -1.651674e+00 5.905147e-01 -3.439158e+00 -2.561049e+00 -2.362282e+00 3.090804e-01 -7.546086e-01 -1.229002e+00 -2.779233e+00
<VARIANCE> 12
 4.483968e+01 2.968867e+01 7.054195e+01 4.560556e+01 3.949347e+01 4.928185e+01 5.707203e+01 5.709739e+01 3.841722e+01 3.394867e+01 3.284007e+01 4.008945e+01
<GCONST> 6.734351e+01
<STATE> 3
<MEAN> 12
 -4.132466e+00 -3.243732e+00 4.123271e+00 -6.386917e+00 -1.537235e+00 -8.245557e+00 -5.590979e+00 -9.873711e-01 7.500106e-01 -3.090630e+00 -3.581949e+00 -4.143790e+00
<VARIANCE> 12
 3.477396e+01 3.578802e+01 8.108968e+01 4.353411e+01 4.372475e+01 4.625761e+01 5.780187e+01 5.077878e+01 4.318901e+01 4.561816e+01 3.989360e+01 5.643301e+01
<GCONST> 6.825191e+01
<STATE> 4
<MEAN> 12
 -1.216710e+00 -6.995111e+00 7.309659e+00 -9.439900e+00 -2.315343e+00 -6.014861e+00 -7.919940e+00 2.091721e-02 1.058444e+00 -2.711250e+00 -3.402052e+00 -5.954896e+00
<VARIANCE> 12
 2.875648e+01 6.726711e+01 1.065994e+02 7.169421e+01 5.931413e+01 9.481036e+01 9.992282e+01 8.517890e+01 7.656896e+01 7.346725e+01 6.515425e+01 7.464289e+01
<GCONST> 7.337193e+01
<TRANSP> 5
 0.000000e+00 1.000000e+00 0.000000e+00 0.000000e+00 0.000000e+00
 0.000000e+00 5.665532e-01 4.334467e-01 0.000000e+00 0.000000e+00
 0.000000e+00 0.000000e+00 3.014415e-01 6.985586e-01 0.000000e+00
 0.000000e+00 0.000000e+00 0.000000e+00 3.516150e-01 6.483850e-01
 0.000000e+00 0.000000e+00 0.000000e+00 0.000000e+00 0.000000e+00
<ENDHMM>
