~o
<STREAMINFO> 1 12
<VECSIZE> 12<NULLD><MFCC><DIAGC>
~h "dz"
<BEGINHMM>
<NUMSTATES> 5
<STATE> 2
<MEAN> 12
 -1.663480e+01 3.538525e+00 -4.915645e+00 5.530834e-01 -1.287165e+00 -2.735821e+00 -1.643601e+00 -2.253856e-01 7.637110e-01 -4.861488e-01 5.202371e-02 4.575893e-01
<VARIANCE> 12
 5.980896e+01 2.805368e+01 3.237044e+01 3.170545e+01 3.046045e+01 3.424792e+01 3.172276e+01 3.013103e+01 2.888835e+01 2.600528e+01 2.280423e+01 2.915392e+01
<GCONST> 6.334745e+01
<STATE> 3
<MEAN> 12
 -8.272433e+00 2.409763e+00 6.389335e-01 -1.501618e+00 1.496722e-01 -7.426118e+00 -5.595398e+00 -2.161513e+00 5.640743e-01 -2.162788e+00 -2.229012e+00 -3.467591e+00
<VARIANCE> 12
 4.276337e+01 3.490396e+01 3.055994e+01 2.686377e+01 5.628373e+01 3.829888e+01 5.064791e+01 4.031216e+01 3.527555e+01 2.511180e+01 2.961941e+01 4.637933e+01
<GCONST> 6.538247e+01
<STATE> 4
<MEAN> 12
 -2.076771e+00 -3.902874e+00 3.908754e+00 -8.210815e+00 -3.297813e+00 -3.800595e+00 -8.396768e+00 -1.716415e-01 -9.996731e-01 -2.997375e+00 -2.586209e+00 -4.856667e+00
<VARIANCE> 12
 3.868646e+01 9.345361e+01 5.263239e+01 6.464020e+01 4.828254e+01 1.291379e+02 8.224498e+01 7.371114e+01 7.395489e+01 4.963764e+01 4.869181e+01 1.108464e+02
<GCONST> 7.262932e+01
<TRANSP> 5
 0.000000e+00 1.000000e+00 0.000000e+00 0.000000e+00 0.000000e+00
 0.000000e+00 7.897891e-01 2.102109e-01 0.000000e+00 0.000000e+00
 0.000000e+00 0.000000e+00 4.456162e-01 5.543838e-01 0.000000e+00
 0.000000e+00 0.000000e+00 0.000000e+00 4.230257e-01 5.769743e-01
 0.000000e+00 0.000000e+00 0.000000e+00 0.000000e+00 0.000000e+00
<ENDHMM>
