~o
<STREAMINFO> 1 12
<VECSIZE> 12<NULLD><MFCC><DIAGC>
~h "dz#"
<BEGINHMM>
<NUMSTATES> 5
<STATE> 2
<MEAN> 12
 -8.039403e+00 -2.652437e+00 6.508946e+00 -1.946892e+00 -3.057613e+00 -5.460389e+00 -3.547503e+00 -3.722973e+00 -8.981947e-01 -5.189912e+00 -1.235096e+00 -3.453334e+00
<VARIANCE> 12
 9.022999e+01 3.047414e+01 1.106457e+02 5.601471e+01 3.410158e+01 4.397937e+01 4.099397e+01 4.986086e+01 2.926851e+01 3.404302e+01 4.074493e+01 3.445026e+01
<GCONST> 6.779242e+01
<STATE> 3
<MEAN> 12
 -1.672954e+01 -1.580348e+00 5.972180e+00 -3.240406e+00 -9.249219e-01 -4.865080e+00 -2.405230e+00 -1.162217e+00 1.718449e+00 -2.078803e+00 4.609700e-01 -8.033187e-01
<VARIANCE> 12
 6.837543e+01 2.384575e+01 7.025278e+01 4.775467e+01 3.312546e+01 3.946036e+01 3.759014e+01 3.940419e+01 3.894320e+01 3.186562e+01 2.928250e+01 3.819941e+01
<GCONST> 6.618899e+01
<STATE> 4
<MEAN> 12
 -1.883438e+00 -5.891570e+00 8.947630e+00 -5.023967e+00 -6.897924e+00 -7.692403e+00 -6.707138e+00 -4.426297e+00 -2.492819e+00 -3.151959e+00 -1.883514e+00 -4.880199e+00
<VARIANCE> 12
 4.377342e+01 5.328294e+01 1.063500e+02 4.889576e+01 9.943929e+01 8.156990e+01 6.059079e+01 7.697353e+01 6.965062e+01 7.017067e+01 4.660981e+01 4.876564e+01
<GCONST> 7.203746e+01
<TRANSP> 5
 0.000000e+00 1.000000e+00 0.000000e+00 0.000000e+00 0.000000e+00
 0.000000e+00 4.558481e-01 5.441519e-01 0.000000e+00 0.000000e+00
 0.000000e+00 0.000000e+00 6.671451e-01 3.328549e-01 0.000000e+00
 0.000000e+00 0.000000e+00 0.000000e+00 4.547890e-01 5.452111e-01
 0.000000e+00 0.000000e+00 0.000000e+00 0.000000e+00 0.000000e+00
<ENDHMM>
