~o
<STREAMINFO> 1 12
<VECSIZE> 12<NULLD><MFCC><DIAGC>
~h "ei"
<BEGINHMM>
<NUMSTATES> 5
<STATE> 2
<MEAN> 12
 -1.701925e+00 -1.129507e+01 1.898131e+01 -6.704253e+00 -1.147511e+01 -9.540975e+00 -6.197030e+00 1.862672e+00 -6.087027e+00 -6.040854e+00 3.735846e+00 -5.190777e+00
<VARIANCE> 12
 2.316056e+01 5.953209e+01 1.170151e+02 7.702523e+01 8.864603e+01 5.118084e+01 9.871556e+01 7.958089e+01 7.029249e+01 6.967452e+01 4.462741e+01 4.479303e+01
<GCONST> 7.187586e+01
<STATE> 3
<MEAN> 12
 -5.122485e-01 -3.049590e+00 8.055568e+00 -1.030140e+01 -1.483158e+01 -8.009027e+00 -4.426635e+00 -2.338186e+00 -6.552283e+00 -1.972821e+00 -5.398263e+00 -2.371523e+00
<VARIANCE> 12
 1.052013e+01 2.383228e+01 5.335429e+01 6.070568e+01 4.420531e+01 3.590831e+01 3.291828e+01 4.230339e+01 2.903610e+01 3.768213e+01 5.442608e+01 2.505130e+01
<GCONST> 6.448605e+01
<STATE> 4
<MEAN> 12
 -4.155847e+00 -1.659457e+00 9.686440e+00 7.384700e-01 -8.239458e+00 -9.453734e+00 -4.316786e+00 -1.347871e+00 -3.640312e+00 -3.928023e+00 8.350705e-01 -9.604377e-01
<VARIANCE> 12
 3.509851e+01 2.912778e+01 9.826571e+01 3.643967e+01 5.545531e+01 4.104787e+01 3.411667e+01 5.755328e+01 3.085636e+01 3.778801e+01 3.498415e+01 2.711466e+01
<GCONST> 6.639683e+01
<TRANSP> 5
 0.000000e+00 1.000000e+00 0.000000e+00 0.000000e+00 0.000000e+00
 0.000000e+00 7.480033e-01 2.519968e-01 0.000000e+00 0.000000e+00
 0.000000e+00 0.000000e+00 6.879978e-01 3.120023e-01 0.000000e+00
 0.000000e+00 0.000000e+00 0.000000e+00 6.325325e-01 3.674676e-01
 0.000000e+00 0.000000e+00 0.000000e+00 0.000000e+00 0.000000e+00
<ENDHMM>
