~o
<STREAMINFO> 1 12
<VECSIZE> 12<NULLD><MFCC><DIAGC>
~h "eN"
<BEGINHMM>
<NUMSTATES> 5
<STATE> 2
<MEAN> 12
 7.397581e-01 -5.314445e+00 2.211010e+00 -7.109975e+00 -5.841889e+00 -1.007345e+01 -5.512255e+00 -1.866471e+00 -2.995951e-01 -6.030746e+00 -3.345628e+00 -2.330487e+00
<VARIANCE> 12
 1.066640e+01 3.506868e+01 5.595798e+01 4.196591e+01 4.312886e+01 4.383877e+01 5.749883e+01 1.022227e+02 4.888099e+01 9.247626e+01 5.178847e+01 4.137016e+01
<GCONST> 6.805009e+01
<STATE> 3
<MEAN> 12
 2.903241e+00 -6.113380e+00 1.698595e+01 -2.725215e+00 -4.775980e+00 -3.338904e+00 -8.343454e+00 -2.416562e-01 -2.917058e+00 -1.208125e-01 -4.409842e+00 -9.221869e+00
<VARIANCE> 12
 1.024352e+01 7.170139e+01 6.562565e+01 7.996716e+01 6.294116e+01 7.001756e+01 6.212415e+01 8.328499e+01 8.791261e+01 4.997972e+01 4.486343e+01 6.233760e+01
<GCONST> 7.048576e+01
<STATE> 4
<MEAN> 12
 -4.013736e+00 1.623545e+00 6.867815e+00 2.803100e-01 2.463569e+00 -3.333122e+00 3.054219e-01 -2.319680e+00 5.691082e-01 -3.004979e-01 -3.231833e+00 -1.282361e+00
<VARIANCE> 12
 4.972368e+01 3.729206e+01 6.285254e+01 4.784219e+01 3.200420e+01 4.403461e+01 4.949184e+01 6.102389e+01 5.814676e+01 4.234319e+01 4.985765e+01 3.943546e+01
<GCONST> 6.824502e+01
<TRANSP> 5
 0.000000e+00 1.000000e+00 0.000000e+00 0.000000e+00 0.000000e+00
 0.000000e+00 8.029165e-01 1.970835e-01 0.000000e+00 0.000000e+00
 0.000000e+00 0.000000e+00 7.846871e-01 2.153129e-01 0.000000e+00
 0.000000e+00 0.000000e+00 0.000000e+00 7.563069e-01 2.436932e-01
 0.000000e+00 0.000000e+00 0.000000e+00 0.000000e+00 0.000000e+00
<ENDHMM>
