~o
<STREAMINFO> 1 12
<VECSIZE> 12<NULLD><MFCC><DIAGC>
~h "eNN"
<BEGINHMM>
<NUMSTATES> 5
<STATE> 2
<MEAN> 12
 7.779614e-01 -7.166107e+00 1.771487e+00 -1.663275e+01 3.705315e+00 -4.561275e+00 -2.986700e+00 -4.966619e+00 2.265677e+00 -3.168231e+00 -4.971478e+00 -6.930381e+00
<VARIANCE> 12
 2.147721e+01 3.649527e+01 6.422354e+01 9.099010e+01 4.324204e+01 1.483274e+02 6.608366e+01 4.760207e+01 8.472196e+01 8.755011e+01 4.339540e+01 6.304333e+01
<GCONST> 7.103761e+01
<STATE> 3
<MEAN> 12
 3.624321e+00 -4.966054e+00 1.225516e+01 -1.000737e+01 -4.938367e+00 2.581792e+00 -8.325216e+00 -3.936233e+00 -8.491235e+00 2.627914e+00 -3.574710e+00 -1.441188e+01
<VARIANCE> 12
 9.956551e+00 3.905427e+01 4.262902e+01 6.899369e+01 3.032393e+01 6.633495e+01 6.775960e+01 6.267569e+01 1.092118e+02 7.617823e+01 1.139707e+02 6.615527e+01
<GCONST> 6.991916e+01
<STATE> 4
<MEAN> 12
 -8.766667e-01 1.664543e+00 5.048818e+00 -5.002680e-01 -1.891087e+00 -2.305882e+00 -2.009671e+00 -4.198242e+00 -3.810137e+00 -5.395975e-01 -5.903492e+00 -3.137348e+00
<VARIANCE> 12
 4.554290e+01 2.886944e+01 3.990670e+01 3.859706e+01 3.546981e+01 4.622054e+01 4.786654e+01 5.886687e+01 5.975963e+01 6.918109e+01 5.476874e+01 5.732719e+01
<GCONST> 6.830043e+01
<TRANSP> 5
 0.000000e+00 1.000000e+00 0.000000e+00 0.000000e+00 0.000000e+00
 0.000000e+00 7.338564e-01 2.661436e-01 0.000000e+00 0.000000e+00
 0.000000e+00 0.000000e+00 8.041216e-01 1.958784e-01 0.000000e+00
 0.000000e+00 0.000000e+00 0.000000e+00 8.149073e-01 1.850927e-01
 0.000000e+00 0.000000e+00 0.000000e+00 0.000000e+00 0.000000e+00
<ENDHMM>
