~o
<STREAMINFO> 1 12
<VECSIZE> 12<NULLD><MFCC><DIAGC>
~h "er"
<BEGINHMM>
<NUMSTATES> 5
<STATE> 2
<MEAN> 12
 1.222688e+00 -2.005312e+01 -2.917316e+00 -9.004193e+00 -2.102090e+00 -4.261047e+00 -1.418397e+00 -2.181218e+00 -5.602113e+00 -3.481706e+00 -8.218430e+00 -3.983076e+00
<VARIANCE> 12
 2.329441e+01 2.356468e+01 2.402309e+01 3.147303e+01 3.131373e+01 2.257624e+02 5.073291e+01 1.470548e+02 9.073324e+01 3.474981e+01 4.833230e+01 4.081008e+01
<GCONST> 6.841468e+01
<STATE> 3
<MEAN> 12
 4.289323e+00 -1.133915e+01 -2.332860e+00 -1.866276e+00 -1.148980e+01 -4.156301e+00 -4.792420e+00 4.344778e+00 -1.827966e+00 -9.733449e+00 -1.432782e+01 5.189808e-03
<VARIANCE> 12
 7.545059e+00 1.011464e+01 1.281433e+01 1.246657e+01 3.376826e+01 3.051999e+01 3.413062e+01 1.446777e+01 2.031325e+01 2.598774e+01 5.167095e+01 1.022374e+01
<GCONST> 5.714154e+01
<STATE> 4
<MEAN> 12
 -1.444607e+00 -5.028365e+00 -8.220856e-01 3.276467e+00 -3.487952e+00 -8.544477e+00 -8.048216e+00 -3.294738e+00 1.057237e+00 -3.932440e+00 -2.782596e+00 -3.978391e-01
<VARIANCE> 12
 4.966749e+01 2.498624e+01 7.857373e+01 7.335668e+01 4.156883e+01 4.624922e+01 7.993707e+01 4.186414e+01 5.244144e+01 4.878230e+01 5.286447e+01 6.245647e+01
<GCONST> 6.946391e+01
<TRANSP> 5
 0.000000e+00 1.000000e+00 0.000000e+00 0.000000e+00 0.000000e+00
 0.000000e+00 7.781392e-01 2.218609e-01 0.000000e+00 0.000000e+00
 0.000000e+00 0.000000e+00 7.246243e-01 2.753758e-01 0.000000e+00
 0.000000e+00 0.000000e+00 0.000000e+00 8.090246e-01 1.909754e-01
 0.000000e+00 0.000000e+00 0.000000e+00 0.000000e+00 0.000000e+00
<ENDHMM>
