~o
<STREAMINFO> 1 12
<VECSIZE> 12<NULLD><MFCC><DIAGC>
~h "f"
<BEGINHMM>
<NUMSTATES> 5
<STATE> 2
<MEAN> 12
 -1.227326e+01 8.273019e-01 4.350411e+00 1.838882e-01 2.845220e+00 -2.362450e+00 -3.046963e+00 -4.681787e+00 -1.150454e+00 -1.439288e+00 -1.701629e+00 -3.815273e+00
<VARIANCE> 12
 4.746815e+01 2.134349e+01 3.737314e+01 3.481342e+01 2.458910e+01 4.626502e+01 2.933302e+01 2.924177e+01 2.023652e+01 2.047271e+01 2.187725e+01 2.038995e+01
<GCONST> 6.206436e+01
<STATE> 3
<MEAN> 12
 -1.708813e+01 -3.323860e+00 5.285645e-01 -7.942890e-01 1.609325e+00 -2.258302e+00 -1.498942e+00 -3.756344e-01 7.714941e-02 9.676059e-02 -6.601965e-01 -2.928499e-01
<VARIANCE> 12
 3.076040e+01 1.263226e+01 2.288517e+01 2.173594e+01 2.449621e+01 2.774035e+01 2.296386e+01 3.244357e+01 3.343292e+01 3.000786e+01 1.461195e+01 2.115676e+01
<GCONST> 6.000609e+01
<STATE> 4
<MEAN> 12
 -1.691017e+00 -3.912781e+00 -6.455495e-01 -1.048816e+01 -2.739175e+00 -3.664678e+00 -6.002250e+00 -3.885174e+00 6.749939e-01 -4.938287e+00 -2.990309e+00 -4.274981e+00
<VARIANCE> 12
 2.126462e+01 4.079327e+01 6.538072e+01 7.192836e+01 5.739568e+01 1.046465e+02 4.844213e+01 4.852172e+01 3.750579e+01 5.120910e+01 3.143668e+01 2.743752e+01
<GCONST> 6.805923e+01
<TRANSP> 5
 0.000000e+00 1.000000e+00 0.000000e+00 0.000000e+00 0.000000e+00
 0.000000e+00 4.726574e-01 5.273427e-01 0.000000e+00 0.000000e+00
 0.000000e+00 0.000000e+00 7.662466e-01 2.337534e-01 0.000000e+00
 0.000000e+00 0.000000e+00 0.000000e+00 6.618500e-01 3.381500e-01
 0.000000e+00 0.000000e+00 0.000000e+00 0.000000e+00 0.000000e+00
<ENDHMM>
