~o
<STREAMINFO> 1 12
<VECSIZE> 12<NULLD><MFCC><DIAGC>
~h "g"
<BEGINHMM>
<NUMSTATES> 5
<STATE> 2
<MEAN> 12
 -3.837879e+00 -4.061584e+00 -5.318344e-01 -4.631968e+00 5.921884e-02 -6.209815e+00 -3.030238e+00 1.489496e+00 -1.876116e+00 6.682509e-02 -1.673306e+00 -1.716917e+00
<VARIANCE> 12
 2.161041e+01 4.346791e+01 7.517549e+01 6.264861e+01 5.137417e+01 6.830244e+01 5.593875e+01 4.738354e+01 4.071257e+01 4.677226e+01 2.853307e+01 4.522961e+01
<GCONST> 6.811735e+01
<STATE> 3
<MEAN> 12
 -3.749119e-01 -2.956630e+00 3.267563e+00 -8.092724e+00 -3.503714e+00 -8.053108e+00 -6.133571e+00 1.021892e-01 -3.592063e+00 5.436741e-01 -3.465405e+00 -4.021252e+00
<VARIANCE> 12
 1.545503e+01 4.522993e+01 9.726402e+01 6.323010e+01 5.923180e+01 9.000475e+01 5.218658e+01 5.045271e+01 5.705547e+01 5.787769e+01 4.896030e+01 5.924765e+01
<GCONST> 6.986070e+01
<STATE> 4
<MEAN> 12
 2.124706e+00 -4.090891e+00 8.365183e+00 -1.335487e+01 -7.100541e+00 -3.665200e+00 -8.321791e+00 -8.143286e-02 -3.668940e+00 1.262617e+00 -2.838196e+00 -6.202480e+00
<VARIANCE> 12
 1.572188e+01 8.500124e+01 9.458804e+01 6.226640e+01 6.175537e+01 1.376469e+02 7.204369e+01 7.665221e+01 7.119783e+01 6.061411e+01 5.390796e+01 5.970581e+01
<GCONST> 7.204432e+01
<TRANSP> 5
 0.000000e+00 1.000000e+00 0.000000e+00 0.000000e+00 0.000000e+00
 0.000000e+00 6.408718e-01 3.591283e-01 0.000000e+00 0.000000e+00
 0.000000e+00 0.000000e+00 0.000000e+00 1.000000e+00 0.000000e+00
 0.000000e+00 0.000000e+00 0.000000e+00 4.532869e-01 5.467131e-01
 0.000000e+00 0.000000e+00 0.000000e+00 0.000000e+00 0.000000e+00
<ENDHMM>
