~o
<STREAMINFO> 1 12
<VECSIZE> 12<NULLD><MFCC><DIAGC>
~h "i"
<BEGINHMM>
<NUMSTATES> 5
<STATE> 2
<MEAN> 12
 -3.942511e+00 1.741287e+00 1.254479e+01 -1.225955e+01 -7.603859e+00 -6.753520e+00 -1.035363e+01 -9.196117e+00 -4.978215e+00 -3.956474e+00 -3.175049e+00 -3.031162e+00
<VARIANCE> 12
 3.195722e+01 3.853832e+01 9.038806e+01 7.841583e+01 5.121153e+01 5.576174e+01 7.077776e+01 6.926644e+01 4.310348e+01 3.896783e+01 3.600786e+01 2.855397e+01
<GCONST> 6.885315e+01
<STATE> 3
<MEAN> 12
 -5.950320e+00 -1.386967e+00 2.569588e+01 -3.110167e+00 -1.078714e+01 -4.916583e+00 -8.796185e+00 -5.623090e+00 -7.093127e+00 -9.845724e+00 2.554144e+00 -3.929349e+00
<VARIANCE> 12
 1.936279e+01 6.001995e+01 9.954776e+01 6.961161e+01 4.748771e+01 6.077930e+01 5.178141e+01 7.504257e+01 5.636978e+01 6.690707e+01 3.414717e+01 5.263915e+01
<GCONST> 6.991831e+01
<STATE> 4
<MEAN> 12
 -6.673134e+00 1.941396e+00 1.000518e+01 -1.094808e+00 -1.912910e+00 -4.912681e+00 -2.285086e+00 -2.231241e+00 -3.616476e+00 -2.208586e+00 -1.529049e+00 -9.148306e-01
<VARIANCE> 12
 5.945801e+01 5.592990e+01 6.765408e+01 5.701986e+01 5.259798e+01 4.718961e+01 4.817966e+01 4.321780e+01 5.025452e+01 4.825688e+01 2.425900e+01 2.887753e+01
<GCONST> 6.822523e+01
<TRANSP> 5
 0.000000e+00 1.000000e+00 0.000000e+00 0.000000e+00 0.000000e+00
 0.000000e+00 7.000192e-01 2.999808e-01 0.000000e+00 0.000000e+00
 0.000000e+00 0.000000e+00 7.929742e-01 2.070258e-01 0.000000e+00
 0.000000e+00 0.000000e+00 0.000000e+00 6.863467e-01 3.136534e-01
 0.000000e+00 0.000000e+00 0.000000e+00 0.000000e+00 0.000000e+00
<ENDHMM>
