~o
<STREAMINFO> 1 12
<VECSIZE> 12<NULLD><MFCC><DIAGC>
~h "ia"
<BEGINHMM>
<NUMSTATES> 5
<STATE> 2
<MEAN> 12
 -3.652750e+00 -9.477793e+00 2.631910e+00 -6.473401e+00 -4.989731e+00 -8.043736e+00 -1.265935e+00 3.692681e+00 1.454893e+00 -8.654726e+00 -2.925175e+00 -4.196843e+00
<VARIANCE> 12
 1.806397e+01 6.396386e+01 5.700712e+01 4.021218e+01 4.724054e+01 4.119125e+01 6.781599e+01 3.813411e+01 3.877327e+01 4.071047e+01 3.370400e+01 5.093328e+01
<GCONST> 6.708784e+01
<STATE> 3
<MEAN> 12
 1.231930e+00 -1.166385e+01 1.639449e-01 -9.108374e+00 9.630868e+00 7.414036e-01 9.969248e-01 -6.845686e+00 1.730905e+00 -7.496877e-01 -9.539554e+00 -2.677339e+00
<VARIANCE> 12
 6.008866e+00 3.842345e+01 1.583305e+01 3.123729e+01 5.402824e+01 3.028647e+01 3.452098e+01 6.291882e+01 6.792901e+01 3.117665e+01 2.243926e+01 5.717555e+01
<GCONST> 6.359884e+01
<STATE> 4
<MEAN> 12
 -8.256184e+00 -7.220286e+00 -3.609357e-01 -3.658789e+00 3.762512e+00 -1.255034e+00 -2.724419e+00 -2.987685e+00 -1.034323e-01 -2.768959e+00 -2.324477e+00 -1.777197e+00
<VARIANCE> 12
 2.975617e+01 2.162288e+02 1.739203e+01 1.149645e+02 3.076936e+01 3.767668e+01 3.879290e+01 6.159890e+01 4.841630e+01 4.320673e+01 2.966254e+01 3.227896e+01
<GCONST> 6.776911e+01
<TRANSP> 5
 0.000000e+00 1.000000e+00 0.000000e+00 0.000000e+00 0.000000e+00
 0.000000e+00 7.722539e-01 2.277461e-01 0.000000e+00 0.000000e+00
 0.000000e+00 0.000000e+00 8.579367e-01 1.420633e-01 0.000000e+00
 0.000000e+00 0.000000e+00 0.000000e+00 7.108909e-01 2.891091e-01
 0.000000e+00 0.000000e+00 0.000000e+00 0.000000e+00 0.000000e+00
<ENDHMM>
