~o
<STREAMINFO> 1 12
<VECSIZE> 12<NULLD><MFCC><DIAGC>
~h "iaN"
<BEGINHMM>
<NUMSTATES> 5
<STATE> 2
<MEAN> 12
 -4.422644e+00 -4.720424e+00 1.159844e+01 -1.015254e+01 -9.449739e+00 -1.211555e+01 -1.519724e+00 -5.910235e+00 -1.724771e+00 -6.099386e+00 -3.438477e-01 -3.678977e+00
<VARIANCE> 12
 1.617867e+01 4.446653e+01 6.129325e+01 1.284833e+02 6.399044e+01 4.580764e+01 8.086746e+01 4.849976e+01 4.572528e+01 4.478204e+01 4.735926e+01 4.303524e+01
<GCONST> 6.910622e+01
<STATE> 3
<MEAN> 12
 2.202213e-01 -1.232685e+01 1.877471e+01 -8.686904e+00 -1.053599e+01 -4.189026e+00 -9.744066e+00 6.905387e+00 -5.879330e+00 -2.213359e+00 -1.368322e+00 -1.011270e+01
<VARIANCE> 12
 1.517732e+01 5.381169e+01 1.061536e+02 7.089206e+01 6.347364e+01 6.057515e+01 6.207675e+01 6.542580e+01 7.443881e+01 3.890478e+01 4.292853e+01 6.945705e+01
<GCONST> 7.022100e+01
<STATE> 4
<MEAN> 12
 1.489775e-01 4.854097e-01 1.019066e+01 1.794407e-01 -3.179489e+00 -2.836902e+00 -3.661450e+00 -1.346810e+00 -6.697824e+00 -8.204550e-01 -3.840011e+00 -4.051898e+00
<VARIANCE> 12
 2.687859e+01 2.671527e+01 7.551720e+01 6.133276e+01 3.974218e+01 4.989791e+01 5.959127e+01 8.287923e+01 6.191057e+01 4.704027e+01 4.962654e+01 4.651598e+01
<GCONST> 6.889008e+01
<TRANSP> 5
 0.000000e+00 1.000000e+00 0.000000e+00 0.000000e+00 0.000000e+00
 0.000000e+00 8.145914e-01 1.854086e-01 0.000000e+00 0.000000e+00
 0.000000e+00 0.000000e+00 7.630255e-01 2.369745e-01 0.000000e+00
 0.000000e+00 0.000000e+00 0.000000e+00 8.253177e-01 1.746823e-01
 0.000000e+00 0.000000e+00 0.000000e+00 0.000000e+00 0.000000e+00
<ENDHMM>
