~o
<STREAMINFO> 1 12
<VECSIZE> 12<NULLD><MFCC><DIAGC>
~h "iaNN"
<BEGINHMM>
<NUMSTATES> 5
<STATE> 2
<MEAN> 12
 -3.731967e+00 -9.654953e+00 1.037558e-01 -1.035243e+01 -3.631483e+00 -9.651535e+00 -3.195736e+00 4.594045e-01 -1.665416e+00 -9.029855e+00 -4.993969e+00 -1.946428e+00
<VARIANCE> 12
 2.733554e+01 5.910484e+01 5.983585e+01 3.616774e+01 7.298576e+01 3.465930e+01 8.329202e+01 5.323871e+01 3.520641e+01 6.755717e+01 6.099934e+01 2.942987e+01
<GCONST> 6.862185e+01
<STATE> 3
<MEAN> 12
 1.278001e+00 -1.469455e+01 4.659111e+00 -1.048899e+01 4.687274e+00 -2.929125e+00 -5.595739e+00 -6.193085e-01 7.665274e-01 -1.848685e+00 -7.102684e+00 -9.212835e+00
<VARIANCE> 12
 1.275443e+01 5.558267e+01 1.189447e+02 3.118781e+01 7.816696e+01 4.783248e+01 5.532325e+01 1.089030e+02 8.635684e+01 7.389928e+01 3.815815e+01 5.805170e+01
<GCONST> 7.023143e+01
<STATE> 4
<MEAN> 12
 2.082160e+00 -2.404994e+00 -2.366802e+00 -2.750961e+00 -1.818286e-01 3.376873e-01 -3.583397e+00 -4.823850e+00 -3.138680e+00 -1.688422e+00 -9.482107e+00 1.430311e-01
<VARIANCE> 12
 1.441368e+01 2.574489e+01 5.490448e+01 3.373234e+01 3.816941e+01 3.827786e+01 3.769283e+01 5.573854e+01 3.021079e+01 7.904942e+01 4.483543e+01 4.213405e+01
<GCONST> 6.575417e+01
<TRANSP> 5
 0.000000e+00 1.000000e+00 0.000000e+00 0.000000e+00 0.000000e+00
 0.000000e+00 7.706079e-01 2.293921e-01 0.000000e+00 0.000000e+00
 0.000000e+00 0.000000e+00 8.044698e-01 1.955302e-01 0.000000e+00
 0.000000e+00 0.000000e+00 0.000000e+00 8.715591e-01 1.284409e-01
 0.000000e+00 0.000000e+00 0.000000e+00 0.000000e+00 0.000000e+00
<ENDHMM>
