~o
<STREAMINFO> 1 12
<VECSIZE> 12<NULLD><MFCC><DIAGC>
~h "iau"
<BEGINHMM>
<NUMSTATES> 5
<STATE> 2
<MEAN> 12
 -3.159517e+00 -8.026134e+00 2.003877e+00 -1.145570e+01 -2.982267e+00 -4.226457e+00 -3.717199e+00 9.714680e-01 -2.918412e-01 -3.432240e+00 -3.358987e+00 -4.940392e+00
<VARIANCE> 12
 2.166651e+01 4.277042e+01 8.903770e+01 7.578489e+01 6.545022e+01 1.057864e+02 9.977628e+01 7.113185e+01 9.191144e+01 9.914306e+01 6.067965e+01 5.025417e+01
<GCONST> 7.255336e+01
<STATE> 3
<MEAN> 12
 1.338259e+00 -6.331392e+00 -4.233812e+00 -1.966780e+01 3.222990e+00 5.406435e+00 -2.076962e+00 -7.633823e+00 7.196084e-01 -5.939408e+00 -4.054024e+00 -3.331567e+00
<VARIANCE> 12
 1.407294e+01 4.244698e+01 4.546136e+01 8.254898e+01 6.065477e+01 6.884873e+01 8.387845e+01 3.264872e+01 4.612510e+01 6.624004e+01 5.543979e+01 5.155383e+01
<GCONST> 6.891213e+01
<STATE> 4
<MEAN> 12
 -3.134531e+00 3.331605e+00 -1.590110e-01 -5.518986e+00 3.231399e-01 -3.793158e-01 -2.007315e+00 -3.642680e+00 -1.504118e+00 -2.852493e+00 -2.682322e+00 -3.147472e+00
<VARIANCE> 12
 3.844051e+01 4.349976e+01 3.556306e+01 5.147501e+01 5.297544e+01 7.117870e+01 4.461143e+01 4.364979e+01 4.247187e+01 4.755692e+01 4.165168e+01 3.126527e+01
<GCONST> 6.758062e+01
<TRANSP> 5
 0.000000e+00 1.000000e+00 0.000000e+00 0.000000e+00 0.000000e+00
 0.000000e+00 7.977892e-01 2.022109e-01 0.000000e+00 0.000000e+00
 0.000000e+00 0.000000e+00 8.666887e-01 1.333114e-01 0.000000e+00
 0.000000e+00 0.000000e+00 0.000000e+00 7.588733e-01 2.411266e-01
 0.000000e+00 0.000000e+00 0.000000e+00 0.000000e+00 0.000000e+00
<ENDHMM>
