~o
<STREAMINFO> 1 12
<VECSIZE> 12<NULLD><MFCC><DIAGC>
~h "iE"
<BEGINHMM>
<NUMSTATES> 5
<STATE> 2
<MEAN> 12
 -4.002281e+00 -1.172178e+00 1.629341e+01 3.297162e-01 -1.050253e+01 -8.785391e+00 -6.623506e+00 -1.711242e+00 -7.566558e+00 -5.335302e+00 1.767039e+00 4.637367e-01
<VARIANCE> 12
 1.770739e+01 3.222699e+01 4.106487e+01 3.944484e+01 4.373768e+01 3.577860e+01 3.576304e+01 1.307682e+02 7.142617e+01 1.366234e+02 3.305893e+01 2.582116e+01
<GCONST> 6.753266e+01
<STATE> 3
<MEAN> 12
 -1.444201e+00 -1.302028e+01 2.395182e+01 -1.087544e+01 -1.310715e+01 -1.111228e+01 -1.142985e+01 4.057385e+00 -6.635088e+00 -1.315683e+00 1.886999e+00 -2.241257e+00
<VARIANCE> 12
 3.007638e+01 6.092490e+01 9.241877e+01 5.008650e+01 3.017011e+01 3.303527e+01 6.772220e+01 5.639713e+01 3.964008e+01 4.216840e+01 3.108627e+01 2.505162e+01
<GCONST> 6.723946e+01
<STATE> 4
<MEAN> 12
 -3.967140e+00 -1.884414e+00 6.779689e+00 -5.553621e+00 -5.014121e+00 -7.419646e+00 -1.071675e+00 -3.144518e+00 1.249412e+00 -2.478715e+00 -1.147258e+00 -1.413750e+00
<VARIANCE> 12
 5.326200e+01 4.806640e+01 7.644151e+01 8.109290e+01 4.221836e+01 5.681210e+01 6.027366e+01 6.003059e+01 3.623663e+01 3.089226e+01 3.457163e+01 2.711075e+01
<GCONST> 6.847434e+01
<TRANSP> 5
 0.000000e+00 1.000000e+00 0.000000e+00 0.000000e+00 0.000000e+00
 0.000000e+00 7.901665e-01 2.098335e-01 0.000000e+00 0.000000e+00
 0.000000e+00 0.000000e+00 7.814277e-01 2.185723e-01 0.000000e+00
 0.000000e+00 0.000000e+00 0.000000e+00 8.153185e-01 1.846815e-01
 0.000000e+00 0.000000e+00 0.000000e+00 0.000000e+00 0.000000e+00
<ENDHMM>
