~o
<STREAMINFO> 1 12
<VECSIZE> 12<NULLD><MFCC><DIAGC>
~h "iN"
<BEGINHMM>
<NUMSTATES> 5
<STATE> 2
<MEAN> 12
 -5.259414e+00 2.463464e+00 1.719183e+01 -1.737230e+00 -9.532647e+00 -7.329321e+00 -5.300482e+00 -9.775658e+00 -5.132425e+00 -8.325934e+00 2.193595e+00 -5.089511e+00
<VARIANCE> 12
 1.838136e+01 2.368073e+01 6.274500e+01 5.352805e+01 2.616265e+01 5.026746e+01 5.770425e+01 5.335485e+01 3.334810e+01 4.435021e+01 3.118392e+01 3.028355e+01
<GCONST> 6.561343e+01
<STATE> 3
<MEAN> 12
 -1.288315e+00 -1.283900e+00 1.615866e+01 -5.266329e+00 -1.080229e+01 -2.763411e+00 -7.702128e+00 -3.580291e+00 -1.160849e+01 -5.737467e+00 -1.477560e+00 -1.125010e+01
<VARIANCE> 12
 2.516042e+01 6.680701e+01 6.265826e+01 8.239886e+01 5.436076e+01 9.814844e+01 8.700832e+01 1.321788e+02 9.885590e+01 8.746449e+01 9.028503e+01 6.591882e+01
<GCONST> 7.371944e+01
<STATE> 4
<MEAN> 12
 -2.657996e+00 8.670634e-01 3.812452e+00 -5.332042e+00 -3.869530e+00 -5.898129e+00 -5.038371e+00 -6.631128e+00 -3.633431e+00 -4.047731e+00 -2.837304e+00 -1.310874e+00
<VARIANCE> 12
 4.971266e+01 3.356774e+01 4.517884e+01 5.910145e+01 4.472108e+01 5.646685e+01 4.673468e+01 5.873880e+01 2.948823e+01 2.510551e+01 1.767224e+01 2.176000e+01
<GCONST> 6.567506e+01
<TRANSP> 5
 0.000000e+00 1.000000e+00 0.000000e+00 0.000000e+00 0.000000e+00
 0.000000e+00 7.761667e-01 2.238332e-01 0.000000e+00 0.000000e+00
 0.000000e+00 0.000000e+00 6.720244e-01 3.279756e-01 0.000000e+00
 0.000000e+00 0.000000e+00 0.000000e+00 8.115677e-01 1.884323e-01
 0.000000e+00 0.000000e+00 0.000000e+00 0.000000e+00 0.000000e+00
<ENDHMM>
