~o
<STREAMINFO> 1 12
<VECSIZE> 12<NULLD><MFCC><DIAGC>
~h "iNN"
<BEGINHMM>
<NUMSTATES> 5
<STATE> 2
<MEAN> 12
 -4.318986e+00 -1.851182e+00 1.961850e+01 3.271164e-02 -1.414125e+01 -3.155552e+00 -4.021251e+00 -4.784562e+00 -8.492233e+00 -3.394494e+00 1.889238e+00 -5.938064e+00
<VARIANCE> 12
 2.459510e+01 4.608541e+01 5.749017e+01 6.934191e+01 5.189735e+01 9.273839e+01 6.060044e+01 6.706898e+01 4.488248e+01 5.235452e+01 3.084046e+01 5.712973e+01
<GCONST> 6.940354e+01
<STATE> 3
<MEAN> 12
 5.347518e-01 -1.039373e+00 1.441704e+01 -2.761941e+00 -6.910604e+00 -5.068536e-02 -3.809509e+00 -6.555352e+00 -1.133885e+01 1.263661e+00 -2.868332e+00 -9.947975e+00
<VARIANCE> 12
 8.718998e+00 4.292682e+01 6.996308e+01 5.038255e+01 3.913660e+01 1.109795e+02 1.037506e+02 7.954868e+01 7.380815e+01 1.060578e+02 6.509989e+01 6.955378e+01
<GCONST> 7.092538e+01
<STATE> 4
<MEAN> 12
 -7.668791e+00 1.923692e+00 7.891405e+00 5.623392e-01 -1.692564e+00 -3.304587e+00 -8.111816e-03 -3.615454e+00 -2.882220e+00 -7.000816e-01 -1.824398e+00 -4.305603e+00
<VARIANCE> 12
 7.074398e+01 5.539971e+01 6.188668e+01 5.493847e+01 3.830670e+01 3.198106e+01 3.173916e+01 3.779995e+01 3.767947e+01 3.035552e+01 2.965527e+01 2.804974e+01
<GCONST> 6.642603e+01
<TRANSP> 5
 0.000000e+00 1.000000e+00 0.000000e+00 0.000000e+00 0.000000e+00
 0.000000e+00 7.919791e-01 2.080209e-01 0.000000e+00 0.000000e+00
 0.000000e+00 0.000000e+00 7.874251e-01 2.125749e-01 0.000000e+00
 0.000000e+00 0.000000e+00 0.000000e+00 7.133499e-01 2.866501e-01
 0.000000e+00 0.000000e+00 0.000000e+00 0.000000e+00 0.000000e+00
<ENDHMM>
