~o
<STREAMINFO> 1 12
<VECSIZE> 12<NULLD><MFCC><DIAGC>
~h "ioNN"
<BEGINHMM>
<NUMSTATES> 5
<STATE> 2
<MEAN> 12
 3.923021e-01 -5.321454e+00 3.612469e+00 -9.961427e+00 -7.207276e+00 -7.896492e+00 -1.360187e+01 -2.435571e+00 -3.489264e+00 2.102847e+00 -3.964472e+00 -2.881310e+00
<VARIANCE> 12
 8.291897e+00 2.519837e+01 7.346580e+01 2.578196e+01 5.519617e+01 7.049824e+01 1.673952e+01 4.728275e+01 6.526991e+01 2.649201e+01 1.979111e+01 3.284071e+01
<GCONST> 6.381575e+01
<STATE> 3
<MEAN> 12
 3.068406e+00 -9.685751e+00 1.298904e+01 -1.240462e+01 -1.816540e+00 7.238311e+00 -1.404721e+01 2.408452e+00 -1.276158e+01 -1.295816e+00 4.960386e+00 -1.711592e+01
<VARIANCE> 12
 7.891936e+00 9.915689e+01 1.529888e+02 5.417768e+01 4.635826e+01 1.006697e+02 2.536405e+01 7.197502e+01 7.535680e+01 4.193259e+01 3.056632e+01 8.698688e+01
<GCONST> 6.964156e+01
<STATE> 4
<MEAN> 12
 -4.407498e+00 -1.979761e+00 3.826263e+00 -4.732465e+00 -4.131797e+00 -1.685151e+00 -3.228452e+00 -2.030892e-01 -9.901628e+00 -8.104140e-01 -3.903475e+00 -1.979121e+00
<VARIANCE> 12
 5.253940e+01 4.376845e+01 1.816873e+02 2.184006e+02 2.089977e+01 1.370545e+01 2.829238e+01 7.001706e+01 4.884420e+01 5.563507e+01 3.706758e+01 7.793710e+01
<GCONST> 6.950858e+01
<TRANSP> 5
 0.000000e+00 1.000000e+00 0.000000e+00 0.000000e+00 0.000000e+00
 0.000000e+00 8.135901e-01 1.864099e-01 0.000000e+00 0.000000e+00
 0.000000e+00 0.000000e+00 7.471347e-01 2.528652e-01 0.000000e+00
 0.000000e+00 0.000000e+00 0.000000e+00 7.549496e-01 2.450504e-01
 0.000000e+00 0.000000e+00 0.000000e+00 0.000000e+00 0.000000e+00
<ENDHMM>
