~o
<STREAMINFO> 1 12
<VECSIZE> 12<NULLD><MFCC><DIAGC>
~h "iou"
<BEGINHMM>
<NUMSTATES> 5
<STATE> 2
<MEAN> 12
 -1.783602e+00 -4.017846e+00 1.861476e+01 -2.117581e+00 -5.928753e+00 -5.852171e+00 -8.621627e+00 6.393574e-01 -7.823431e+00 1.246444e+00 7.238618e-01 -3.650323e+00
<VARIANCE> 12
 2.960709e+01 7.234404e+01 9.377180e+01 4.673668e+01 4.147044e+01 5.080943e+01 4.874054e+01 6.361276e+01 7.112195e+01 6.049749e+01 3.266664e+01 4.276567e+01
<GCONST> 6.941084e+01
<STATE> 3
<MEAN> 12
 3.724793e+00 -1.382622e+00 6.082262e+00 -1.614274e+01 -8.051452e+00 4.959894e+00 -8.361732e+00 -6.423240e+00 -2.003356e+00 -3.104009e-01 1.329211e+00 -4.559351e+00
<VARIANCE> 12
 9.564996e+00 6.255820e+01 4.559217e+01 7.309922e+01 7.084094e+01 8.036013e+01 4.538843e+01 6.864730e+01 7.199828e+01 6.024350e+01 9.521148e+01 5.672885e+01
<GCONST> 7.022090e+01
<STATE> 4
<MEAN> 12
 -4.743737e+00 -2.973704e-01 2.842092e+00 -3.737608e+00 1.984743e+00 -3.531854e+00 -3.170604e+00 5.297146e-01 6.004340e-01 -5.207720e-01 -7.184891e-01 1.184360e+00
<VARIANCE> 12
 5.672481e+01 3.662272e+01 6.415749e+01 3.547802e+01 2.801796e+01 4.445367e+01 3.843976e+01 4.918076e+01 5.227810e+01 6.521734e+01 2.993570e+01 3.264978e+01
<GCONST> 6.711474e+01
<TRANSP> 5
 0.000000e+00 1.000000e+00 0.000000e+00 0.000000e+00 0.000000e+00
 0.000000e+00 8.176500e-01 1.823500e-01 0.000000e+00 0.000000e+00
 0.000000e+00 0.000000e+00 8.662477e-01 1.337523e-01 0.000000e+00
 0.000000e+00 0.000000e+00 0.000000e+00 8.412097e-01 1.587903e-01
 0.000000e+00 0.000000e+00 0.000000e+00 0.000000e+00 0.000000e+00
<ENDHMM>
