~o
<STREAMINFO> 1 12
<VECSIZE> 12<NULLD><MFCC><DIAGC>
~h "iu"
<BEGINHMM>
<NUMSTATES> 5
<STATE> 2
<MEAN> 12
 -1.223777e+00 -7.583702e+00 1.031650e+01 -5.719615e+00 -8.872354e+00 -1.100283e+01 -1.123409e+01 -4.477528e+00 -1.943929e+00 -3.287109e+00 -1.790559e+00 -3.479446e+00
<VARIANCE> 12
 2.542090e+01 3.183623e+01 6.805572e+01 6.455450e+01 6.030499e+01 6.176323e+01 6.801754e+01 8.556602e+01 5.235766e+01 5.454265e+01 6.189534e+01 5.498347e+01
<GCONST> 7.011987e+01
<STATE> 3
<MEAN> 12
 2.742302e+00 6.663994e-01 3.355605e+00 -1.662971e+01 -7.288560e+00 4.237756e+00 -6.532289e+00 -8.378780e+00 -9.002027e-01 -1.590790e+00 -1.883312e-01 -1.443571e+00
<VARIANCE> 12
 1.311468e+01 4.219418e+01 4.452073e+01 5.477422e+01 6.440981e+01 7.195351e+01 4.835432e+01 7.771552e+01 8.476967e+01 5.985303e+01 5.663241e+01 2.274351e+01
<GCONST> 6.853531e+01
<STATE> 4
<MEAN> 12
 -1.194319e+00 -3.893228e+00 8.075010e+00 -7.470874e+00 -1.717757e+00 1.416902e-01 -1.203881e+01 -5.780404e+00 5.767139e-01 7.078736e-01 2.697034e-02 -8.027301e+00
<VARIANCE> 12
 5.603821e+01 6.087323e+01 6.874812e+01 7.408128e+01 2.776619e+01 8.228763e+01 8.053858e+01 7.349878e+01 2.168600e+01 4.972128e+01 6.491054e+01 6.058010e+01
<GCONST> 7.040508e+01
<TRANSP> 5
 0.000000e+00 1.000000e+00 0.000000e+00 0.000000e+00 0.000000e+00
 0.000000e+00 7.185928e-01 2.814072e-01 0.000000e+00 0.000000e+00
 0.000000e+00 0.000000e+00 8.346915e-01 1.653085e-01 0.000000e+00
 0.000000e+00 0.000000e+00 0.000000e+00 5.115145e-01 4.884855e-01
 0.000000e+00 0.000000e+00 0.000000e+00 0.000000e+00 0.000000e+00
<ENDHMM>
