~o
<STREAMINFO> 1 12
<VECSIZE> 12<NULLD><MFCC><DIAGC>
~h "k"
<BEGINHMM>
<NUMSTATES> 5
<STATE> 2
<MEAN> 12
 -5.268587e+00 -5.053905e+00 -5.343150e+00 -6.046873e+00 3.796951e+00 -3.816082e+00 -1.879609e+00 -2.171116e-01 -1.939270e+00 2.311416e+00 -1.754499e+00 -1.348746e-01
<VARIANCE> 12
 1.363546e+01 4.245494e+01 2.833023e+01 3.956713e+01 4.611632e+01 6.954089e+01 5.388196e+01 3.589577e+01 5.208071e+01 3.386666e+01 3.419305e+01 3.286299e+01
<GCONST> 6.557766e+01
<STATE> 3
<MEAN> 12
 -1.039625e+01 -8.102215e+00 -5.477770e+00 -2.271921e+00 9.312866e+00 -5.338589e+00 -4.533403e+00 -2.770710e+00 3.775051e+00 5.662269e+00 -2.437741e+00 -5.474740e+00
<VARIANCE> 12
 1.601160e+01 1.925132e+01 3.048276e+01 2.673239e+01 3.172873e+01 4.314663e+01 5.558445e+01 3.177776e+01 5.825187e+01 5.122629e+01 2.477314e+01 2.775167e+01
<GCONST> 6.372104e+01
<STATE> 4
<MEAN> 12
 -4.962958e+00 -7.862064e+00 6.311081e-01 -9.018538e+00 3.233273e+00 -3.737641e+00 -2.574370e+00 -9.298432e+00 3.311101e+00 -3.397468e+00 -3.594885e+00 -6.296720e+00
<VARIANCE> 12
 4.025095e+01 7.988913e+01 3.956307e+01 7.179212e+01 7.110686e+01 7.579990e+01 6.977799e+01 5.427584e+01 8.080495e+01 7.824614e+01 4.925422e+01 3.207796e+01
<GCONST> 7.103071e+01
<TRANSP> 5
 0.000000e+00 1.000000e+00 0.000000e+00 0.000000e+00 0.000000e+00
 0.000000e+00 5.953791e-01 4.046209e-01 0.000000e+00 0.000000e+00
 0.000000e+00 0.000000e+00 7.377846e-01 2.622154e-01 0.000000e+00
 0.000000e+00 0.000000e+00 0.000000e+00 6.343029e-01 3.656971e-01
 0.000000e+00 0.000000e+00 0.000000e+00 0.000000e+00 0.000000e+00
<ENDHMM>
