~o
<STREAMINFO> 1 12
<VECSIZE> 12<NULLD><MFCC><DIAGC>
~h "l"
<BEGINHMM>
<NUMSTATES> 5
<STATE> 2
<MEAN> 12
 -7.505682e-01 -2.881924e+00 7.825348e+00 -1.993680e+00 -8.708690e-02 -1.141182e+00 -1.097080e+01 -9.530837e+00 4.003838e+00 -4.231675e+00 1.613965e+00 -8.150718e+00
<VARIANCE> 12
 2.323521e+01 3.733853e+01 6.719470e+01 1.023222e+02 5.605636e+01 8.001077e+01 6.704261e+01 1.385884e+02 7.449554e+01 4.659224e+01 5.148102e+01 5.969555e+01
<GCONST> 7.138394e+01
<STATE> 3
<MEAN> 12
 -8.043405e-01 -2.568844e+00 9.088285e+00 -2.985724e+00 -1.434738e+00 -5.739963e+00 -7.736287e+00 -5.782346e+00 -2.115840e+00 -2.965479e+00 -3.810685e-01 -3.487774e+00
<VARIANCE> 12
 2.290797e+01 4.520363e+01 7.561353e+01 8.292251e+01 8.801217e+01 5.918550e+01 7.615166e+01 6.052042e+01 4.688977e+01 5.710073e+01 4.986459e+01 5.058810e+01
<GCONST> 7.046023e+01
<STATE> 4
<MEAN> 12
 -1.951947e+00 -1.053123e+01 8.334511e+00 -1.074477e+01 -3.815479e+00 -3.800179e+00 -1.025406e+01 4.671489e-01 1.553334e+00 -2.708422e+00 -2.587069e+00 -7.352764e+00
<VARIANCE> 12
 1.669823e+01 5.788200e+01 1.222234e+02 8.413978e+01 7.446275e+01 7.947787e+01 9.955708e+01 9.694868e+01 6.788795e+01 4.255771e+01 6.062541e+01 6.821778e+01
<GCONST> 7.232339e+01
<TRANSP> 5
 0.000000e+00 1.000000e+00 0.000000e+00 0.000000e+00 0.000000e+00
 0.000000e+00 4.767267e-01 5.232733e-01 0.000000e+00 0.000000e+00
 0.000000e+00 0.000000e+00 5.029313e-01 4.970687e-01 0.000000e+00
 0.000000e+00 0.000000e+00 0.000000e+00 4.853348e-01 5.146652e-01
 0.000000e+00 0.000000e+00 0.000000e+00 0.000000e+00 0.000000e+00
<ENDHMM>
