~o
<STREAMINFO> 1 12
<VECSIZE> 12<NULLD><MFCC><DIAGC>
~h "m"
<BEGINHMM>
<NUMSTATES> 5
<STATE> 2
<MEAN> 12
 2.178121e+00 5.036824e-01 8.302309e+00 -5.245625e-01 -3.147104e+00 -1.282258e-01 -6.256909e+00 -1.009146e+01 -6.817564e+00 -2.179101e+00 -2.757332e+00 -9.344789e+00
<VARIANCE> 12
 8.592916e+00 2.820074e+01 5.837670e+01 8.998717e+01 6.771587e+01 4.639761e+01 5.624839e+01 3.277291e+01 3.688184e+01 4.241758e+01 4.604528e+01 4.412311e+01
<GCONST> 6.665524e+01
<STATE> 3
<MEAN> 12
 1.993590e+00 -2.541884e+00 1.309780e+01 -3.959642e+00 -8.251399e-01 -1.970759e+00 -4.440182e+00 -7.128150e+00 -1.138491e+01 2.938468e+00 -6.176405e+00 -1.215187e+01
<VARIANCE> 12
 1.042264e+01 2.393663e+01 7.394191e+01 5.114677e+01 4.260462e+01 7.899173e+01 8.761621e+01 6.937842e+01 9.280577e+01 8.766177e+01 9.223618e+01 6.143006e+01
<GCONST> 7.029198e+01
<STATE> 4
<MEAN> 12
 4.032521e-01 -6.090115e+00 5.776414e+00 -1.119764e+01 -2.000952e+00 -2.479076e+00 -5.815749e+00 -4.075128e+00 -1.264179e+00 -3.644092e+00 -1.080641e+00 -7.360054e+00
<VARIANCE> 12
 1.988769e+01 6.129287e+01 9.488512e+01 9.275644e+01 1.028169e+02 6.289561e+01 9.361060e+01 7.358284e+01 1.210517e+02 5.766959e+01 4.030685e+01 4.878821e+01
<GCONST> 7.228987e+01
<TRANSP> 5
 0.000000e+00 1.000000e+00 0.000000e+00 0.000000e+00 0.000000e+00
 0.000000e+00 6.279874e-01 3.720126e-01 0.000000e+00 0.000000e+00
 0.000000e+00 0.000000e+00 5.559639e-01 4.440360e-01 0.000000e+00
 0.000000e+00 0.000000e+00 0.000000e+00 4.736430e-01 5.263571e-01
 0.000000e+00 0.000000e+00 0.000000e+00 0.000000e+00 0.000000e+00
<ENDHMM>
