~o
<STREAMINFO> 1 12
<VECSIZE> 12<NULLD><MFCC><DIAGC>
~h "n"
<BEGINHMM>
<NUMSTATES> 5
<STATE> 2
<MEAN> 12
 2.129326e+00 2.737462e-01 9.393309e+00 -4.462614e+00 -5.140865e+00 -4.582174e+00 -6.785495e+00 -8.379487e+00 -4.063560e+00 -1.620273e+00 -4.754974e+00 -7.226283e+00
<VARIANCE> 12
 9.204965e+00 3.027891e+01 1.016106e+02 4.327128e+01 4.201967e+01 4.726680e+01 3.281093e+01 6.206532e+01 5.084381e+01 4.020127e+01 3.000658e+01 7.642216e+01
<GCONST> 6.664660e+01
<STATE> 3
<MEAN> 12
 -4.767849e-01 1.226018e+00 8.716311e+00 -2.253751e+00 -1.076496e+00 -5.637612e+00 -3.500617e+00 -5.140453e+00 -3.861319e+00 -1.509090e+00 -4.180607e+00 -4.482801e+00
<VARIANCE> 12
 1.306644e+01 3.444922e+01 7.730771e+01 5.068268e+01 5.406897e+01 4.582938e+01 5.554976e+01 6.076731e+01 5.123236e+01 6.236199e+01 2.374392e+01 6.487309e+01
<GCONST> 6.778604e+01
<STATE> 4
<MEAN> 12
 4.042125e-01 -6.421502e+00 1.362593e+01 -1.087822e+01 -3.401497e+00 -2.297138e+00 -1.005773e+01 4.955865e-01 -1.009754e+00 1.486125e-01 -8.090602e-01 -1.076938e+01
<VARIANCE> 12
 2.185261e+01 6.492110e+01 1.266234e+02 5.540406e+01 6.278062e+01 8.841460e+01 6.309360e+01 9.348071e+01 6.377252e+01 4.551087e+01 3.844159e+01 1.014738e+02
<GCONST> 7.171416e+01
<TRANSP> 5
 0.000000e+00 1.000000e+00 0.000000e+00 0.000000e+00 0.000000e+00
 0.000000e+00 5.398330e-01 4.601670e-01 0.000000e+00 0.000000e+00
 0.000000e+00 0.000000e+00 4.892010e-01 5.107989e-01 0.000000e+00
 0.000000e+00 0.000000e+00 0.000000e+00 4.893905e-01 5.106095e-01
 0.000000e+00 0.000000e+00 0.000000e+00 0.000000e+00 0.000000e+00
<ENDHMM>
