~o
<STREAMINFO> 1 12
<VECSIZE> 12<NULLD><MFCC><DIAGC>
~h "o"
<BEGINHMM>
<NUMSTATES> 5
<STATE> 2
<MEAN> 12
 1.699582e+00 5.726056e-01 9.213194e+00 -2.182934e+01 -1.586756e+01 1.573602e+01 -9.969266e+00 -2.991450e+00 6.110863e+00 -1.076951e+01 5.502294e+00 -8.200407e+00
<VARIANCE> 12
 1.091453e+01 6.388872e+01 4.631365e+01 2.153711e+01 1.018781e+02 5.316288e+01 1.256720e+02 9.147477e+01 9.526333e+01 3.529355e+01 2.453356e+01 6.644118e+01
<GCONST> 6.897056e+01
<STATE> 3
<MEAN> 12
 -9.841942e-01 -1.186037e+01 -4.324876e+00 -1.994161e+01 2.876523e+00 9.349443e+00 -1.118119e+01 -1.404311e+00 -2.521639e+00 -2.030959e+00 5.200216e-01 -8.182574e+00
<VARIANCE> 12
 3.155982e+00 2.361419e+01 2.861229e+01 3.846701e+01 8.623958e+01 2.266167e+01 7.489919e+01 9.997369e+01 6.786417e+01 1.815516e+01 2.974118e+01 7.215512e+00
<GCONST> 6.235339e+01
<STATE> 4
<MEAN> 12
 -2.607002e+00 -5.833916e+00 5.234888e+00 2.671530e+00 -2.804852e+00 -1.673736e+00 -1.098896e+01 -3.844662e+00 1.848814e+00 1.595917e+00 -2.462624e+00 -1.134970e+01
<VARIANCE> 12
 3.741284e+01 1.050832e+02 8.211595e+01 6.687133e+01 6.627357e+01 8.022269e+01 1.193010e+02 9.118024e+01 9.697316e+01 6.559723e+01 2.862668e+01 4.518039e+01
<GCONST> 7.273824e+01
<TRANSP> 5
 0.000000e+00 1.000000e+00 0.000000e+00 0.000000e+00 0.000000e+00
 0.000000e+00 8.213876e-01 1.786124e-01 0.000000e+00 0.000000e+00
 0.000000e+00 0.000000e+00 7.059743e-01 2.940257e-01 0.000000e+00
 0.000000e+00 0.000000e+00 0.000000e+00 7.059015e-01 2.940985e-01
 0.000000e+00 0.000000e+00 0.000000e+00 0.000000e+00 0.000000e+00
<ENDHMM>
