~o
<STREAMINFO> 1 12
<VECSIZE> 12<NULLD><MFCC><DIAGC>
~h "oNN"
<BEGINHMM>
<NUMSTATES> 5
<STATE> 2
<MEAN> 12
 2.373522e+00 -2.703510e+00 -2.182833e+00 -1.643087e+01 -3.098933e+00 -6.168507e-01 -4.418198e+00 -4.781350e+00 -3.904009e+00 -4.804451e+00 -2.445300e+00 -5.091920e+00
<VARIANCE> 12
 1.640100e+01 2.922300e+01 6.683981e+01 5.832089e+01 6.288366e+01 6.077868e+01 4.081218e+01 5.248122e+01 4.399130e+01 3.514438e+01 5.505072e+01 5.113594e+01
<GCONST> 6.769924e+01
<STATE> 3
<MEAN> 12
 3.191816e+00 -1.192900e+00 1.572754e+01 -1.173108e+01 -9.513378e+00 4.912468e+00 -6.521095e+00 -2.512690e+00 -7.527567e+00 -1.816463e+00 -1.916150e+00 -1.264845e+01
<VARIANCE> 12
 9.423248e+00 2.338881e+01 4.806810e+01 7.019224e+01 4.775585e+01 5.361978e+01 4.771858e+01 6.869411e+01 9.097543e+01 6.819183e+01 5.492095e+01 4.385423e+01
<GCONST> 6.803651e+01
<STATE> 4
<MEAN> 12
 -1.203725e+00 1.907557e+00 5.492489e+00 -2.513425e+00 1.129434e+00 6.357473e-02 -3.232211e-01 -3.935443e+00 -5.435551e+00 1.129601e+00 -4.006695e+00 -3.888568e+00
<VARIANCE> 12
 3.730084e+01 3.680032e+01 4.167936e+01 5.298263e+01 3.986636e+01 5.683660e+01 6.047779e+01 4.852654e+01 6.375285e+01 5.240577e+01 3.926945e+01 3.207223e+01
<GCONST> 6.794158e+01
<TRANSP> 5
 0.000000e+00 1.000000e+00 0.000000e+00 0.000000e+00 0.000000e+00
 0.000000e+00 8.242183e-01 1.757817e-01 0.000000e+00 0.000000e+00
 0.000000e+00 0.000000e+00 8.243958e-01 1.756042e-01 0.000000e+00
 0.000000e+00 0.000000e+00 0.000000e+00 7.399681e-01 2.600318e-01
 0.000000e+00 0.000000e+00 0.000000e+00 0.000000e+00 0.000000e+00
<ENDHMM>
