~o
<STREAMINFO> 1 12
<VECSIZE> 12<NULLD><MFCC><DIAGC>
~h "ou"
<BEGINHMM>
<NUMSTATES> 5
<STATE> 2
<MEAN> 12
 -4.449320e-01 -4.016378e+00 -6.380237e+00 -1.657299e+01 1.870034e+00 -4.020035e+00 -8.097709e+00 -4.250657e+00 -8.644030e-01 -6.521811e+00 -2.613004e+00 -6.896152e+00
<VARIANCE> 12
 1.968008e+01 4.165989e+01 4.985970e+01 8.791343e+01 3.591811e+01 6.066220e+01 5.100784e+01 6.106744e+01 3.977713e+01 7.926714e+01 6.416885e+01 5.282544e+01
<GCONST> 6.906438e+01
<STATE> 3
<MEAN> 12
 2.401907e+00 1.293719e+00 3.437515e+00 -1.652606e+01 -7.652232e+00 7.567676e+00 -8.825393e+00 -8.458970e+00 -2.359363e-01 -1.959159e+00 1.050433e+00 -1.195383e+00
<VARIANCE> 12
 1.040301e+01 3.492599e+01 3.855488e+01 9.592949e+01 9.912017e+01 7.602493e+01 5.821208e+01 6.731543e+01 5.414943e+01 7.279025e+01 7.357182e+01 4.034999e+01
<GCONST> 6.964161e+01
<STATE> 4
<MEAN> 12
 4.678733e-01 8.340050e-01 3.214401e-01 -5.664649e+00 1.413677e+00 1.004090e+00 1.341531e+00 3.297698e+00 3.629875e-01 -8.600093e-01 1.917658e+00 2.589954e+00
<VARIANCE> 12
 3.283404e+01 1.811954e+01 1.884284e+01 2.896085e+01 2.164201e+01 3.827665e+01 5.272278e+01 7.218193e+01 3.691582e+01 2.112328e+01 3.608200e+01 3.532036e+01
<GCONST> 6.351804e+01
<TRANSP> 5
 0.000000e+00 1.000000e+00 0.000000e+00 0.000000e+00 0.000000e+00
 0.000000e+00 7.412080e-01 2.587920e-01 0.000000e+00 0.000000e+00
 0.000000e+00 0.000000e+00 8.027506e-01 1.972494e-01 0.000000e+00
 0.000000e+00 0.000000e+00 0.000000e+00 8.214055e-01 1.785945e-01
 0.000000e+00 0.000000e+00 0.000000e+00 0.000000e+00 0.000000e+00
<ENDHMM>
