~o
<STREAMINFO> 1 12
<VECSIZE> 12<NULLD><MFCC><DIAGC>
~h "p"
<BEGINHMM>
<NUMSTATES> 5
<STATE> 2
<MEAN> 12
 -7.850412e+00 -3.259681e+00 2.349547e+00 -6.318568e+00 -2.263710e+00 -7.746086e-02 -1.305437e+00 -2.485244e+00 1.092483e+00 -3.438068e-03 -1.524034e+00 1.658318e-01
<VARIANCE> 12
 5.702967e+01 3.292142e+01 5.608160e+01 2.931438e+01 2.263068e+01 6.354058e+01 2.808673e+01 2.839472e+01 5.238071e+01 4.895719e+01 3.036174e+01 3.313808e+01
<GCONST> 6.571294e+01
<STATE> 3
<MEAN> 12
 -1.130657e+01 -8.408013e+00 -9.055901e-01 -1.092963e+01 9.140122e+00 2.626769e+00 3.335697e+00 -6.514725e+00 4.646076e+00 -8.041604e+00 -8.803973e-02 -5.193914e+00
<VARIANCE> 12
 2.847082e+01 4.166352e+01 3.098462e+01 1.627910e+02 3.069353e+01 5.191637e+01 1.877059e+01 1.774987e+01 6.742719e+01 4.572187e+01 3.298169e+01 1.776673e+01
<GCONST> 6.524825e+01
<STATE> 4
<MEAN> 12
 -3.388354e+00 -9.724555e+00 4.268549e+00 -1.247594e+01 6.146391e+00 4.771749e+00 -9.442192e-01 -8.143740e+00 3.856196e+00 -7.099994e+00 5.926695e-01 -2.636066e+00
<VARIANCE> 12
 8.237583e+01 1.770472e+01 9.044146e+01 8.053831e+01 7.189424e+01 1.378869e+02 1.392018e+02 5.228115e+01 4.890961e+01 2.184086e+01 2.167967e+01 1.624183e+01
<GCONST> 6.916499e+01
<TRANSP> 5
 0.000000e+00 1.000000e+00 0.000000e+00 0.000000e+00 0.000000e+00
 0.000000e+00 7.348319e-01 2.651681e-01 0.000000e+00 0.000000e+00
 0.000000e+00 0.000000e+00 6.809044e-01 3.190956e-01 0.000000e+00
 0.000000e+00 0.000000e+00 0.000000e+00 6.146358e-01 3.853642e-01
 0.000000e+00 0.000000e+00 0.000000e+00 0.000000e+00 0.000000e+00
<ENDHMM>
