~o
<STREAMINFO> 1 12
<VECSIZE> 12<NULLD><MFCC><DIAGC>
~h "r"
<BEGINHMM>
<NUMSTATES> 5
<STATE> 2
<MEAN> 12
 1.098218e+00 -6.147130e+00 7.553782e+00 -2.203447e+00 -7.918220e+00 -8.834258e+00 -3.744007e+00 -7.145491e+00 -1.155101e+00 -3.853767e+00 -2.570444e-01 -6.093568e+00
<VARIANCE> 12
 3.014626e+01 4.136269e+01 9.374733e+01 7.830412e+01 7.737544e+01 9.729922e+01 9.000504e+01 1.179153e+02 1.242231e+02 6.147796e+01 6.614199e+01 5.211578e+01
<GCONST> 7.336649e+01
<STATE> 3
<MEAN> 12
 -2.943698e+00 -3.838500e+00 9.151424e+00 1.262864e+00 -3.252178e+00 -1.026019e+01 -4.629414e+00 -1.181304e+00 -1.019315e+00 -3.423112e+00 -6.326584e-01 -1.579713e+00
<VARIANCE> 12
 3.629153e+01 2.931585e+01 3.966124e+01 8.753681e+01 6.615148e+01 6.237584e+01 5.718378e+01 4.322005e+01 3.919615e+01 4.937009e+01 2.246166e+01 3.626822e+01
<GCONST> 6.758505e+01
<STATE> 4
<MEAN> 12
 1.660921e+00 -1.124815e+01 9.762911e+00 -4.319082e+00 -8.241181e+00 -1.056086e+01 -5.987439e+00 -3.201059e-01 -5.684144e-01 -2.873431e+00 -6.498062e-01 -6.119305e+00
<VARIANCE> 12
 1.956176e+01 3.706998e+01 6.421063e+01 9.896661e+01 5.610020e+01 1.240609e+02 1.049695e+02 9.056108e+01 6.065258e+01 9.251025e+01 5.069947e+01 3.896230e+01
<GCONST> 7.162646e+01
<TRANSP> 5
 0.000000e+00 1.000000e+00 0.000000e+00 0.000000e+00 0.000000e+00
 0.000000e+00 4.210755e-01 5.789245e-01 0.000000e+00 0.000000e+00
 0.000000e+00 0.000000e+00 6.446006e-01 3.553995e-01 0.000000e+00
 0.000000e+00 0.000000e+00 0.000000e+00 5.364015e-01 4.635985e-01
 0.000000e+00 0.000000e+00 0.000000e+00 0.000000e+00 0.000000e+00
<ENDHMM>
