~o
<STREAMINFO> 1 12
<VECSIZE> 12<NULLD><MFCC><DIAGC>
~h "s"
<BEGINHMM>
<NUMSTATES> 5
<STATE> 2
<MEAN> 12
 -1.947825e+01 4.311800e+00 -2.462243e+00 4.769779e+00 2.048536e+00 -1.772149e+00 -3.042455e+00 -2.502995e+00 2.207268e+00 -4.140928e+00 2.385610e+00 -3.966329e+00
<VARIANCE> 12
 8.428635e+01 3.556456e+01 2.243649e+01 6.810680e+01 5.290620e+01 5.951168e+01 2.055160e+01 3.511116e+01 2.201768e+01 3.543107e+01 3.065496e+01 2.806171e+01
<GCONST> 6.544465e+01
<STATE> 3
<MEAN> 12
 -2.014644e+01 5.108419e+00 -7.414541e+00 8.693931e-01 3.051530e-01 -7.291001e+00 5.112540e-01 -4.247373e-01 1.302414e+00 -1.863561e+00 1.530543e+00 2.873382e+00
<VARIANCE> 12
 2.557432e+01 1.690920e+01 2.289920e+01 1.920807e+01 2.548098e+01 3.555763e+01 3.395992e+01 2.110325e+01 1.948436e+01 1.640026e+01 1.646182e+01 1.358918e+01
<GCONST> 5.877132e+01
<STATE> 4
<MEAN> 12
 -1.065788e+01 -5.274345e-01 1.054984e+00 -4.414243e+00 -1.115503e-01 -8.385363e+00 -3.124454e+00 -3.561393e+00 -4.760922e-01 -3.842536e+00 -4.311327e-01 -5.027706e+00
<VARIANCE> 12
 1.395669e+02 2.387288e+01 4.312609e+01 1.690078e+01 3.565374e+01 6.053629e+01 6.309668e+01 6.244897e+01 3.282042e+01 3.862138e+01 6.236150e+01 4.644100e+01
<GCONST> 6.782940e+01
<TRANSP> 5
 0.000000e+00 1.000000e+00 0.000000e+00 0.000000e+00 0.000000e+00
 0.000000e+00 6.298038e-01 3.701962e-01 0.000000e+00 0.000000e+00
 0.000000e+00 0.000000e+00 7.695457e-01 2.304543e-01 0.000000e+00
 0.000000e+00 0.000000e+00 0.000000e+00 6.621016e-01 3.378984e-01
 0.000000e+00 0.000000e+00 0.000000e+00 0.000000e+00 0.000000e+00
<ENDHMM>
