~o
<STREAMINFO> 1 12
<VECSIZE> 12<NULLD><MFCC><DIAGC>
~h "s#"
<BEGINHMM>
<NUMSTATES> 5
<STATE> 2
<MEAN> 12
 -1.850219e+01 5.021250e-01 4.700169e+00 -5.176086e+00 -7.445841e-02 -4.994083e+00 -1.644961e+00 1.556434e+00 1.285036e+00 -2.398715e+00 -4.181909e-01 -1.026738e-01
<VARIANCE> 12
 4.495995e+01 2.324853e+01 6.273494e+01 7.486243e+01 3.923523e+01 5.210537e+01 2.875621e+01 3.934957e+01 4.175996e+01 2.533537e+01 2.306815e+01 3.372499e+01
<GCONST> 6.573612e+01
<STATE> 3
<MEAN> 12
 -2.624205e+01 -7.940431e+00 9.424220e+00 1.927803e+00 -9.344432e-01 -8.062704e+00 1.090150e+00 -2.220298e+00 3.100838e+00 -3.692397e+00 5.943266e-01 -2.736755e+00
<VARIANCE> 12
 4.447591e+01 3.637621e+01 2.498072e+01 4.570575e+01 3.438604e+01 3.113145e+01 3.468557e+01 3.388251e+01 3.800535e+01 2.818158e+01 2.482959e+01 2.544099e+01
<GCONST> 6.395360e+01
<STATE> 4
<MEAN> 12
 -6.436791e+00 -4.614204e+00 6.622580e+00 -1.742562e+00 -2.870026e+00 -1.049216e+01 -5.767579e+00 -5.745040e+00 1.233234e+00 -4.010838e+00 -1.124322e+00 -3.222147e+00
<VARIANCE> 12
 6.208776e+01 4.177254e+01 5.370362e+01 6.043040e+01 6.075488e+01 8.395448e+01 3.678542e+01 6.031006e+01 5.791622e+01 5.180640e+01 4.417225e+01 4.421133e+01
<GCONST> 6.982560e+01
<TRANSP> 5
 0.000000e+00 1.000000e+00 0.000000e+00 0.000000e+00 0.000000e+00
 0.000000e+00 6.943125e-01 3.056875e-01 0.000000e+00 0.000000e+00
 0.000000e+00 0.000000e+00 7.942831e-01 2.057169e-01 0.000000e+00
 0.000000e+00 0.000000e+00 0.000000e+00 5.564277e-01 4.435723e-01
 0.000000e+00 0.000000e+00 0.000000e+00 0.000000e+00 0.000000e+00
<ENDHMM>
