~o
<STREAMINFO> 1 12
<VECSIZE> 12<NULLD><MFCC><DIAGC>
~h "silence"
<BEGINHMM>
<NUMSTATES> 5
<STATE> 2
<MEAN> 12
 -7.570032e+00 7.050888e-01 3.627400e+00 -1.350784e+00 -6.622223e-01 -2.658089e+00 -4.192225e+00 -5.199656e+00 -1.913951e+00 -3.930940e+00 4.642615e-01 -5.561089e-01
<VARIANCE> 12
 3.490850e+01 4.137382e+01 4.697806e+01 4.322686e+01 4.148936e+01 5.151361e+01 4.023797e+01 5.095337e+01 3.752266e+01 4.244677e+01 3.520170e+01 2.965916e+01
<GCONST> 6.656311e+01
<STATE> 3
<MEAN> 12
 -4.964993e+00 -5.478934e+00 -3.491805e+00 -2.927773e+00 9.210428e-01 -4.100908e+00 -7.680804e-01 5.931652e-01 1.371594e+00 -2.022233e+00 4.656703e-01 2.012450e-01
<VARIANCE> 12
 1.581083e+01 1.457730e+01 1.657878e+01 1.596773e+01 2.205905e+01 2.458069e+01 2.672753e+01 2.746301e+01 2.631564e+01 2.964358e+01 2.177102e+01 2.094968e+01
<GCONST> 5.874971e+01
<STATE> 4
<MEAN> 12
 -1.285312e+01 -7.462830e+00 1.879894e+00 -9.630793e-01 1.403770e+00 -6.521921e+00 -1.659009e+00 -2.062185e+00 1.623194e+00 -2.222545e+00 -5.751218e-01 -1.030520e+00
<VARIANCE> 12
 2.710508e+01 4.307603e+01 3.616391e+01 3.015929e+01 3.037704e+01 4.519091e+01 3.843781e+01 3.350212e+01 4.405349e+01 3.255130e+01 2.718920e+01 2.641717e+01
<GCONST> 6.434206e+01
<TRANSP> 5
 0.000000e+00 1.000000e+00 0.000000e+00 0.000000e+00 0.000000e+00
 0.000000e+00 8.006225e-01 1.993774e-01 0.000000e+00 0.000000e+00
 0.000000e+00 0.000000e+00 8.728872e-01 1.271128e-01 0.000000e+00
 0.000000e+00 0.000000e+00 0.000000e+00 8.970835e-01 1.029164e-01
 0.000000e+00 0.000000e+00 0.000000e+00 0.000000e+00 0.000000e+00
<ENDHMM>
