~o
<STREAMINFO> 1 12
<VECSIZE> 12<NULLD><MFCC><DIAGC>
~h "t"
<BEGINHMM>
<NUMSTATES> 5
<STATE> 2
<MEAN> 12
 -1.557350e+01 -6.040573e-01 4.502896e+00 -4.083329e+00 -6.367621e-01 -2.072576e+00 1.973803e-01 -2.523296e+00 2.405928e+00 -2.005688e+00 2.772372e-01 -5.100242e-01
<VARIANCE> 12
 7.424805e+01 1.407524e+01 4.991015e+01 2.954339e+01 3.405597e+01 3.634782e+01 3.368274e+01 3.799746e+01 3.442741e+01 4.014571e+01 3.574838e+01 2.686044e+01
<GCONST> 6.467661e+01
<STATE> 3
<MEAN> 12
 -1.173091e+01 -7.066863e+00 -1.336655e-01 -3.938671e+00 6.842964e+00 2.128254e-01 -1.513668e+00 2.460173e-01 4.559720e+00 -1.690820e+00 -6.329764e-01 -7.727097e-01
<VARIANCE> 12
 2.475218e+01 6.633202e+01 3.803201e+01 3.676841e+01 4.642218e+01 6.563993e+01 5.213337e+01 5.060683e+01 2.832537e+01 5.186865e+01 3.660801e+01 3.597857e+01
<GCONST> 6.707669e+01
<STATE> 4
<MEAN> 12
 -3.687008e+00 -3.486524e+00 8.988089e+00 -7.658041e+00 -2.335838e+00 -2.412605e+00 -5.088441e+00 -4.117021e+00 -1.852189e-01 -5.782470e+00 -2.845521e+00 -5.305063e+00
<VARIANCE> 12
 3.790626e+01 8.485685e+01 1.087512e+02 7.603830e+01 7.742574e+01 8.363412e+01 9.168238e+01 6.483868e+01 4.396472e+01 4.551616e+01 5.062119e+01 6.137099e+01
<GCONST> 7.225967e+01
<TRANSP> 5
 0.000000e+00 1.000000e+00 0.000000e+00 0.000000e+00 0.000000e+00
 0.000000e+00 7.060556e-01 2.939444e-01 0.000000e+00 0.000000e+00
 0.000000e+00 0.000000e+00 7.744609e-01 2.255392e-01 0.000000e+00
 0.000000e+00 0.000000e+00 0.000000e+00 4.331656e-01 5.668344e-01
 0.000000e+00 0.000000e+00 0.000000e+00 0.000000e+00 0.000000e+00
<ENDHMM>
