~o
<STREAMINFO> 1 12
<VECSIZE> 12<NULLD><MFCC><DIAGC>
~h "ts"
<BEGINHMM>
<NUMSTATES> 5
<STATE> 2
<MEAN> 12
 -2.065641e+01 6.087515e+00 -4.121624e+00 2.315513e+00 -1.059241e+00 -5.906066e+00 -3.506136e+00 -3.481360e+00 6.326960e-01 -7.568063e-01 -1.129224e+00 -2.448440e+00
<VARIANCE> 12
 3.584121e+01 2.736774e+01 3.279441e+01 2.308142e+01 4.324875e+01 4.339900e+01 3.624131e+01 3.737140e+01 4.095234e+01 3.446767e+01 2.212136e+01 1.400995e+01
<GCONST> 6.330952e+01
<STATE> 3
<MEAN> 12
 -1.574524e+01 -2.901231e+00 -3.482566e+00 -6.406507e+00 6.313381e+00 -3.857422e+00 -2.471258e+00 -1.507413e+00 2.652400e+00 2.519688e-02 4.325770e-01 -1.246083e+00
<VARIANCE> 12
 3.103634e+01 1.089185e+01 1.277408e+01 5.508131e+01 2.583506e+01 4.287919e+01 2.549354e+01 3.568047e+01 4.201099e+01 3.055963e+01 2.603366e+01 2.298363e+01
<GCONST> 6.180886e+01
<STATE> 4
<MEAN> 12
 -3.652789e+00 -5.245467e+00 1.879705e+00 -9.909196e+00 5.138574e+00 2.839583e+00 -6.285692e+00 -5.933254e+00 -1.992858e+00 -3.491591e+00 -2.567333e+00 -4.933004e+00
<VARIANCE> 12
 3.602733e+01 6.242956e+01 7.391175e+01 7.891772e+01 1.082590e+02 1.476005e+02 1.740050e+02 1.239142e+02 1.393537e+02 3.871524e+01 7.450779e+01 2.986866e+01
<GCONST> 7.440279e+01
<TRANSP> 5
 0.000000e+00 1.000000e+00 0.000000e+00 0.000000e+00 0.000000e+00
 0.000000e+00 7.880210e-01 2.119790e-01 0.000000e+00 0.000000e+00
 0.000000e+00 0.000000e+00 7.959948e-01 2.040052e-01 0.000000e+00
 0.000000e+00 0.000000e+00 0.000000e+00 6.089401e-01 3.910598e-01
 0.000000e+00 0.000000e+00 0.000000e+00 0.000000e+00 0.000000e+00
<ENDHMM>
