~o
<STREAMINFO> 1 12
<VECSIZE> 12<NULLD><MFCC><DIAGC>
~h "ts#"
<BEGINHMM>
<NUMSTATES> 5
<STATE> 2
<MEAN> 12
 -1.200592e+01 -2.983202e+00 3.832504e+00 2.522523e+00 -1.762292e+00 -4.519149e+00 -3.755136e+00 -8.063835e-01 1.313140e+00 -4.051434e+00 -8.406644e-01 -2.291750e+00
<VARIANCE> 12
 5.628209e+01 2.686497e+01 6.981944e+01 2.202040e+01 3.324466e+01 3.053800e+01 2.249080e+01 4.479657e+01 4.004108e+01 3.102653e+01 2.583256e+01 1.999716e+01
<GCONST> 6.392368e+01
<STATE> 3
<MEAN> 12
 -2.033690e+01 -5.960399e+00 1.233762e+00 -4.206344e-01 2.775748e-01 -5.852339e+00 -1.135664e+00 -1.022252e+00 4.079775e+00 4.840309e-01 1.487699e+00 -1.102940e+00
<VARIANCE> 12
 2.672479e+01 2.427327e+01 2.518251e+01 2.016987e+01 3.265895e+01 3.669423e+01 3.427283e+01 2.997808e+01 3.544098e+01 2.150329e+01 2.366643e+01 2.645160e+01
<GCONST> 6.185884e+01
<STATE> 4
<MEAN> 12
 -5.679950e+00 -6.149014e+00 -1.860724e+00 -6.101195e+00 4.811156e+00 -5.393783e-01 -3.176130e+00 -6.484441e+00 1.480456e+00 -3.666926e+00 -2.233934e+00 -3.072550e+00
<VARIANCE> 12
 4.502626e+01 3.994283e+01 4.346178e+01 5.192281e+01 8.015491e+01 6.374604e+01 5.840169e+01 4.793449e+01 5.186888e+01 4.619471e+01 4.513871e+01 3.640191e+01
<GCONST> 6.893285e+01
<TRANSP> 5
 0.000000e+00 1.000000e+00 0.000000e+00 0.000000e+00 0.000000e+00
 0.000000e+00 5.299842e-01 4.700158e-01 0.000000e+00 0.000000e+00
 0.000000e+00 0.000000e+00 7.849576e-01 2.150424e-01 0.000000e+00
 0.000000e+00 0.000000e+00 0.000000e+00 6.309066e-01 3.690934e-01
 0.000000e+00 0.000000e+00 0.000000e+00 0.000000e+00 0.000000e+00
<ENDHMM>
