~o
<STREAMINFO> 1 12
<VECSIZE> 12<NULLD><MFCC><DIAGC>
~h "u"
<BEGINHMM>
<NUMSTATES> 5
<STATE> 2
<MEAN> 12
 2.045356e+00 3.330306e+00 3.474856e+00 -1.408149e+01 -1.251314e+01 4.278955e+00 -7.752409e+00 -1.085597e+01 -3.552094e+00 -9.256391e+00 -7.080355e-01 -5.838752e+00
<VARIANCE> 12
 1.451135e+01 2.814389e+01 4.217262e+01 4.498485e+01 5.020981e+01 1.051949e+02 3.865641e+01 5.157715e+01 4.713785e+01 5.056351e+01 3.943196e+01 3.911150e+01
<GCONST> 6.690200e+01
<STATE> 3
<MEAN> 12
 1.909059e+00 2.266236e+00 8.045326e+00 -1.064106e+01 -1.176299e+01 8.927632e+00 -1.660717e+01 -4.962304e+00 -5.682541e+00 -7.664321e+00 3.559481e+00 -1.003343e+01
<VARIANCE> 12
 1.811032e+01 6.486275e+01 6.005598e+01 1.021692e+02 1.037088e+02 1.424381e+02 9.315194e+01 1.135837e+02 5.085743e+01 1.001300e+02 6.956092e+01 6.365425e+01
<GCONST> 7.364362e+01
<STATE> 4
<MEAN> 12
 -1.693987e+00 1.037352e+00 2.048949e+00 -5.137505e+00 -1.490179e+00 -4.563163e+00 -4.682963e+00 -4.007391e+00 -6.308963e-01 -1.838460e+00 -1.140736e+00 -1.408990e+00
<VARIANCE> 12
 5.956635e+01 3.555995e+01 5.222759e+01 5.785606e+01 3.727536e+01 6.330972e+01 5.462885e+01 4.063335e+01 3.334367e+01 4.430462e+01 3.156107e+01 3.017546e+01
<GCONST> 6.735484e+01
<TRANSP> 5
 0.000000e+00 1.000000e+00 0.000000e+00 0.000000e+00 0.000000e+00
 0.000000e+00 7.749452e-01 2.250549e-01 0.000000e+00 0.000000e+00
 0.000000e+00 0.000000e+00 6.525100e-01 3.474899e-01 0.000000e+00
 0.000000e+00 0.000000e+00 0.000000e+00 7.742085e-01 2.257915e-01
 0.000000e+00 0.000000e+00 0.000000e+00 0.000000e+00 0.000000e+00
<ENDHMM>
