~o
<STREAMINFO> 1 12
<VECSIZE> 12<NULLD><MFCC><DIAGC>
~h "ua"
<BEGINHMM>
<NUMSTATES> 5
<STATE> 2
<MEAN> 12
 1.518686e+00 -1.180357e+01 -1.760250e+00 -1.940100e+01 8.418164e+00 1.014013e+01 1.588947e+00 -9.216838e+00 -8.158290e-01 -4.371162e+00 -2.972491e+00 -6.015443e+00
<VARIANCE> 12
 1.133401e+01 4.484448e+01 3.251832e+01 6.372934e+01 6.022896e+01 5.606949e+01 3.318751e+01 3.378555e+01 5.760643e+01 3.970156e+01 2.309098e+01 3.903529e+01
<GCONST> 6.560786e+01
<STATE> 3
<MEAN> 12
 -1.333380e+00 -1.925042e+01 4.684555e+00 -1.277465e+01 4.485577e+00 8.238373e+00 -8.187452e+00 3.314117e-01 7.715549e-01 -2.200226e+00 -7.602827e+00 -1.310839e+01
<VARIANCE> 12
 2.717105e+01 7.577730e+01 6.504753e+01 3.003180e+01 5.716650e+01 6.509348e+01 5.405987e+01 5.960570e+01 3.468724e+01 2.260337e+01 2.822689e+01 4.589338e+01
<GCONST> 6.739256e+01
<STATE> 4
<MEAN> 12
 -2.433394e+00 -3.585166e+00 3.457644e+00 -2.827377e+00 3.424582e+00 -7.926748e-01 1.969818e+00 -7.405940e-02 1.192932e+00 1.405792e+00 -3.478768e+00 -3.117643e+00
<VARIANCE> 12
 4.396932e+01 2.890905e+01 4.863551e+01 3.685765e+01 6.916369e+01 7.312214e+01 5.002803e+01 4.241886e+01 3.415052e+01 3.723383e+01 2.650816e+01 3.695528e+01
<GCONST> 6.691753e+01
<TRANSP> 5
 0.000000e+00 1.000000e+00 0.000000e+00 0.000000e+00 0.000000e+00
 0.000000e+00 8.653979e-01 1.346021e-01 0.000000e+00 0.000000e+00
 0.000000e+00 0.000000e+00 7.808049e-01 2.191951e-01 0.000000e+00
 0.000000e+00 0.000000e+00 0.000000e+00 7.080483e-01 2.919517e-01
 0.000000e+00 0.000000e+00 0.000000e+00 0.000000e+00 0.000000e+00
<ENDHMM>
