~o
<STREAMINFO> 1 12
<VECSIZE> 12<NULLD><MFCC><DIAGC>
~h "uai"
<BEGINHMM>
<NUMSTATES> 5
<STATE> 2
<MEAN> 12
 2.662306e+00 -7.616927e+00 -1.764944e+00 -1.495571e+01 -5.905433e-01 1.236473e+00 -6.559043e+00 -2.928055e+00 -7.014488e+00 -4.959676e+00 -7.399381e+00 -5.927814e+00
<VARIANCE> 12
 1.804522e+01 5.198741e+01 7.181921e+01 6.301774e+01 5.544509e+01 7.999223e+01 3.095406e+01 7.784194e+01 1.098746e+02 9.924782e+01 5.029461e+01 9.180317e+01
<GCONST> 7.123499e+01
<STATE> 3
<MEAN> 12
 -1.557344e-01 -1.489824e+01 5.641451e+00 -1.107155e+01 -7.334261e+00 -7.516474e+00 -4.818256e+00 7.943133e+00 -7.841359e+00 -1.636611e+00 -9.778008e+00 -6.803646e+00
<VARIANCE> 12
 9.161640e+00 4.298593e+01 5.539841e+01 4.233500e+01 2.990435e+01 6.218743e+01 1.004591e+02 9.319640e+01 9.894038e+01 1.592020e+02 4.525433e+01 2.767527e+01
<GCONST> 6.926073e+01
<STATE> 4
<MEAN> 12
 -2.864336e+00 -7.984111e-01 5.980479e+00 -1.111207e+00 -2.386835e-01 -6.769088e+00 2.346627e+00 1.089335e+00 -1.710705e+00 -1.913773e+00 -3.408242e+00 -3.818772e+00
<VARIANCE> 12
 5.067378e+01 3.890619e+01 7.812193e+01 2.836493e+01 3.405324e+01 2.626779e+01 6.534247e+01 2.757865e+01 3.421185e+01 5.097681e+01 3.911327e+01 2.121429e+01
<GCONST> 6.582255e+01
<TRANSP> 5
 0.000000e+00 1.000000e+00 0.000000e+00 0.000000e+00 0.000000e+00
 0.000000e+00 8.533896e-01 1.466104e-01 0.000000e+00 0.000000e+00
 0.000000e+00 0.000000e+00 8.018604e-01 1.981396e-01 0.000000e+00
 0.000000e+00 0.000000e+00 0.000000e+00 8.369286e-01 1.630714e-01
 0.000000e+00 0.000000e+00 0.000000e+00 0.000000e+00 0.000000e+00
<ENDHMM>
