~o
<STREAMINFO> 1 12
<VECSIZE> 12<NULLD><MFCC><DIAGC>
~h "uaN"
<BEGINHMM>
<NUMSTATES> 5
<STATE> 2
<MEAN> 12
 8.670347e-01 -1.275945e+01 6.938868e+00 -1.119613e+01 -2.351845e+00 -5.995164e-01 -5.966094e+00 3.651101e-03 2.185879e+00 1.946970e+00 -5.015883e+00 -8.529267e+00
<VARIANCE> 12
 1.471244e+01 7.447938e+01 1.083058e+02 7.269489e+01 3.648053e+01 6.824951e+01 4.833202e+01 1.221462e+02 3.594829e+01 3.082768e+01 4.017844e+01 5.049645e+01
<GCONST> 6.915396e+01
<STATE> 3
<MEAN> 12
 4.491734e-01 -1.277851e+01 3.457319e+00 -6.011655e+00 -2.598861e+00 -4.157277e+00 -4.542173e+00 -3.575829e+00 3.504876e+00 -7.785812e+00 -4.679143e+00 -6.946505e+00
<VARIANCE> 12
 1.589511e+01 3.983227e+01 1.124229e+02 7.700019e+01 7.617960e+01 8.437686e+01 6.427925e+01 7.957253e+01 6.588971e+01 4.104601e+01 2.990088e+01 4.700196e+01
<GCONST> 7.003033e+01
<STATE> 4
<MEAN> 12
 -1.056691e+00 1.191160e+00 9.996523e+00 1.316744e+00 -1.175171e+00 -3.647682e+00 -3.811455e+00 -5.541069e+00 -6.288651e+00 -4.634558e+00 -4.620197e+00 -6.376031e+00
<VARIANCE> 12
 3.102770e+01 8.109090e+01 5.964975e+01 6.437592e+01 4.024306e+01 7.025841e+01 5.454784e+01 6.281248e+01 4.011185e+01 2.597136e+01 3.346461e+01 5.205743e+01
<GCONST> 6.863606e+01
<TRANSP> 5
 0.000000e+00 1.000000e+00 0.000000e+00 0.000000e+00 0.000000e+00
 0.000000e+00 8.039617e-01 1.960383e-01 0.000000e+00 0.000000e+00
 0.000000e+00 0.000000e+00 7.980951e-01 2.019049e-01 0.000000e+00
 0.000000e+00 0.000000e+00 0.000000e+00 7.568569e-01 2.431431e-01
 0.000000e+00 0.000000e+00 0.000000e+00 0.000000e+00 0.000000e+00
<ENDHMM>
