~o
<STREAMINFO> 1 12
<VECSIZE> 12<NULLD><MFCC><DIAGC>
~h "uaNN"
<BEGINHMM>
<NUMSTATES> 5
<STATE> 2
<MEAN> 12
 3.492163e+00 -8.591853e+00 5.020510e+00 -1.751346e+01 -6.930129e+00 9.497936e+00 -8.186453e+00 1.984773e+00 -9.741795e-01 -1.388734e+00 -2.068148e+00 -9.336304e+00
<VARIANCE> 12
 4.930250e+00 6.033578e+01 6.597739e+01 9.408552e+01 2.883951e+01 1.041992e+02 1.238068e+02 4.996288e+01 6.006677e+01 4.115096e+01 7.410696e+01 1.468199e+02
<GCONST> 7.032883e+01
<STATE> 3
<MEAN> 12
 1.723398e+00 -2.765399e+00 5.526757e+00 -7.763755e+00 -1.611164e-01 8.087036e+00 6.015215e+00 -6.184094e+00 -4.671764e+00 3.976154e+00 -7.619947e+00 6.696835e-01
<VARIANCE> 12
 5.785470e-01 1.155196e+01 5.699556e+01 3.013940e+01 6.855799e+01 5.044716e+01 6.134280e+01 3.270337e+01 1.985379e+01 3.088238e+01 4.585056e+01 9.573758e+01
<GCONST> 6.196109e+01
<STATE> 4
<MEAN> 12
 -1.533127e+00 3.953470e+00 1.084526e+00 -4.511268e+00 5.439380e-01 2.869069e+00 -5.674420e+00 -7.900629e+00 -5.946625e+00 -3.156054e+00 -3.032314e+00 -1.763290e+00
<VARIANCE> 12
 9.065135e+00 2.891723e+01 1.143039e+02 7.070167e+01 2.560027e+01 5.070634e+01 1.289306e+01 9.206432e+01 5.735510e+01 8.546001e+01 2.817395e+01 4.151247e+01
<GCONST> 6.643026e+01
<TRANSP> 5
 0.000000e+00 1.000000e+00 0.000000e+00 0.000000e+00 0.000000e+00
 0.000000e+00 8.547803e-01 1.452197e-01 0.000000e+00 0.000000e+00
 0.000000e+00 0.000000e+00 7.644713e-01 2.355287e-01 0.000000e+00
 0.000000e+00 0.000000e+00 0.000000e+00 8.013816e-01 1.986184e-01
 0.000000e+00 0.000000e+00 0.000000e+00 0.000000e+00 0.000000e+00
<ENDHMM>
