~o
<STREAMINFO> 1 12
<VECSIZE> 12<NULLD><MFCC><DIAGC>
~h "uei"
<BEGINHMM>
<NUMSTATES> 5
<STATE> 2
<MEAN> 12
 1.326799e+00 -2.631958e+00 3.465057e+00 -8.013292e+00 -4.215240e+00 -2.059222e+00 -1.009089e+01 -8.619032e+00 -4.986125e+00 -1.002632e+00 -1.944569e+00 -4.315322e+00
<VARIANCE> 12
 1.378925e+01 2.952985e+01 5.767517e+01 5.400048e+01 2.945300e+01 1.253686e+02 6.795217e+01 9.869423e+01 6.266171e+01 5.827785e+01 4.126438e+01 5.194368e+01
<GCONST> 6.900565e+01
<STATE> 3
<MEAN> 12
 -3.069836e+00 -1.225711e+01 1.876402e+01 -8.506418e+00 -1.648008e+01 -9.875113e+00 -1.403054e+01 2.029804e+00 -6.311106e+00 -3.571548e+00 4.593771e+00 -1.156556e+01
<VARIANCE> 12
 1.101524e+01 2.959207e+01 6.193213e+01 3.336431e+01 5.137539e+01 2.840820e+01 4.193292e+01 6.542194e+01 3.284683e+01 3.273954e+01 3.973920e+01 5.112337e+01
<GCONST> 6.527462e+01
<STATE> 4
<MEAN> 12
 -3.337292e+00 -2.771493e+00 1.717232e+01 2.186834e+00 -9.853474e+00 -1.041062e+01 -5.802753e+00 -4.993354e+00 -3.177552e+00 -7.079047e+00 3.847073e+00 -1.393477e+00
<VARIANCE> 12
 2.866765e+01 5.280519e+01 4.807191e+01 4.628173e+01 3.960270e+01 6.479004e+01 5.551679e+01 5.214246e+01 4.732085e+01 4.015109e+01 3.589682e+01 2.750152e+01
<GCONST> 6.734956e+01
<TRANSP> 5
 0.000000e+00 1.000000e+00 0.000000e+00 0.000000e+00 0.000000e+00
 0.000000e+00 7.503009e-01 2.496991e-01 0.000000e+00 0.000000e+00
 0.000000e+00 0.000000e+00 7.773054e-01 2.226947e-01 0.000000e+00
 0.000000e+00 0.000000e+00 0.000000e+00 8.165843e-01 1.834157e-01
 0.000000e+00 0.000000e+00 0.000000e+00 0.000000e+00 0.000000e+00
<ENDHMM>
