~o
<STREAMINFO> 1 12
<VECSIZE> 12<NULLD><MFCC><DIAGC>
~h "ueN"
<BEGINHMM>
<NUMSTATES> 5
<STATE> 2
<MEAN> 12
 -4.251643e-01 5.098164e+00 4.599036e+00 1.026282e+00 5.389915e+00 9.168176e-01 -3.832709e+00 -4.668041e+00 -3.663288e+00 1.660297e+00 8.162228e-01 2.722261e+00
<VARIANCE> 12
 2.284761e+01 7.238757e+00 2.161434e+01 5.273959e+01 2.969500e+01 6.972404e+01 3.704326e+01 4.860209e+01 4.059511e+01 3.575866e+01 1.918223e+01 2.898002e+01
<GCONST> 6.293386e+01
<STATE> 3
<MEAN> 12
 9.174988e-01 -2.100930e+00 5.722323e+00 -3.793816e+00 3.658099e+00 -4.963707e+00 -3.441533e+00 -2.504248e+00 6.610297e+00 8.752861e+00 -6.188312e+00 -1.937419e+00
<VARIANCE> 12
 4.424978e+00 3.900430e+01 1.379690e+01 3.331619e+01 2.229667e+01 3.338396e+01 7.203196e+01 4.979803e+01 4.273587e+01 4.146255e+01 2.734101e+01 3.922668e+01
<GCONST> 6.259113e+01
<STATE> 4
<MEAN> 12
 -1.823911e-02 4.634671e+00 1.087795e+01 3.413625e+00 -1.259879e+00 5.964031e-01 -3.987391e+00 -4.236269e+00 -5.769381e+00 1.762311e+00 -6.549198e+00 -2.126122e-02
<VARIANCE> 12
 3.157455e+01 3.146932e+01 4.335689e+01 3.517047e+01 2.256541e+01 2.006335e+01 6.964845e+01 5.612247e+01 7.954134e+01 3.065874e+01 4.460662e+01 5.153851e+01
<GCONST> 6.621127e+01
<TRANSP> 5
 0.000000e+00 1.000000e+00 0.000000e+00 0.000000e+00 0.000000e+00
 0.000000e+00 8.424571e-01 1.575429e-01 0.000000e+00 0.000000e+00
 0.000000e+00 0.000000e+00 8.697786e-01 1.302214e-01 0.000000e+00
 0.000000e+00 0.000000e+00 0.000000e+00 8.745812e-01 1.254189e-01
 0.000000e+00 0.000000e+00 0.000000e+00 0.000000e+00 0.000000e+00
<ENDHMM>
