~o
<STREAMINFO> 1 12
<VECSIZE> 12<NULLD><MFCC><DIAGC>
~h "ui"
<BEGINHMM>
<NUMSTATES> 5
<STATE> 2
<MEAN> 12
 1.502444e+00 -5.187043e+00 4.743349e+00 -9.458865e+00 -1.046758e+01 -1.215226e+01 -9.220506e+00 -1.199900e+00 -1.220388e+00 -3.562809e+00 -7.299683e+00 -1.191647e+00
<VARIANCE> 12
 1.438643e+01 4.437942e+01 5.097278e+01 5.040140e+01 5.576091e+01 1.088850e+02 6.701178e+01 3.859921e+01 4.867577e+01 5.004534e+01 4.505330e+01 4.904390e+01
<GCONST> 6.843303e+01
<STATE> 3
<MEAN> 12
 -2.652336e+00 -8.007052e+00 2.179845e+01 -3.041445e+00 -1.442430e+01 -1.915552e+00 -1.661461e+01 2.948977e+00 -9.024465e+00 -4.981459e+00 5.742517e+00 -9.572264e+00
<VARIANCE> 12
 3.011478e+01 4.882147e+01 8.701957e+01 5.609728e+01 5.666962e+01 7.929818e+01 7.038207e+01 6.802393e+01 6.631707e+01 1.076641e+02 4.488617e+01 5.518958e+01
<GCONST> 7.141355e+01
<STATE> 4
<MEAN> 12
 -2.547231e+00 4.160489e-01 1.109783e+01 5.658299e-01 -1.943906e+00 -5.846898e+00 -1.677279e+00 2.539026e+00 -4.541417e+00 1.904395e+00 2.840027e+00 9.415083e-02
<VARIANCE> 12
 3.456941e+01 2.436383e+01 5.845725e+01 2.884832e+01 4.336159e+01 4.689422e+01 4.274045e+01 4.527867e+01 5.739388e+01 4.634966e+01 2.902992e+01 2.729383e+01
<GCONST> 6.596753e+01
<TRANSP> 5
 0.000000e+00 1.000000e+00 0.000000e+00 0.000000e+00 0.000000e+00
 0.000000e+00 7.240882e-01 2.759118e-01 0.000000e+00 0.000000e+00
 0.000000e+00 0.000000e+00 7.961510e-01 2.038489e-01 0.000000e+00
 0.000000e+00 0.000000e+00 0.000000e+00 7.850335e-01 2.149665e-01
 0.000000e+00 0.000000e+00 0.000000e+00 0.000000e+00 0.000000e+00
<ENDHMM>
