~o
<STREAMINFO> 1 12
<VECSIZE> 12<NULLD><MFCC><DIAGC>
~h "uo"
<BEGINHMM>
<NUMSTATES> 5
<STATE> 2
<MEAN> 12
 2.352325e+00 1.097905e+00 6.343076e-02 -1.395983e+01 -5.448974e+00 1.674249e+00 -3.815162e+00 -5.744381e+00 2.239680e-01 -3.146075e+00 6.416746e-01 1.333537e-01
<VARIANCE> 12
 1.464337e+01 3.467045e+01 3.779280e+01 6.752688e+01 7.185561e+01 7.558472e+01 7.843714e+01 6.886686e+01 5.411500e+01 4.253130e+01 5.260226e+01 4.268293e+01
<GCONST> 6.878133e+01
<STATE> 3
<MEAN> 12
 2.964731e+00 -5.084540e+00 9.220062e+00 -1.900445e+01 -6.911241e+00 8.825197e+00 -1.430645e+01 -1.532738e+00 -3.874138e+00 3.112463e+00 9.367368e-01 -6.748957e+00
<VARIANCE> 12
 1.217549e+01 6.673960e+01 4.505929e+01 9.278347e+01 6.681093e+01 1.377854e+02 1.002679e+02 1.212365e+02 1.040821e+02 8.954508e+01 4.762642e+01 4.363406e+01
<GCONST> 7.240530e+01
<STATE> 4
<MEAN> 12
 -4.266023e+00 -1.035928e+00 4.374986e+00 -6.617397e+00 2.571593e+00 -4.820254e+00 -5.784276e+00 -3.282871e-01 -1.936358e+00 -6.065977e-01 -1.887093e+00 -3.068160e+00
<VARIANCE> 12
 6.300191e+01 6.878542e+01 9.251682e+01 9.049903e+01 4.523061e+01 6.195758e+01 7.876728e+01 7.307325e+01 7.407119e+01 6.417635e+01 4.093185e+01 3.911622e+01
<GCONST> 7.190270e+01
<TRANSP> 5
 0.000000e+00 1.000000e+00 0.000000e+00 0.000000e+00 0.000000e+00
 0.000000e+00 8.033835e-01 1.966165e-01 0.000000e+00 0.000000e+00
 0.000000e+00 0.000000e+00 7.556903e-01 2.443098e-01 0.000000e+00
 0.000000e+00 0.000000e+00 0.000000e+00 6.344263e-01 3.655737e-01
 0.000000e+00 0.000000e+00 0.000000e+00 0.000000e+00 0.000000e+00
<ENDHMM>
