~o
<STREAMINFO> 1 12
<VECSIZE> 12<NULLD><MFCC><DIAGC>
~h "x"
<BEGINHMM>
<NUMSTATES> 5
<STATE> 2
<MEAN> 12
 -7.352687e+00 -2.843482e+00 -9.762470e-01 -8.232452e+00 5.066956e+00 2.236539e+00 -9.728596e-01 -4.058818e+00 1.036654e+00 -4.557588e+00 -4.630430e-01 -2.899149e+00
<VARIANCE> 12
 5.430817e+01 5.032065e+01 4.198272e+01 5.528534e+01 5.449385e+01 6.511852e+01 5.060687e+01 5.072830e+01 5.459197e+01 3.506557e+01 3.693114e+01 3.780149e+01
<GCONST> 6.854076e+01
<STATE> 3
<MEAN> 12
 -1.058738e+01 -1.663388e-01 -5.760869e+00 -1.065329e+01 3.124341e+00 3.883120e+00 -3.154056e+00 -1.541986e+00 4.028779e+00 -4.412720e+00 2.158636e+00 -4.547549e+00
<VARIANCE> 12
 4.745942e+01 4.597443e+01 4.445579e+01 6.158738e+01 8.756047e+01 5.904364e+01 4.497321e+01 5.869979e+01 6.534099e+01 4.529052e+01 5.832899e+01 3.952215e+01
<GCONST> 6.982223e+01
<STATE> 4
<MEAN> 12
 5.352509e-01 -3.617119e+00 4.828066e-01 -1.332352e+01 -3.206272e-01 3.727314e+00 -6.183892e+00 -5.405852e+00 -1.508083e+00 -4.061833e+00 -2.046956e+00 -4.840846e+00
<VARIANCE> 12
 2.871103e+01 6.134817e+01 5.153685e+01 9.870541e+01 6.337246e+01 1.006947e+02 1.085552e+02 4.471748e+01 7.191460e+01 9.273285e+01 4.818602e+01 7.008203e+01
<GCONST> 7.224149e+01
<TRANSP> 5
 0.000000e+00 1.000000e+00 0.000000e+00 0.000000e+00 0.000000e+00
 0.000000e+00 5.534879e-01 4.465121e-01 0.000000e+00 0.000000e+00
 0.000000e+00 0.000000e+00 7.561736e-01 2.438264e-01 0.000000e+00
 0.000000e+00 0.000000e+00 0.000000e+00 4.844391e-01 5.155609e-01
 0.000000e+00 0.000000e+00 0.000000e+00 0.000000e+00 0.000000e+00
<ENDHMM>
