~o
<STREAMINFO> 1 12
<VECSIZE> 12<NULLD><MFCC><DIAGC>
~h "y"
<BEGINHMM>
<NUMSTATES> 5
<STATE> 2
<MEAN> 12
 -4.583654e+00 -4.743065e+00 1.232079e+01 4.577037e-01 -1.309179e+01 -1.152079e+01 -6.925064e+00 -3.496824e+00 -7.486342e+00 -8.524143e+00 -1.258687e+00 -5.168254e+00
<VARIANCE> 12
 3.998495e+01 2.086024e+01 5.828501e+01 8.702103e+01 5.766390e+01 9.580274e+01 4.717915e+01 3.723761e+01 3.614006e+01 1.121610e+02 4.175771e+01 7.539400e+01
<GCONST> 6.976251e+01
<STATE> 3
<MEAN> 12
 -1.552110e+00 -6.061043e+00 2.237507e+01 7.273514e+00 -1.111473e+01 -8.171507e+00 -6.720641e+00 5.227724e-02 -1.017559e+01 -8.842356e+00 2.119404e+00 -1.846254e+00
<VARIANCE> 12
 1.484706e+01 2.401201e+01 5.627422e+01 3.853534e+01 3.491475e+01 5.345536e+01 7.048608e+01 7.666116e+01 4.157119e+01 4.387133e+01 3.007429e+01 3.740884e+01
<GCONST> 6.627351e+01
<STATE> 4
<MEAN> 12
 -6.884257e+00 -2.486672e-01 7.033052e+00 -1.610491e+00 -9.901121e-01 -4.720276e+00 -2.487847e+00 -1.125752e+00 -2.105382e+00 -4.500473e+00 -2.571479e+00 -2.852066e-01
<VARIANCE> 12
 5.689978e+01 5.298524e+01 1.008146e+02 6.835324e+01 3.767488e+01 4.671910e+01 3.487320e+01 5.651902e+01 3.794681e+01 4.727288e+01 2.637087e+01 3.030443e+01
<GCONST> 6.813892e+01
<TRANSP> 5
 0.000000e+00 1.000000e+00 0.000000e+00 0.000000e+00 0.000000e+00
 0.000000e+00 5.831242e-01 4.168758e-01 0.000000e+00 0.000000e+00
 0.000000e+00 0.000000e+00 8.288431e-01 1.711569e-01 0.000000e+00
 0.000000e+00 0.000000e+00 0.000000e+00 7.513528e-01 2.486472e-01
 0.000000e+00 0.000000e+00 0.000000e+00 0.000000e+00 0.000000e+00
<ENDHMM>
