~o
<STREAMINFO> 1 12
<VECSIZE> 12<NULLD><MFCC><DIAGC>
~h "yE"
<BEGINHMM>
<NUMSTATES> 5
<STATE> 2
<MEAN> 12
 -2.838544e+00 -5.996713e+00 1.996287e+01 2.033716e+00 -1.267851e+01 -1.171453e+01 -9.415855e+00 -2.661625e+00 -5.339107e+00 -1.007808e+01 4.804924e+00 1.692648e-01
<VARIANCE> 12
 6.801355e+00 1.960132e+01 5.952297e+01 2.755903e+01 3.148310e+01 3.038004e+01 3.758237e+01 2.757095e+01 8.949085e+01 3.044654e+01 2.709799e+01 3.807306e+01
<GCONST> 6.300555e+01
<STATE> 3
<MEAN> 12
 -2.356582e-02 -1.260565e+01 2.199172e+01 -6.116623e+00 -1.251712e+01 -6.605004e+00 -2.049043e+01 1.000966e+01 -7.506860e+00 -4.497416e-01 3.155137e+00 -5.528440e+00
<VARIANCE> 12
 1.934020e+01 2.529464e+01 5.089838e+01 3.425950e+01 7.257195e+01 4.003183e+01 6.238312e+01 4.692791e+01 4.100146e+01 7.345768e+01 5.800557e+01 3.197188e+01
<GCONST> 6.720297e+01
<STATE> 4
<MEAN> 12
 -1.978920e+00 -1.402821e+00 7.668957e+00 -2.843160e-01 -2.012603e+00 -6.478483e+00 -7.481235e-01 5.470116e+00 -3.342780e-01 5.785481e-01 3.073905e-01 2.440275e+00
<VARIANCE> 12
 2.061688e+01 2.473607e+01 4.223336e+01 5.107000e+01 4.166972e+01 3.706855e+01 9.828775e+01 5.812143e+01 1.906638e+01 2.298760e+01 1.223965e+01 4.792873e+01
<GCONST> 6.441556e+01
<TRANSP> 5
 0.000000e+00 1.000000e+00 0.000000e+00 0.000000e+00 0.000000e+00
 0.000000e+00 6.186184e-01 3.813815e-01 0.000000e+00 0.000000e+00
 0.000000e+00 0.000000e+00 8.271395e-01 1.728605e-01 0.000000e+00
 0.000000e+00 0.000000e+00 0.000000e+00 8.212048e-01 1.787952e-01
 0.000000e+00 0.000000e+00 0.000000e+00 0.000000e+00 0.000000e+00
<ENDHMM>
