~o
<STREAMINFO> 1 12
<VECSIZE> 12<NULLD><MFCC><DIAGC>
~h "yn"
<BEGINHMM>
<NUMSTATES> 5
<STATE> 2
<MEAN> 12
 -3.855518e-01 -7.499565e+00 2.059961e+01 3.857717e+00 -1.346137e+01 -3.436372e+00 -1.125968e+01 5.426302e+00 -7.164387e+00 -3.781053e+00 -1.524302e+00 -5.415277e+00
<VARIANCE> 12
 9.347688e+00 3.310191e+01 7.263156e+01 5.606139e+01 3.079160e+01 3.693777e+01 5.140381e+01 1.102900e+02 7.651148e+01 5.643069e+01 2.909690e+01 5.364926e+01
<GCONST> 6.750395e+01
<STATE> 3
<MEAN> 12
 4.317129e+00 -8.114357e-01 2.049603e+01 -7.050074e+00 -3.759089e+00 3.188628e+00 -2.219390e+00 -3.436140e+00 -1.145556e+01 -1.046646e+00 -7.333526e+00 -9.685905e+00
<VARIANCE> 12
 5.394108e+00 3.052571e+01 3.165539e+01 3.301530e+01 8.646959e+00 5.510823e+01 7.583199e+01 2.067266e+01 5.835936e+01 5.295692e+01 2.822625e+01 4.063062e+01
<GCONST> 6.271499e+01
<STATE> 4
<MEAN> 12
 -5.856832e+00 4.895200e+00 1.182155e+01 2.844955e+00 -6.740264e-01 -4.792355e-01 -2.855205e+00 -6.377918e+00 -3.059218e+00 -4.563990e+00 1.327391e-01 -2.773070e+00
<VARIANCE> 12
 3.575903e+01 4.079079e+01 4.529736e+01 3.303103e+01 3.790258e+01 4.953744e+01 4.493489e+01 6.782884e+01 4.231308e+01 3.317497e+01 2.044090e+01 2.052307e+01
<GCONST> 6.549641e+01
<TRANSP> 5
 0.000000e+00 1.000000e+00 0.000000e+00 0.000000e+00 0.000000e+00
 0.000000e+00 8.898060e-01 1.101940e-01 0.000000e+00 0.000000e+00
 0.000000e+00 0.000000e+00 8.293939e-01 1.706061e-01 0.000000e+00
 0.000000e+00 0.000000e+00 0.000000e+00 6.576265e-01 3.423735e-01
 0.000000e+00 0.000000e+00 0.000000e+00 0.000000e+00 0.000000e+00
<ENDHMM>
