~o
<STREAMINFO> 1 12
<VECSIZE> 12<NULLD><MFCC><DIAGC>
~h "@"
<BEGINHMM>
<NUMSTATES> 5
<STATE> 2
<MEAN> 12
 -1.046000e+00 -9.665092e+00 8.609607e-01 -1.156683e+01 -1.772983e+00 -7.110375e+00 -7.921435e+00 1.334206e+00 5.042851e+00 -4.952537e+00 -6.951749e+00 -3.942471e+00
<VARIANCE> 12
 1.320468e+01 5.149593e+01 6.393997e+01 5.213558e+01 5.601593e+01 1.052542e+02 6.221084e+01 7.359276e+01 7.717131e+01 7.958150e+01 4.531148e+01 3.896390e+01
<GCONST> 6.999849e+01
<STATE> 3
<MEAN> 12
 -1.994190e-01 -7.134201e+00 7.840197e+00 -9.422401e+00 -6.531901e+00 7.273047e-01 -1.654943e+01 1.699934e+00 3.349562e+00 2.295952e+00 -2.188772e+00 -5.163663e+00
<VARIANCE> 12
 1.675685e+01 6.043473e+01 7.025380e+01 8.115558e+01 5.355945e+01 1.068332e+02 1.116747e+02 1.037355e+02 7.785035e+01 6.517791e+01 6.285270e+01 6.009872e+01
<GCONST> 7.240157e+01
<STATE> 4
<MEAN> 12
 -2.520886e+00 -1.833342e+00 3.788383e+00 -2.650357e+00 1.450387e+00 -2.814557e+00 -2.668234e+00 5.967861e-01 1.874055e+00 1.538878e+00 -8.716299e-01 -1.962634e+00
<VARIANCE> 12
 2.666133e+01 3.497775e+01 5.201233e+01 4.320887e+01 5.110826e+01 6.734866e+01 5.774600e+01 5.389630e+01 4.693962e+01 5.633537e+01 2.941439e+01 3.207671e+01
<GCONST> 6.752672e+01
<TRANSP> 5
 0.000000e+00 1.000000e+00 0.000000e+00 0.000000e+00 0.000000e+00
 0.000000e+00 7.054833e-01 2.945168e-01 0.000000e+00 0.000000e+00
 0.000000e+00 0.000000e+00 6.453060e-01 3.546940e-01 0.000000e+00
 0.000000e+00 0.000000e+00 0.000000e+00 6.624945e-01 3.375055e-01
 0.000000e+00 0.000000e+00 0.000000e+00 0.000000e+00 0.000000e+00
<ENDHMM>
~h "a"
<BEGINHMM>
<NUMSTATES> 5
<STATE> 2
<MEAN> 12
 1.209238e-01 -1.554680e+01 1.250958e+00 -1.013772e+01 6.950906e+00 7.279812e+00 4.604571e-02 -6.036984e+00 5.104607e+00 -1.919020e+00 -6.440540e+00 -4.205752e+00
<VARIANCE> 12
 1.811016e+01 8.625312e+01 4.540939e+01 9.273023e+01 5.833041e+01 7.174816e+01 8.424211e+01 7.894834e+01 9.973408e+01 6.290280e+01 5.253609e+01 3.629157e+01
<GCONST> 7.119266e+01
<STATE> 3
<MEAN> 12
 -3.664383e+00 -9.264599e+00 -4.331099e+00 -2.916425e+00 1.781086e+00 -5.916161e+00 -4.422766e+00 -1.478392e+00 6.077788e-01 -1.206223e+01 -4.947341e+00 -9.540662e-01
<VARIANCE> 12
 1.774576e+01 3.583288e+01 2.918903e+01 3.442097e+01 4.275639e+01 4.747382e+01 4.229288e+01 4.817956e+01 5.925769e+01 6.402818e+01 2.512081e+01 4.658673e+01
<GCONST> 6.596348e+01
<STATE> 4
<MEAN> 12
 -4.806406e+00 -9.177552e+00 4.143978e+00 -5.308264e+00 1.767683e+00 -1.834598e+00 -1.977132e+00 2.498211e-01 1.578118e+00 -4.254560e+00 -2.635900e+00 -3.526004e+00
<VARIANCE> 12
 4.170255e+01 1.208991e+02 5.056069e+01 7.755936e+01 6.674502e+01 7.284444e+01 6.422506e+01 6.259577e+01 6.192340e+01 4.068750e+01 4.258670e+01 4.972300e+01
<GCONST> 7.113239e+01
<TRANSP> 5
 0.000000e+00 1.000000e+00 0.000000e+00 0.000000e+00 0.000000e+00
 0.000000e+00 8.670225e-01 1.329775e-01 0.000000e+00 0.000000e+00
 0.000000e+00 0.000000e+00 8.282211e-01 1.717789e-01 0.000000e+00
 0.000000e+00 0.000000e+00 0.000000e+00 5.932317e-01 4.067683e-01
 0.000000e+00 0.000000e+00 0.000000e+00 0.000000e+00 0.000000e+00
<ENDHMM>
~h "b"
<BEGINHMM>
<NUMSTATES> 5
<STATE> 2
<MEAN> 12
 -4.759864e+00 -1.206396e+00 1.861829e+00 1.471627e+00 1.371577e+00 -5.409370e-01 -1.124132e+00 -1.138121e+00 -1.796172e-01 -2.195184e-01 -1.881746e-01 -9.593555e-01
<VARIANCE> 12
 3.600817e+01 1.860285e+01 3.826831e+01 4.262876e+01 2.408439e+01 3.915452e+01 2.991884e+01 3.796323e+01 2.301489e+01 3.020050e+01 2.383092e+01 3.095545e+01
<GCONST> 6.299046e+01
<STATE> 3
<MEAN> 12
 -6.942661e+00 -4.056467e+00 -1.418211e+00 -3.687718e+00 -9.481167e-01 -5.368596e+00 -4.716491e+00 -1.664092e+00 -2.047687e+00 -3.103011e+00 -1.767881e-02 -3.418132e+00
<VARIANCE> 12
 2.589737e+01 2.207704e+01 5.360442e+01 3.489343e+01 2.799569e+01 2.797486e+01 3.437391e+01 3.671588e+01 3.152746e+01 3.119086e+01 2.627785e+01 2.439240e+01
<GCONST> 6.309498e+01
<STATE> 4
<MEAN> 12
 -2.078525e+00 -7.432036e+00 3.133173e+00 -4.783476e+00 -4.400965e+00 -1.474294e+00 -4.812308e+00 -2.219053e+00 5.650695e+00 -2.073571e+00 -2.154574e+00 -3.424756e+00
<VARIANCE> 12
 7.991082e+01 6.858570e+01 9.426660e+01 1.269688e+02 5.928485e+01 8.657279e+01 6.677647e+01 4.086554e+01 1.491447e+02 6.451635e+01 3.887684e+01 3.626517e+01
<GCONST> 7.293166e+01
<TRANSP> 5
 0.000000e+00 1.000000e+00 0.000000e+00 0.000000e+00 0.000000e+00
 0.000000e+00 6.192030e-01 3.807970e-01 0.000000e+00 0.000000e+00
 0.000000e+00 0.000000e+00 5.630692e-01 4.369309e-01 0.000000e+00
 0.000000e+00 0.000000e+00 0.000000e+00 3.620072e-01 6.379928e-01
 0.000000e+00 0.000000e+00 0.000000e+00 0.000000e+00 0.000000e+00
<ENDHMM>
~h "d"
<BEGINHMM>
<NUMSTATES> 5
<STATE> 2
<MEAN> 12
 -6.132614e+00 2.020041e-01 3.237104e+00 -1.928228e+00 1.204201e+00 -4.188601e+00 -2.147419e+00 -2.692737e+00 2.585290e-01 -1.143175e+00 -1.287649e+00 -1.541826e+00
<VARIANCE> 12
 4.138009e+01 3.097939e+01 4.737871e+01 3.951107e+01 3.687026e+01 4.271086e+01 4.436742e+01 3.986675e+01 2.933311e+01 2.799735e+01 2.814109e+01 4.028978e+01
<GCONST> 6.532947e+01
<STATE> 3
<MEAN> 12
 -4.403566e+00 -2.010614e+00 5.022140e+00 -5.591249e+00 -5.981765e-01 -7.875865e+00 -5.340076e+00 -9.442072e-01 1.469640e+00 -2.463742e+00 -3.287257e+00 -3.586606e+00
<VARIANCE> 12
 3.340439e+01 2.688527e+01 6.713806e+01 4.384880e+01 3.964224e+01 4.659372e+01 6.113491e+01 5.318164e+01 3.848710e+01 4.509774e+01 3.420223e+01 4.300602e+01
<GCONST> 6.720323e+01
<STATE> 4
<MEAN> 12
 -1.679100e+00 -6.850665e+00 6.391041e+00 -1.094611e+01 -1.732909e+00 -9.653481e+00 -5.427507e+00 -5.739328e-01 2.297601e+00 -3.359964e+00 -4.518058e+00 -4.781285e+00
<VARIANCE> 12
 2.489225e+01 6.026941e+01 9.412114e+01 7.479580e+01 4.622856e+01 6.994480e+01 8.946171e+01 7.500633e+01 5.378706e+01 8.333691e+01 5.076083e+01 5.495139e+01
<GCONST> 7.146143e+01
<TRANSP> 5
 0.000000e+00 1.000000e+00 0.000000e+00 0.000000e+00 0.000000e+00
 0.000000e+00 6.335939e-01 3.664061e-01 0.000000e+00 0.000000e+00
 0.000000e+00 0.000000e+00 2.110141e-02 9.788986e-01 0.000000e+00
 0.000000e+00 0.000000e+00 0.000000e+00 2.419845e-01 7.580155e-01
 0.000000e+00 0.000000e+00 0.000000e+00 0.000000e+00 0.000000e+00
<ENDHMM>
~h "f"
<BEGINHMM>
<NUMSTATES> 5
<STATE> 2
<MEAN> 12
 -1.218468e+01 2.393126e+00 4.444403e+00 3.251696e+00 3.681691e+00 -1.157599e+00 -3.151888e+00 -3.216853e+00 -3.223155e-01 -2.457289e+00 -2.206974e+00 -3.172303e+00
<VARIANCE> 12
 3.912841e+01 1.550660e+01 2.565027e+01 1.848956e+01 1.991580e+01 3.727262e+01 2.702155e+01 2.718055e+01 2.218136e+01 2.440348e+01 1.629998e+01 1.578579e+01
<GCONST> 5.967756e+01
<STATE> 3
<MEAN> 12
 -1.913775e+01 -2.799192e+00 6.476625e-01 6.594045e-01 1.215525e+00 -9.893311e-01 -1.026605e+00 -4.290456e-01 6.008402e-01 9.718949e-01 -2.150615e-01 1.087132e-01
<VARIANCE> 12
 3.257544e+01 1.360888e+01 2.024365e+01 1.951623e+01 2.419137e+01 2.859449e+01 2.436477e+01 2.668704e+01 2.880367e+01 2.740020e+01 1.505533e+01 1.709464e+01
<GCONST> 5.936597e+01
<STATE> 4
<MEAN> 12
 -1.351623e+00 -4.419284e+00 -5.048415e+00 -9.400821e+00 -1.040480e+00 -4.708171e+00 -4.619750e+00 -3.471534e+00 9.632005e-02 -5.166419e+00 -4.321150e+00 -1.404710e+00
<VARIANCE> 12
 2.877398e+01 2.356970e+01 3.141471e+01 4.388541e+01 3.491320e+01 6.977358e+01 4.504058e+01 3.679081e+01 4.333851e+01 3.796159e+01 4.920583e+01 2.325715e+01
<GCONST> 6.546199e+01
<TRANSP> 5
 0.000000e+00 1.000000e+00 0.000000e+00 0.000000e+00 0.000000e+00
 0.000000e+00 5.810357e-01 4.189643e-01 0.000000e+00 0.000000e+00
 0.000000e+00 0.000000e+00 7.781253e-01 2.218747e-01 0.000000e+00
 0.000000e+00 0.000000e+00 0.000000e+00 7.720262e-01 2.279737e-01
 0.000000e+00 0.000000e+00 0.000000e+00 0.000000e+00 0.000000e+00
<ENDHMM>
~h "g"
<BEGINHMM>
<NUMSTATES> 5
<STATE> 2
<MEAN> 12
 -4.997553e+00 -3.148554e+00 -3.673691e-01 -3.389567e+00 4.349564e-01 -4.705346e+00 -2.738723e+00 3.694680e-02 -1.656862e+00 -2.326129e-02 -3.975781e-01 -1.076550e+00
<VARIANCE> 12
 4.322706e+01 3.506045e+01 9.056976e+01 4.867139e+01 4.274862e+01 4.554071e+01 4.550168e+01 3.151993e+01 2.657766e+01 3.668273e+01 2.581965e+01 3.355206e+01
<GCONST> 6.625820e+01
<STATE> 3
<MEAN> 12
 -2.045299e+00 -4.099566e+00 2.209252e+00 -8.625198e+00 -2.861908e+00 -7.388824e+00 -6.502422e+00 1.603944e+00 -3.332868e+00 3.338879e-01 -2.823596e+00 -2.550567e+00
<VARIANCE> 12
 2.581882e+01 5.431493e+01 1.234991e+02 6.502222e+01 6.471000e+01 8.056894e+01 6.774492e+01 6.558327e+01 4.539954e+01 5.776209e+01 3.733807e+01 4.608561e+01
<GCONST> 7.057183e+01
<STATE> 4
<MEAN> 12
 -8.605328e-01 -4.439032e+00 2.804363e+00 -1.106101e+01 -4.084119e+00 -7.564559e+00 -7.160994e+00 1.221971e+00 -3.366892e+00 1.159492e+00 -3.610938e+00 -3.795616e+00
<VARIANCE> 12
 2.059633e+01 5.362662e+01 1.008861e+02 6.287722e+01 5.252942e+01 9.312216e+01 5.137233e+01 7.889788e+01 4.634843e+01 6.507141e+01 5.702238e+01 5.471645e+01
<GCONST> 7.067668e+01
<TRANSP> 5
 0.000000e+00 1.000000e+00 0.000000e+00 0.000000e+00 0.000000e+00
 0.000000e+00 6.216704e-01 3.783296e-01 0.000000e+00 0.000000e+00
 0.000000e+00 0.000000e+00 0.000000e+00 1.000000e+00 0.000000e+00
 0.000000e+00 0.000000e+00 0.000000e+00 3.053845e-02 9.694616e-01
 0.000000e+00 0.000000e+00 0.000000e+00 0.000000e+00 0.000000e+00
<ENDHMM>
~h "i"
<BEGINHMM>
<NUMSTATES> 5
<STATE> 2
<MEAN> 12
 -5.898559e+00 7.058536e-01 1.473796e+01 -1.099848e+01 -6.847870e+00 -7.816489e+00 -9.031164e+00 -9.532750e+00 -3.167016e+00 -3.584729e+00 -2.184403e+00 -3.343745e+00
<VARIANCE> 12
 2.492542e+01 4.635834e+01 8.135152e+01 1.162908e+02 6.672377e+01 8.257926e+01 8.442696e+01 9.499706e+01 6.532807e+01 4.803834e+01 3.699258e+01 2.911773e+01
<GCONST> 7.089922e+01
<STATE> 3
<MEAN> 12
 -6.486871e+00 -3.330258e-01 2.354894e+01 -4.494077e+00 -1.257809e+01 -1.921303e+00 -1.203068e+01 -5.607609e+00 -6.017380e+00 -6.768195e+00 2.554596e+00 -5.350283e+00
<VARIANCE> 12
 1.984447e+01 6.164310e+01 1.112046e+02 5.930443e+01 7.126210e+01 7.089101e+01 6.403012e+01 7.536740e+01 6.830772e+01 7.442107e+01 3.478770e+01 6.225504e+01
<GCONST> 7.118137e+01
<STATE> 4
<MEAN> 12
 -6.338812e+00 3.562525e+00 1.297859e+01 3.271069e+00 -5.093689e+00 -4.734968e+00 -4.021975e+00 -5.538127e+00 -1.993988e+00 -4.271962e+00 -1.100403e+00 -1.517020e+00
<VARIANCE> 12
 4.985972e+01 5.569819e+01 5.738058e+01 6.707949e+01 7.175753e+01 5.933115e+01 5.572281e+01 5.791322e+01 5.800687e+01 6.297957e+01 3.045915e+01 2.850934e+01
<GCONST> 6.964503e+01
<TRANSP> 5
 0.000000e+00 1.000000e+00 0.000000e+00 0.000000e+00 0.000000e+00
 0.000000e+00 5.638008e-01 4.361992e-01 0.000000e+00 0.000000e+00
 0.000000e+00 0.000000e+00 7.597371e-01 2.402629e-01 0.000000e+00
 0.000000e+00 0.000000e+00 0.000000e+00 5.598330e-01 4.401670e-01
 0.000000e+00 0.000000e+00 0.000000e+00 0.000000e+00 0.000000e+00
<ENDHMM>
~h "k"
<BEGINHMM>
<NUMSTATES> 5
<STATE> 2
<MEAN> 12
 -5.443946e+00 -3.282754e+00 -5.417433e-01 -4.260233e+00 1.989050e+00 -2.836792e+00 -5.277686e+00 6.345957e-01 -1.376807e+00 2.203769e+00 -3.917284e+00 -1.374541e+00
<VARIANCE> 12
 2.203425e+01 3.905073e+01 6.075998e+01 5.868110e+01 6.021603e+01 6.954797e+01 8.091499e+01 2.711293e+01 5.095811e+01 4.256227e+01 4.145433e+01 4.284195e+01
<GCONST> 6.818848e+01
<STATE> 3
<MEAN> 12
 -1.105330e+01 -7.479627e+00 -4.431835e+00 -2.203325e+00 8.594291e+00 -3.092574e+00 -5.959949e+00 -1.502039e+00 4.441172e+00 4.179674e+00 -2.333318e+00 -4.109672e+00
<VARIANCE> 12
 3.540671e+01 2.781907e+01 4.188319e+01 4.623499e+01 5.771583e+01 5.753266e+01 5.760056e+01 4.060719e+01 4.531823e+01 5.741813e+01 2.952712e+01 3.038196e+01
<GCONST> 6.704436e+01
<STATE> 4
<MEAN> 12
 -5.351168e+00 -7.306242e+00 -5.073434e-02 -1.267619e+01 2.061191e+00 -5.740481e+00 -4.192132e+00 -9.434615e+00 4.247978e+00 -5.562438e+00 -3.842033e+00 -5.849078e+00
<VARIANCE> 12
 2.796216e+01 6.329868e+01 4.275170e+01 8.630432e+01 9.561035e+01 9.816565e+01 9.906982e+01 8.273801e+01 5.438765e+01 9.727854e+01 4.912938e+01 5.330033e+01
<GCONST> 7.234908e+01
<TRANSP> 5
 0.000000e+00 1.000000e+00 0.000000e+00 0.000000e+00 0.000000e+00
 0.000000e+00 3.789846e-01 6.210154e-01 0.000000e+00 0.000000e+00
 0.000000e+00 0.000000e+00 7.190026e-01 2.809974e-01 0.000000e+00
 0.000000e+00 0.000000e+00 0.000000e+00 5.158421e-01 4.841579e-01
 0.000000e+00 0.000000e+00 0.000000e+00 0.000000e+00 0.000000e+00
<ENDHMM>
~h "l"
<BEGINHMM>
<NUMSTATES> 5
<STATE> 2
<MEAN> 12
 3.707917e-01 -5.032377e+00 7.056936e+00 -2.319490e+00 -2.577863e+00 -3.173765e+00 -1.220883e+01 -8.102735e+00 4.312302e+00 -3.606934e+00 7.731264e-01 -7.195588e+00
<VARIANCE> 12
 1.906764e+01 3.772296e+01 9.493346e+01 1.226462e+02 7.416460e+01 9.757919e+01 9.568533e+01 1.182203e+02 8.235748e+01 5.854964e+01 4.735946e+01 6.976697e+01
<GCONST> 7.279971e+01
<STATE> 3
<MEAN> 12
 -1.106651e+00 -4.107140e+00 7.654313e+00 -4.809774e+00 -3.201936e+00 -1.539207e+00 -1.201879e+01 -7.053480e+00 1.921460e+00 -1.534436e+00 -2.297584e-01 -6.999225e+00
<VARIANCE> 12
 1.503288e+01 4.548185e+01 7.312850e+01 1.023051e+02 8.812112e+01 7.843731e+01 9.378728e+01 9.473591e+01 7.117362e+01 5.240564e+01 4.790015e+01 5.725515e+01
<GCONST> 7.157616e+01
<STATE> 4
<MEAN> 12
 -2.152814e+00 -7.261795e+00 7.091233e+00 -8.884934e+00 -4.511804e+00 -1.258218e+00 -8.813938e+00 -5.350287e+00 2.651559e+00 -1.887400e+00 -1.053529e+00 -6.900417e+00
<VARIANCE> 12
 2.045077e+01 5.001800e+01 8.052067e+01 1.438413e+02 9.796275e+01 1.093807e+02 8.658592e+01 8.376449e+01 7.375622e+01 5.543595e+01 4.195769e+01 4.798736e+01
<GCONST> 7.243433e+01
<TRANSP> 5
 0.000000e+00 1.000000e+00 0.000000e+00 0.000000e+00 0.000000e+00
 0.000000e+00 3.660747e-01 6.339254e-01 0.000000e+00 0.000000e+00
 0.000000e+00 0.000000e+00 1.509053e-01 8.490947e-01 0.000000e+00
 0.000000e+00 0.000000e+00 0.000000e+00 2.602181e-01 7.397819e-01
 0.000000e+00 0.000000e+00 0.000000e+00 0.000000e+00 0.000000e+00
<ENDHMM>
~h "m"
<BEGINHMM>
<NUMSTATES> 5
<STATE> 2
<MEAN> 12
 1.814352e+00 2.106794e-01 1.004243e+01 4.430337e+00 -1.065495e+00 1.088477e+00 -8.200390e+00 -8.557888e+00 -5.402711e+00 -9.209886e-01 -3.348225e-01 -9.157722e+00
<VARIANCE> 12
 9.166544e+00 2.576050e+01 4.007276e+01 9.280582e+01 6.967206e+01 5.953595e+01 5.963180e+01 3.384651e+01 4.065357e+01 4.751721e+01 3.325710e+01 3.848021e+01
<GCONST> 6.640112e+01
<STATE> 3
<MEAN> 12
 1.839116e+00 -1.918899e+00 1.310448e+01 -1.500376e+00 -7.524572e-01 -1.514133e+00 -6.299576e+00 -7.695315e+00 -9.937190e+00 2.513401e+00 -4.231633e+00 -1.130192e+01
<VARIANCE> 12
 8.950262e+00 2.926211e+01 5.844966e+01 6.240165e+01 4.441996e+01 8.650795e+01 1.342246e+02 6.628672e+01 8.709650e+01 7.685863e+01 9.574799e+01 7.996358e+01
<GCONST> 7.092396e+01
<STATE> 4
<MEAN> 12
 -2.053073e-01 -8.197639e+00 6.940951e+00 -8.867023e+00 -2.457456e+00 -4.594311e+00 -1.316962e+01 -2.912547e+00 7.263094e-01 -4.669105e+00 -2.198176e+00 -9.139554e+00
<VARIANCE> 12
 2.040889e+01 5.658656e+01 7.857905e+01 1.141993e+02 4.729613e+01 1.034838e+02 1.705127e+02 1.066305e+02 1.202656e+02 5.345275e+01 5.243896e+01 5.096601e+01
<GCONST> 7.317165e+01
<TRANSP> 5
 0.000000e+00 1.000000e+00 0.000000e+00 0.000000e+00 0.000000e+00
 0.000000e+00 6.387045e-01 3.612955e-01 0.000000e+00 0.000000e+00
 0.000000e+00 0.000000e+00 5.637943e-01 4.362057e-01 0.000000e+00
 0.000000e+00 0.000000e+00 0.000000e+00 5.958757e-01 4.041242e-01
 0.000000e+00 0.000000e+00 0.000000e+00 0.000000e+00 0.000000e+00
<ENDHMM>
~h "n"
<BEGINHMM>
<NUMSTATES> 5
<STATE> 2
<MEAN> 12
 1.662010e+00 1.181102e+00 4.472578e+00 -6.010080e+00 -7.186890e+00 -4.506050e+00 -1.029620e+01 -8.756650e+00 -3.085566e+00 -3.206437e+00 -5.322223e+00 -2.926751e+00
<VARIANCE> 12
 1.040254e+01 1.792026e+01 7.656070e+01 6.642602e+01 2.678273e+01 3.928353e+01 3.871043e+01 4.377113e+01 4.387204e+01 2.577928e+01 3.611269e+01 4.855893e+01
<GCONST> 6.471059e+01
<STATE> 3
<MEAN> 12
 -2.910401e-01 4.443855e-02 9.246006e+00 -3.716429e+00 -5.334803e+00 -4.279300e+00 -9.983720e+00 -5.554035e+00 -1.056244e+00 -2.562295e+00 -4.699307e+00 -6.290455e+00
<VARIANCE> 12
 1.478037e+01 3.646710e+01 8.783446e+01 5.464901e+01 4.952628e+01 5.038737e+01 6.300481e+01 8.488164e+01 7.109488e+01 5.576988e+01 2.954770e+01 5.826958e+01
<GCONST> 6.896367e+01
<STATE> 4
<MEAN> 12
 -2.027263e+00 -2.702837e+00 1.044665e+01 -7.519731e+00 -5.005826e+00 -5.422606e+00 -1.118261e+01 -3.672369e+00 -4.933311e-01 -3.802539e+00 -3.297729e+00 -8.040823e+00
<VARIANCE> 12
 2.720113e+01 6.351264e+01 1.047508e+02 5.417024e+01 7.901205e+01 9.143364e+01 9.635444e+01 1.268883e+02 5.332688e+01 1.107986e+02 3.625867e+01 5.928386e+01
<GCONST> 7.280647e+01
<TRANSP> 5
 0.000000e+00 1.000000e+00 0.000000e+00 0.000000e+00 0.000000e+00
 0.000000e+00 6.909058e-01 3.090942e-01 0.000000e+00 0.000000e+00
 0.000000e+00 0.000000e+00 3.839095e-02 9.616091e-01 0.000000e+00
 0.000000e+00 0.000000e+00 0.000000e+00 3.716785e-01 6.283216e-01
 0.000000e+00 0.000000e+00 0.000000e+00 0.000000e+00 0.000000e+00
<ENDHMM>
~h "o"
<BEGINHMM>
<NUMSTATES> 5
<STATE> 2
<MEAN> 12
 1.954561e+00 2.131614e+00 8.148678e+00 -2.141174e+01 -1.466150e+01 1.276132e+01 -6.781242e+00 -3.055800e+00 8.494388e+00 -1.106651e+01 5.343472e+00 -7.025029e+00
<VARIANCE> 12
 9.874698e+00 4.671452e+01 3.863274e+01 2.457541e+01 9.314534e+01 8.526682e+01 1.682132e+02 6.632724e+01 9.804396e+01 2.666534e+01 2.182901e+01 5.559646e+01
<GCONST> 6.831432e+01
<STATE> 3
<MEAN> 12
 -1.263238e+00 -1.212218e+01 -4.597800e+00 -1.966342e+01 3.060539e+00 9.252663e+00 -1.094978e+01 -1.009903e+00 -2.520453e+00 -1.892060e+00 5.639501e-01 -8.071192e+00
<VARIANCE> 12
 4.199576e+00 2.273378e+01 2.865927e+01 3.807989e+01 8.266914e+01 2.177477e+01 7.251624e+01 9.581525e+01 6.448067e+01 1.681795e+01 2.781122e+01 7.110283e+00
<GCONST> 6.222615e+01
<STATE> 4
<MEAN> 12
 8.286430e-01 -7.897443e+00 5.678314e+00 1.757102e-01 -5.508882e+00 1.730082e+00 -1.464493e+01 -3.198889e+00 2.012513e+00 3.764622e+00 -3.649903e+00 -1.414316e+01
<VARIANCE> 12
 8.137823e+00 9.415372e+01 8.370330e+01 7.916299e+01 4.919311e+01 7.559120e+01 1.204609e+02 1.193599e+02 1.045258e+02 6.136886e+01 2.985411e+01 3.642791e+01
<GCONST> 7.104733e+01
<TRANSP> 5
 0.000000e+00 1.000000e+00 0.000000e+00 0.000000e+00 0.000000e+00
 0.000000e+00 8.562438e-01 1.437562e-01 0.000000e+00 0.000000e+00
 0.000000e+00 0.000000e+00 7.207931e-01 2.792070e-01 0.000000e+00
 0.000000e+00 0.000000e+00 0.000000e+00 5.787782e-01 4.212218e-01
 0.000000e+00 0.000000e+00 0.000000e+00 0.000000e+00 0.000000e+00
<ENDHMM>
~h "p"
<BEGINHMM>
<NUMSTATES> 5
<STATE> 2
<MEAN> 12
 -8.408329e+00 -4.390679e+00 2.300575e+00 -2.119905e+00 -6.738564e-02 5.864111e-01 -1.636306e-01 -7.780645e-01 3.856886e+00 1.901108e+00 4.936899e-01 8.373957e-01
<VARIANCE> 12
 6.301887e+01 3.584591e+01 3.485377e+01 6.942117e+01 4.292528e+01 4.138453e+01 4.151409e+01 1.600276e+01 3.349093e+01 3.667552e+01 2.541574e+01 2.140657e+01
<GCONST> 6.496216e+01
<STATE> 3
<MEAN> 12
 -9.191884e+00 -9.548514e+00 -1.489473e+00 -1.036738e+01 6.405517e+00 2.112839e+00 1.088784e+00 -7.045785e+00 5.004464e+00 -8.341200e+00 1.532494e-01 -4.124355e+00
<VARIANCE> 12
 5.024395e+01 3.186107e+01 3.151228e+01 1.459671e+02 6.979783e+01 7.053678e+01 7.896320e+01 2.958796e+01 6.693408e+01 4.542114e+01 2.764786e+01 2.035283e+01
<GCONST> 6.847710e+01
<STATE> 4
<MEAN> 12
 2.594178e+00 -1.459019e+01 3.101197e-01 -4.391898e+00 -3.175418e+00 2.992572e+00 4.056551e+00 -6.654263e+00 1.243340e+01 -7.578943e+00 -2.081076e+00 -2.494940e+00
<VARIANCE> 12
 2.662646e+01 3.550652e+01 1.266827e+02 1.877610e+02 5.710187e+01 1.561868e+02 9.531940e+01 4.981036e+01 7.146242e+01 1.905386e+01 3.869520e+01 1.970971e+01
<GCONST> 7.039761e+01
<TRANSP> 5
 0.000000e+00 1.000000e+00 0.000000e+00 0.000000e+00 0.000000e+00
 0.000000e+00 5.022500e-01 4.977500e-01 0.000000e+00 0.000000e+00
 0.000000e+00 0.000000e+00 6.859678e-01 3.140322e-01 0.000000e+00
 0.000000e+00 0.000000e+00 0.000000e+00 6.788440e-01 3.211560e-01
 0.000000e+00 0.000000e+00 0.000000e+00 0.000000e+00 0.000000e+00
<ENDHMM>
~h "r"
<BEGINHMM>
<NUMSTATES> 5
<STATE> 2
<MEAN> 12
 -2.825712e+00 -6.747408e+00 1.030277e+01 -5.408056e+00 -1.093404e+01 -1.650629e+01 -2.098778e+00 -9.697087e+00 -4.127464e+00 -1.048813e+01 -9.475195e-01 -6.004576e+00
<VARIANCE> 12
 2.574827e+01 2.983930e+01 7.004321e+01 1.202151e+02 1.194854e+02 9.118328e+01 1.143613e+02 1.216431e+02 1.162396e+02 7.240556e+01 4.679101e+01 5.684295e+01
<GCONST> 7.349755e+01
<STATE> 3
<MEAN> 12
 -1.476008e+00 -6.017215e+00 9.822991e+00 4.393777e+00 -7.826363e+00 -1.333809e+01 -7.378041e+00 2.107958e-01 -9.454645e-01 -6.728548e+00 3.808966e-01 -1.176519e+00
<VARIANCE> 12
 2.580621e+01 2.357040e+01 3.937201e+01 9.534159e+01 6.326410e+01 3.374328e+01 5.001384e+01 4.089788e+01 3.612643e+01 5.008705e+01 4.596808e+01 3.038561e+01
<GCONST> 6.672783e+01
<STATE> 4
<MEAN> 12
 2.883738e+00 -1.297139e+01 1.420056e+01 -2.389804e+00 -1.123511e+01 -6.648939e+00 -1.148880e+01 4.988640e+00 -1.143224e+00 9.053463e-01 -4.302548e-01 -2.664614e+00
<VARIANCE> 12
 1.879064e+01 4.628793e+01 7.740652e+01 7.260680e+01 5.549410e+01 1.007395e+02 1.204171e+02 1.283105e+02 7.117146e+01 8.444621e+01 5.798060e+01 3.869511e+01
<GCONST> 7.214816e+01
<TRANSP> 5
 0.000000e+00 1.000000e+00 0.000000e+00 0.000000e+00 0.000000e+00
 0.000000e+00 6.378239e-01 3.621762e-01 0.000000e+00 0.000000e+00
 0.000000e+00 0.000000e+00 6.726099e-01 3.273901e-01 0.000000e+00
 0.000000e+00 0.000000e+00 0.000000e+00 6.227813e-01 3.772187e-01
 0.000000e+00 0.000000e+00 0.000000e+00 0.000000e+00 0.000000e+00
<ENDHMM>
~h "s"
<BEGINHMM>
<NUMSTATES> 5
<STATE> 2
<MEAN> 12
 -2.442568e+01 4.890132e+00 -1.917777e-01 3.419480e+00 3.405255e+00 8.714265e-01 2.739347e-01 -7.023462e-01 1.982308e+00 5.203178e-01 1.970487e+00 -2.633479e+00
<VARIANCE> 12
 4.728138e+01 3.149281e+01 3.602854e+01 5.983305e+01 3.150562e+01 4.176029e+01 2.886232e+01 4.158702e+01 2.957548e+01 2.691319e+01 2.350811e+01 1.655337e+01
<GCONST> 6.395220e+01
<STATE> 3
<MEAN> 12
 -2.125992e+01 4.182837e+00 -5.994787e+00 -5.260523e-01 2.472486e+00 -7.317402e+00 5.075216e-01 1.261278e+00 1.745403e+00 4.264516e-01 6.759586e-01 3.234209e+00
<VARIANCE> 12
 2.090717e+01 1.855670e+01 2.454484e+01 3.200347e+01 2.696579e+01 4.391768e+01 3.933312e+01 2.458228e+01 1.918029e+01 2.342103e+01 2.250312e+01 1.915751e+01
<GCONST> 6.080664e+01
<STATE> 4
<MEAN> 12
 -1.096408e+01 -2.739653e+00 7.072007e+00 -5.593913e+00 5.359379e-01 -1.137530e+01 -5.103788e+00 -4.707411e+00 -7.798997e-01 -3.573843e+00 4.565058e-01 -3.072417e+00
<VARIANCE> 12
 1.278496e+02 6.618070e+01 1.171346e+02 1.904839e+01 3.007024e+01 7.877407e+01 4.350029e+01 8.333386e+01 4.118008e+01 3.473309e+01 4.580449e+01 3.827092e+01
<GCONST> 6.950853e+01
<TRANSP> 5
 0.000000e+00 1.000000e+00 0.000000e+00 0.000000e+00 0.000000e+00
 0.000000e+00 7.718679e-01 2.281321e-01 0.000000e+00 0.000000e+00
 0.000000e+00 0.000000e+00 7.326778e-01 2.673222e-01 0.000000e+00
 0.000000e+00 0.000000e+00 0.000000e+00 5.705445e-01 4.294554e-01
 0.000000e+00 0.000000e+00 0.000000e+00 0.000000e+00 0.000000e+00
<ENDHMM>
~h "t"
<BEGINHMM>
<NUMSTATES> 5
<STATE> 2
<MEAN> 12
 -1.388713e+01 6.283833e-01 5.898894e+00 -2.078023e+00 2.431698e-01 -1.507190e+00 3.132034e-02 -2.293537e+00 3.024205e+00 -1.265091e+00 -2.668065e-01 -1.597883e-02
<VARIANCE> 12
 7.505334e+01 3.012733e+01 4.279611e+01 6.236689e+01 3.521704e+01 3.454887e+01 5.588157e+01 4.346704e+01 3.127964e+01 3.130291e+01 2.986819e+01 2.536348e+01
<GCONST> 6.608356e+01
<STATE> 3
<MEAN> 12
 -1.165495e+01 -5.040927e+00 6.859058e-01 -3.914822e+00 5.411765e+00 -1.178931e+00 -1.655429e+00 1.598555e+00 3.810608e+00 -1.958996e+00 -1.154639e-01 -9.315912e-01
<VARIANCE> 12
 3.330586e+01 4.837020e+01 4.810893e+01 3.523146e+01 5.915529e+01 5.351418e+01 6.393731e+01 5.150840e+01 3.830533e+01 5.342651e+01 4.442224e+01 2.822782e+01
<GCONST> 6.779225e+01
<STATE> 4
<MEAN> 12
 -8.173906e+00 -6.138256e+00 3.268382e+00 -7.839631e+00 -2.041585e+00 -2.593418e+00 -7.196300e+00 -5.428008e+00 1.636262e+00 -7.560295e+00 5.487593e-02 -4.791690e+00
<VARIANCE> 12
 3.156735e+01 9.865814e+01 7.639835e+01 7.582423e+01 7.868674e+01 7.237954e+01 1.017793e+02 6.926556e+01 5.853787e+01 5.915057e+01 6.219559e+01 4.712560e+01
<GCONST> 7.240371e+01
<TRANSP> 5
 0.000000e+00 1.000000e+00 0.000000e+00 0.000000e+00 0.000000e+00
 0.000000e+00 6.569901e-01 3.430099e-01 0.000000e+00 0.000000e+00
 0.000000e+00 0.000000e+00 6.580508e-01 3.419492e-01 0.000000e+00
 0.000000e+00 0.000000e+00 0.000000e+00 4.460711e-01 5.539289e-01
 0.000000e+00 0.000000e+00 0.000000e+00 0.000000e+00 0.000000e+00
<ENDHMM>
~h "u"
<BEGINHMM>
<NUMSTATES> 5
<STATE> 2
<MEAN> 12
 3.475121e+00 6.484677e+00 4.246943e+00 -1.616288e+01 -1.080813e+01 5.989145e+00 -8.646792e+00 -6.979075e+00 -6.573001e-01 -8.744135e+00 -8.972704e-01 -2.892581e+00
<VARIANCE> 12
 1.292638e+01 3.506456e+01 4.347715e+01 7.092509e+01 6.044370e+01 6.912467e+01 3.885622e+01 7.922063e+01 4.897040e+01 4.202020e+01 3.681622e+01 4.341125e+01
<GCONST> 6.758060e+01
<STATE> 3
<MEAN> 12
 -4.763202e-01 4.344685e+00 4.219285e+00 -1.632364e+01 -1.294473e+01 1.027774e+01 -2.026897e+01 -4.847895e+00 -2.514719e+00 -1.231474e+01 5.435965e+00 -9.400949e+00
<VARIANCE> 12
 2.792834e+01 5.463500e+01 6.057891e+01 8.276402e+01 8.559827e+01 1.254134e+02 8.717007e+01 1.138700e+02 9.147237e+01 1.191520e+02 6.615202e+01 7.041508e+01
<GCONST> 7.413178e+01
<STATE> 4
<MEAN> 12
 4.998519e-01 1.230052e+00 1.675729e+00 -6.453451e+00 -3.826007e+00 -3.944518e+00 -9.183825e+00 -8.133853e+00 -2.460469e+00 -2.534739e+00 -4.946074e-01 -3.016317e+00
<VARIANCE> 12
 2.711156e+01 3.280924e+01 5.375290e+01 6.262656e+01 4.457909e+01 8.485567e+01 5.365274e+01 4.883678e+01 2.878212e+01 3.101204e+01 3.994916e+01 3.545328e+01
<GCONST> 6.712597e+01
<TRANSP> 5
 0.000000e+00 1.000000e+00 0.000000e+00 0.000000e+00 0.000000e+00
 0.000000e+00 7.821071e-01 2.178929e-01 0.000000e+00 0.000000e+00
 0.000000e+00 0.000000e+00 7.352304e-01 2.647696e-01 0.000000e+00
 0.000000e+00 0.000000e+00 0.000000e+00 6.600067e-01 3.399933e-01
 0.000000e+00 0.000000e+00 0.000000e+00 0.000000e+00 0.000000e+00
<ENDHMM>
~h "x"
<BEGINHMM>
<NUMSTATES> 5
<STATE> 2
<MEAN> 12
 -5.780807e+00 -2.025008e+00 -1.886921e+00 -7.839093e+00 4.127194e+00 3.443668e+00 -2.928290e+00 -2.476830e+00 1.065153e+00 -3.071083e+00 -1.696897e+00 -2.870356e+00
<VARIANCE> 12
 6.844283e+01 4.389330e+01 2.952971e+01 5.188942e+01 5.554520e+01 5.993867e+01 4.728472e+01 4.521764e+01 4.820242e+01 3.440087e+01 5.114514e+01 2.786925e+01
<GCONST> 6.785068e+01
<STATE> 3
<MEAN> 12
 -1.159888e+01 1.851833e+00 -6.355891e+00 -1.089945e+01 3.998483e+00 7.837120e+00 -4.856142e+00 9.761073e-01 5.273460e+00 -5.475071e+00 4.080731e+00 -5.018003e+00
<VARIANCE> 12
 5.112777e+01 4.401413e+01 3.637448e+01 5.420509e+01 8.974885e+01 8.273883e+01 4.869976e+01 8.394334e+01 7.359455e+01 5.636335e+01 6.320504e+01 4.093699e+01
<GCONST> 7.077734e+01
<STATE> 4
<MEAN> 12
 -1.470435e+00 -7.111561e-01 -1.405976e+00 -1.497834e+01 -2.934311e+00 8.903662e+00 -5.307503e+00 -2.388981e+00 3.369039e+00 -6.733749e+00 2.573117e+00 -5.741659e+00
<VARIANCE> 12
 4.353616e+01 6.396112e+01 6.814951e+01 1.360515e+02 7.303774e+01 8.776575e+01 1.233027e+02 5.952560e+01 9.923071e+01 6.126391e+01 6.526189e+01 6.050317e+01
<GCONST> 7.378157e+01
<TRANSP> 5
 0.000000e+00 1.000000e+00 0.000000e+00 0.000000e+00 0.000000e+00
 0.000000e+00 6.166155e-01 3.833845e-01 0.000000e+00 0.000000e+00
 0.000000e+00 0.000000e+00 7.622017e-01 2.377983e-01 0.000000e+00
 0.000000e+00 0.000000e+00 0.000000e+00 5.829013e-01 4.170987e-01
 0.000000e+00 0.000000e+00 0.000000e+00 0.000000e+00 0.000000e+00
<ENDHMM>
~h "y"
<BEGINHMM>
<NUMSTATES> 5
<STATE> 2
<MEAN> 12
 -4.780907e+00 -4.738295e+00 1.541671e+01 5.766716e+00 -1.881248e+01 -4.096495e+00 -1.266893e+01 -6.715707e+00 -3.897451e+00 -1.303736e+01 5.518083e+00 -1.106724e+01
<VARIANCE> 12
 2.193725e+01 2.082061e+01 5.367898e+01 7.024520e+01 9.659508e+01 9.660800e+01 7.563136e+01 8.096550e+01 5.909699e+01 9.160749e+01 5.767915e+01 5.429683e+01
<GCONST> 7.092081e+01
<STATE> 3
<MEAN> 12
 -1.938755e+00 -4.734842e+00 2.099708e+01 7.187683e+00 -1.178759e+01 -7.836743e+00 -6.198165e+00 -1.824067e+00 -8.545506e+00 -7.087235e+00 1.814312e+00 -2.623944e+00
<VARIANCE> 12
 1.217137e+01 2.571900e+01 5.243893e+01 3.409468e+01 4.748403e+01 5.159115e+01 6.850774e+01 5.924404e+01 4.102744e+01 4.857351e+01 2.605212e+01 3.931847e+01
<GCONST> 6.593111e+01
<STATE> 4
<MEAN> 12
 -7.423085e+00 6.803971e-03 1.317362e+01 3.968346e-01 -7.936884e+00 -5.871161e+00 -6.520222e+00 -4.560409e+00 -3.380971e+00 -2.483099e+00 -2.520968e+00 -3.651841e+00
<VARIANCE> 12
 3.708552e+01 6.062064e+01 9.577926e+01 5.096832e+01 1.254767e+02 6.894308e+01 8.490746e+01 4.448487e+01 3.360686e+01 7.556421e+01 3.794930e+01 5.214818e+01
<GCONST> 7.099780e+01
<TRANSP> 5
 0.000000e+00 1.000000e+00 0.000000e+00 0.000000e+00 0.000000e+00
 0.000000e+00 6.944532e-01 3.055467e-01 0.000000e+00 0.000000e+00
 0.000000e+00 0.000000e+00 7.692682e-01 2.307318e-01 0.000000e+00
 0.000000e+00 0.000000e+00 0.000000e+00 5.028753e-01 4.971248e-01
 0.000000e+00 0.000000e+00 0.000000e+00 0.000000e+00 0.000000e+00
<ENDHMM>
~h "#i"
<BEGINHMM>
<NUMSTATES> 5
<STATE> 2
<MEAN> 12
 -2.610681e+00 -2.905232e+00 7.016117e+00 -6.446358e+00 -8.443081e+00 -1.458467e+01 -9.490985e+00 -2.962625e+00 -2.506801e+00 -4.421307e+00 -3.137596e+00 1.693002e+00
<VARIANCE> 12
 1.562563e+01 2.506417e+01 3.105356e+01 6.388008e+01 2.960594e+01 4.211840e+01 2.368150e+01 4.742310e+01 2.624031e+01 2.196441e+01 2.116046e+01 3.784257e+01
<GCONST> 6.281215e+01
<STATE> 3
<MEAN> 12
 9.634957e-02 -9.563141e+00 1.504854e+01 6.965950e-01 -8.364888e+00 -1.266740e+01 -1.387497e+01 -1.397899e-01 -3.110009e+00 -6.458571e+00 5.998586e-01 -4.656095e+00
<VARIANCE> 12
 2.190084e+01 6.476397e+01 1.252865e+02 4.976021e+01 5.336280e+01 5.388955e+01 7.859859e+01 7.927843e+01 5.782069e+01 6.080659e+01 4.011037e+01 7.552251e+01
<GCONST> 7.093210e+01
<STATE> 4
<MEAN> 12
 -3.717698e+00 -2.401780e+00 3.472980e+00 -3.347452e-01 -1.386806e+00 -6.998643e+00 -3.276985e+00 -2.971277e+00 1.466318e+00 -4.290923e+00 -1.775298e+00 3.364764e-01
<VARIANCE> 12
 4.093256e+01 2.964868e+01 5.625697e+01 3.740864e+01 3.575123e+01 4.037284e+01 3.242294e+01 4.036897e+01 4.008657e+01 4.566109e+01 2.098395e+01 2.947386e+01
<GCONST> 6.519892e+01
<TRANSP> 5
 0.000000e+00 1.000000e+00 0.000000e+00 0.000000e+00 0.000000e+00
 0.000000e+00 6.632894e-01 3.367106e-01 0.000000e+00 0.000000e+00
 0.000000e+00 0.000000e+00 6.629099e-01 3.370900e-01 0.000000e+00
 0.000000e+00 0.000000e+00 0.000000e+00 7.289596e-01 2.710404e-01
 0.000000e+00 0.000000e+00 0.000000e+00 0.000000e+00 0.000000e+00
<ENDHMM>
~h "#s"
<BEGINHMM>
<NUMSTATES> 5
<STATE> 2
<MEAN> 12
 -2.197170e+01 8.167884e+00 2.948965e+00 -4.090223e+00 3.959518e+00 -5.959894e+00 4.048065e+00 -7.865856e-01 6.804452e-02 -2.130647e-01 6.301687e-01 3.290901e-01
<VARIANCE> 12
 3.379424e+01 1.775958e+01 6.265587e+01 3.997208e+01 2.780295e+01 3.064770e+01 3.367404e+01 2.765267e+01 3.368919e+01 2.656728e+01 1.726528e+01 2.324858e+01
<GCONST> 6.265353e+01
<STATE> 3
<MEAN> 12
 -2.805916e+01 1.522016e+00 4.923279e+00 -3.584956e+00 -1.527328e+00 -4.957436e+00 4.964532e+00 -5.629056e+00 2.238005e+00 -1.780550e+00 6.931754e-01 -1.559672e+00
<VARIANCE> 12
 3.081796e+01 2.471358e+01 4.447603e+01 3.115292e+01 4.296674e+01 4.624564e+01 2.763621e+01 4.750132e+01 2.765784e+01 2.619650e+01 3.409730e+01 2.887904e+01
<GCONST> 6.417597e+01
<STATE> 4
<MEAN> 12
 -1.294166e+01 2.856349e+00 1.012732e+01 -1.731973e+00 -4.301229e+00 -9.535781e+00 2.831165e-01 -4.657413e+00 -1.887895e+00 -5.270460e+00 -1.008748e+00 -2.499438e+00
<VARIANCE> 12
 4.517448e+01 2.441824e+01 6.543242e+01 4.688352e+01 3.275507e+01 3.938326e+01 3.969505e+01 5.039364e+01 3.761663e+01 2.872060e+01 2.483921e+01 3.104112e+01
<GCONST> 6.548536e+01
<TRANSP> 5
 0.000000e+00 1.000000e+00 0.000000e+00 0.000000e+00 0.000000e+00
 0.000000e+00 7.791417e-01 2.208583e-01 0.000000e+00 0.000000e+00
 0.000000e+00 0.000000e+00 7.490287e-01 2.509712e-01 0.000000e+00
 0.000000e+00 0.000000e+00 0.000000e+00 1.578644e-01 8.421356e-01
 0.000000e+00 0.000000e+00 0.000000e+00 0.000000e+00 0.000000e+00
<ENDHMM>
~h "aN"
<BEGINHMM>
<NUMSTATES> 5
<STATE> 2
<MEAN> 12
 -1.740047e+00 -1.477439e+01 1.196966e+00 -9.672724e+00 5.285557e+00 -1.506314e-01 2.515064e-01 -6.256158e+00 7.073448e+00 -8.741104e+00 -4.714273e+00 -4.888818e+00
<VARIANCE> 12
 1.876162e+01 2.789116e+01 3.791480e+01 5.001492e+01 7.169373e+01 9.971044e+01 7.525642e+01 6.658540e+01 5.847842e+01 6.586860e+01 4.686150e+01 3.161279e+01
<GCONST> 6.881345e+01
<STATE> 3
<MEAN> 12
 -7.691365e-01 -1.115572e+01 4.230990e+00 -8.205152e+00 -7.965841e+00 4.419999e+00 -1.531020e+01 4.756596e+00 -2.250522e+00 -4.596049e+00 -4.950624e+00 -8.820747e+00
<VARIANCE> 12
 1.211488e+01 6.766753e+01 8.225402e+01 5.785064e+01 9.722649e+01 8.593510e+01 1.471056e+02 8.988263e+01 9.756088e+01 6.769849e+01 6.767032e+01 4.615375e+01
<GCONST> 7.259370e+01
<STATE> 4
<MEAN> 12
 6.693467e-01 -8.232670e-01 7.195263e+00 1.749683e+00 -1.938446e+00 -7.721857e-01 -5.028729e+00 -2.989573e+00 3.182338e+00 -3.265635e+00 -4.348119e+00 -2.601647e+00
<VARIANCE> 12
 1.131559e+01 4.223349e+01 6.309679e+01 3.357158e+01 6.341528e+01 7.145414e+01 1.437098e+02 6.838382e+01 4.119379e+01 3.904070e+01 2.518077e+01 5.188291e+01
<GCONST> 6.805193e+01
<TRANSP> 5
 0.000000e+00 1.000000e+00 0.000000e+00 0.000000e+00 0.000000e+00
 0.000000e+00 7.944280e-01 2.055719e-01 0.000000e+00 0.000000e+00
 0.000000e+00 0.000000e+00 7.284183e-01 2.715817e-01 0.000000e+00
 0.000000e+00 0.000000e+00 0.000000e+00 7.183858e-01 2.816142e-01
 0.000000e+00 0.000000e+00 0.000000e+00 0.000000e+00 0.000000e+00
<ENDHMM>
~h "ai"
<BEGINHMM>
<NUMSTATES> 5
<STATE> 2
<MEAN> 12
 -1.952963e+00 -1.557577e+01 2.353187e+00 -8.802474e+00 -2.411432e+00 -5.465540e+00 2.384155e+00 -4.531457e-01 1.224063e+00 -7.818816e+00 -1.093015e+01 -2.225230e+00
<VARIANCE> 12
 1.870682e+01 4.062655e+01 3.814071e+01 3.786356e+01 5.954506e+01 6.860291e+01 6.559778e+01 8.001012e+01 8.115181e+01 4.616488e+01 4.397417e+01 4.378419e+01
<GCONST> 6.863528e+01
<STATE> 3
<MEAN> 12
 -4.544170e-01 -1.811285e+01 1.181723e+01 -9.638727e+00 -9.836183e+00 -1.815104e+00 -7.432615e+00 1.102621e+01 -6.375664e-01 -3.134840e+00 -5.693212e+00 -8.489651e+00
<VARIANCE> 12
 1.685725e+01 5.938055e+01 8.143027e+01 4.391022e+01 5.377849e+01 6.438322e+01 5.529350e+01 6.369834e+01 6.874202e+01 5.511723e+01 6.658813e+01 5.631195e+01
<GCONST> 6.993096e+01
<STATE> 4
<MEAN> 12
 -3.753305e+00 -4.763943e+00 7.856246e+00 -1.081431e+00 -7.677417e+00 -6.730018e+00 -2.386773e+00 2.201589e+00 6.481019e-01 -1.985202e+00 -1.665617e+00 -2.202264e+00
<VARIANCE> 12
 2.708290e+01 3.812694e+01 5.717341e+01 5.201980e+01 5.607549e+01 4.943896e+01 5.114878e+01 3.911952e+01 3.686169e+01 4.970279e+01 3.965815e+01 3.378480e+01
<GCONST> 6.723441e+01
<TRANSP> 5
 0.000000e+00 1.000000e+00 0.000000e+00 0.000000e+00 0.000000e+00
 0.000000e+00 8.351219e-01 1.648781e-01 0.000000e+00 0.000000e+00
 0.000000e+00 0.000000e+00 7.259806e-01 2.740194e-01 0.000000e+00
 0.000000e+00 0.000000e+00 0.000000e+00 6.396971e-01 3.603029e-01
 0.000000e+00 0.000000e+00 0.000000e+00 0.000000e+00 0.000000e+00
<ENDHMM>
~h "au"
<BEGINHMM>
<NUMSTATES> 5
<STATE> 2
<MEAN> 12
 -2.628347e+00 -9.355464e+00 -8.704590e+00 -1.794471e+01 3.639437e+00 2.166349e+00 -6.161461e+00 -3.899284e+00 -4.223000e-01 -6.892241e+00 -4.267560e+00 -6.049093e+00
<VARIANCE> 12
 2.052175e+01 2.653773e+01 2.194514e+01 7.558806e+01 4.253951e+01 7.411914e+01 3.830805e+01 3.639973e+01 4.905761e+01 4.377192e+01 3.925665e+01 3.046334e+01
<GCONST> 6.582339e+01
<STATE> 3
<MEAN> 12
 -6.970815e-03 -9.547014e+00 3.092390e+00 -2.681414e+01 1.451138e+00 1.137813e+01 -7.124538e+00 -1.119828e+00 2.261162e+00 -5.600685e+00 -8.789554e-01 -5.862433e+00
<VARIANCE> 12
 1.928403e+01 7.302531e+01 5.035907e+01 6.642737e+01 7.859269e+01 7.724586e+01 8.185371e+01 9.172283e+01 9.806535e+01 8.080183e+01 5.150131e+01 7.316545e+01
<GCONST> 7.226684e+01
<STATE> 4
<MEAN> 12
 3.425507e-01 -1.860327e+00 -1.234068e+00 -9.625209e+00 9.556503e-01 3.007307e+00 3.180349e+00 -4.904117e+00 4.340307e+00 -5.181457e-01 -6.003538e-01 -1.095096e+00
<VARIANCE> 12
 1.693819e+01 4.034677e+01 4.389699e+01 5.267437e+01 6.524549e+01 9.529563e+01 1.750764e+02 5.538287e+01 4.854523e+01 5.754137e+01 2.801600e+01 5.391160e+01
<GCONST> 6.949734e+01
<TRANSP> 5
 0.000000e+00 1.000000e+00 0.000000e+00 0.000000e+00 0.000000e+00
 0.000000e+00 7.905720e-01 2.094280e-01 0.000000e+00 0.000000e+00
 0.000000e+00 0.000000e+00 8.474871e-01 1.525129e-01 0.000000e+00
 0.000000e+00 0.000000e+00 0.000000e+00 6.265628e-01 3.734372e-01
 0.000000e+00 0.000000e+00 0.000000e+00 0.000000e+00 0.000000e+00
<ENDHMM>
~h "eN"
<BEGINHMM>
<NUMSTATES> 5
<STATE> 2
<MEAN> 12
 -7.652209e-01 -3.421894e+00 3.361689e+00 -6.762997e+00 -4.606498e+00 -1.070078e+01 -7.092508e+00 -4.625465e+00 2.200938e-01 -8.577036e+00 -4.746852e+00 -5.926843e-01
<VARIANCE> 12
 1.382124e+01 2.177478e+01 5.398664e+01 2.978953e+01 3.983646e+01 3.615282e+01 5.517127e+01 1.207333e+02 4.660863e+01 7.089768e+01 4.306501e+01 3.606703e+01
<GCONST> 6.667205e+01
<STATE> 3
<MEAN> 12
 1.786520e+00 -3.658242e+00 1.405171e+01 -2.828957e+00 -5.118474e+00 -5.963618e-01 -1.193227e+01 -1.090588e+00 -3.240381e+00 -2.446572e+00 -3.429780e+00 -9.537415e+00
<VARIANCE> 12
 1.258258e+01 4.471310e+01 8.745920e+01 6.360818e+01 4.989684e+01 6.392644e+01 7.650508e+01 7.522972e+01 8.406173e+01 7.177837e+01 4.760270e+01 6.670163e+01
<GCONST> 7.050486e+01
<STATE> 4
<MEAN> 12
 -2.632598e+00 2.310501e+00 8.472942e+00 3.490404e+00 7.431914e-01 -4.047168e+00 -4.183929e+00 -6.004970e+00 -1.209352e+00 -4.198780e+00 -4.245815e+00 -3.711972e+00
<VARIANCE> 12
 3.262316e+01 3.470411e+01 4.250365e+01 4.936937e+01 3.584017e+01 3.373420e+01 6.205389e+01 4.951567e+01 6.257329e+01 7.133453e+01 3.115936e+01 3.949195e+01
<GCONST> 6.738213e+01
<TRANSP> 5
 0.000000e+00 1.000000e+00 0.000000e+00 0.000000e+00 0.000000e+00
 0.000000e+00 7.923610e-01 2.076390e-01 0.000000e+00 0.000000e+00
 0.000000e+00 0.000000e+00 6.777970e-01 3.222030e-01 0.000000e+00
 0.000000e+00 0.000000e+00 0.000000e+00 6.684597e-01 3.315402e-01
 0.000000e+00 0.000000e+00 0.000000e+00 0.000000e+00 0.000000e+00
<ENDHMM>
~h "dz"
<BEGINHMM>
<NUMSTATES> 5
<STATE> 2
<MEAN> 12
 -1.833599e+01 5.129179e+00 -1.960045e+00 3.719125e+00 -7.120740e-01 1.679102e-02 -1.736635e+00 2.823680e-02 9.060715e-01 4.782051e-01 -3.966540e-01 -6.435904e-01
<VARIANCE> 12
 5.882956e+01 3.176056e+01 3.470386e+01 4.386022e+01 3.083393e+01 4.288984e+01 3.706125e+01 4.084038e+01 2.928314e+01 2.848239e+01 2.227600e+01 2.354175e+01
<GCONST> 6.441333e+01
<STATE> 3
<MEAN> 12
 -8.375340e+00 5.788438e+00 3.269632e-01 -3.528027e+00 1.442492e+00 -1.491915e+00 -1.265687e+01 -1.044030e+01 4.128531e+00 6.722057e-02 -2.785507e-01 -2.829521e+00
<VARIANCE> 12
 2.175885e+01 2.289857e+01 2.457705e+01 4.411897e+01 3.270281e+01 4.929187e+01 5.656870e+01 6.390405e+01 6.198055e+01 3.383084e+01 2.994291e+01 2.988968e+01
<GCONST> 6.527737e+01
<STATE> 4
<MEAN> 12
 -4.313076e+00 -4.533886e+00 2.022534e+00 -1.132727e+01 -2.328329e+00 1.032620e-01 -1.357046e+01 -7.236909e-01 4.880331e+00 -1.425170e+00 -3.770156e+00 -4.435801e+00
<VARIANCE> 12
 1.028152e+01 6.498081e+01 3.666530e+01 8.240223e+01 5.457373e+01 1.052314e+02 1.863495e+02 7.810947e+01 7.489292e+01 5.681437e+01 6.744620e+01 5.962186e+01
<GCONST> 7.146906e+01
<TRANSP> 5
 0.000000e+00 1.000000e+00 0.000000e+00 0.000000e+00 0.000000e+00
 0.000000e+00 8.228089e-01 1.771911e-01 0.000000e+00 0.000000e+00
 0.000000e+00 0.000000e+00 5.497196e-01 4.502804e-01 0.000000e+00
 0.000000e+00 0.000000e+00 0.000000e+00 6.357366e-01 3.642634e-01
 0.000000e+00 0.000000e+00 0.000000e+00 0.000000e+00 0.000000e+00
<ENDHMM>
~h "ei"
<BEGINHMM>
<NUMSTATES> 5
<STATE> 2
<MEAN> 12
 -3.243785e+00 -8.628201e+00 2.016227e+01 -6.535207e+00 -1.694383e+01 -7.482258e+00 -8.989118e+00 -1.423152e+00 -4.916808e+00 -3.806841e+00 3.983855e+00 -6.378940e+00
<VARIANCE> 12
 3.266892e+01 6.033756e+01 8.712934e+01 5.478417e+01 9.718343e+01 4.879492e+01 8.837116e+01 1.117486e+02 7.518298e+01 5.654303e+01 3.950777e+01 4.070049e+01
<GCONST> 7.151138e+01
<STATE> 3
<MEAN> 12
 -6.463342e-01 -2.030045e+00 7.970967e+00 -1.027845e+01 -1.450272e+01 -8.334811e+00 -5.050232e+00 -3.625720e+00 -4.861707e+00 -1.612230e+00 -5.247590e+00 -1.269068e+00
<VARIANCE> 12
 1.469422e+01 2.041689e+01 6.345965e+01 4.949666e+01 2.532014e+01 2.861123e+01 3.425594e+01 4.928193e+01 4.366764e+01 3.889576e+01 5.106433e+01 2.047222e+01
<GCONST> 6.421712e+01
<STATE> 4
<MEAN> 12
 -6.165310e+00 -2.963121e+00 1.021990e+01 3.229797e-01 -7.030597e+00 -8.155631e+00 -4.502234e+00 -3.583934e+00 -1.158574e+00 -3.729022e+00 7.076021e-01 -1.222123e+00
<VARIANCE> 12
 2.911362e+01 4.448604e+01 9.861705e+01 3.912834e+01 7.200088e+01 3.572864e+01 3.482233e+01 4.583986e+01 4.366865e+01 3.546799e+01 3.291587e+01 2.426513e+01
<GCONST> 6.673530e+01
<TRANSP> 5
 0.000000e+00 1.000000e+00 0.000000e+00 0.000000e+00 0.000000e+00
 0.000000e+00 7.620604e-01 2.379396e-01 0.000000e+00 0.000000e+00
 0.000000e+00 0.000000e+00 7.248104e-01 2.751896e-01 0.000000e+00
 0.000000e+00 0.000000e+00 0.000000e+00 6.086515e-01 3.913484e-01
 0.000000e+00 0.000000e+00 0.000000e+00 0.000000e+00 0.000000e+00
<ENDHMM>
~h "er"
<BEGINHMM>
<NUMSTATES> 5
<STATE> 2
<MEAN> 12
 -2.524504e-01 -2.005136e+01 -4.386164e+00 -1.011076e+01 3.121026e-01 -6.722892e+00 1.392205e-01 -1.103168e+00 -5.848117e+00 -5.292414e+00 -6.633420e+00 -5.264719e+00
<VARIANCE> 12
 2.058439e+01 2.224966e+01 2.527420e+01 2.158735e+01 4.264830e+01 2.308714e+02 4.408571e+01 1.136588e+02 7.290150e+01 3.462446e+01 3.343922e+01 4.568516e+01
<GCONST> 6.736263e+01
<STATE> 3
<MEAN> 12
 3.443132e+00 -1.110640e+01 -1.827641e+00 -3.995626e+00 -1.105363e+01 -3.254461e+00 -4.112228e+00 5.487061e+00 -3.039225e+00 -1.000402e+01 -1.632889e+01 1.990117e+00
<VARIANCE> 12
 7.212342e+00 1.298422e+01 1.320977e+01 1.590544e+01 3.207052e+01 2.796166e+01 1.353975e+01 1.419840e+01 2.343674e+01 1.922455e+01 4.875532e+01 7.497704e+00
<GCONST> 5.601110e+01
<STATE> 4
<MEAN> 12
 3.218564e+00 -5.544503e+00 -8.368622e+00 7.757623e+00 -1.484819e+00 -5.169650e+00 -1.215280e+01 -3.510591e+00 1.117630e+01 -2.079218e+00 -6.429561e+00 2.963126e+00
<VARIANCE> 12
 1.078621e+01 2.291143e+01 6.870640e+01 7.600786e+01 2.000921e+01 2.631346e+01 6.473258e+01 2.161733e+01 9.884321e+01 4.141764e+01 5.515636e+01 4.402872e+01
<GCONST> 6.574740e+01
<TRANSP> 5
 0.000000e+00 1.000000e+00 0.000000e+00 0.000000e+00 0.000000e+00
 0.000000e+00 8.183289e-01 1.816711e-01 0.000000e+00 0.000000e+00
 0.000000e+00 0.000000e+00 8.234084e-01 1.765915e-01 0.000000e+00
 0.000000e+00 0.000000e+00 0.000000e+00 7.461384e-01 2.538616e-01
 0.000000e+00 0.000000e+00 0.000000e+00 0.000000e+00 0.000000e+00
<ENDHMM>
~h "iE"
<BEGINHMM>
<NUMSTATES> 5
<STATE> 2
<MEAN> 12
 -4.495644e+00 -1.138832e+00 1.726325e+01 -1.840826e-01 -1.158178e+01 -8.209858e+00 -6.812896e+00 -2.690494e+00 -6.940712e+00 -5.242018e+00 2.044111e+00 8.071725e-01
<VARIANCE> 12
 1.865361e+01 2.407987e+01 2.720170e+01 3.893830e+01 4.028209e+01 3.733138e+01 3.569643e+01 1.233805e+02 6.997863e+01 1.297163e+02 3.028183e+01 2.270794e+01
<GCONST> 6.648007e+01
<STATE> 3
<MEAN> 12
 -1.613130e+00 -1.247004e+01 2.421910e+01 -1.026165e+01 -1.370669e+01 -1.080374e+01 -1.164101e+01 3.856865e+00 -6.547822e+00 -2.240892e+00 2.140142e+00 -3.056058e+00
<VARIANCE> 12
 2.694648e+01 5.076185e+01 8.900003e+01 3.995628e+01 2.771262e+01 4.286135e+01 6.947871e+01 5.931822e+01 4.240517e+01 4.670600e+01 3.462478e+01 3.033560e+01
<GCONST> 6.740377e+01
<STATE> 4
<MEAN> 12
 -6.045424e+00 -6.979221e+00 1.358061e+01 -9.131316e+00 -7.219004e+00 -1.119691e+01 1.209128e+00 -5.797318e+00 3.229654e+00 -3.865970e+00 -9.228168e-01 -2.038290e+00
<VARIANCE> 12
 3.439500e+01 6.718521e+01 5.619913e+01 1.005745e+02 4.157925e+01 7.114114e+01 7.085796e+01 4.721322e+01 5.839748e+01 2.785681e+01 4.191319e+01 2.981242e+01
<GCONST> 6.907218e+01
<TRANSP> 5
 0.000000e+00 1.000000e+00 0.000000e+00 0.000000e+00 0.000000e+00
 0.000000e+00 7.526835e-01 2.473166e-01 0.000000e+00 0.000000e+00
 0.000000e+00 0.000000e+00 7.635956e-01 2.364044e-01 0.000000e+00
 0.000000e+00 0.000000e+00 0.000000e+00 6.774634e-01 3.225366e-01
 0.000000e+00 0.000000e+00 0.000000e+00 0.000000e+00 0.000000e+00
<ENDHMM>
~h "iN"
<BEGINHMM>
<NUMSTATES> 5
<STATE> 2
<MEAN> 12
 -6.399981e+00 3.513788e+00 1.765906e+01 4.799584e-01 -1.081315e+01 -5.641716e+00 -7.590258e+00 -9.545656e+00 -3.635092e+00 -8.765958e+00 1.556197e+00 -4.619168e+00
<VARIANCE> 12
 2.531681e+01 3.198098e+01 4.919402e+01 5.721420e+01 4.039670e+01 5.063305e+01 6.544171e+01 3.897595e+01 3.395942e+01 5.337774e+01 4.006304e+01 3.782439e+01
<GCONST> 6.698714e+01
<STATE> 3
<MEAN> 12
 -2.272605e+00 -4.691265e-01 1.624095e+01 -3.979739e+00 -1.108498e+01 -2.271493e+00 -7.640152e+00 -4.559301e+00 -1.195241e+01 -4.872069e+00 -2.041189e+00 -1.031455e+01
<VARIANCE> 12
 2.157512e+01 4.494247e+01 5.849578e+01 7.102055e+01 4.134602e+01 9.762733e+01 6.834241e+01 1.272239e+02 8.370947e+01 9.460146e+01 8.872552e+01 6.300886e+01
<GCONST> 7.224284e+01
<STATE> 4
<MEAN> 12
 -7.837066e-01 1.268145e+00 5.031419e+00 -5.503260e+00 -6.903691e+00 -5.847483e+00 -5.872170e+00 -9.008748e+00 -3.389942e+00 -1.946629e+00 -2.928287e+00 -2.788435e+00
<VARIANCE> 12
 2.723658e+01 2.203760e+01 5.096139e+01 5.078009e+01 2.804454e+01 3.490328e+01 2.995066e+01 3.928565e+01 2.685361e+01 2.230243e+01 2.050096e+01 1.716137e+01
<GCONST> 6.252542e+01
<TRANSP> 5
 0.000000e+00 1.000000e+00 0.000000e+00 0.000000e+00 0.000000e+00
 0.000000e+00 8.111740e-01 1.888260e-01 0.000000e+00 0.000000e+00
 0.000000e+00 0.000000e+00 6.639958e-01 3.360042e-01 0.000000e+00
 0.000000e+00 0.000000e+00 0.000000e+00 7.588499e-01 2.411501e-01
 0.000000e+00 0.000000e+00 0.000000e+00 0.000000e+00 0.000000e+00
<ENDHMM>
~h "ia"
<BEGINHMM>
<NUMSTATES> 5
<STATE> 2
<MEAN> 12
 -2.695459e+00 -1.102183e+01 5.866745e+00 -7.450604e+00 -4.439250e+00 -5.869925e+00 -1.009520e+00 3.561165e+00 4.340630e+00 -7.578345e+00 -2.340730e+00 -4.699987e+00
<VARIANCE> 12
 1.245164e+01 3.379604e+01 3.370105e+01 3.762558e+01 5.701231e+01 2.876751e+01 1.004190e+02 4.898653e+01 6.182629e+01 4.179641e+01 3.931654e+01 4.297027e+01
<GCONST> 6.643464e+01
<STATE> 3
<MEAN> 12
 9.681858e-01 -1.200284e+01 1.951445e-01 -8.746819e+00 9.326151e+00 1.061926e+00 1.049268e+00 -6.952036e+00 1.695045e+00 -1.354566e+00 -9.377550e+00 -3.000853e+00
<VARIANCE> 12
 6.813654e+00 3.320575e+01 1.418451e+01 3.513180e+01 5.644168e+01 2.616149e+01 3.459567e+01 7.425878e+01 7.689777e+01 3.858520e+01 2.249314e+01 5.728330e+01
<GCONST> 6.399278e+01
<STATE> 4
<MEAN> 12
 -4.903053e+00 -1.261618e+01 -6.096928e-01 -4.344322e+00 2.259042e+00 2.332590e+00 -1.903128e+00 -5.024506e+00 1.749243e+00 -5.728045e+00 -3.359810e-01 -4.284564e+00
<VARIANCE> 12
 2.112790e+01 1.498031e+02 1.938491e+01 1.152226e+02 3.235022e+01 5.918512e+01 5.909980e+01 6.660798e+01 7.234258e+01 6.112405e+01 2.186103e+01 4.832956e+01
<GCONST> 6.901822e+01
<TRANSP> 5
 0.000000e+00 1.000000e+00 0.000000e+00 0.000000e+00 0.000000e+00
 0.000000e+00 7.793437e-01 2.206563e-01 0.000000e+00 0.000000e+00
 0.000000e+00 0.000000e+00 8.459131e-01 1.540869e-01 0.000000e+00
 0.000000e+00 0.000000e+00 0.000000e+00 6.585603e-01 3.414398e-01
 0.000000e+00 0.000000e+00 0.000000e+00 0.000000e+00 0.000000e+00
<ENDHMM>
~h "iu"
<BEGINHMM>
<NUMSTATES> 5
<STATE> 2
<MEAN> 12
 -1.628954e+00 -7.418088e+00 1.135130e+01 -5.770005e+00 -1.080087e+01 -1.116646e+01 -1.181959e+01 -4.689940e+00 -2.319048e+00 -4.568548e+00 -1.643895e+00 -3.591296e+00
<VARIANCE> 12
 1.868816e+01 2.983350e+01 6.501322e+01 6.501534e+01 4.894872e+01 5.442295e+01 5.191240e+01 8.701991e+01 4.811319e+01 5.376642e+01 6.276085e+01 5.358066e+01
<GCONST> 6.900924e+01
<STATE> 3
<MEAN> 12
 2.847577e+00 5.229962e-01 3.782099e+00 -1.759029e+01 -7.567719e+00 4.298950e+00 -6.649866e+00 -8.366414e+00 -9.031905e-01 -1.564677e+00 1.861183e-01 -1.655751e+00
<VARIANCE> 12
 1.224340e+01 4.390339e+01 4.920144e+01 4.718158e+01 6.484480e+01 7.554150e+01 5.155120e+01 8.129913e+01 9.197308e+01 6.423754e+01 5.666695e+01 2.333837e+01
<GCONST> 6.880020e+01
<STATE> 4
<MEAN> 12
 7.277706e-01 -4.444429e+00 7.958655e+00 -8.589689e+00 -1.929502e+00 -2.874891e-01 -1.155488e+01 -8.118294e+00 -2.068775e-01 8.605201e-01 5.540611e-01 -8.494999e+00
<VARIANCE> 12
 2.934056e+01 5.061893e+01 5.114653e+01 7.415299e+01 3.695938e+01 8.899418e+01 8.030209e+01 7.916347e+01 1.889744e+01 7.317310e+01 6.470401e+01 4.803646e+01
<GCONST> 6.972799e+01
<TRANSP> 5
 0.000000e+00 1.000000e+00 0.000000e+00 0.000000e+00 0.000000e+00
 0.000000e+00 7.391598e-01 2.608402e-01 0.000000e+00 0.000000e+00
 0.000000e+00 0.000000e+00 8.236497e-01 1.763503e-01 0.000000e+00
 0.000000e+00 0.000000e+00 0.000000e+00 5.348793e-01 4.651208e-01
 0.000000e+00 0.000000e+00 0.000000e+00 0.000000e+00 0.000000e+00
<ENDHMM>
~h "ou"
<BEGINHMM>
<NUMSTATES> 5
<STATE> 2
<MEAN> 12
 -9.069853e-01 -4.163958e+00 -6.951781e+00 -1.798804e+01 2.826355e+00 -1.415202e+00 -7.962776e+00 -5.588542e+00 -1.299357e+00 -6.483243e+00 3.760369e-01 -8.376333e+00
<VARIANCE> 12
 1.316084e+01 4.892010e+01 4.381992e+01 9.885778e+01 6.825322e+01 5.742243e+01 6.225776e+01 6.278212e+01 4.029379e+01 1.141467e+02 4.936363e+01 4.482853e+01
<GCONST> 6.957608e+01
<STATE> 3
<MEAN> 12
 1.390333e+00 1.589454e+00 2.658153e+00 -2.077252e+01 -1.046560e+01 1.120219e+01 -1.093815e+01 -4.303223e+00 1.774140e+00 -4.063957e+00 1.781203e+00 -2.163780e+00
<VARIANCE> 12
 1.183433e+01 3.167843e+01 3.937745e+01 8.252647e+01 7.468980e+01 9.022360e+01 8.992031e+01 1.121987e+02 8.977538e+01 8.412463e+01 4.787457e+01 4.979250e+01
<GCONST> 7.080837e+01
<STATE> 4
<MEAN> 12
 2.564812e+00 1.199468e+00 2.143549e-01 -6.873234e+00 1.911871e+00 2.116060e+00 6.225822e-01 2.397419e+00 -1.426468e+00 1.178604e-01 3.574801e+00 2.820753e+00
<VARIANCE> 12
 1.517172e+01 1.431068e+01 1.805664e+01 2.256456e+01 2.309955e+01 3.953277e+01 7.046556e+01 7.669755e+01 4.368369e+01 3.398008e+01 4.484055e+01 3.723515e+01
<GCONST> 6.357991e+01
<TRANSP> 5
 0.000000e+00 1.000000e+00 0.000000e+00 0.000000e+00 0.000000e+00
 0.000000e+00 6.636188e-01 3.363813e-01 0.000000e+00 0.000000e+00
 0.000000e+00 0.000000e+00 8.030712e-01 1.969288e-01 0.000000e+00
 0.000000e+00 0.000000e+00 0.000000e+00 7.855714e-01 2.144285e-01
 0.000000e+00 0.000000e+00 0.000000e+00 0.000000e+00 0.000000e+00
<ENDHMM>
~h "s#"
<BEGINHMM>
<NUMSTATES> 5
<STATE> 2
<MEAN> 12
 -1.882994e+01 2.852320e-01 5.826424e+00 -2.721071e+00 8.619404e-01 -3.683369e+00 -1.559147e+00 1.561988e+00 2.480731e+00 -2.104260e+00 6.138743e-03 8.892418e-02
<VARIANCE> 12
 4.586441e+01 2.249154e+01 5.079554e+01 1.037044e+02 3.428733e+01 4.951399e+01 3.124159e+01 3.928001e+01 4.390262e+01 2.302419e+01 2.461664e+01 3.203864e+01
<GCONST> 6.570109e+01
<STATE> 3
<MEAN> 12
 -2.617188e+01 -8.397218e+00 9.179167e+00 3.842412e+00 -1.766367e+00 -7.559205e+00 1.986426e+00 -1.159677e+00 3.229382e+00 -2.827289e+00 7.496819e-01 -2.162043e+00
<VARIANCE> 12
 4.175167e+01 3.069155e+01 2.120527e+01 5.063577e+01 3.493452e+01 2.835494e+01 3.530102e+01 3.062417e+01 3.537477e+01 2.667621e+01 2.144099e+01 2.196480e+01
<GCONST> 6.307765e+01
<STATE> 4
<MEAN> 12
 -8.406739e+00 -6.470678e+00 5.127254e+00 6.618062e-01 -4.361115e+00 -1.066330e+01 -5.976483e+00 -4.653729e+00 3.283131e+00 -6.144580e+00 -6.340392e-01 -2.392525e+00
<VARIANCE> 12
 8.377557e+01 6.262787e+01 5.572486e+01 7.110332e+01 8.569967e+01 7.187041e+01 8.235696e+01 7.588534e+01 5.811418e+01 4.056741e+01 5.280642e+01 4.542746e+01
<GCONST> 7.191856e+01
<TRANSP> 5
 0.000000e+00 1.000000e+00 0.000000e+00 0.000000e+00 0.000000e+00
 0.000000e+00 6.864334e-01 3.135666e-01 0.000000e+00 0.000000e+00
 0.000000e+00 0.000000e+00 7.949330e-01 2.050670e-01 0.000000e+00
 0.000000e+00 0.000000e+00 0.000000e+00 5.756600e-01 4.243400e-01
 0.000000e+00 0.000000e+00 0.000000e+00 0.000000e+00 0.000000e+00
<ENDHMM>
~h "ts"
<BEGINHMM>
<NUMSTATES> 5
<STATE> 2
<MEAN> 12
 -1.598068e+01 6.998127e+00 3.331277e-01 2.445477e+00 1.197618e+00 -4.710104e+00 -4.446587e+00 -5.552268e+00 -6.976272e-01 -3.169293e+00 -1.801999e+00 -2.812154e+00
<VARIANCE> 12
 5.743228e+01 2.108644e+01 4.578276e+01 2.236616e+01 3.689663e+01 4.123537e+01 4.160155e+01 5.990887e+01 4.231517e+01 4.606488e+01 2.750582e+01 2.125097e+01
<GCONST> 6.517959e+01
<STATE> 3
<MEAN> 12
 -1.725309e+01 -2.294413e+00 -2.462241e+00 -4.018154e+00 6.430974e+00 -3.359998e+00 -2.559837e+00 -1.465715e+00 4.144717e+00 3.700764e-01 3.028695e-02 -1.743739e+00
<VARIANCE> 12
 2.909037e+01 1.657987e+01 2.055582e+01 6.575908e+01 2.939771e+01 5.892384e+01 2.659975e+01 4.016790e+01 3.416969e+01 2.426263e+01 3.883558e+01 2.967481e+01
<GCONST> 6.364331e+01
<STATE> 4
<MEAN> 12
 -5.031347e+00 -2.880527e+00 -7.310231e-01 -1.089173e+01 5.856118e+00 1.570039e+00 -1.192952e+01 -6.581169e+00 -3.002264e+00 -2.146897e+00 8.596632e-01 -3.825079e+00
<VARIANCE> 12
 2.474808e+01 3.683178e+01 2.254906e+01 1.033841e+02 2.622560e+01 3.407612e+01 1.332354e+02 1.018190e+02 7.804695e+01 2.833727e+01 5.005452e+01 2.360659e+01
<GCONST> 6.771056e+01
<TRANSP> 5
 0.000000e+00 1.000000e+00 0.000000e+00 0.000000e+00 0.000000e+00
 0.000000e+00 8.674070e-01 1.325930e-01 0.000000e+00 0.000000e+00
 0.000000e+00 0.000000e+00 7.866406e-01 2.133595e-01 0.000000e+00
 0.000000e+00 0.000000e+00 0.000000e+00 6.509698e-01 3.490301e-01
 0.000000e+00 0.000000e+00 0.000000e+00 0.000000e+00 0.000000e+00
<ENDHMM>
~h "ua"
<BEGINHMM>
<NUMSTATES> 5
<STATE> 2
<MEAN> 12
 2.294739e-01 -1.200311e+01 -1.623735e+00 -1.658428e+01 7.360606e+00 1.125328e+01 2.453237e+00 -1.129664e+01 1.441300e+00 -4.646432e+00 -1.956294e+00 -5.814015e+00
<VARIANCE> 12
 1.543061e+01 4.434181e+01 3.689819e+01 7.213682e+01 7.399677e+01 5.824244e+01 3.113453e+01 3.400093e+01 4.441506e+01 4.721155e+01 1.835205e+01 2.949097e+01
<GCONST> 6.574491e+01
<STATE> 3
<MEAN> 12
 -2.795550e+00 -1.818869e+01 1.046841e+00 -1.255810e+01 3.253085e+00 1.073739e+01 -1.000999e+01 -3.083695e+00 -1.106122e+00 -2.951910e+00 -5.798888e+00 -1.221499e+01
<VARIANCE> 12
 3.107757e+01 5.385506e+01 6.719891e+01 3.562070e+01 4.353262e+01 7.299950e+01 7.889192e+01 6.191751e+01 4.071795e+01 3.465745e+01 3.665996e+01 3.938328e+01
<GCONST> 6.834294e+01
<STATE> 4
<MEAN> 12
 -4.301401e+00 -7.306672e+00 3.568194e+00 -3.906256e-01 2.961501e-01 -2.339613e+00 2.768984e+00 1.230888e+00 3.776721e+00 -7.237904e-03 -2.125763e+00 -4.370606e+00
<VARIANCE> 12
 9.869565e+01 3.178267e+01 5.524903e+01 6.204736e+01 7.907481e+01 1.116626e+02 6.530080e+01 6.647740e+01 5.822814e+01 4.569104e+01 2.999172e+01 4.410905e+01
<GCONST> 7.078085e+01
<TRANSP> 5
 0.000000e+00 1.000000e+00 0.000000e+00 0.000000e+00 0.000000e+00
 0.000000e+00 8.557417e-01 1.442583e-01 0.000000e+00 0.000000e+00
 0.000000e+00 0.000000e+00 7.782553e-01 2.217446e-01 0.000000e+00
 0.000000e+00 0.000000e+00 0.000000e+00 6.368508e-01 3.631491e-01
 0.000000e+00 0.000000e+00 0.000000e+00 0.000000e+00 0.000000e+00
<ENDHMM>
~h "ui"
<BEGINHMM>
<NUMSTATES> 5
<STATE> 2
<MEAN> 12
 8.079831e-01 -7.672859e+00 5.397523e+00 -7.459804e+00 -1.266953e+01 -8.826319e+00 -8.175601e+00 1.369532e+00 2.752751e-01 -6.172792e-01 -6.143349e+00 -3.515499e+00
<VARIANCE> 12
 1.498127e+01 3.659331e+01 3.866496e+01 2.285282e+01 3.988264e+01 8.403249e+01 7.991417e+01 3.500373e+01 7.815912e+01 7.433075e+01 4.918770e+01 4.552700e+01
<GCONST> 6.757997e+01
<STATE> 3
<MEAN> 12
 -2.511094e+00 -8.557922e+00 2.171372e+01 -3.096183e+00 -1.430202e+01 -2.661983e+00 -1.748820e+01 4.012284e+00 -9.616606e+00 -5.341221e+00 5.665607e+00 -9.328749e+00
<VARIANCE> 12
 2.828711e+01 4.455659e+01 8.663230e+01 5.628776e+01 5.148322e+01 8.164058e+01 7.498841e+01 7.637361e+01 7.807413e+01 1.066088e+02 4.736415e+01 5.196439e+01
<GCONST> 7.151765e+01
<STATE> 4
<MEAN> 12
 -2.459145e+00 -6.219528e-01 1.419495e+01 -2.902908e-01 -5.230815e+00 -6.644314e+00 -2.625701e+00 2.918818e+00 -5.251964e+00 1.423383e+00 2.757395e+00 7.892305e-02
<VARIANCE> 12
 2.599001e+01 2.816349e+01 3.793134e+01 3.903669e+01 4.463974e+01 5.749112e+01 5.943672e+01 4.768737e+01 6.520010e+01 5.656020e+01 3.163528e+01 3.405329e+01
<GCONST> 6.694534e+01
<TRANSP> 5
 0.000000e+00 1.000000e+00 0.000000e+00 0.000000e+00 0.000000e+00
 0.000000e+00 7.521559e-01 2.478441e-01 0.000000e+00 0.000000e+00
 0.000000e+00 0.000000e+00 7.676905e-01 2.323094e-01 0.000000e+00
 0.000000e+00 0.000000e+00 0.000000e+00 6.558477e-01 3.441523e-01
 0.000000e+00 0.000000e+00 0.000000e+00 0.000000e+00 0.000000e+00
<ENDHMM>
~h "uo"
<BEGINHMM>
<NUMSTATES> 5
<STATE> 2
<MEAN> 12
 2.953609e+00 2.012354e+00 1.285437e+00 -1.559713e+01 -5.845856e+00 2.893384e+00 -3.672821e+00 -6.063055e+00 2.367979e-01 -3.583856e+00 1.444638e+00 4.681043e-01
<VARIANCE> 12
 1.148547e+01 3.817627e+01 4.110841e+01 6.730853e+01 5.976423e+01 7.582735e+01 6.725100e+01 5.994551e+01 5.065864e+01 3.761395e+01 4.810341e+01 4.036763e+01
<GCONST> 6.790792e+01
<STATE> 3
<MEAN> 12
 1.040865e+00 -3.711186e+00 5.723177e+00 -2.015881e+01 -1.116865e+01 1.218171e+01 -1.684058e+01 -5.569485e-01 -4.027040e+00 4.537137e-01 1.109364e+00 -6.079749e+00
<VARIANCE> 12
 2.046129e+01 6.353736e+01 6.935843e+01 8.737695e+01 9.076746e+01 1.037134e+02 8.584199e+01 1.344255e+02 9.374120e+01 9.953300e+01 4.907088e+01 6.151328e+01
<GCONST> 7.359120e+01
<STATE> 4
<MEAN> 12
 1.141155e+00 -4.000086e+00 7.665458e+00 -8.847200e+00 -1.167571e+00 -3.370047e+00 -1.128077e+01 -1.484715e+00 -2.463600e-01 4.405843e+00 -1.059247e+00 -5.777965e+00
<VARIANCE> 12
 1.979637e+01 6.374606e+01 9.335070e+01 7.328616e+01 6.840572e+01 7.406070e+01 7.370316e+01 6.823231e+01 6.347285e+01 6.975089e+01 5.465770e+01 3.724632e+01
<GCONST> 7.109315e+01
<TRANSP> 5
 0.000000e+00 1.000000e+00 0.000000e+00 0.000000e+00 0.000000e+00
 0.000000e+00 7.736311e-01 2.263689e-01 0.000000e+00 0.000000e+00
 0.000000e+00 0.000000e+00 7.776211e-01 2.223789e-01 0.000000e+00
 0.000000e+00 0.000000e+00 0.000000e+00 5.198155e-01 4.801845e-01
 0.000000e+00 0.000000e+00 0.000000e+00 0.000000e+00 0.000000e+00
<ENDHMM>
~h "yE"
<BEGINHMM>
<NUMSTATES> 5
<STATE> 2
<MEAN> 12
 -2.463707e+00 -7.682309e+00 2.210720e+01 2.377164e+00 -1.360450e+01 -1.090905e+01 -1.088156e+01 -9.872135e-01 -7.191413e+00 -1.001601e+01 4.049968e+00 -6.220559e-01
<VARIANCE> 12
 5.123794e+00 1.667434e+01 5.509372e+01 2.211332e+01 2.204092e+01 2.587736e+01 3.107970e+01 4.588484e+01 9.133469e+01 3.432340e+01 2.717157e+01 4.062441e+01
<GCONST> 6.227336e+01
<STATE> 3
<MEAN> 12
 2.681119e-02 -1.313315e+01 1.942837e+01 -7.883555e+00 -1.273109e+01 -6.113116e+00 -2.158720e+01 8.357843e+00 -3.145175e+00 -1.782580e-01 2.006377e+00 -7.602374e+00
<VARIANCE> 12
 1.506885e+01 1.947711e+01 5.231558e+01 3.327191e+01 5.201049e+01 4.364498e+01 5.255129e+01 4.861670e+01 7.436497e+01 6.850294e+01 5.959847e+01 6.174214e+01
<GCONST> 6.751816e+01
<STATE> 4
<MEAN> 12
 -8.601679e-01 -2.039276e+00 1.027252e+01 -3.052274e-02 -4.460427e+00 -8.295005e+00 -2.025671e+00 7.045042e+00 -5.344350e-01 -1.917378e-01 9.502253e-01 2.351919e+00
<VARIANCE> 12
 8.508121e+00 1.037803e+01 2.470180e+01 6.062233e+01 3.042978e+01 3.614708e+01 1.202005e+02 5.718375e+01 2.079063e+01 3.340002e+01 1.056740e+01 6.591846e+01
<GCONST> 6.277448e+01
<TRANSP> 5
 0.000000e+00 1.000000e+00 0.000000e+00 0.000000e+00 0.000000e+00
 0.000000e+00 6.920110e-01 3.079890e-01 0.000000e+00 0.000000e+00
 0.000000e+00 0.000000e+00 8.668856e-01 1.331144e-01 0.000000e+00
 0.000000e+00 0.000000e+00 0.000000e+00 7.256308e-01 2.743692e-01
 0.000000e+00 0.000000e+00 0.000000e+00 0.000000e+00 0.000000e+00
<ENDHMM>
~h "yn"
<BEGINHMM>
<NUMSTATES> 5
<STATE> 2
<MEAN> 12
 -2.676388e-02 -7.444346e+00 2.170121e+01 8.973225e-01 -1.443430e+01 5.077627e-01 -1.290457e+01 2.480570e+00 -1.018663e+01 -5.619187e+00 -1.047902e+00 -1.062546e+01
<VARIANCE> 12
 7.402584e+00 4.347699e+01 4.981847e+01 4.766311e+01 2.977579e+01 5.189433e+01 5.023907e+01 2.516107e+02 1.164456e+02 9.040012e+01 4.148567e+01 6.381285e+01
<GCONST> 6.953168e+01
<STATE> 3
<MEAN> 12
 4.389844e+00 -5.958637e-01 2.077437e+01 -7.009130e+00 -3.796824e+00 3.242089e+00 -2.373625e+00 -3.421736e+00 -1.175386e+01 -1.265539e+00 -7.688315e+00 -9.732500e+00
<VARIANCE> 12
 5.168679e+00 2.752858e+01 2.763790e+01 3.563568e+01 8.678589e+00 5.549957e+01 7.597083e+01 2.098489e+01 5.601084e+01 5.223094e+01 2.486500e+01 4.088795e+01
<GCONST> 6.236180e+01
<STATE> 4
<MEAN> 12
 -3.146621e+00 7.011277e+00 1.342847e+01 3.681242e+00 -1.863032e+00 2.896075e+00 -2.363005e+00 -9.498574e+00 -6.115336e+00 -5.933304e+00 -1.450391e-01 -4.663101e+00
<VARIANCE> 12
 1.800837e+01 7.356763e+00 2.341088e+01 2.732943e+01 2.540950e+01 3.389583e+01 4.990956e+01 4.760981e+01 3.083637e+01 3.125503e+01 1.731032e+01 2.427542e+01
<GCONST> 6.084546e+01
<TRANSP> 5
 0.000000e+00 1.000000e+00 0.000000e+00 0.000000e+00 0.000000e+00
 0.000000e+00 8.685291e-01 1.314709e-01 0.000000e+00 0.000000e+00
 0.000000e+00 0.000000e+00 8.245062e-01 1.754939e-01 0.000000e+00
 0.000000e+00 0.000000e+00 0.000000e+00 5.329693e-01 4.670307e-01
 0.000000e+00 0.000000e+00 0.000000e+00 0.000000e+00 0.000000e+00
<ENDHMM>
~h "#dz"
<BEGINHMM>
<NUMSTATES> 5
<STATE> 2
<MEAN> 12
 -1.131855e+01 8.236149e+00 6.479285e+00 3.690284e+00 2.094962e+00 -1.907863e+00 -1.698469e+00 -3.327641e+00 -3.380508e-01 -2.714953e+00 -1.988472e+00 -2.060068e+00
<VARIANCE> 12
 5.085606e+01 5.623206e+01 5.550426e+01 5.097279e+01 3.891533e+01 5.737818e+01 3.250992e+01 4.357573e+01 4.239785e+01 2.710828e+01 2.590232e+01 4.251513e+01
<GCONST> 6.697900e+01
<STATE> 3
<MEAN> 12
 -2.351851e+01 5.797306e+00 2.938403e+00 -2.445055e+00 -1.004035e-01 -3.802088e+00 1.743260e+00 -4.237276e+00 4.310758e-01 -1.269843e+00 2.962114e-01 -5.144368e-01
<VARIANCE> 12
 5.336356e+01 3.171756e+01 4.998997e+01 3.129018e+01 3.713939e+01 3.869396e+01 3.266811e+01 3.795807e+01 3.144302e+01 2.601615e+01 1.999930e+01 1.979284e+01
<GCONST> 6.392481e+01
<STATE> 4
<MEAN> 12
 -1.112282e+01 4.117349e+00 1.299656e+01 -8.471282e-01 -6.571382e+00 -9.338398e+00 -3.004993e+00 -7.028850e+00 -1.360988e+00 -6.033438e+00 -4.798129e-03 -1.332299e+00
<VARIANCE> 12
 3.002192e+01 3.554414e+01 5.809801e+01 5.908690e+01 3.751196e+01 3.922027e+01 4.154456e+01 6.814223e+01 4.805806e+01 3.208170e+01 2.664354e+01 2.449664e+01
<GCONST> 6.623236e+01
<TRANSP> 5
 0.000000e+00 1.000000e+00 0.000000e+00 0.000000e+00 0.000000e+00
 0.000000e+00 5.628881e-01 4.371119e-01 0.000000e+00 0.000000e+00
 0.000000e+00 0.000000e+00 7.129417e-01 2.870583e-01 0.000000e+00
 0.000000e+00 0.000000e+00 0.000000e+00 3.627802e-01 6.372198e-01
 0.000000e+00 0.000000e+00 0.000000e+00 0.000000e+00 0.000000e+00
<ENDHMM>
~h "#ts"
<BEGINHMM>
<NUMSTATES> 5
<STATE> 2
<MEAN> 12
 -2.266171e+01 7.191681e+00 2.028694e+00 -2.537582e+00 1.979578e+00 -4.470646e+00 2.474617e+00 -2.376025e+00 -2.827669e-01 -5.826825e-01 2.141934e-01 -7.155858e-01
<VARIANCE> 12
 5.559659e+01 2.663443e+01 4.036843e+01 3.934909e+01 2.686036e+01 2.729455e+01 2.834930e+01 3.384385e+01 2.827505e+01 2.200184e+01 1.904615e+01 2.303167e+01
<GCONST> 6.270591e+01
<STATE> 3
<MEAN> 12
 -2.793966e+01 -1.682857e+00 7.257641e+00 -3.312938e+00 -5.996529e+00 -2.199100e+00 1.223525e+00 -4.641755e+00 8.046470e-01 -1.111809e+00 1.662124e-01 -1.403624e+00
<VARIANCE> 12
 2.641677e+01 2.210850e+01 2.193167e+01 2.897689e+01 3.764087e+01 4.934704e+01 3.414444e+01 3.714103e+01 2.793657e+01 2.816261e+01 2.420424e+01 2.918189e+01
<GCONST> 6.277921e+01
<STATE> 4
<MEAN> 12
 -1.573157e+01 -1.467629e+00 8.635322e+00 1.147206e+00 -3.836203e+00 -8.070501e+00 -1.284453e+00 -4.296136e+00 4.419840e-02 -4.507341e+00 -1.881137e+00 -8.813007e-01
<VARIANCE> 12
 3.371162e+01 3.711265e+01 5.970424e+01 3.444857e+01 5.771420e+01 3.076281e+01 3.098553e+01 6.315561e+01 3.387065e+01 3.203330e+01 2.142801e+01 2.297031e+01
<GCONST> 6.506436e+01
<TRANSP> 5
 0.000000e+00 1.000000e+00 0.000000e+00 0.000000e+00 0.000000e+00
 0.000000e+00 8.037636e-01 1.962363e-01 0.000000e+00 0.000000e+00
 0.000000e+00 0.000000e+00 7.309330e-01 2.690670e-01 0.000000e+00
 0.000000e+00 0.000000e+00 0.000000e+00 4.067125e-01 5.932875e-01
 0.000000e+00 0.000000e+00 0.000000e+00 0.000000e+00 0.000000e+00
<ENDHMM>
~h "silence"
<BEGINHMM>
<NUMSTATES> 5
<STATE> 2
<MEAN> 12
 -9.715990e+00 1.221106e+00 2.217052e+00 2.307521e+00 1.560293e+00 1.737634e+00 -2.250575e-01 -7.072855e-01 -4.659000e-01 -1.669015e+00 1.068028e+00 6.122475e-01
<VARIANCE> 12
 3.905973e+01 3.152614e+01 3.540609e+01 5.558335e+01 3.525871e+01 5.906698e+01 4.385699e+01 6.102607e+01 3.510198e+01 3.557300e+01 3.053989e+01 2.300134e+01
<GCONST> 6.597325e+01
<STATE> 3
<MEAN> 12
 -5.119781e+00 -4.689014e+00 -3.259753e+00 -2.059709e+00 1.225845e+00 -2.804599e+00 -7.749088e-02 1.361077e+00 2.007293e+00 -1.668633e+00 7.474607e-01 9.720995e-01
<VARIANCE> 12
 2.039387e+01 1.427852e+01 1.750226e+01 1.446206e+01 2.152433e+01 2.324621e+01 2.590834e+01 2.774896e+01 2.278468e+01 3.077142e+01 2.096957e+01 1.976506e+01
<GCONST> 5.863513e+01
<STATE> 4
<MEAN> 12
 -1.264830e+01 -8.626464e+00 1.188749e+00 -9.848057e-01 1.977642e+00 -6.652036e+00 -1.636616e+00 -1.285159e+00 1.997533e+00 -2.839432e+00 -1.162791e+00 -4.313644e-01
<VARIANCE> 12
 1.806254e+01 2.807841e+01 2.160512e+01 2.390539e+01 2.500451e+01 4.107065e+01 3.482947e+01 3.481705e+01 4.266694e+01 3.127802e+01 2.444073e+01 2.543722e+01
<GCONST> 6.219413e+01
<TRANSP> 5
 0.000000e+00 1.000000e+00 0.000000e+00 0.000000e+00 0.000000e+00
 0.000000e+00 7.357264e-01 2.642735e-01 0.000000e+00 0.000000e+00
 0.000000e+00 0.000000e+00 8.450952e-01 1.549049e-01 0.000000e+00
 0.000000e+00 0.000000e+00 0.000000e+00 8.595241e-01 1.404759e-01
 0.000000e+00 0.000000e+00 0.000000e+00 0.000000e+00 0.000000e+00
<ENDHMM>
~h "uaNN"
<BEGINHMM>
<NUMSTATES> 5
<STATE> 2
<MEAN> 12
 3.470315e+00 -9.966148e+00 5.036214e+00 -1.638917e+01 -6.078849e+00 8.839759e+00 -8.502556e+00 2.966197e+00 -1.677767e+00 4.589683e-01 -2.068982e+00 -1.033270e+01
<VARIANCE> 12
 4.720256e+00 6.258870e+01 6.270447e+01 6.798898e+01 2.669688e+01 9.796624e+01 1.631686e+02 5.352544e+01 4.924097e+01 1.992661e+01 7.173994e+01 1.557941e+02
<GCONST> 6.925523e+01
<STATE> 3
<MEAN> 12
 1.904245e+00 -2.603057e+00 5.358283e+00 -7.610404e+00 3.488530e-01 7.785091e+00 5.288947e+00 -6.368199e+00 -4.862989e+00 4.690069e+00 -7.798235e+00 1.269719e+00
<VARIANCE> 12
 1.010518e+00 1.054213e+01 5.355870e+01 3.297099e+01 6.408175e+01 5.643755e+01 7.022746e+01 3.234017e+01 2.459192e+01 2.229576e+01 4.316799e+01 9.339534e+01
<GCONST> 6.242688e+01
<STATE> 4
<MEAN> 12
 -3.229894e-01 5.203749e+00 -8.191682e-02 -4.921773e+00 1.209253e-02 4.152756e+00 -5.446329e+00 -9.895180e+00 -6.930215e+00 -4.536051e+00 -2.727386e+00 -3.355400e+00
<VARIANCE> 12
 2.078732e+00 1.359104e+01 1.195893e+02 8.517737e+01 2.370598e+01 3.071099e+01 1.393167e+01 7.712241e+01 3.899157e+01 7.969563e+01 2.407097e+01 5.565031e+01
<GCONST> 6.343606e+01
<TRANSP> 5
 0.000000e+00 1.000000e+00 0.000000e+00 0.000000e+00 0.000000e+00
 0.000000e+00 8.336080e-01 1.663920e-01 0.000000e+00 0.000000e+00
 0.000000e+00 0.000000e+00 7.683126e-01 2.316874e-01 0.000000e+00
 0.000000e+00 0.000000e+00 0.000000e+00 7.586757e-01 2.413243e-01
 0.000000e+00 0.000000e+00 0.000000e+00 0.000000e+00 0.000000e+00
<ENDHMM>
~h "aNN"
<BEGINHMM>
<NUMSTATES> 5
<STATE> 2
<MEAN> 12
 5.646309e-01 -1.305085e+01 1.663128e+00 -1.609579e+01 8.892045e+00 1.750395e+00 -1.035633e+00 -8.334485e+00 3.799589e+00 -3.337524e+00 -6.167469e+00 -7.149782e+00
<VARIANCE> 12
 1.344470e+01 3.624998e+01 4.201416e+01 5.519152e+01 5.168026e+01 7.110512e+01 3.481440e+01 4.838060e+01 6.492858e+01 5.804387e+01 4.789027e+01 6.300488e+01
<GCONST> 6.787734e+01
<STATE> 3
<MEAN> 12
 4.052383e+00 -1.129384e+01 6.824478e+00 -1.566193e+01 2.789714e+00 1.214293e+01 -6.764191e+00 -2.785454e+00 -5.571582e+00 1.866428e+00 -4.602898e+00 -8.264225e+00
<VARIANCE> 12
 8.927017e+00 4.379376e+01 7.302902e+01 7.686625e+01 4.918826e+01 7.847382e+01 7.329961e+01 3.649815e+01 7.843941e+01 6.576385e+01 5.017851e+01 5.808126e+01
<GCONST> 6.933209e+01
<STATE> 4
<MEAN> 12
 2.396714e+00 1.405636e+00 6.456657e+00 -1.753062e+00 -1.428674e+00 5.580905e+00 -5.389718e+00 -1.038446e+01 -4.663916e+00 9.741739e-02 -1.674689e+00 -7.207464e+00
<VARIANCE> 12
 1.078675e+01 2.662092e+01 5.486600e+01 5.884901e+01 3.997879e+01 4.641551e+01 6.731943e+01 4.746960e+01 9.176212e+01 4.880327e+01 6.260413e+01 5.809685e+01
<GCONST> 6.799587e+01
<TRANSP> 5
 0.000000e+00 1.000000e+00 0.000000e+00 0.000000e+00 0.000000e+00
 0.000000e+00 7.338157e-01 2.661843e-01 0.000000e+00 0.000000e+00
 0.000000e+00 0.000000e+00 7.636607e-01 2.363392e-01 0.000000e+00
 0.000000e+00 0.000000e+00 0.000000e+00 7.932221e-01 2.067779e-01
 0.000000e+00 0.000000e+00 0.000000e+00 0.000000e+00 0.000000e+00
<ENDHMM>
~h "eNN"
<BEGINHMM>
<NUMSTATES> 5
<STATE> 2
<MEAN> 12
 7.927121e-01 -6.802453e+00 2.380049e+00 -1.741176e+01 4.246669e+00 -6.535217e+00 -2.692128e+00 -5.528108e+00 1.094998e+00 -2.729573e+00 -6.405573e+00 -8.726806e+00
<VARIANCE> 12
 1.013381e+01 2.785743e+01 5.983605e+01 8.014351e+01 3.983986e+01 1.207232e+02 6.897415e+01 4.099567e+01 1.121362e+02 8.636890e+01 5.142533e+01 6.272325e+01
<GCONST> 6.985570e+01
<STATE> 3
<MEAN> 12
 4.314659e+00 -8.050913e+00 1.268410e+01 -1.143499e+01 -3.552096e+00 2.674526e+00 -9.006023e+00 -2.107412e+00 -5.195921e+00 4.207018e+00 -2.609321e+00 -1.568490e+01
<VARIANCE> 12
 9.782735e+00 5.611574e+01 3.907291e+01 5.233764e+01 3.205144e+01 5.980374e+01 6.950371e+01 5.669111e+01 1.139246e+02 4.991513e+01 1.000156e+02 6.125605e+01
<GCONST> 6.918936e+01
<STATE> 4
<MEAN> 12
 -4.575698e-01 1.908114e+00 7.206266e+00 -2.564491e-01 -1.528042e+00 2.610474e-01 -1.392778e+00 -6.344384e+00 -4.981742e+00 1.830196e+00 -5.171381e+00 -4.217032e+00
<VARIANCE> 12
 3.570807e+01 2.036368e+01 3.955843e+01 3.334785e+01 3.314415e+01 3.152368e+01 5.287391e+01 3.596260e+01 5.326128e+01 6.359573e+01 5.124656e+01 5.086176e+01
<GCONST> 6.632394e+01
<TRANSP> 5
 0.000000e+00 1.000000e+00 0.000000e+00 0.000000e+00 0.000000e+00
 0.000000e+00 6.645747e-01 3.354253e-01 0.000000e+00 0.000000e+00
 0.000000e+00 0.000000e+00 8.324512e-01 1.675489e-01 0.000000e+00
 0.000000e+00 0.000000e+00 0.000000e+00 7.844718e-01 2.155282e-01
 0.000000e+00 0.000000e+00 0.000000e+00 0.000000e+00 0.000000e+00
<ENDHMM>
~h "dz#"
<BEGINHMM>
<NUMSTATES> 5
<STATE> 2
<MEAN> 12
 -5.647458e+00 6.100683e-01 7.457183e+00 3.711016e+00 3.781427e-01 -2.021250e+00 -4.526700e+00 -3.951292e+00 -5.504654e-01 -4.703762e+00 -1.913646e+00 -3.154514e+00
<VARIANCE> 12
 5.863380e+01 3.902431e+01 7.774504e+01 6.693154e+01 5.237876e+01 6.098639e+01 4.552325e+01 4.595432e+01 4.109649e+01 3.870659e+01 3.170548e+01 3.280630e+01
<GCONST> 6.838119e+01
<STATE> 3
<MEAN> 12
 -1.646424e+01 -2.242092e+00 4.636098e+00 -6.535747e-01 -6.304126e-01 -3.782297e+00 -1.578155e+00 -2.069339e+00 1.851684e+00 -1.866600e+00 3.989439e-01 -2.976818e-02
<VARIANCE> 12
 6.535693e+01 2.728885e+01 7.161230e+01 4.533256e+01 3.943646e+01 5.010025e+01 4.215299e+01 4.734352e+01 3.378914e+01 3.023849e+01 3.059104e+01 2.940525e+01
<GCONST> 6.654475e+01
<STATE> 4
<MEAN> 12
 -3.469670e+00 -4.810256e+00 8.624147e+00 -1.201614e+00 -1.080307e+01 -7.939910e+00 -1.098883e+01 -2.796034e+00 -2.126378e+00 -6.208682e+00 1.649151e+00 -2.841999e+00
<VARIANCE> 12
 3.308715e+01 4.092978e+01 1.241021e+02 6.675762e+01 7.889128e+01 6.415353e+01 1.030309e+02 8.421529e+01 8.388970e+01 1.168092e+02 5.488571e+01 4.843624e+01
<GCONST> 7.296100e+01
<TRANSP> 5
 0.000000e+00 1.000000e+00 0.000000e+00 0.000000e+00 0.000000e+00
 0.000000e+00 3.756168e-01 6.243832e-01 0.000000e+00 0.000000e+00
 0.000000e+00 0.000000e+00 7.395973e-01 2.604026e-01 0.000000e+00
 0.000000e+00 0.000000e+00 0.000000e+00 5.506170e-01 4.493831e-01
 0.000000e+00 0.000000e+00 0.000000e+00 0.000000e+00 0.000000e+00
<ENDHMM>
~h "iNN"
<BEGINHMM>
<NUMSTATES> 5
<STATE> 2
<MEAN> 12
 -4.838605e+00 -1.136079e+00 2.004574e+01 2.196937e-01 -1.548547e+01 -1.999945e+00 -6.343216e+00 -7.231468e+00 -6.636434e+00 -3.496985e+00 3.063436e+00 -6.231183e+00
<VARIANCE> 12
 1.343979e+01 2.322321e+01 7.094421e+01 5.418069e+01 4.739429e+01 8.556248e+01 6.844107e+01 4.797164e+01 5.078466e+01 5.699511e+01 2.320026e+01 5.249915e+01
<GCONST> 6.753197e+01
<STATE> 3
<MEAN> 12
 1.005126e+00 -3.503667e+00 1.701533e+01 -4.145732e+00 -1.069697e+01 1.754262e+00 -9.670794e+00 -2.142674e+00 -1.013535e+01 2.084417e-01 -6.294391e-01 -1.146698e+01
<VARIANCE> 12
 1.125305e+01 4.580569e+01 8.623080e+01 5.475927e+01 2.924155e+01 1.163851e+02 1.172939e+02 1.127803e+02 1.088840e+02 7.579271e+01 4.615619e+01 7.236224e+01
<GCONST> 7.151417e+01
<STATE> 4
<MEAN> 12
 -3.065820e+00 4.251540e+00 9.859843e+00 2.237271e+00 -2.251243e+00 -1.689915e+00 -1.038532e+00 -6.230174e+00 -4.107336e+00 1.280995e+00 -3.104862e+00 -3.086832e+00
<VARIANCE> 12
 4.005994e+01 4.286607e+01 3.791455e+01 5.011152e+01 3.875927e+01 5.288073e+01 4.579862e+01 6.738924e+01 7.991371e+01 7.518384e+01 3.469699e+01 3.406494e+01
<GCONST> 6.848852e+01
<TRANSP> 5
 0.000000e+00 1.000000e+00 0.000000e+00 0.000000e+00 0.000000e+00
 0.000000e+00 7.384577e-01 2.615423e-01 0.000000e+00 0.000000e+00
 0.000000e+00 0.000000e+00 7.103441e-01 2.896558e-01 0.000000e+00
 0.000000e+00 0.000000e+00 0.000000e+00 7.590360e-01 2.409639e-01
 0.000000e+00 0.000000e+00 0.000000e+00 0.000000e+00 0.000000e+00
<ENDHMM>
~h "iaN"
<BEGINHMM>
<NUMSTATES> 5
<STATE> 2
<MEAN> 12
 -4.461198e+00 -5.849414e+00 1.186794e+01 -1.114748e+01 -9.484535e+00 -1.268855e+01 2.137114e-03 -6.071764e+00 -5.116571e-01 -8.073814e+00 2.657866e-01 -4.318597e+00
<VARIANCE> 12
 1.235859e+01 4.613863e+01 6.209146e+01 1.253656e+02 5.779406e+01 5.512175e+01 8.201270e+01 6.072094e+01 6.102189e+01 5.557907e+01 4.968995e+01 4.259502e+01
<GCONST> 6.972654e+01
<STATE> 3
<MEAN> 12
 -1.348612e-01 -1.045541e+01 1.784228e+01 -7.746594e+00 -1.189544e+01 -2.534599e+00 -1.106083e+01 7.194444e+00 -3.590967e+00 -1.474578e+00 -1.392541e+00 -9.165162e+00
<VARIANCE> 12
 1.501611e+01 5.369232e+01 1.074673e+02 5.613101e+01 5.527871e+01 6.692886e+01 7.131792e+01 6.309102e+01 9.132069e+01 3.781661e+01 4.947480e+01 7.471630e+01
<GCONST> 7.044182e+01
<STATE> 4
<MEAN> 12
 1.058380e+00 2.490810e-01 1.019397e+01 1.964057e+00 -4.293080e+00 -3.390713e+00 -5.728186e+00 -2.350963e+00 -5.533553e+00 -8.614326e-01 -3.910466e+00 -5.028438e+00
<VARIANCE> 12
 1.368023e+01 2.500367e+01 6.054825e+01 6.033212e+01 3.636155e+01 5.539308e+01 7.203195e+01 8.266507e+01 7.414959e+01 4.889098e+01 4.843730e+01 4.202808e+01
<GCONST> 6.820696e+01
<TRANSP> 5
 0.000000e+00 1.000000e+00 0.000000e+00 0.000000e+00 0.000000e+00
 0.000000e+00 7.411391e-01 2.588609e-01 0.000000e+00 0.000000e+00
 0.000000e+00 0.000000e+00 7.629310e-01 2.370690e-01 0.000000e+00
 0.000000e+00 0.000000e+00 0.000000e+00 7.594149e-01 2.405852e-01
 0.000000e+00 0.000000e+00 0.000000e+00 0.000000e+00 0.000000e+00
<ENDHMM>
~h "iau"
<BEGINHMM>
<NUMSTATES> 5
<STATE> 2
<MEAN> 12
 -1.709241e+00 -9.034604e+00 1.303582e+00 -1.619843e+01 -3.966967e+00 2.346165e-01 -1.292959e+00 -3.578036e+00 5.216439e-01 -5.511267e+00 -4.485363e+00 -3.957619e+00
<VARIANCE> 12
 2.256883e+01 2.993498e+01 5.341353e+01 9.397569e+01 1.021237e+02 1.753253e+02 1.776170e+02 1.047647e+02 1.188319e+02 1.079731e+02 6.254952e+01 5.290436e+01
<GCONST> 7.427943e+01
<STATE> 3
<MEAN> 12
 1.398830e+00 -4.706750e+00 -5.817247e+00 -1.868907e+01 2.574325e+00 3.866645e+00 -4.501124e+00 -6.244489e+00 -1.289160e-01 -7.255636e+00 -2.736410e+00 -3.710572e+00
<VARIANCE> 12
 1.681394e+01 2.594341e+01 3.694892e+01 6.315680e+01 6.512276e+01 5.154860e+01 3.907417e+01 4.085690e+01 4.389768e+01 6.489827e+01 3.873040e+01 4.664582e+01
<GCONST> 6.683604e+01
<STATE> 4
<MEAN> 12
 -1.520389e+00 1.208809e+00 -1.087888e+00 -6.199660e+00 -1.497706e+00 -8.646344e-01 -2.794376e+00 -4.559101e+00 -1.057219e+00 -5.644329e+00 -1.607040e+00 -3.085833e+00
<VARIANCE> 12
 2.355339e+01 5.204065e+01 4.114815e+01 6.123185e+01 2.910340e+01 9.631592e+01 5.066163e+01 4.673101e+01 5.283282e+01 5.464043e+01 3.749114e+01 2.663640e+01
<GCONST> 6.758002e+01
<TRANSP> 5
 0.000000e+00 1.000000e+00 0.000000e+00 0.000000e+00 0.000000e+00
 0.000000e+00 7.991362e-01 2.008638e-01 0.000000e+00 0.000000e+00
 0.000000e+00 0.000000e+00 8.469625e-01 1.530375e-01 0.000000e+00
 0.000000e+00 0.000000e+00 0.000000e+00 6.904150e-01 3.095850e-01
 0.000000e+00 0.000000e+00 0.000000e+00 0.000000e+00 0.000000e+00
<ENDHMM>
~h "iou"
<BEGINHMM>
<NUMSTATES> 5
<STATE> 2
<MEAN> 12
 -4.721591e-01 -4.241768e+00 1.687881e+01 -2.858781e+00 -6.189342e+00 -6.443300e+00 -8.786231e+00 -1.029069e+00 -6.555050e+00 2.269262e+00 8.243839e-01 -3.365258e+00
<VARIANCE> 12
 1.961850e+01 4.763536e+01 9.905797e+01 5.065215e+01 5.174612e+01 5.368367e+01 4.615895e+01 6.426940e+01 8.777813e+01 6.305999e+01 2.878937e+01 3.710424e+01
<GCONST> 6.893253e+01
<STATE> 3
<MEAN> 12
 2.738308e+00 1.805472e+00 4.833940e+00 -1.730058e+01 -8.791035e+00 5.153864e+00 -1.034358e+01 -4.906807e+00 -1.367431e+00 -2.215973e+00 1.793692e+00 -2.277100e+00
<VARIANCE> 12
 1.099756e+01 4.353440e+01 3.088850e+01 9.768566e+01 7.987265e+01 1.028247e+02 6.615646e+01 6.313383e+01 1.039427e+02 6.149892e+01 8.127019e+01 5.222419e+01
<GCONST> 7.070481e+01
<STATE> 4
<MEAN> 12
 -1.422507e+00 -1.060595e+00 5.153995e-01 -4.192196e+00 3.028954e+00 -3.459444e+00 -6.641143e+00 -2.617502e+00 6.847235e+00 -2.880574e+00 -2.312758e-01 -6.459506e-01
<VARIANCE> 12
 6.016117e+01 3.522662e+01 8.924091e+01 1.029066e+02 3.949422e+01 5.145670e+01 6.670420e+01 8.575733e+01 1.097107e+02 8.354725e+01 3.946767e+01 4.052153e+01
<GCONST> 7.160778e+01
<TRANSP> 5
 0.000000e+00 1.000000e+00 0.000000e+00 0.000000e+00 0.000000e+00
 0.000000e+00 7.678362e-01 2.321639e-01 0.000000e+00 0.000000e+00
 0.000000e+00 0.000000e+00 8.313756e-01 1.686244e-01 0.000000e+00
 0.000000e+00 0.000000e+00 0.000000e+00 7.238663e-01 2.761337e-01
 0.000000e+00 0.000000e+00 0.000000e+00 0.000000e+00 0.000000e+00
<ENDHMM>
~h "oNN"
<BEGINHMM>
<NUMSTATES> 5
<STATE> 2
<MEAN> 12
 1.779505e+00 -7.474166e-01 -2.899993e+00 -1.541122e+01 -4.872454e+00 -2.723241e+00 -4.629241e+00 -6.964706e+00 -2.622637e+00 -7.636709e+00 -1.371992e+00 -6.152191e+00
<VARIANCE> 12
 1.425021e+01 3.204008e+01 5.201114e+01 4.966326e+01 5.628623e+01 8.467037e+01 4.650077e+01 5.750017e+01 4.465281e+01 5.298697e+01 5.213100e+01 6.242247e+01
<GCONST> 6.825213e+01
<STATE> 3
<MEAN> 12
 1.087603e+00 -8.380044e-01 1.023836e+01 -1.099558e+01 -1.582246e+01 6.938231e+00 -1.612054e+01 2.472550e+00 -1.986469e+00 -7.999586e+00 3.391864e+00 -1.469459e+01
<VARIANCE> 12
 1.369380e+01 3.333955e+01 5.862836e+01 7.972046e+01 5.412908e+01 8.452724e+01 1.192095e+02 1.015034e+02 8.717188e+01 7.252393e+01 5.136485e+01 7.062499e+01
<GCONST> 7.140551e+01
<STATE> 4
<MEAN> 12
 2.654263e+00 1.240547e+00 1.179389e+01 -5.768182e+00 -4.345476e+00 1.519129e+00 -3.668089e+00 -3.237093e+00 -6.688564e+00 -4.551162e-01 -5.517707e+00 -7.123321e+00
<VARIANCE> 12
 1.211236e+01 2.924663e+01 5.694527e+01 7.663592e+01 3.585033e+01 4.387158e+01 6.597725e+01 5.984974e+01 7.619302e+01 6.008109e+01 4.722969e+01 3.070761e+01
<GCONST> 6.765593e+01
<TRANSP> 5
 0.000000e+00 1.000000e+00 0.000000e+00 0.000000e+00 0.000000e+00
 0.000000e+00 7.812849e-01 2.187151e-01 0.000000e+00 0.000000e+00
 0.000000e+00 0.000000e+00 8.354052e-01 1.645948e-01 0.000000e+00
 0.000000e+00 0.000000e+00 0.000000e+00 7.628267e-01 2.371732e-01
 0.000000e+00 0.000000e+00 0.000000e+00 0.000000e+00 0.000000e+00
<ENDHMM>
~h "ts#"
<BEGINHMM>
<NUMSTATES> 5
<STATE> 2
<MEAN> 12
 -1.291041e+01 -1.852507e+00 4.914729e+00 6.375575e+00 -7.978340e-01 -5.218269e+00 -2.561063e+00 -4.150418e-01 7.244241e-01 -5.278690e+00 -3.729860e-01 -3.072790e+00
<VARIANCE> 12
 3.876790e+01 1.855848e+01 5.000161e+01 4.491338e+01 3.997950e+01 4.447660e+01 3.511281e+01 4.757422e+01 3.553515e+01 2.718293e+01 2.442202e+01 2.171876e+01
<GCONST> 6.440079e+01
<STATE> 3
<MEAN> 12
 -2.054290e+01 -6.222288e+00 1.413585e+00 5.234880e-01 4.794589e-01 -6.085451e+00 -9.069718e-01 -1.018891e+00 3.886378e+00 4.080021e-01 1.432042e+00 -1.150995e+00
<VARIANCE> 12
 2.664532e+01 2.309517e+01 2.719057e+01 2.702035e+01 3.459182e+01 3.117713e+01 3.678819e+01 4.677359e+01 3.337060e+01 2.017784e+01 2.386421e+01 2.432936e+01
<GCONST> 6.238634e+01
<STATE> 4
<MEAN> 12
 -7.227470e+00 -6.932481e+00 2.178670e-01 -5.631549e+00 5.836250e+00 2.358140e+00 -5.219284e+00 -1.766000e+00 3.978388e+00 -5.784223e+00 1.177949e+00 -3.510452e+00
<VARIANCE> 12
 3.486538e+01 3.937049e+01 5.106041e+01 5.242574e+01 9.539140e+01 5.676956e+01 7.799493e+01 9.880236e+01 4.448972e+01 3.001584e+01 7.591344e+01 3.895200e+01
<GCONST> 6.990710e+01
<TRANSP> 5
 0.000000e+00 1.000000e+00 0.000000e+00 0.000000e+00 0.000000e+00
 0.000000e+00 5.550147e-01 4.449853e-01 0.000000e+00 0.000000e+00
 0.000000e+00 0.000000e+00 7.709588e-01 2.290412e-01 0.000000e+00
 0.000000e+00 0.000000e+00 0.000000e+00 6.597710e-01 3.402289e-01
 0.000000e+00 0.000000e+00 0.000000e+00 0.000000e+00 0.000000e+00
<ENDHMM>
~h "uaN"
<BEGINHMM>
<NUMSTATES> 5
<STATE> 2
<MEAN> 12
 -8.526723e-01 -1.361740e+01 5.145077e+00 -1.251793e+01 -1.232226e+01 6.088289e+00 -1.674896e+01 6.322458e+00 3.292017e+00 -2.715617e+00 -4.217475e+00 -1.061589e+01
<VARIANCE> 12
 1.248593e+01 4.841676e+01 4.307632e+01 5.361845e+01 5.653912e+01 9.568298e+01 6.197198e+01 8.573496e+01 6.559861e+01 4.849259e+01 6.891657e+01 3.747256e+01
<GCONST> 6.929922e+01
<STATE> 3
<MEAN> 12
 1.471946e+00 -1.540773e+01 6.911831e+00 -7.738882e+00 -3.727956e+00 2.484217e+00 -4.461052e+00 -1.628356e+00 7.590556e+00 -4.224708e+00 -6.073652e+00 -4.839180e+00
<VARIANCE> 12
 1.283917e+01 3.633358e+01 5.548745e+01 8.375783e+01 6.590188e+01 1.072356e+02 1.041945e+02 1.162575e+02 7.759658e+01 8.428471e+01 4.629824e+01 2.799121e+01
<GCONST> 7.086184e+01
<STATE> 4
<MEAN> 12
 9.085450e-02 -1.874671e-01 1.184074e+01 2.609577e+00 -2.889828e+00 -1.950197e+00 -8.569378e+00 -2.331608e+00 -4.086669e+00 -3.861522e+00 -5.199616e+00 -7.369272e+00
<VARIANCE> 12
 9.646851e+00 6.129574e+01 5.692928e+01 4.719509e+01 4.002135e+01 6.138244e+01 7.759533e+01 8.656435e+01 8.705792e+01 3.915112e+01 3.814062e+01 5.062523e+01
<GCONST> 6.865163e+01
<TRANSP> 5
 0.000000e+00 1.000000e+00 0.000000e+00 0.000000e+00 0.000000e+00
 0.000000e+00 7.641813e-01 2.358187e-01 0.000000e+00 0.000000e+00
 0.000000e+00 0.000000e+00 7.216325e-01 2.783674e-01 0.000000e+00
 0.000000e+00 0.000000e+00 0.000000e+00 6.837443e-01 3.162557e-01
 0.000000e+00 0.000000e+00 0.000000e+00 0.000000e+00 0.000000e+00
<ENDHMM>
~h "uai"
<BEGINHMM>
<NUMSTATES> 5
<STATE> 2
<MEAN> 12
 1.553875e+00 -7.975640e+00 -2.725925e+00 -1.475532e+01 -3.023609e+00 -4.165829e+00 -5.150161e+00 -4.245270e+00 -4.206657e+00 -8.453835e+00 -1.014188e+01 -6.297787e+00
<VARIANCE> 12
 1.129078e+01 5.819243e+01 4.604219e+01 3.695456e+01 5.556850e+01 4.267775e+01 3.264521e+01 4.496952e+01 4.875124e+01 4.858777e+01 4.763464e+01 7.233963e+01
<GCONST> 6.695953e+01
<STATE> 3
<MEAN> 12
 1.517128e+00 -1.350073e+01 8.799974e+00 -1.186802e+01 -5.557017e+00 -1.951260e+00 -6.583637e+00 9.119167e+00 -1.237806e+01 4.222394e+00 -9.512060e+00 -6.949780e+00
<VARIANCE> 12
 2.310820e+01 5.101198e+01 3.912885e+01 7.153342e+01 3.173901e+01 1.437422e+02 1.066719e+02 8.423507e+01 1.189789e+02 1.273632e+02 3.900899e+01 2.410918e+01
<GCONST> 7.106512e+01
<STATE> 4
<MEAN> 12
 -2.543510e-01 -2.966856e+00 3.655995e+00 -2.468894e+00 1.912153e-01 -7.765997e+00 6.563701e+00 2.788350e+00 9.323210e-01 -2.626399e+00 -3.804605e+00 -3.382615e+00
<VARIANCE> 12
 1.028252e+01 1.825877e+01 5.564326e+01 2.277380e+01 2.428737e+01 1.768940e+01 8.390940e+01 3.340091e+01 3.826522e+01 4.082099e+01 3.878015e+01 2.650605e+01
<GCONST> 6.272446e+01
<TRANSP> 5
 0.000000e+00 1.000000e+00 0.000000e+00 0.000000e+00 0.000000e+00
 0.000000e+00 8.808051e-01 1.191949e-01 0.000000e+00 0.000000e+00
 0.000000e+00 0.000000e+00 8.030577e-01 1.969423e-01 0.000000e+00
 0.000000e+00 0.000000e+00 0.000000e+00 8.644897e-01 1.355103e-01
 0.000000e+00 0.000000e+00 0.000000e+00 0.000000e+00 0.000000e+00
<ENDHMM>
~h "ueN"
<BEGINHMM>
<NUMSTATES> 5
<STATE> 2
<MEAN> 12
 7.431003e-01 4.763496e+00 2.148802e+00 9.247316e-01 7.707065e+00 -6.374598e-01 -3.549317e+00 -6.970945e+00 -3.708999e+00 3.309335e+00 1.143909e+00 2.782220e+00
<VARIANCE> 12
 2.825574e+01 8.797533e+00 1.640767e+01 3.939666e+01 2.978057e+01 5.598607e+01 2.474015e+01 3.430800e+01 2.448277e+01 4.486625e+01 1.852616e+01 3.746626e+01
<GCONST> 6.174877e+01
<STATE> 3
<MEAN> 12
 9.414837e-01 -1.666505e+00 5.865772e+00 -3.839728e+00 3.377182e+00 -4.693064e+00 -4.185581e+00 -2.855500e+00 5.866282e+00 8.569344e+00 -5.846025e+00 -2.130286e+00
<VARIANCE> 12
 5.744269e+00 3.802380e+01 1.465923e+01 3.503284e+01 2.176155e+01 3.531028e+01 6.045191e+01 5.174909e+01 4.608015e+01 4.654169e+01 2.944509e+01 3.490815e+01
<GCONST> 6.298085e+01
<STATE> 4
<MEAN> 12
 -1.860991e+00 6.173273e+00 1.089430e+01 2.690553e+00 -1.342785e+00 8.241814e-01 -5.021050e+00 -6.357958e+00 -5.920125e+00 1.061418e+00 -6.238695e+00 8.307473e-03
<VARIANCE> 12
 4.492408e+01 2.636553e+01 4.076429e+01 3.303404e+01 2.305095e+01 2.094074e+01 6.749429e+01 5.881329e+01 6.681078e+01 3.000500e+01 3.954977e+01 4.769156e+01
<GCONST> 6.594826e+01
<TRANSP> 5
 0.000000e+00 1.000000e+00 0.000000e+00 0.000000e+00 0.000000e+00
 0.000000e+00 8.300759e-01 1.699241e-01 0.000000e+00 0.000000e+00
 0.000000e+00 0.000000e+00 8.497830e-01 1.502170e-01 0.000000e+00
 0.000000e+00 0.000000e+00 0.000000e+00 8.690642e-01 1.309359e-01
 0.000000e+00 0.000000e+00 0.000000e+00 0.000000e+00 0.000000e+00
<ENDHMM>
~h "uei"
<BEGINHMM>
<NUMSTATES> 5
<STATE> 2
<MEAN> 12
 2.328935e+00 -4.686438e+00 7.720898e+00 -8.479585e+00 -5.100285e+00 1.240980e-01 -1.431165e+01 -1.270466e+01 -8.265581e+00 -1.391601e+00 -1.578438e-01 -8.907057e+00
<VARIANCE> 12
 9.420602e+00 5.440332e+01 3.770426e+01 7.162534e+01 2.720451e+01 1.138538e+02 4.140503e+01 1.050777e+02 6.559565e+01 6.823100e+01 2.742426e+01 5.095243e+01
<GCONST> 6.826021e+01
<STATE> 3
<MEAN> 12
 -3.372564e+00 -1.231042e+01 1.900294e+01 -8.557474e+00 -1.754601e+01 -1.006076e+01 -1.331220e+01 1.452410e+00 -6.373226e+00 -4.045750e+00 4.853381e+00 -1.156068e+01
<VARIANCE> 12
 1.274492e+01 3.241684e+01 7.161964e+01 2.733472e+01 4.374076e+01 2.617826e+01 3.749904e+01 6.222458e+01 3.348775e+01 2.397549e+01 4.153517e+01 5.723928e+01
<GCONST> 6.491814e+01
<STATE> 4
<MEAN> 12
 -3.124804e+00 -3.513423e+00 1.698916e+01 3.698402e+00 -1.049116e+01 -1.136934e+01 -6.704816e+00 -4.858284e+00 -3.826851e+00 -7.291284e+00 3.396371e+00 -9.328179e-02
<VARIANCE> 12
 8.141396e+00 2.418203e+01 5.239866e+01 4.453397e+01 3.139849e+01 5.414600e+01 4.113322e+01 5.080899e+01 4.780935e+01 4.364929e+01 3.587463e+01 1.928904e+01
<GCONST> 6.435854e+01
<TRANSP> 5
 0.000000e+00 1.000000e+00 0.000000e+00 0.000000e+00 0.000000e+00
 0.000000e+00 7.879419e-01 2.120581e-01 0.000000e+00 0.000000e+00
 0.000000e+00 0.000000e+00 7.568313e-01 2.431688e-01 0.000000e+00
 0.000000e+00 0.000000e+00 0.000000e+00 8.246467e-01 1.753533e-01
 0.000000e+00 0.000000e+00 0.000000e+00 0.000000e+00 0.000000e+00
<ENDHMM>
~h "iaNN"
<BEGINHMM>
<NUMSTATES> 5
<STATE> 2
<MEAN> 12
 -5.148009e+00 -1.017192e+01 -5.977711e+00 -8.172664e+00 1.246958e+00 -7.547726e+00 -4.646773e+00 1.422628e+00 -3.157248e-01 -1.123015e+01 -3.970304e+00 -5.429255e-01
<VARIANCE> 12
 2.135139e+01 3.282639e+01 2.895209e+01 3.458829e+01 4.499097e+01 3.328090e+01 4.290848e+01 4.196939e+01 3.459476e+01 3.826188e+01 4.057772e+01 2.434405e+01
<GCONST> 6.440715e+01
<STATE> 3
<MEAN> 12
 1.664830e+00 -1.558658e+01 5.196151e+00 -1.104169e+01 3.981910e+00 -4.166277e+00 -5.148162e+00 1.487981e-01 5.181906e-01 -1.323772e+00 -7.146558e+00 -9.160612e+00
<VARIANCE> 12
 1.260894e+01 5.549694e+01 1.377034e+02 3.129363e+01 8.167372e+01 4.722172e+01 6.165955e+01 1.118015e+02 9.037652e+01 7.288676e+01 4.172626e+01 5.585780e+01
<GCONST> 7.061655e+01
<STATE> 4
<MEAN> 12
 3.193640e+00 -2.990600e+00 -2.873995e+00 -3.163499e+00 -1.246434e-01 1.434951e+00 -3.787126e+00 -4.789160e+00 -3.003447e+00 -1.999257e+00 -1.085424e+01 7.347951e-01
<VARIANCE> 12
 5.990353e+00 1.874093e+01 5.782127e+01 2.512501e+01 3.927298e+01 3.887813e+01 3.898322e+01 5.648637e+01 3.053906e+01 8.621974e+01 4.116705e+01 3.640255e+01
<GCONST> 6.427289e+01
<TRANSP> 5
 0.000000e+00 1.000000e+00 0.000000e+00 0.000000e+00 0.000000e+00
 0.000000e+00 8.603907e-01 1.396094e-01 0.000000e+00 0.000000e+00
 0.000000e+00 0.000000e+00 7.771455e-01 2.228545e-01 0.000000e+00
 0.000000e+00 0.000000e+00 0.000000e+00 8.529652e-01 1.470348e-01
 0.000000e+00 0.000000e+00 0.000000e+00 0.000000e+00 0.000000e+00
<ENDHMM>
~h "ioNN"
<BEGINHMM>
<NUMSTATES> 5
<STATE> 2
<MEAN> 12
 -8.732530e-01 -5.187619e+00 2.532943e+00 -9.565782e+00 -8.122125e+00 -6.634570e+00 -1.335216e+01 -2.760043e+00 -2.293200e+00 1.341315e+00 -4.294765e+00 -4.053127e+00
<VARIANCE> 12
 7.520690e+00 2.829799e+01 5.210626e+01 3.086282e+01 4.189891e+01 3.278685e+01 1.324969e+01 4.348994e+01 3.662211e+01 1.770350e+01 1.428784e+01 3.643974e+01
<GCONST> 6.110909e+01
<STATE> 3
<MEAN> 12
 3.450610e+00 -8.092985e+00 1.656234e+01 -1.134536e+01 -6.158365e+00 1.110795e+01 -1.592490e+01 3.722585e+00 -1.637100e+01 9.193535e-01 7.153121e+00 -1.757279e+01
<VARIANCE> 12
 8.350760e+00 7.686102e+01 8.316582e+01 5.072943e+01 3.390059e+01 6.172794e+01 4.000565e+01 6.410682e+01 7.172729e+01 4.662046e+01 2.220931e+01 8.974157e+01
<GCONST> 6.807433e+01
<STATE> 4
<MEAN> 12
 -7.838963e+00 -3.894238e+00 1.264253e+01 2.743490e+00 -3.294603e+00 4.987211e-01 -1.521214e+00 5.400380e+00 -1.409106e+01 2.823544e+00 -3.088670e+00 -1.321000e-01
<VARIANCE> 12
 6.398912e+01 3.771689e+01 1.509256e+02 2.529100e+02 1.913527e+01 1.254930e+01 3.355374e+01 5.878855e+01 3.520805e+01 5.426833e+01 4.658219e+01 6.513428e+01
<GCONST> 6.903435e+01
<TRANSP> 5
 0.000000e+00 1.000000e+00 0.000000e+00 0.000000e+00 0.000000e+00
 0.000000e+00 7.980042e-01 2.019957e-01 0.000000e+00 0.000000e+00
 0.000000e+00 0.000000e+00 8.013117e-01 1.986884e-01 0.000000e+00
 0.000000e+00 0.000000e+00 0.000000e+00 5.475050e-01 4.524950e-01
 0.000000e+00 0.000000e+00 0.000000e+00 0.000000e+00 0.000000e+00
<ENDHMM>
